tree
version=v4
num_class=1
num_tree_per_iteration=1
label_index=0
max_feature_idx=28
objective=binary sigmoid:1
feature_names=open high low close volume SMA_10 SMA_30 SMA_100 SMA_200 EMA_20 EMA_200 RSI_14 MACD Signal_Line Upper_Band Lower_Band ATR_14 ADX_14 CCI_14 OBV %K %D hour day_of_week lag_1 lag_2 lag_3 lag_4 lag_5
feature_infos=[3172.6199999999999:68635.119999999995] [3184.75:69000] [3156.2600000000002:68451.190000000002] [3172.0500000000002:68633.690000000002] [0:137207.18859999999] [3186.5520000000001:68002.839999999997] [3215.0173333333337:67416.46666666666] [3265.7339999999995:66221.838900000002] [3351.5639999999999:65244.838449999996] [3208.3114595570059:67442.079903017002] [3365.3247030763559:64523.805919081831] [4.3656573947936579:96.410499775062092] [-2360.9460327477354:1887.2236274780516] [-2077.4839220854774:1744.7269192312694] [3246.6047462557626:69399.509600075777] [3118.9806157866396:66500.881177849122] [8.0542857142857951:3189.2171428571428] [2.0842714546167458:90.52722382389662] [-228.10182075865902:228.37258825548133] [-764594.49386500032:1034635.2449149988] [0:100.00000000000001] [2.3334631348719994:99.026387588760031] [0:23] [0:6] [3172.0500000000002:68633.690000000002] [3172.0500000000002:68633.690000000002] [3172.0500000000002:68633.690000000002] [3172.0500000000002:68633.690000000002] [3172.0500000000002:68633.690000000002]
tree_sizes=3425 3471 3458 3453 3456 3436

Tree=0
num_leaves=31
num_cat=0
split_feature=20 20 20 21 20 21 22 22 11 7 21 20 21 20 21 16 20 21 21 12 16 18 16 18 21 7 16 22 23 19
split_gain=265.147 111.463 42.8098 63.8614 40.8259 36.9942 23.1082 21.3455 21.2016 18.1859 18.0209 34.4859 18.1176 17.0085 16.5936 14.7723 14.7275 17.9266 14.2145 14.1648 14.1624 13.7264 13.3733 12.7645 15.8271 12.6196 12.5517 12.4867 12.4089 12.2047
threshold=71.795236639118613 12.435826812728331 44.007355401609139 65.814226947434889 85.450535879258396 80.697821784143983 13.500000000000002 18.500000000000004 64.527744149805628 18787.568300000003 24.033995214060948 21.481069507025992 15.390656409940119 33.888692880862443 51.560404692376373 287.0967857142852 55.087342039110958 53.246077075536512 86.19881378202895 -74.329776542028398 38.993214285714338 68.366498406737577 41.35892857142855 -30.814324612139455 37.012513155617206 3613.8456000000006 268.38357142857143 21.500000000000004 3.5000000000000004 -56384.205918000276
decision_type=2 2 2 2 2 2 2 2 2 2 2 2 2 2 2 2 2 2 2 2 2 2 2 2 2 2 2 2 2 2
left_child=1 -1 7 6 5 -2 16 10 29 18 11 12 -3 20 -8 -16 17 26 -7 23 -12 -10 -22 -9 -25 -19 -4 -21 -15 -6
right_child=4 2 3 -5 8 9 14 19 21 -11 13 -13 -14 28 15 -17 -18 25 -20 27 22 -23 -24 24 -26 -27 -28 -29 -30 -31
leaf_value=0.081807626974604974 0.011696320320030328 0.026018452648028274 0.009735298064319952 0.053460487031948188 -0.028347846108171773 0.04138291241975476 0.024045768243880852 0.051602082647740188 0.052787292929739847 0.022591962547783513 0.084940011438176921 0.013466556247991267 0.062284865547982224 0.030613260008782034 0.055207652675993389 0.02007485500890057 0.0094376925752849943 0.18554773562243895 0.082617124144495888 0.082622474385495859 -0.039335693914113054 0.0066982567296379053 0.054176390688783424 -0.058900317132071708 0.086216323138001677 0.044649469149991447 0.04287859071672484 0.052442548676773379 0.051670043986436848 -0.0015628632742795759
leaf_weight=723.77611827850342 1443.0536280870438 212.93413424491882 465.3560539484024 1183.1340276002884 299.1574632525444 282.66256552934647 578.3211110830307 258.17014163732529 70.978044748306274 358.63906413316727 156.7015283703804 475.60288435220718 390.12932342290878 624.55680924654007 520.08912366628647 155.45191490650177 868.73128008842468 6.4979900121688834 118.71327906847 354.14045566320419 15.49520695209503 721.27689135074615 1174.386733353138 23.742655813694 10.996598482131956 292.40955054759979 151.45315182209015 223.68081003427505 507.0931436419487 394.37800920009613
leaf_count=2896 5774 852 1862 4734 1197 1131 2314 1033 284 1435 627 1903 1561 2499 2081 622 3476 26 475 1417 62 2886 4699 95 44 1170 606 895 2029 1578
internal_value=0.0351719 0.0441102 0.0409556 0.0337504 0.0124611 0.0211005 0.0260752 0.0478252 -0.000349169 0.0389565 0.0443898 0.0336008 0.0494797 0.0490858 0.0364791 0.0471231 0.0187649 0.0276134 0.0535786 0.0618585 0.0566803 0.0108274 0.0529586 0.0439445 -0.0129641 0.0477125 0.0178734 0.0709395 0.0400488 -0.0131166
internal_weight=0 9372.85 8649.07 4221.44 3688.86 2203.07 3038.31 4427.63 1485.79 760.015 3556.9 1078.67 603.063 2478.23 1253.86 675.541 1784.45 915.717 401.376 870.731 1346.58 792.255 1189.88 292.909 34.7393 298.908 616.809 577.821 1131.65 693.535
internal_count=52263 37503 34607 16891 14760 8815 12157 17716 5945 3041 14232 4316 2413 9916 5017 2703 7140 3664 1606 3484 5388 3170 4761 1172 139 1196 2468 2312 4528 2775
is_linear=0
shrinkage=1


Tree=1
num_leaves=31
num_cat=0
split_feature=20 20 20 21 20 21 15 4 22 21 18 11 20 21 21 20 4 19 21 20 22 21 13 4 19 17 20 10 18 20
split_gain=215.121 90.0473 34.0722 53.7212 33.7778 32.1805 21.9906 19.1682 18.9622 18.6072 19.8832 17.6642 15.7092 15.1061 14.8507 14.8496 14.5041 13.1797 13.1498 16.459 23.7051 15.2066 12.8545 12.8509 12.7137 12.4517 12.4067 12.1183 14.5504 15.8632
threshold=71.462409346990071 12.435826812728331 44.007355401609139 65.814226947434889 85.450535879258396 75.112865762971566 16665.377935017605 3921.8271760000002 15.500000000000002 38.267890512606641 -50.338814946707679 66.620846674768543 55.087342039110958 53.246077075536512 51.560404692376373 91.522008457616877 1777.8363290000002 51388.142176999354 25.067592062659241 21.481069507025992 19.500000000000004 15.8068483451814 -259.20123992391865 6072.5630535000009 -56384.205918000276 56.673351687475616 79.672832712906668 6477.3978730381286 -99.873711150708473 24.944576624941995
decision_type=2 2 2 2 2 2 2 2 2 2 2 2 2 2 2 2 2 2 2 2 2 2 2 2 2 2 2 2 2 2
left_child=1 -1 9 8 5 16 7 26 12 10 18 24 13 -4 -10 -13 -2 -16 19 21 -21 -3 -11 -9 -6 -12 -7 -20 -29 -30
right_child=4 2 3 -5 11 6 -8 23 14 22 25 15 -14 -15 17 -17 -18 -19 27 20 -22 -23 -24 -25 -26 -27 -28 28 29 -31
leaf_value=0.042032160447502846 -0.038355760690919283 -0.0031703108898093503 -0.013621604647749308 0.017208858228520842 -0.056561927466981778 0.018385670525336229 -0.015920240804306519 0.091742571332231557 -0.010371040697482016 -0.026102876882938136 -0.0022714422676274109 -0.0056072975223630944 -0.022890226113616231 0.012230509963290987 0.027514977475926822 -0.035192415264764125 -0.013445475626834036 -0.0035603396472029705 0.050298673036795999 -0.01633365626566731 0.041062930929498885 0.026942833458888663 0.023904469048157472 0.013884699725909212 -0.031173139676903446 -0.048796270743810162 -0.010382231964894422 -0.00057607127857952484 0.050913059923132997 0.015324055409302859
leaf_weight=722.7900116443634 498.97392117977142 271.89653988182545 693.65595854818821 1148.1794039011002 342.9370022714138 292.9095347225666 630.92276774346828 44.220916196703911 458.18376396596432 53.718118458986282 802.70125736296177 346.96442595124245 979.67823524773121 335.2761295735836 312.76790699362755 331.98720219731331 439.72710470855236 242.14547125995159 120.36985681951046 471.40592251718044 84.918585151433945 437.57296319305897 1192.6350141912699 40.722001478075981 464.24350249767303 61.966146916151047 307.07617960870266 322.73349943757057 176.854187682271 429.18678571283817
leaf_count=2896 1996 1088 2775 4596 1372 1172 2524 177 1833 215 3213 1388 3919 1342 1252 1328 1759 969 482 1886 340 1752 4774 163 1857 248 1229 1292 708 1718
internal_value=0 0.00813234 0.00528184 -0.00120446 -0.0202567 -0.0125416 -0.0024508 0.00995659 -0.0082011 0.0113929 0.00733338 -0.0319609 -0.0138271 -0.00519773 0.00295316 -0.0200735 -0.0266867 0.0139548 0.0121663 0.00530472 -0.00757252 0.0154023 0.0217491 0.0544172 -0.0419598 -0.00560563 0.00366209 0.0204448 0.0165758 0.0257096
internal_weight=0 9318.64 8595.85 4169.89 3740.68 2254.55 1315.85 684.929 3021.71 4425.96 3179.61 1486.13 2008.61 1028.93 1013.1 678.952 938.701 554.913 2314.94 1265.79 556.325 709.47 1246.35 84.9429 807.181 864.667 599.986 1049.14 928.774 606.041
internal_count=52263 37298 34402 16686 14965 9020 5265 2741 12090 17716 12727 5945 8036 4117 4054 2716 3755 2221 9266 5066 2226 2840 4989 340 3229 3461 2401 4200 3718 2426
is_linear=0
shrinkage=0.1


Tree=2
num_leaves=31
num_cat=0
split_feature=20 20 20 21 22 21 20 21 21 20 11 16 21 7 20 20 13 20 20 13 18 16 16 16 23 4 4 22 16 16
split_gain=176.176 71.4651 32.0304 28.677 26.1385 21.8651 26.1909 19.8083 15.9343 17.7702 14.3446 12.9454 12.8986 17.0325 12.0321 12.0154 11.887 11.7057 11.4793 12.1578 11.3501 11.55 10.855 10.6966 10.6092 11.327 11.0735 12.2468 10.4834 10.6771
threshold=68.835689947288287 14.379003402616204 85.450535879258396 86.532118488518975 17.500000000000004 72.49642988258384 42.957633378919631 56.118569980083656 24.033995214060948 21.481069507025992 66.620846674768543 241.34107142857155 75.112865762971566 11378.478300000002 91.522008457616877 79.063590309769907 -26.148358370683656 63.188302815515307 34.557248872659649 -1.6499479319397963 -70.164263420031588 204.84750000000039 390.54785714285771 35.497142857142805 4.5000000000000009 2702.0953545000007 1178.8885205000004 16.500000000000004 38.993214285714338 41.35892857142855
decision_type=2 2 2 2 2 2 2 2 2 2 2 2 2 2 2 2 2 2 2 2 2 2 2 2 2 2 2 2 2 2
left_child=1 -1 3 12 5 6 8 -8 9 -3 -4 23 -2 15 -12 -14 -5 -9 28 -20 -6 -22 -18 -7 25 26 27 -15 -10 -30
right_child=2 4 10 16 20 11 7 17 18 -11 14 -13 13 24 -16 -17 22 -19 19 -21 21 -23 -24 -25 -26 -27 -28 -29 29 -31
leaf_value=0.034214684749639714 -0.020663292410052103 0.0094702785426045953 -0.037793931637058992 -0.024392507563882754 0.028597194635059997 -0.014898756974081046 -0.014744543178991208 0.0093644669325154365 0.041425459105655239 -0.018795701573564777 -0.0050464248595663806 -0.0023442147229291838 0.020842565875790774 -0.018495634112123922 -0.03167832863541431 -0.0085461476985324216 0.050090398477212431 -0.011865243852875041 -0.0090746633273776182 0.014339277957503258 0.016967103549911985 -0.0015685246678233849 -0.0080303413099074971 0.055100724049703856 -0.038842313361933868 0.0074076494239101905 -0.035782927433576091 0.069860477831109866 -0.068640578368214286 0.014932311648297517
leaf_weight=926.99486766755581 1244.8941762298346 443.42307731509209 806.57040603458881 40.223578676581383 462.49459229409695 25.468395784497261 1465.4525325149298 814.90701414644718 156.05102065205574 446.24376645684242 346.97418195009232 84.894396439194679 288.53051368892193 48.243686884641647 331.93428336083889 268.64502386748791 131.77776242792606 381.22567023336887 453.6792793571949 433.85213170945644 990.80844619870186 508.81437459588051 42.497011691331863 152.80929623544216 167.4670702368021 215.68906404078007 194.71955415606499 23.246278882026672 15.494802743196486 1139.8223752826452
leaf_count=3720 4981 1776 3229 161 1853 102 5863 3262 626 1785 1388 340 1155 193 1328 1075 528 1526 1816 1737 3968 2037 170 612 670 863 779 93 62 4565
internal_value=0 0.00793433 -0.0170111 -0.0104543 0.00487974 0.00160959 0.00031956 -0.00695059 0.00658464 -0.00470752 -0.0287783 0.0297959 -0.0135222 -0.00615409 -0.0180674 0.00667265 0.024608 0.00259824 0.0111534 0.00237078 0.0149018 0.0106781 0.0359176 0.0451007 -0.0171598 -0.00962482 -0.0234249 0.010235 0.0170975 0.0138115
internal_weight=0 8902.44 4151.41 2665.93 7975.44 6013.32 5750.15 2661.59 3088.57 889.667 1485.48 263.172 2451.44 1206.54 678.908 557.176 214.498 1196.13 2198.9 887.531 1962.12 1499.62 174.275 178.278 649.366 481.899 266.21 71.49 1311.37 1155.32
internal_count=52263 35650 16613 10668 31930 24072 23018 10651 12367 3561 5945 1054 9809 4828 2716 2230 859 4788 8806 3553 7858 6005 698 714 2598 1928 1065 286 5253 4627
is_linear=0
shrinkage=0.1


Tree=3
num_leaves=31
num_cat=0
split_feature=20 20 20 21 20 20 21 15 16 20 21 19 23 22 19 18 19 20 21 20 21 18 18 4 21 20 18 10 4 17
split_gain=144.417 62.632 24.5625 30.3133 27.4092 19.9797 23.5008 21.0603 19.272 17.588 15.2647 28.3772 22.3631 14.7035 16.0264 15.1615 14.4312 12.9706 12.4662 13.1751 13.8373 11.6059 12.329 11.4612 11.5438 19.3128 11.6123 11.3891 10.8358 10.5132
threshold=72.447444981420844 11.404537727016809 33.888692880862443 58.388240308871183 52.252481528704415 89.348287079419961 86.532118488518975 6632.6499689328284 38.993214285714338 81.857935826806155 39.561189584739985 268564.40468249907 3.5000000000000004 7.5000000000000009 337811.99816150055 20.51192732447862 883228.29731999862 63.53513096379185 25.701271694077075 18.90241599512964 15.8068483451814 183.75517848657526 67.378113225496961 2074.0762830000008 75.112865762971566 83.153171942472611 43.397596607711058 10743.64331454503 3377.0630295000005 55.856521815522534
decision_type=2 2 2 2 2 2 2 2 2 2 2 2 2 2 2 2 2 2 2 2 2 2 2 2 2 2 2 2 2 2
left_child=1 -1 8 4 10 6 23 -7 -3 -8 11 -4 -13 15 17 -5 -16 -15 19 20 -10 22 -9 24 -2 26 -26 -28 -22 -19
right_child=5 2 3 13 -6 7 9 21 18 -11 -12 12 -14 14 16 -17 -18 29 -20 -21 28 -23 -24 -25 25 -27 27 -29 -30 -31
leaf_value=0.037277248277916335 -0.034075736730684446 0.036750307720222898 -0.021257480333197132 0.016969336834098597 -0.017760166525252429 -0.07404190553943428 0.0473809705111468 0.022369820824278321 -0.0031330130780314438 -0.0019047044106057735 0.0078830923670253662 -0.0076172004444894047 0.039772818535731752 0.035444669100484279 -0.0042657044826838681 -0.011801953302052174 0.050994478618703466 0.0085727701365750069 0.016060299885829504 -0.0055352716689122013 0.039710365336333042 0.027603547578881518 -0.030479039103807622 -0.0084356540162929591 0.028871590636705247 -0.038849117381028309 0.0031184600585561339 -0.029689902853782191 0.00059544283102160077 0.079794345075841155
leaf_weight=617.13776063919067 538.89669707417488 277.34183879196644 642.23155477643013 288.47129541635513 1167.313791051507 96.295985385775566 92.974609017372131 46.952702403068542 263.56215205788612 327.29558943212032 1363.5665252655745 234.87504023313522 172.8629789352417 459.2184396982193 458.05771140754223 501.6982783228159 52.695044666528702 450.91683457791805 1329.3585911095142 830.80268840491772 228.3086279630661 40.464314699172974 737.50771950185299 950.70373138785362 88.206583872437477 232.73936827480793 246.85929103195667 185.18090713024139 102.67287190258503 21.724354073405266
leaf_count=2484 2157 1114 2571 1155 4671 386 373 188 1056 1311 5459 940 692 1840 1834 2009 211 1806 5329 3327 916 162 2954 3805 353 932 988 741 412 87
internal_value=0 0.00647641 0.00432752 0.000521991 -0.00517995 -0.0170939 -0.0127023 -0.0297878 0.0116242 0.00899856 0.000904504 -0.0081584 0.0124741 0.00966655 0.0156724 -0.00129827 0.00143556 0.0234756 0.00909455 0.00259789 0.013963 -0.0246219 -0.0273158 -0.0167692 -0.0229019 -0.014905 -0.00419324 -0.0109438 0.0275766 0.0118464
internal_weight=0 9462.82 8845.68 5813.63 3580.85 3584.08 2662.86 921.221 3032.05 420.27 2413.54 1049.97 407.738 2232.78 1442.61 790.17 510.753 931.86 2754.7 1425.35 594.544 824.925 784.46 2242.59 1291.88 752.986 520.247 432.04 330.981 472.641
internal_count=52263 37913 35429 23275 14333 14350 10660 3690 12154 1684 9662 4203 1632 8942 5778 3164 2045 3733 11040 5711 2384 3304 3142 8976 5171 3014 2082 1729 1328 1893
is_linear=0
shrinkage=0.1


Tree=4
num_leaves=31
num_cat=0
split_feature=20 20 20 21 20 21 22 17 19 4 17 22 20 21 21 16 4 18 21 21 17 23 23 17 19 18 19 20 13 11
split_gain=117.337 51.1333 21.5401 35.5159 16.29 22.4862 15.3093 15.7189 14.4737 11.9189 11.4322 11.0364 11.3106 11.3812 10.8958 13.5919 12.7165 11.5324 10.6478 11.5399 10.5151 10.4675 10.2979 10.1249 9.81415 12.4811 9.74787 9.23786 10.1463 8.99902
threshold=72.736965498028141 11.404537727016809 44.375799886804252 67.355444305629675 85.450535879258396 80.697821784143983 18.500000000000004 33.02967955013834 -240319.52551750068 1607.4385780000002 24.874822157573487 15.500000000000002 62.856489337225973 52.929261976837374 51.560404692376373 287.0967857142852 1904.8949660000003 40.65583133363797 54.523374657301424 52.929261976837374 16.191755866141204 4.5000000000000009 2.5000000000000004 44.189613085828462 -23912.238917500508 183.75517848657526 841486.43038499833 83.153171942472611 488.30273779660752 33.665733520388848
decision_type=2 2 2 2 2 2 2 2 2 2 2 2 2 2 2 2 2 2 2 2 2 2 2 2 2 2 2 2 2 2
left_child=1 -1 6 11 5 -2 29 -8 -7 10 -6 12 13 -4 -13 17 18 -16 19 -17 -15 27 -14 -5 -11 -26 -9 -10 -29 -3
right_child=4 2 3 23 9 8 7 26 21 24 -12 14 22 20 15 16 -18 -19 -20 -21 -22 -23 -24 -25 25 -27 -28 28 -30 -31
leaf_value=0.033665825207086983 -0.017697725401718819 -0.0053551824154020322 -0.014503893972960327 0.010468179070100239 -0.052047624439466769 0.036968489075714088 0.029061790931475526 -0.0042104548566048467 0.014865284024590803 -0.029509220444100356 -0.017644042865330747 -0.010194749299455748 -0.0061616190638275926 -0.01319135801989396 0.030669721343001378 -0.059206305852227581 0.015311494958980869 -0.0012499086772891081 -0.062939040323262307 0.10220745856720946 0.01108913632675637 -0.024199059222201509 -0.035946537712204026 0.038628345053095162 -0.013531225682882618 0.047494893698931201 0.076911207060366416 -0.0078714558115581777 -0.10780467666028959 0.0079724218879386726
leaf_weight=615.113993704319 1304.3858854323626 607.02041207253933 882.29288102686405 964.20262877643108 240.80612851679325 113.48018608987331 626.63533534109592 260.03917197883129 328.51107004284859 443.17832063138485 161.27527779340744 447.92830395698547 192.40679901838303 282.25167144834995 295.04026266932487 8.4994094073772448 68.734726771712303 183.64091700315475 61.980045720934868 9.248939245939253 484.56597009301186 157.02567683160305 292.61701628565788 147.1673376262188 601.79210519790649 35.489986896514893 15.7075178027153 133.37009559571743 10.997611075639723 3063.4004133343697
leaf_count=2484 5222 2433 3530 3864 967 455 2515 1043 1316 1778 647 1792 770 1130 1183 34 275 736 248 37 1940 629 1171 590 2411 142 63 534 44 12280
internal_value=0 0.00578205 0.00385346 -0.00120958 -0.0155668 -0.00978691 0.00863723 0.0203066 0.00409387 -0.0235502 -0.0382483 -0.00654503 -0.0107072 -0.00675913 0.00171738 0.0102254 -0.016209 0.0184241 -0.0433832 0.0249089 0.00215193 -0.00182865 -0.024131 0.0141971 -0.0180805 -0.0101327 0.000410525 0.00559974 -0.0154841 0.00576828
internal_weight=0 9508.49 8893.38 4320.58 3530.31 2047.77 4572.8 902.382 743.385 1482.54 402.081 3209.21 2134.13 1649.11 1075.07 627.144 148.463 478.681 79.7284 17.7483 766.818 629.904 485.024 1111.37 1080.46 637.282 275.747 472.879 144.368 3670.42
internal_count=52263 38118 35634 17300 14145 8200 18334 3621 2978 5945 1614 12846 8541 6600 4305 2513 594 1919 319 71 3070 2523 1941 4454 4331 2553 1106 1894 578 14713
is_linear=0
shrinkage=0.1


Tree=5
num_leaves=31
num_cat=0
split_feature=20 20 18 21 22 11 20 12 15 20 21 20 4 17 23 17 7 4 21 18 4 11 20 14 4 4 4 16 11 16
split_gain=96.9528 46.7242 20.0576 21.9847 21.9462 21.8337 18.435 16.1812 14.7222 16.3834 14.1063 18.4638 13.7077 13.2447 12.8339 13.668 12.7355 11.645 12.2803 11.3528 11.2428 10.7457 17.3203 10.2888 12.4124 9.90907 9.72841 9.715 13.0742 9.62376
threshold=79.355354333831855 14.379003402616204 -45.062011626783082 58.388240308871183 7.5000000000000009 52.083035301827827 52.252481528704415 -28.237449445012086 19245.585989709311 53.264873919020665 64.918393678765142 66.570136500236018 1582.3553315000001 29.825379999133954 2.5000000000000004 50.869234558881097 30441.576350000003 940.12126000000001 18.221091450372377 57.34258588862172 766.7594375000001 47.515657613222935 19.250199404935895 19309.145721191457 2091.8480405000005 3740.0056965000003 2293.9455705000005 489.54499999999985 53.398800623111335 72.223571428571475
decision_type=2 2 2 2 2 2 2 2 2 2 2 2 2 2 2 2 2 2 2 2 2 2 2 2 2 2 2 2 2 2
left_child=1 -1 17 6 5 -5 7 16 9 19 11 23 27 -7 20 -16 -4 18 -3 -6 -2 22 -9 24 -11 -15 -12 -10 -29 -8
right_child=14 2 3 4 8 13 29 21 12 10 26 -13 -14 25 15 -17 -18 -19 -20 -21 -22 -23 -24 -25 -26 -27 -28 28 -30 -31
leaf_value=0.025684842938114173 -0.05635853742920887 -0.029338210556407469 -0.021695434408023538 0.013754551209009581 0.067166939388441996 -0.025720393909018022 -0.0040453405557755546 -0.14355780555520836 -0.02083108762466104 0.025901077583802379 0.013762702152956555 -0.038842892222063753 0.01079957039128009 -0.0082988726456600468 -0.027360860949695604 0.015473811658601075 0.0056941358770927243 0.005865296939378704 0.026444395741929218 -0.026525942139769321 -0.0081401972331897037 0.0012010286373155756 0.028694171070419786 0.15324900241216285 -0.041773533599167502 0.038547946121836194 0.037757278804451372 0.082290549165666735 -0.025888030969300285 -0.023295808292136233
leaf_weight=920.35668413341045 50.567851990461349 42.884002044796944 516.98197320103645 359.46240194141865 96.532791420817375 498.78883534669876 387.85668696463108 5.9837862700223914 302.72593124210835 121.09287360310555 569.58443188667297 102.84116435050964 569.40024390816689 205.16050708293915 1217.4877361953259 79.347631305456161 252.76726712286472 2663.6659896373749 494.97326400876045 14.9334170371294 1105.4840543121099 1043.5409503281116 238.75677874684334 5.2373119145631781 34.917064920067787 57.892491891980171 240.24244666099548 22.726500660181046 21.974298238754272 785.91038586199284
leaf_count=3720 203 172 2070 1440 388 1998 1553 24 1213 486 2284 412 2281 822 4885 318 1012 10681 1987 60 4434 4181 957 21 140 232 964 91 88 3146
internal_value=0 0.00415579 0.00210394 -0.00110559 0.00473772 -0.00656001 -0.00693393 -0.00123012 0.0107639 0.0181236 0.0143361 -0.00573372 0.0012483 -0.0161451 -0.0179105 -0.02474 -0.0127014 0.00857539 0.0219968 0.0546147 -0.0102494 0.00562395 0.0244827 0.0153828 0.0107546 0.00201114 0.0208809 -0.0144054 0.0291114 -0.0169347
internal_weight=0 10577.2 9656.83 6455.31 3223.51 1121.3 3231.8 2058.03 2102.21 1185.38 1073.92 264.088 916.827 761.842 2452.89 1296.84 769.749 3201.52 537.857 111.466 1156.05 1288.28 244.741 161.247 156.01 263.053 809.827 347.427 44.7008 1173.77
internal_count=52263 42423 38703 25863 12920 4492 12943 8244 8428 4755 4307 1059 3673 3052 9840 5203 3082 12840 2159 448 4637 5162 981 647 626 1054 3248 1392 179 4699
is_linear=0
shrinkage=0.1


end of trees

feature_importances:
%K=46
%D=35
volume=15
ATR_14=14
CCI_14=13
hour=11
OBV=9
ADX_14=8
RSI_14=7
day_of_week=6
SMA_100=4
Signal_Line=4
Lower_Band=3
EMA_200=2
MACD=2
Upper_Band=1

parameters:
[boosting: gbdt]
[objective: binary]
[metric: binary_logloss]
[tree_learner: serial]
[device_type: cpu]
[data_sample_strategy: bagging]
[data: ]
[valid: ]
[num_iterations: 10000]
[learning_rate: 0.1]
[num_leaves: 31]
[num_threads: 0]
[seed: 0]
[deterministic: 0]
[force_col_wise: 0]
[force_row_wise: 0]
[histogram_pool_size: -1]
[max_depth: -1]
[min_data_in_leaf: 20]
[min_sum_hessian_in_leaf: 0.001]
[bagging_fraction: 1]
[pos_bagging_fraction: 1]
[neg_bagging_fraction: 1]
[bagging_freq: 0]
[bagging_seed: 3]
[feature_fraction: 1]
[feature_fraction_bynode: 1]
[feature_fraction_seed: 2]
[extra_trees: 0]
[extra_seed: 6]
[early_stopping_round: 0]
[early_stopping_min_delta: 0]
[first_metric_only: 0]
[max_delta_step: 0]
[lambda_l1: 0]
[lambda_l2: 0]
[linear_lambda: 0]
[min_gain_to_split: 0]
[drop_rate: 0.1]
[max_drop: 50]
[skip_drop: 0.5]
[xgboost_dart_mode: 0]
[uniform_drop: 0]
[drop_seed: 4]
[top_rate: 0.2]
[other_rate: 0.1]
[min_data_per_group: 100]
[max_cat_threshold: 32]
[cat_l2: 10]
[cat_smooth: 10]
[max_cat_to_onehot: 4]
[top_k: 20]
[monotone_constraints: ]
[monotone_constraints_method: basic]
[monotone_penalty: 0]
[feature_contri: ]
[forcedsplits_filename: ]
[refit_decay_rate: 0.9]
[cegb_tradeoff: 1]
[cegb_penalty_split: 0]
[cegb_penalty_feature_lazy: ]
[cegb_penalty_feature_coupled: ]
[path_smooth: 0]
[interaction_constraints: ]
[verbosity: -1]
[saved_feature_importance_type: 0]
[use_quantized_grad: 0]
[num_grad_quant_bins: 4]
[quant_train_renew_leaf: 0]
[stochastic_rounding: 1]
[linear_tree: 0]
[max_bin: 255]
[max_bin_by_feature: ]
[min_data_in_bin: 3]
[bin_construct_sample_cnt: 200000]
[data_random_seed: 1]
[is_enable_sparse: 1]
[enable_bundle: 1]
[use_missing: 1]
[zero_as_missing: 0]
[feature_pre_filter: 1]
[pre_partition: 0]
[two_round: 0]
[header: 0]
[label_column: ]
[weight_column: ]
[group_column: ]
[ignore_column: ]
[categorical_feature: ]
[forcedbins_filename: ]
[precise_float_parser: 0]
[parser_config_file: ]
[objective_seed: 5]
[num_class: 1]
[is_unbalance: 0]
[scale_pos_weight: 1]
[sigmoid: 1]
[boost_from_average: 1]
[reg_sqrt: 0]
[alpha: 0.9]
[fair_c: 1]
[poisson_max_delta_step: 0.7]
[tweedie_variance_power: 1.5]
[lambdarank_truncation_level: 30]
[lambdarank_norm: 1]
[label_gain: ]
[lambdarank_position_bias_regularization: 0]
[eval_at: ]
[multi_error_top_k: 1]
[auc_mu_weights: ]
[num_machines: 1]
[local_listen_port: 12400]
[time_out: 120]
[machine_list_filename: ]
[machines: ]
[gpu_platform_id: -1]
[gpu_device_id: -1]
[gpu_use_dp: 0]
[num_gpu: 1]

end of parameters

pandas_categorical:[]
