tree
version=v4
num_class=1
num_tree_per_iteration=1
label_index=0
max_feature_idx=22
objective=binary sigmoid:1
feature_names=open high low close volume SMA_5 SMA_10 SMA_20 EMA_5 EMA_10 EMA_20 RSI_14 MACD Signal_Line Upper_Band Lower_Band hour day_of_week lag_1 lag_2 lag_3 lag_4 lag_5
feature_infos=[3172.6199999999999:68635.119999999995] [3184.75:69000] [3156.2600000000002:68451.190000000002] [3172.0500000000002:68633.690000000002] [0:137207.18859999999] [3181.5440000000003:68374.630000000005] [3186.5520000000001:68002.839999999997] [3204.7524999999996:67621.225999999995] [3184.6635545760519:68224.919625239971] [3192.0892104277546:67810.325496088044] [3208.3114595570059:67442.079903017002] [4.3656573947936579:96.410499775062092] [-2360.9460327477354:1887.2236274780516] [-2077.4839220854774:1744.7269192312694] [3246.6047462557626:69399.509600075777] [3118.9806157866396:66500.881177849122] [0:23] [0:6] [3172.0500000000002:68633.690000000002] [3172.0500000000002:68633.690000000002] [3172.0500000000002:68633.690000000002] [3172.0500000000002:68633.690000000002] [3172.0500000000002:68633.690000000002]
tree_sizes=3407 3455 3456 3447 3428 3450 3448 3427 3454

Tree=0
num_leaves=31
num_cat=0
split_feature=11 13 11 12 16 16 11 22 17 12 11 12 12 13 15 16 13 14 13 11 4 1 12 17 12 16 5 8 21 11
split_gain=157.967 40.7245 46.1334 32.3599 29.4471 20.2487 20.2406 19.8759 19.5422 16.743 15.0787 14.1637 12.4359 12.36 11.4318 9.55835 9.19168 9.19123 9.5267 8.87137 14.7176 8.67197 8.64552 8.48582 8.76406 8.40523 8.67886 8.90047 8.11436 8.10186
threshold=51.102176667038044 -4.84329520125742 42.164657587019974 7.8076485003125535 7.5000000000000009 18.500000000000004 59.118879116561224 16517.605000000003 4.5000000000000009 -28.216643604130692 55.504830877892857 60.079806277510222 25.028481379910776 38.409713551252558 56221.551803119131 21.500000000000004 54.49289472700017 8405.5235786221037 15.631298427153901 56.384810080895782 4095.7504550000003 6357.8050000000012 -10.723609803907719 5.5000000000000009 22.386431425882623 16.500000000000004 11299.549000000001 11357.029891497028 16607.240000000002 44.453806978132043
decision_type=2 2 2 2 2 2 2 2 2 2 2 2 2 2 2 2 2 2 2 2 2 2 2 2 2 2 2 2 2 2
left_child=1 2 22 19 10 17 7 -6 -8 -4 13 14 21 -5 28 -7 -13 18 29 -2 -21 -12 25 24 -11 26 -1 -28 -9 -3
right_child=3 5 9 4 6 15 8 11 -10 23 12 16 -14 -15 -16 -17 -18 -19 -20 20 -22 -23 -24 -25 -26 -27 27 -29 -30 -31
leaf_value=0.03690596293203853 0.014232919129330335 0.075988795843885099 0.022265439906367968 0.014908140142154337 0.055213134190060964 0.089810876901129849 0.031511398228491541 -0.10863461734542626 0.0076757287333907055 0.03754677612882025 0.025625900859084769 0.081908815467282736 0.015127068060474782 0.049679464844044542 -0.11149263009913371 0.058291190050799219 0.037301963848748079 0.047671127545039507 0.090086375670439922 -0.016566793563059554 0.033350346350894108 -0.025858493315185728 0.10550463453420936 0.064173279040110054 -0.060511862060027934 0.057526140831304598 0.1436372888903602 0.049975369353521627 0.01981264155691121 0.045461871953642943
leaf_weight=773.01462198793888 951.96013422310352 135.70867757499218 1301.60367000103 193.94094622135162 613.31325003504753 241.4264871776104 1450.8082381635904 4.9984779953956595 450.86271518468857 635.30655321478844 43.236834660172462 51.484323352575302 1130.1558747589588 216.18417330086231 6.9978691935539237 159.95129585266113 449.61309568583965 1223.6274132728577 108.21704860031605 251.17351926863194 77.226485028862953 134.45905807614326 26.991781175136566 129.71050398051739 9.24718429148197 748.52207981050014 10.246879890561102 1028.6867714524269 306.1567772179842 241.92633497714996
leaf_count=3093 3809 543 5208 776 2454 966 5805 20 1804 2542 173 206 4522 865 28 640 1799 4896 433 1005 309 538 108 519 37 2995 41 4116 1225 968
internal_value=0.0348986 0.045513 0.0402965 0.0235439 0.0271425 0.0570374 0.0326227 0.0415995 0.0258603 0.0291921 0.0165068 0.031408 0.0112605 0.0332367 0.0149065 0.0772501 0.041885 0.0522916 0.0639282 0.0093439 -0.00482829 -0.0133313 0.0492054 0.0408363 0.03614 0.0486119 0.0449294 0.0508991 0.0177492 0.0564322
internal_weight=0 6774.19 4663.33 6332.57 5052.21 2110.86 3334.23 1432.56 1901.67 2075.87 1717.98 819.251 1307.85 410.125 318.153 401.378 501.097 1709.48 485.852 1280.36 328.4 177.696 2587.46 774.264 644.554 2560.47 1811.95 1038.93 311.155 377.635
internal_count=52443 27105 18659 25338 20215 8446 13341 5732 7609 8306 6874 3278 5233 1641 1273 1606 2005 6840 1944 5123 1314 711 10353 3098 2579 10245 7250 4157 1245 1511
is_linear=0
shrinkage=1


Tree=1
num_leaves=31
num_cat=0
split_feature=11 13 11 12 11 17 16 12 22 12 11 5 11 12 13 11 4 1 4 21 11 16 11 12 16 16 3 13 13 0
split_gain=127.969 33.0217 37.3814 26.5654 20.712 18.5019 16.8141 13.5595 12.77 11.3735 12.0893 9.61651 9.3806 8.98907 13.7239 8.62996 8.7067 8.38092 8.21622 8.08788 10.8171 8.05151 7.98077 16.1621 7.55958 8.04735 7.3946 8.99308 7.86811 7.18441
threshold=51.102176667038044 -4.84329520125742 42.164657587019974 17.485388904144205 59.118879116561224 2.5000000000000004 17.500000000000004 -28.216643604130692 11359.625000000002 105.00787546614085 60.467102403523818 57500.758000000009 56.259923262570396 1.0000000180025095e-35 24.066597461635283 61.0194416527277 6198.000997000001 4026.2500000000005 2723.2063860000003 22410.415000000005 51.761601902652068 1.0000000180025095e-35 48.126034593936616 -1.3048446650502681 8.5000000000000018 10.500000000000002 39257.850000000013 221.99757992618927 211.77428176005785 8645.0550000000021
decision_type=2 2 2 2 2 2 2 2 2 2 2 2 2 2 2 2 2 2 2 2 2 2 2 2 2 2 2 2 2 2
left_child=1 2 -1 12 11 24 22 -4 -7 -10 26 17 13 18 19 -12 -17 -5 -2 21 -21 -15 -3 -24 -6 -26 27 -11 -28 -9
right_child=3 6 7 4 5 8 -8 29 9 10 15 -13 -14 14 -16 16 -18 -19 -20 20 -22 -23 23 -25 25 -27 28 -29 -30 -31
leaf_value=0.012880826390621519 -0.030992006296060828 0.020209792013962578 -0.011367641661380122 0.081006000882426613 -0.013266977108486467 -0.0082300123571246494 0.036264528757671437 -0.0063210293332437925 -0.049624092228687681 -0.0562758199639148 0.039538208905582663 -0.030592939589985907 -0.030325641882215423 -0.055424452108982294 -0.082292451424909097 -0.026139359718423422 0.0046148457216488746 0.0032906408497495113 -0.0050056067058416431 0.04451518396682895 -0.044706650995643471 0.0039161412083401894 -0.036782367409062079 0.012225576120499168 0.028586989020566125 -0.0011241264108191665 -0.15099979080930215 0.054510469947669019 -0.054978105243800229 0.013300221194689472
leaf_weight=2586.5977413803339 444.72746720910072 1054.2159802466631 1301.8386586904526 13.991302385926245 471.96136689186096 565.18434520065784 485.56717844307423 313.86263194680214 184.73055984079838 29.496195822954178 26.496685817837715 84.703525245189667 618.12526741623878 23.998561233282089 23.237505227327347 395.45624159276485 119.98431864380836 1690.286612406373 167.4915137887001 16.248877376317978 82.990188091993332 484.13488385081291 77.956476509571075 491.90295578539371 103.97418785095215 739.8163366317749 13.748428344726561 9.7489064335823041 22.49801279604435 460.27147486805916
leaf_count=10353 1779 4220 5208 56 1888 2261 1945 1256 739 118 106 339 2473 96 93 1582 480 6764 670 65 332 1937 312 1969 416 2960 55 39 90 1842
internal_value=0 0.00955628 0.00485922 -0.0102182 -0.00604021 -0.0115972 0.0199374 -0.00513545 -0.0197431 -0.027855 -0.0213418 0.00229414 -0.0202583 -0.0152513 -0.00687165 -0.0161193 -0.0189804 0.00392865 -0.0238826 -0.00398612 -0.0300979 0.00111355 0.0150559 0.00552131 -0.00313193 0.00253696 -0.0588333 -0.0287553 -0.0913995 0.00534504
internal_weight=0 6772.21 4662.57 6333.03 4472.08 2683.1 2109.64 2075.97 1367.34 802.159 617.429 1788.98 1860.95 1242.83 630.61 541.937 515.441 1704.28 612.219 607.373 99.2391 508.133 1624.08 569.859 1315.75 843.791 75.4915 39.2451 36.2464 774.134
internal_count=52443 27105 18659 25338 17893 10734 8446 8306 5470 3209 2470 7159 7445 4972 2523 2168 2062 6820 2449 2430 397 2033 6501 2281 5264 3376 302 157 145 3098
is_linear=0
shrinkage=0.1


Tree=2
num_leaves=31
num_cat=0
split_feature=11 13 11 13 16 16 1 11 4 13 15 13 11 13 4 17 5 0 7 11 12 12 1 13 11 22 12 12 12 11
split_gain=104.844 26.2187 27.0534 23.1012 21.9598 19.4584 13.1576 12.7639 14.0729 15.9082 16.5077 11.5545 10.5857 13.4424 10.2313 10.9439 9.93129 9.85796 9.28602 8.4561 13.6759 9.18065 14.3579 10.481 11.3664 12.9028 9.63915 8.33498 10.5853 7.81598
threshold=50.198949443452285 -17.475473814455423 43.482108795256089 -5.4306416704498819 7.5000000000000009 17.500000000000004 57788.290000000008 59.118879116561224 1603.2844150000003 13.655577222758213 10652.317365265086 85.633457069654099 55.863742059035935 38.409713551252558 2606.1401580000006 4.5000000000000009 3460.8090000000002 9680.5800000000017 3407.8075000000003 48.69180375515041 1.7315379894671425 -3.1350987683820217 9782.340000000002 -14.284169125707203 42.012352818315826 42216.195000000014 -25.250510608440887 69.029851708366564 91.672025216756097 47.544535526513549
decision_type=2 2 2 2 2 2 2 2 2 2 2 2 2 2 2 2 2 2 2 2 2 2 2 2 2 2 2 2 2 2
left_child=1 2 -1 14 12 18 7 -6 9 -9 11 -11 13 17 -2 -16 -10 -5 -3 21 -21 23 -23 26 -25 -26 -20 -8 -29 -27
right_child=3 5 -4 4 6 -7 27 8 16 10 -12 -13 -14 -15 15 -17 -18 -19 19 20 -22 22 -24 24 25 29 -28 28 -30 -31
leaf_value=0.009719959368436136 -0.028381510062055422 0.11978319526439773 -0.0083509128060197113 -0.0023556913846359017 0.0058044272582128366 0.032831634270554029 -0.11811653856097337 -0.058342988951999478 0.14046483059267095 -0.0055307479336942356 -0.03298092078497819 0.047938706279888062 -0.019931433242560505 0.012364348053221716 -0.0012666544096580075 -0.04034327546651114 -0.00077892214563874654 -0.036147150577978703 0.0018057757430592911 -0.030415200965658053 0.011885255114461991 0.040544059860984076 0.011346376114750053 0.017138599989702959 -0.012756017639716283 0.059632591246754768 0.068016166668139241 0.11740352720306597 -0.031226940547438055 -0.065198697188891999
leaf_weight=2611.7000738382339 753.31105834245682 7.9928990006446829 1213.3121131509542 198.19759778678417 1744.9128919392824 600.27768613398075 10.463577806949614 88.231805145740509 4.9987393468618384 210.97022353112698 209.43724973499775 49.991182774305344 1271.8276281356812 277.81442666053772 352.18440651893616 89.981685250997543 1207.9568827748299 152.95935283601284 37.723242715001106 115.94622366130352 224.26096911728382 288.04018118977547 405.54711519181728 376.230708360672 379.16005937755108 39.458692640066147 52.713664650917053 4.9982072561979285 115.9694892168045 5.7461764067411414
leaf_count=10456 3014 32 4854 793 6984 2407 42 353 20 844 838 200 5088 1112 1409 360 4833 612 151 464 898 1154 1624 1507 1518 158 211 20 464 23
internal_value=0 0.00921358 0.00398779 -0.00868495 -0.00596835 0.0171046 -0.00142724 -0.000266171 -0.00624537 -0.0193786 -0.0120701 0.00471215 -0.0146835 -0.00407164 -0.0212939 -0.00921883 -0.000196839 -0.0170748 0.0122202 0.0117736 -0.00253119 0.0148447 0.0234719 0.00812919 0.00448401 -0.00673522 0.0403983 -0.0324922 -0.0250857 0.0437648
internal_weight=0 6358.11 3825.01 6744.21 5548.73 2533.1 3647.93 3516.5 1771.59 558.63 470.399 260.961 1900.8 628.971 1195.48 442.166 1212.96 351.157 1932.82 1924.83 340.207 1584.62 693.587 891.033 800.596 424.365 90.4369 131.431 120.968 45.2049
internal_count=52443 25457 15310 26986 22203 10147 14598 14072 7088 2235 1882 1044 7605 2517 4783 1769 4853 1405 7740 7708 1362 6346 2778 3568 3206 1699 362 526 484 181
is_linear=0
shrinkage=0.1


Tree=3
num_leaves=31
num_cat=0
split_feature=11 16 12 13 11 16 13 11 22 17 17 12 21 6 13 12 3 13 11 18 12 13 7 11 15 13 19 0 13 19
split_gain=85.1106 22.4857 19.9991 18.9858 23.6116 18.7885 13.1827 12.3312 15.6785 13.3428 9.71453 9.69814 9.67981 9.0917 13.8909 9.06177 8.20206 8.0896 7.94651 10.3246 7.35443 7.18497 7.13021 7.59166 6.84719 6.73417 6.80234 10.1614 6.52548 8.74451
threshold=51.102176667038044 17.500000000000004 7.8076485003125535 1.2311918688789765 41.357462229996038 7.5000000000000009 -24.285697285556861 58.956406954083342 16517.605000000003 4.5000000000000009 2.5000000000000004 60.079806277510222 8286.2250000000022 38932.638000000014 23.163181176786914 -1023.7620845279306 8429.6600000000017 96.932186099647041 58.49074974327398 6723.005000000001 74.614780925923711 -99.468259277492805 61381.891250000008 53.748103647723021 36876.654307484823 54.49289472700017 36357.560000000005 27903.710000000003 -61.742496582056589 27678.200000000004
decision_type=2 2 2 2 2 2 2 2 2 2 2 2 2 2 2 2 2 2 2 2 2 2 2 2 2 2 2 2 2 2
left_child=1 3 22 4 -1 10 15 8 -7 -9 -4 17 -5 14 -12 -3 -14 21 -16 -20 -21 -10 23 -2 -22 26 27 -13 29 -6
right_child=2 6 5 12 28 7 -8 9 11 -11 13 25 16 -15 18 -17 -18 -19 19 20 24 -23 -24 -25 -26 -27 -28 -29 -30 -31
leaf_value=0.0090137034036797663 -0.010689729242116397 0.10121687127597295 -0.005305703743054415 0.030972177957675665 -0.027384591518314641 0.018257402166100254 0.027871972075354273 -0.0016586912526804437 0.085842695623510434 -0.02116731159281229 -0.035870156418524847 0.017247541031240429 -0.071117253799889979 -0.040417188408032864 0.0076410464510932464 0.0088056606674043244 0.011310753295611417 -0.11953490234571099 0.037911214473315746 -0.046680265764924761 -0.015219371408278115 -0.016654395862848521 -0.12829437440341707 -0.026167484344573923 0.10320291708992087 0.0018036472171652331 0.0069543161653691267 0.15344570442194294 -0.0023310478484334643 -0.0049428157166640377
leaf_weight=1865.3067381680012 591.31825494766235 10.737838700413702 735.30060987174511 292.57791902124882 298.6922402381897 599.15406478941441 739.20758295059204 1473.5721545368433 6.9987912625074378 460.03477200865746 241.636868968606 11.477160751819612 12.2199539989233 185.89748968183994 219.63974753022194 899.60137647390366 995.98344825208187 7.4853225797414771 31.247913017868996 88.729266852140427 210.4588565826416 299.82469345629215 5.9954629093408576 682.85384982824326 4.9984994381666175 438.02386039495468 26.449799403548241 10.479612722992895 1237.6652746200562 414.68059709668159
leaf_count=7471 2366 43 2942 1174 1195 2399 2968 5896 28 1841 967 46 49 744 879 3602 3990 30 125 355 842 1200 24 2733 20 1753 106 42 4954 1659
internal_value=0 0.00779832 -0.00833245 0.0045254 0.000969255 -0.00550317 0.0179514 -0.00112503 0.00602305 -0.00630009 -0.0139987 -0.00313133 0.0149587 -0.0205038 -0.0158573 0.00989569 0.0103117 -0.0168222 -0.0071453 -0.0168273 -0.0224504 -0.0143164 -0.0194965 -0.0189846 -0.012472 0.00571507 0.041109 0.0822527 -0.00672171 -0.0143393
internal_weight=0 6766.67 6331.58 5117.13 3816.34 5051.41 1649.55 3333.5 1399.89 1933.61 1717.91 800.739 1300.78 982.609 796.711 910.339 1008.2 314.309 555.074 335.435 304.187 306.823 1280.17 1274.17 215.457 486.43 48.4066 21.9568 1951.04 713.373
internal_count=52443 27105 25338 20492 15279 20215 6613 13341 5604 7737 6874 3205 5213 3932 3188 3645 4039 1258 2221 1342 1217 1228 5123 5099 862 1947 194 88 7808 2854
is_linear=0
shrinkage=0.1


Tree=4
num_leaves=31
num_cat=0
split_feature=11 13 11 13 11 17 16 16 15 4 13 13 11 20 16 16 12 16 4 12 5 17 12 12 4 4 3 4 13 12
split_gain=71.322 22.9845 18.723 17.1158 15.0195 16.5199 12.491 13.6745 11.6013 9.08671 11.3935 8.78354 8.36537 8.19141 7.78143 17.4339 11.868 7.34163 8.39964 7.31578 7.16612 7.11891 7.03038 7.47034 10.2688 8.39393 6.98237 6.77707 7.16305 6.74775
threshold=48.69180375515041 -17.475473814455423 43.482108795256089 1.2311918688789765 56.771063478380704 2.5000000000000004 19.500000000000004 21.500000000000004 44543.50629258158 870.47282000000007 -5.4306416704498819 24.066597461635283 54.561666568580911 6609.3300000000008 11.500000000000002 18.500000000000004 41.024797627767391 22.500000000000004 2693.5438000000004 -13.420626196152623 57500.758000000009 4.5000000000000009 -13.420626196152623 -28.216643604130692 813.40603500000009 520.04463000000021 3459.9850000000001 700.54342900000017 -0.40874951833357248 10.404281440924025
decision_type=2 2 2 2 2 2 2 2 2 2 2 2 2 2 2 2 2 2 2 2 2 2 2 2 2 2 2 2 2 2
left_child=1 2 -1 12 20 26 -3 9 11 10 -8 14 29 -9 -7 -16 -17 -15 19 -19 -5 -4 23 -23 25 -25 -6 28 -14 -2
right_child=3 6 21 4 5 8 7 13 -10 -11 -12 -13 27 17 15 16 -18 18 -20 -21 -22 22 -24 24 -26 -27 -28 -29 -30 -31
leaf_value=0.0080490796789034497 -0.011286744468221291 0.013538672662715526 -0.013799916562870254 0.0040680076867437515 0.10988471604762472 -0.041660728061318736 -0.038397196910062693 0.054086536407218513 -0.038108688174938704 0.070558982109427029 0.060911140297866387 -0.0077059163381985527 -0.078633540871988081 -0.026756228289139084 0.013641474347436663 -0.030757580171722546 -0.13598805984131837 -0.06508964860499275 0.076857165825443066 0.026656023340495612 -0.025555660005744427 -0.0010409063982549855 -0.082692066561882369 0.017774395259635041 0.0079162311886477113 0.14295579106914744 -0.00068841456081620905 -0.020507333657749538 0.014470176635420023 0.021928240116155684
leaf_weight=2610.1293086856604 1131.3268609344959 1764.1053570210934 682.17448085546494 2064.6818763762712 5.7319782376289359 162.2637242525816 20.183998569846153 37.565142273902893 184.53690202534199 114.9033627063036 27.015732303261757 1253.2607122510672 38.947989612817764 53.461261004209518 111.63798326253891 67.440800398588181 12.742524951696394 12.687821462750433 20.135990232229233 27.593310311436653 85.022142186760902 239.49032844603062 8.9927854090929014 8.9951673597097415 40.9769396930933 13.242172926664351 1551.9404983222485 666.99440857768059 10.488902717828749 64.658942982554436
leaf_count=10456 4528 7076 2729 8270 23 650 81 151 739 463 109 5016 156 215 447 270 51 51 81 111 341 958 36 36 164 53 6210 2671 42 259
internal_value=0 0.00843062 0.00360144 -0.00646098 -0.00362711 -0.0078138 0.0168076 0.0351994 -0.0143616 0.0553846 0.018444 -0.0116352 -0.0146099 0.0135933 -0.0255426 -0.0119082 -0.0474805 0.000235826 0.0241203 -0.00224219 0.00289637 -0.00807907 0.00444146 0.00703004 0.0376072 0.092319 -0.000281524 -0.0231552 -0.05888 -0.00949103
internal_weight=0 5681.65 3604 7411.68 5499.26 3349.56 2077.65 313.547 1791.88 162.103 47.1997 1607.35 1912.42 151.444 354.085 191.821 80.1833 113.878 60.4171 40.2811 2149.7 993.872 311.697 302.705 63.2143 22.2373 1557.67 716.431 49.4369 1195.99
internal_count=52443 22770 14432 29673 22017 13406 8338 1262 7173 653 190 6434 7656 609 1418 768 321 458 243 162 8611 3976 1247 1211 253 89 6233 2869 198 4787
is_linear=0
shrinkage=0.1


Tree=5
num_leaves=31
num_cat=0
split_feature=11 13 16 11 13 11 12 3 19 11 11 13 14 11 1 12 22 12 16 16 11 17 11 13 22 13 7 13 12 11
split_gain=57.8075 19.3055 14.0786 13.26 11.8439 13.0547 10.7148 11.5544 12.5164 11.0146 10.4353 9.54836 9.20605 10.0406 8.95674 8.52904 10.9609 12.4225 8.5017 8.80015 9.97533 8.69683 9.62237 7.74573 11.8144 11.2028 9.64432 7.86341 7.6674 7.46128
threshold=48.69180375515041 -1.6499479319397963 8.5000000000000018 43.912948341155463 22.188449202018912 58.49074974327398 7.2986831825010094 19189.340000000004 19188.790000000005 57.313396323302776 51.320702564501552 85.633457069654099 4024.7502079510764 44.955248368998745 7403.8450000000003 -28.216643604130692 9418.6100000000024 -8.2966872957726974 18.500000000000004 13.500000000000002 57.733615568015303 2.5000000000000004 75.381116557495389 -89.232844826085042 28910.355000000003 -118.23371082848941 10208.340750000001 -238.18520999390259 342.84979240897616 47.192677055330272
decision_type=2 2 2 2 2 2 2 2 2 2 2 2 2 2 2 2 2 2 2 2 2 2 2 2 2 2 2 2 2 2
left_child=1 3 4 23 -2 -6 10 9 -9 -8 -4 18 13 -3 -7 -5 -17 -18 19 21 -21 -11 -23 24 27 -26 -25 -1 -14 -19
right_child=2 12 6 15 5 14 7 8 -10 11 -12 -13 28 -15 -16 16 17 29 -20 20 -22 22 -24 26 25 -27 -28 -29 -30 -31
leaf_value=-0.025477733332613335 -0.019013250973472173 0.091639323578644294 0.0016150216805106803 -0.010938527731790633 0.0047349428445947542 0.013705697223942088 0.017397118418378217 -0.11048869286053101 -0.0046255468203763731 0.0079494341342054974 -0.017319992684161054 0.016787342529835058 0.015456611155239088 0.022030889655474825 -0.017225113495391641 -0.0070273734828832689 0.037005253311235629 0.021401196237253627 -0.018744243238268586 -0.088051807657890488 0.017571527401528949 -0.023520843061141092 -0.15084457958009034 0.0063370713940481662 0.015112012856631272 -0.029792398528124799 0.02207037415576971 -0.0007187888185056819 0.12469106834776995 -0.049347401044491618
leaf_weight=165.4441861063242 1186.1906386911869 34.489908054471016 460.42907622456551 757.64438347518444 675.11628994345665 105.96834881603718 587.77292717993259 11.242384180426596 1695.5231790393591 118.17374882102013 791.19412288069725 268.86063075065613 1210.5400461852551 51.91204608976841 803.38902704417706 289.17625048756599 161.13816545903683 27.948162108659744 288.79104341566563 9.2330514639615995 283.10742992162704 118.91798451542854 6.2474125921726218 959.63566836714745 694.6634306460619 60.387799501419067 655.91152499616146 570.99220706522465 6.4601166099309912 31.944791048765182
leaf_count=663 4751 139 1844 3031 2703 424 2356 45 6789 473 3169 1076 4867 209 3216 1159 646 112 1156 37 1133 476 25 3847 2784 242 2629 2288 26 128
internal_value=0 0.00759318 -0.00581635 0.00441054 -0.0114567 -0.00579969 -0.00244796 0.000473035 -0.00532286 0.0063574 -0.0103545 0.000422474 0.0182758 0.0498172 -0.0136207 -0.00420788 0.00578694 0.022552 -0.00491412 0.00254185 0.0142356 -0.0115067 -0.029876 0.00792736 0.0027309 0.0115206 0.0127248 -0.00628101 0.0160365 -0.0163336
internal_weight=0 5678.29 7410.16 4374.89 2770.66 1584.47 4639.49 3387.87 1706.77 1681.1 1251.62 1093.33 1303.4 86.402 909.357 1267.85 510.207 221.031 824.471 535.68 292.34 243.339 125.165 3107.03 1491.49 755.051 1615.55 736.436 1217 59.893
internal_count=52443 22770 29673 17529 11094 6343 18579 13566 6834 6732 5013 4376 5241 348 3640 5076 2045 886 3300 2144 1170 974 501 12453 5977 3026 6476 2951 4893 240
is_linear=0
shrinkage=0.1


Tree=6
num_leaves=31
num_cat=0
split_feature=11 16 12 16 12 11 14 16 22 13 3 4 11 13 22 11 4 13 15 13 15 12 15 15 16 1 16 12 17 17
split_gain=47.2508 16.977 13.3338 12.6329 11.561 14.0942 12.3005 8.48782 8.28295 11.9091 10.8366 14.8339 9.61629 8.25405 7.99728 7.9117 11.2093 13.9912 13.9588 8.38704 7.72568 7.69981 7.54347 9.39452 7.48056 8.83474 7.96219 7.13147 7.01785 6.93767
threshold=50.198949443452285 17.500000000000004 -12.061405631500746 7.5000000000000009 -3.1350987683820217 42.164657587019974 8405.5235786221037 9.5000000000000018 28910.355000000003 -217.14670259239458 57033.355000000003 1629.5972320000003 31.861322971141004 -24.285697285556861 8505.6250000000018 59.118879116561224 1603.2844150000003 13.655577222758213 10652.317365265086 85.633457069654099 9505.0055992969956 7.2986831825010094 21491.88356903465 25419.852071246674 20.500000000000004 58305.145000000011 17.500000000000004 -1023.7620845279306 2.5000000000000004 4.5000000000000009
decision_type=2 2 2 2 2 2 2 2 2 2 2 2 2 2 2 2 2 2 2 2 2 2 2 2 2 2 2 2 2 2
left_child=1 4 24 28 5 7 21 8 9 12 -10 -12 22 27 -8 -5 17 -17 19 20 -19 -6 -1 -24 25 26 -2 -3 -4 -16
right_child=2 13 3 15 6 -7 14 -9 10 -11 11 -13 -14 -15 29 16 -18 18 -20 -21 -22 -23 23 -25 -26 -27 -28 -29 -30 -31
leaf_value=0.032327675776712375 -0.019162810846726625 0.090254499441447478 -0.0041164102576665799 0.0029790408378501687 0.020287189723415144 -0.0061938448182642962 -0.098755103729129018 -0.00077913249020969378 0.02923921103516899 0.010290146279687343 0.056418285919020754 -0.089771261956349269 -0.064706563567066736 0.023721771937475374 0.00010081825608630881 -0.0486988502513978 -0.00082629959575712241 -0.01121612103505981 -0.027799036105779308 0.042862621721086278 0.040386801310506759 0.057161960146348667 -0.14572804019583413 0.0080481656695121171 -0.050835096042534167 -0.094695005392059828 0.0178209583766075 0.0079717543869146177 -0.015863688524527294 0.02177646759029514
leaf_weight=29.718857645988464 407.87812970578671 10.662025555968283 888.29819138348103 2117.9304744303226 199.45034964382648 1647.2765899896622 7.2310707718133918 991.1147126108408 339.54968070983887 736.20052415132523 11.219176158308985 18.202174231410027 40.207878813147545 664.46711088716984 466.26397998631001 114.1202841848135 1376.1187509298325 176.17610277235508 229.72510495781898 49.924539521336555 34.732450366020203 79.078113779425621 6.491660043597224 10.238748878240584 71.375748559832573 13.924734696745871 67.902682840824127 871.93823038041592 1189.5607459098101 216.09904336929321
leaf_count=119 1634 43 3556 8485 803 6595 29 3975 1362 2952 45 73 161 2682 1871 458 5508 705 920 200 139 319 26 41 286 56 272 3494 4767 867
internal_value=0 0.00619405 -0.00583067 -0.00448988 0.00325701 0.000789234 0.0130204 0.00605875 0.0117451 0.0061627 0.0241946 -0.0340251 -0.0289022 0.0153035 0.00585674 -0.00126984 -0.00581288 -0.0171613 -0.00982456 0.0060062 -0.00271814 0.0307565 0.00209105 -0.0516194 -0.0205906 -0.0161824 -0.0138845 0.00896575 -0.0108417 0.00696533
internal_weight=0 6345.41 6737.67 6176.59 4798.34 3830.22 968.123 2182.94 1191.83 822.858 368.971 29.4214 86.6571 1547.07 689.594 4098.73 1980.8 604.678 490.558 260.833 210.909 278.528 46.4493 16.7304 561.081 489.706 475.781 882.6 2077.86 682.363
internal_count=52443 25457 26986 24738 19238 15349 3889 8754 4779 3299 1480 118 347 6219 2767 16415 7930 2422 1964 1044 844 1122 186 67 2248 1962 1906 3537 8323 2738
is_linear=0
shrinkage=0.1


Tree=7
num_leaves=31
num_cat=0
split_feature=11 13 11 13 5 11 17 16 16 4 4 13 20 11 13 11 12 4 15 4 15 1 12 12 13 0 12 15 4 11
split_gain=39.086 14.0383 11.1535 10.5518 11.793 9.25469 9.55168 8.65195 11.2787 7.44036 7.31064 9.23277 6.79305 6.73462 6.71622 6.57644 12.6077 9.72635 8.34678 10.1897 7.30155 6.40025 9.06787 14.2363 9.65502 7.12974 6.423 6.38821 6.16122 7.04987
threshold=48.69180375515041 -17.475473814455423 43.482108795256089 1.2311918688789765 57500.758000000009 56.771063478380704 2.5000000000000004 19.500000000000004 21.500000000000004 4378.7370560000008 870.47282000000007 -7.0084454191021957 6609.3300000000008 25.55513053507001 -14.284169125707203 56.384810080895782 10.404281440924025 897.65036500000008 36545.205713279 1656.9722500000003 43853.945078260404 8082.9800000000005 -28.216643604130692 -14.119818858251163 -19.177346537342853 29430.595000000005 -9.4544072988364842 46985.181292202724 5797.7420325000012 47.664309813649972
decision_type=2 2 2 2 2 2 2 2 2 2 2 2 2 2 2 2 2 2 2 2 2 2 2 2 2 2 2 2 2 2
left_child=1 2 13 15 5 -5 -7 14 10 -6 11 -9 -10 -1 -3 16 -2 -17 -19 -20 -21 -4 24 -24 28 26 -25 -22 -23 -30
right_child=3 7 21 4 9 6 -8 8 12 -11 -12 -13 -14 -15 -16 17 -18 18 19 20 27 22 23 25 -26 -27 -28 -29 29 -31
leaf_value=0.020578692331572654 -0.010298618782324367 0.034671303149435062 -0.025248470712419892 0.0036081019163424761 -0.029935703775496619 0.0008718401322048634 -0.010055841891740939 -0.044205894662300328 0.045587196312360349 0.050352424936483391 0.060362779610804967 0.047585771571701699 -0.0036293095021179517 0.0041501181600308292 0.0085386379424311973 -0.064658046666362046 0.026782312850535318 -0.023412774291041841 -0.050839902460659982 0.065798059038741391 -0.057772428795687031 -0.0028194866082302656 0.040077252555833442 -0.053722763537544044 -0.13366242995500108 -0.11793378230870209 0.07896739697595849 0.028918690904282257 -0.020826428342673495 -0.10918972584006033
leaf_weight=279.4838193655014 1316.9348527193069 104.55820125341415 154.4421047270298 2063.568214148283 204.69804717600346 1495.5114925950766 1719.6201080977917 17.4525416046381 37.254189819097519 12.231989860534666 113.49252277612686 29.445951342582703 113.43832993507385 2327.7721567749977 1655.3172290325165 46.472226724028587 98.554600760340691 358.66447007656097 20.672960475087166 30.436722874641418 12.708296105265616 627.84423221647739 94.518335178494453 9.9928196519613248 5.9984966218471518 8.7371529042720777 5.7455586493015316 25.670424431562424 75.970272421836853 10.246757268905638
leaf_count=1121 5276 420 618 8270 821 5986 6891 70 151 49 463 120 458 9335 6656 187 395 1439 83 122 51 2512 379 40 24 35 23 103 304 41
internal_value=0 0.00624862 0.0024756 -0.00478278 -0.00255743 -0.00161836 -0.00497285 0.0128087 0.0281823 -0.0254085 0.0466387 0.0134269 0.00853799 0.00591117 0.0100912 -0.0111854 -0.00771683 -0.0211115 -0.0165959 0.0107258 0.0292208 -0.00654047 -0.00309694 0.0224759 -0.00732301 -0.0454959 -0.005282 0.000212773 -0.00626169 -0.0313283
internal_weight=0 5671.71 3600.75 7405.74 5495.63 5278.7 3215.13 2070.96 311.084 216.93 160.391 46.8985 150.693 2607.26 1759.88 1910.11 1415.49 494.625 448.153 89.4884 68.8154 993.496 839.054 118.994 720.06 24.4755 15.7384 38.3787 714.061 86.217
internal_count=52443 22770 14432 29673 22017 21147 12877 8338 1262 870 653 190 609 10456 7076 7656 5671 1985 1798 359 276 3976 3358 477 2881 98 63 154 2857 345
is_linear=0
shrinkage=0.1


Tree=8
num_leaves=31
num_cat=0
split_feature=11 12 16 13 11 12 0 11 11 4 12 17 12 12 1 13 15 13 16 3 22 11 15 4 16 16 0 11 2 12
split_gain=32.7753 12.6327 11.0444 9.17318 13.8652 17.7841 8.38565 7.44787 6.62358 9.14088 7.79468 6.57856 6.4279 6.33279 8.64663 7.83891 6.19916 8.29939 7.66674 6.85813 6.72839 6.36734 8.07943 5.8306 5.82625 7.09686 11.3714 8.61052 5.81848 7.86116
threshold=53.417318106750166 26.914818355283845 18.500000000000004 9.7764049116220644 44.176889236568051 -2.231369648505733 57511.505000000005 59.615757152887454 49.506989224880257 550.85458600000004 -2.231369648505733 1.0000000180025095e-35 -1.7779915364774295 -13.420626196152623 10200.365000000002 -24.285697285556861 7768.2732560352006 382.79715819504304 2.5000000000000004 36972.560000000005 8135.4950000000008 78.270805122111867 36248.779159448153 7540.8460270000005 22.500000000000004 13.500000000000002 8505.0700000000015 84.291854836725761 7502.880000000001 14.706911941797445
decision_type=2 2 2 2 2 2 2 2 2 2 2 2 2 2 2 2 2 2 2 2 2 2 2 2 2 2 2 2 2 2
left_child=2 -2 3 4 5 -1 7 23 10 -10 -4 -11 -12 14 -13 -15 -9 20 19 -19 -18 22 -20 -3 25 27 -27 -22 -17 -30
right_child=1 6 8 -5 -6 -7 -8 16 9 11 12 13 -14 15 -16 28 17 18 21 -21 24 -23 -24 -25 -26 26 -28 -29 29 -31
leaf_value=0.0037812551360680022 -0.013687571672362906 0.0067729908035322646 0.011644113830556586 0.0091721657537522944 -0.0060360202151868115 0.068274762727953422 -0.024084055314367487 0.0058212063503472675 0.038637976568114019 -0.040742836879046625 0.14108770223540443 -0.081510413592075032 0.030453606657785143 0.088701469023199364 -0.0041502866244117771 -0.028158067656545972 -0.085994315660971099 0.020718778060182505 0.042984738967691588 -0.065965453357151663 -0.013266934601653919 -0.028231194342459465 0.0047583522216515482 -0.016634527775607269 -0.037556454963710462 0.094953962629966596 -0.0023800023666752852 -0.097736973450647829 0.04064481210006466 -0.0057902741026036866
leaf_weight=2658.283562913537 1551.8169326782227 1092.0602224469185 1022.0687276870012 1448.9442581236362 2084.906937867403 43.455341398715973 178.40874260663986 417.89543977379799 52.614755392074585 47.348796293139458 5.4026981294155112 20.216675311326981 187.76903042197227 11.48560221493244 50.635908082127571 44.340359926223755 11.738546833395956 14.480478286743162 88.700863108038902 24.686987012624741 862.47753058373928 32.23603643476963 146.79338529706001 117.90389607846737 73.15299291908741 12.245307952165602 606.16997814178467 12.238924831151961 61.318394973874092 89.924681529402733
leaf_count=10665 6228 4374 4112 5820 8355 176 716 1673 211 190 22 81 765 46 203 178 47 58 355 99 3455 129 588 472 293 49 2427 49 246 361
internal_value=0 -0.00611713 0.00409942 0.00220091 9.06712e-05 0.00481858 -0.00293444 -0.00186028 0.0115303 -3.27684e-05 0.0151259 -0.00628803 0.0335479 -0.000418053 -0.0262238 0.00841187 -0.00519798 -0.00764098 0.00740555 -0.0339177 -0.0105673 0.0134509 0.0191566 0.00449207 -0.010002 -0.008652 -0.000452682 -0.0144488 0.00369687 0.0130359
internal_weight=0 5243.01 7828.72 6235.59 4786.65 2701.74 3691.19 3512.78 1593.13 377.885 1215.24 325.27 193.172 277.922 70.8526 207.069 2302.82 1884.92 306.898 39.1675 1578.02 267.73 235.494 1209.96 1566.28 1493.13 618.415 874.716 195.583 151.243
internal_count=52443 21012 31431 25016 19196 10841 14784 14068 6415 1516 4899 1305 787 1115 284 831 9222 7549 1229 157 6320 1072 943 4846 6273 5980 2476 3504 785 607
is_linear=0
shrinkage=0.1


end of trees

feature_importances:
RSI_14=55
Signal_Line=44
MACD=43
hour=31
volume=19
Lower_Band=13
day_of_week=13
lag_5=9
high=8
open=6
close=6
SMA_5=5
SMA_20=3
Upper_Band=3
lag_2=3
lag_4=3
lag_3=2
low=1
SMA_10=1
EMA_5=1
lag_1=1

parameters:
[boosting: gbdt]
[objective: binary]
[metric: binary_logloss]
[tree_learner: serial]
[device_type: cpu]
[data_sample_strategy: bagging]
[data: ]
[valid: ]
[num_iterations: 1000]
[learning_rate: 0.1]
[num_leaves: 31]
[num_threads: 0]
[seed: 0]
[deterministic: 0]
[force_col_wise: 0]
[force_row_wise: 0]
[histogram_pool_size: -1]
[max_depth: -1]
[min_data_in_leaf: 20]
[min_sum_hessian_in_leaf: 0.001]
[bagging_fraction: 1]
[pos_bagging_fraction: 1]
[neg_bagging_fraction: 1]
[bagging_freq: 0]
[bagging_seed: 3]
[feature_fraction: 1]
[feature_fraction_bynode: 1]
[feature_fraction_seed: 2]
[extra_trees: 0]
[extra_seed: 6]
[early_stopping_round: 0]
[early_stopping_min_delta: 0]
[first_metric_only: 0]
[max_delta_step: 0]
[lambda_l1: 0]
[lambda_l2: 0]
[linear_lambda: 0]
[min_gain_to_split: 0]
[drop_rate: 0.1]
[max_drop: 50]
[skip_drop: 0.5]
[xgboost_dart_mode: 0]
[uniform_drop: 0]
[drop_seed: 4]
[top_rate: 0.2]
[other_rate: 0.1]
[min_data_per_group: 100]
[max_cat_threshold: 32]
[cat_l2: 10]
[cat_smooth: 10]
[max_cat_to_onehot: 4]
[top_k: 20]
[monotone_constraints: ]
[monotone_constraints_method: basic]
[monotone_penalty: 0]
[feature_contri: ]
[forcedsplits_filename: ]
[refit_decay_rate: 0.9]
[cegb_tradeoff: 1]
[cegb_penalty_split: 0]
[cegb_penalty_feature_lazy: ]
[cegb_penalty_feature_coupled: ]
[path_smooth: 0]
[interaction_constraints: ]
[verbosity: -1]
[saved_feature_importance_type: 0]
[use_quantized_grad: 0]
[num_grad_quant_bins: 4]
[quant_train_renew_leaf: 0]
[stochastic_rounding: 1]
[linear_tree: 0]
[max_bin: 255]
[max_bin_by_feature: ]
[min_data_in_bin: 3]
[bin_construct_sample_cnt: 200000]
[data_random_seed: 1]
[is_enable_sparse: 1]
[enable_bundle: 1]
[use_missing: 1]
[zero_as_missing: 0]
[feature_pre_filter: 1]
[pre_partition: 0]
[two_round: 0]
[header: 0]
[label_column: ]
[weight_column: ]
[group_column: ]
[ignore_column: ]
[categorical_feature: ]
[forcedbins_filename: ]
[precise_float_parser: 0]
[parser_config_file: ]
[objective_seed: 5]
[num_class: 1]
[is_unbalance: 0]
[scale_pos_weight: 1]
[sigmoid: 1]
[boost_from_average: 1]
[reg_sqrt: 0]
[alpha: 0.9]
[fair_c: 1]
[poisson_max_delta_step: 0.7]
[tweedie_variance_power: 1.5]
[lambdarank_truncation_level: 30]
[lambdarank_norm: 1]
[label_gain: ]
[lambdarank_position_bias_regularization: 0]
[eval_at: ]
[multi_error_top_k: 1]
[auc_mu_weights: ]
[num_machines: 1]
[local_listen_port: 12400]
[time_out: 120]
[machine_list_filename: ]
[machines: ]
[gpu_platform_id: -1]
[gpu_device_id: -1]
[gpu_use_dp: 0]
[num_gpu: 1]

end of parameters

pandas_categorical:[]
