tree
version=v4
num_class=1
num_tree_per_iteration=1
label_index=0
max_feature_idx=48
objective=binary sigmoid:1
feature_names=open high low close volume IBIT FBTC BITB ARKB BTCO EZBC BRRR HODL BTCW GBTC BTC Total SMA_10 SMA_30 SMA_100 SMA_200 EMA_20 EMA_200 RSI_14 MACD Signal_Line Upper_Band Lower_Band ATR_14 ADX_14 CCI_14 OBV %K %D hour day_of_week close_lag_1 close_lag_2 close_lag_7 close_lag_30 etf_total_lag_1 etf_total_lag_2 etf_total_lag_7 etf_total_lag_30 lag_1 lag_2 lag_3 lag_4 lag_5
feature_infos=[49804.010000000002:73170] [51542:73620.119999999995] [49000:72666.320000000007] [49804:73170.009999999995] [92.165509999999998:20888.722870000001] [-13.699999999999999:872] [-162.30000000000001:239.30000000000001] [-74:100.2] [-134.69999999999999:203.09999999999999] [-11.1:16.100000000000001] [-23:11.800000000000001] [-4.5999999999999996:6.0999999999999996] [-23:23.300000000000001] [0:118.5] [-182.90000000000001:45.700000000000003] [-21.199999999999999:191.09999999999999] [-287.80000000000001:893.29999999999995] [52040.900000000001:72589.508000000002] [53836.098000000005:72344.284333333329] [54897.062300000005:70903.630599999989] [56019.801249999997:69102.308900000004] [53998.790703793165:72312.141407012605] [56234.024869948626:69722.795214388956] [14.401532137858823:88.193352387889419] [-2319.5700356213129:1266.1832326469012] [-2036.3497216460833:1111.5791772980726] [54657.09313756472:73481.380102108335] [48399.470391410265:71989.512263757686] [124.13428571428813:1958.0364285714277] [4.2828126747050428:82.894040035278735] [-208.81649737916243:215.02205828660939] [-119263.5557600001:1560.1699800000001] [0:100] [3.8423545105612877:97.48914078690261] [0:23] [0:6] [49804:73170.009999999995] [49804:73170.009999999995] [49804:73170.009999999995] [49804:73170.009999999995] [-287.80000000000001:893.29999999999995] [-287.80000000000001:893.29999999999995] [-287.80000000000001:893.29999999999995] [-287.80000000000001:893.29999999999995] [49804:73170.009999999995] [49804:73170.009999999995] [49804:73170.009999999995] [49804:73170.009999999995] [49804:73170.009999999995]
tree_sizes=3372

Tree=0
num_leaves=31
num_cat=0
split_feature=32 6 7 33 39 39 31 28 27 40 29 28 43 28 27 27 3 35 23 4 34 33 40 33 32 40 20 39 23 25
split_gain=13.5754 21.3332 10.0617 14.3765 12.4777 13.0526 11.2012 8.66193 8.55259 7.28637 9.97352 6.83663 10.0765 9.37677 8.65196 10.4129 8.44685 7.06727 6.53438 6.39343 6.39212 6.39209 6.15916 9.51418 10.7375 5.91608 5.93623 5.61803 10.9756 9.32521
threshold=53.381222982933146 8.5500000000000025 19.700000000000003 91.231328084654663 60895.995000000003 60734.290000000008 -95417.864010000078 178.63964285714275 59557.309610961216 -172.79999999999998 9.5706691816981007 454.11857142857144 2.4000000000000004 494.49249999999904 55739.839988443404 57413.37283023991 58136.17500000001 5.5000000000000009 43.531526777212612 2402.5996850000006 1.5000000000000002 15.360527041392716 -158.49999999999997 31.932363205144842 20.754429444641698 193.50000000000003 60474.163375000011 67078.520000000019 49.319256050759535 302.53060728469023
decision_type=8 2 2 10 8 8 2 8 10 10 10 10 8 10 10 10 2 2 8 2 2 10 8 10 10 10 10 10 10 2
left_child=1 11 3 4 5 9 -4 -6 -8 -2 -11 14 13 -13 -1 -16 -17 19 -9 21 -3 -18 -15 24 -24 26 -12 29 -29 -22
right_child=2 20 6 -5 7 -7 8 18 -10 10 25 12 -14 22 15 16 17 -19 -20 -21 27 -23 23 -25 -26 -27 -28 28 -30 -31
leaf_value=0.10322613034962891 -0.090892135722953793 0.12322619412680409 0.088940370508789487 -0.1671451021936653 0.043225939018103343 0.16322632168115447 -0.10788565396499807 0.043225939018103343 0.011297586082343849 0.14322625790397925 -0.016983312213532067 0.13836137752574748 -0.02534570821792587 -0.024360483401316257 -0.16199210669552033 0.10322613034962891 0.05539989088247084 -0.13277462222103831 -0.06301643798931135 -0.12404732166372549 0.015166148047141139 -0.028234963017196767 0.10322613034962885 0.14262019536527698 -0.10153642736906941 0.10322613034962891 0.086559410535316253 0.16420193454833368 0.017860004471442127 0.094135192269094739
leaf_weight=4.9999839067459098 8.4999726414680463 11.249963790178297 17.499943673610687 6.7499782741069785 9.9999678134918195 4.9999839067459098 6.7499782741069785 6.2499798834323874 55.749820560216904 4.9999839067459098 71.749769061803818 9.2499702274799329 31.499898612499237 14.499953329563139 5.7499814927577964 4.9999839067459098 11.499962985515593 6.2499798834323874 78.499747335910797 5.4999822974205008 66.999784350395203 44.499856770038605 4.9999839067459124 8.2499734461307508 5.2499831020832062 4.9999839067459098 5.9999806880950919 10.249967008829119 10.249967008829115 19.249938040971756
leaf_count=20 34 45 70 27 40 20 27 25 223 20 287 37 126 58 23 20 46 25 314 22 268 178 20 33 21 20 24 41 41 77
internal_value=0.00358423 0.019393 -0.0118052 -0.0236547 -0.018713 0.00569496 0.0182259 -0.0447954 -0.0015742 -0.00248849 0.00607482 -0.00472334 0.0174631 0.0493798 -0.0243192 -0.0324431 -0.0222038 -0.0314606 -0.0551815 -0.0211645 0.0515311 -0.0110599 0.024438 0.0626855 -0.00165225 -0.00221227 -0.00899288 0.0439754 0.091031 0.0327911
internal_weight=0 275.249 282.749 202.749 195.999 101.25 79.9997 94.7497 62.4998 96.2497 87.7497 157.249 73.7498 42.2499 83.4997 78.4997 72.7498 67.7498 84.7497 61.4998 118 55.9998 32.9999 18.4999 10.25 82.7497 77.7497 106.75 20.4999 86.2497
internal_count=2232 1101 1131 811 784 405 320 379 250 385 351 629 295 169 334 314 291 271 339 246 472 224 132 74 41 331 311 427 82 345
is_linear=0
shrinkage=1


end of trees

feature_importances:
Lower_Band=3
ATR_14=3
%D=3
close_lag_30=3
etf_total_lag_1=3
RSI_14=2
%K=2
close=1
volume=1
FBTC=1
BITB=1
SMA_200=1
Signal_Line=1
ADX_14=1
OBV=1
hour=1
day_of_week=1
etf_total_lag_30=1

parameters:
[boosting: gbdt]
[objective: binary]
[metric: binary_logloss]
[tree_learner: serial]
[device_type: cpu]
[data_sample_strategy: bagging]
[data: ]
[valid: ]
[num_iterations: 10000]
[learning_rate: 0.1]
[num_leaves: 31]
[num_threads: 0]
[seed: 0]
[deterministic: 0]
[force_col_wise: 0]
[force_row_wise: 0]
[histogram_pool_size: -1]
[max_depth: -1]
[min_data_in_leaf: 20]
[min_sum_hessian_in_leaf: 0.001]
[bagging_fraction: 1]
[pos_bagging_fraction: 1]
[neg_bagging_fraction: 1]
[bagging_freq: 0]
[bagging_seed: 3]
[feature_fraction: 1]
[feature_fraction_bynode: 1]
[feature_fraction_seed: 2]
[extra_trees: 0]
[extra_seed: 6]
[early_stopping_round: 0]
[early_stopping_min_delta: 0]
[first_metric_only: 0]
[max_delta_step: 0]
[lambda_l1: 0]
[lambda_l2: 0]
[linear_lambda: 0]
[min_gain_to_split: 0]
[drop_rate: 0.1]
[max_drop: 50]
[skip_drop: 0.5]
[xgboost_dart_mode: 0]
[uniform_drop: 0]
[drop_seed: 4]
[top_rate: 0.2]
[other_rate: 0.1]
[min_data_per_group: 100]
[max_cat_threshold: 32]
[cat_l2: 10]
[cat_smooth: 10]
[max_cat_to_onehot: 4]
[top_k: 20]
[monotone_constraints: ]
[monotone_constraints_method: basic]
[monotone_penalty: 0]
[feature_contri: ]
[forcedsplits_filename: ]
[refit_decay_rate: 0.9]
[cegb_tradeoff: 1]
[cegb_penalty_split: 0]
[cegb_penalty_feature_lazy: ]
[cegb_penalty_feature_coupled: ]
[path_smooth: 0]
[interaction_constraints: ]
[verbosity: -1]
[saved_feature_importance_type: 0]
[use_quantized_grad: 0]
[num_grad_quant_bins: 4]
[quant_train_renew_leaf: 0]
[stochastic_rounding: 1]
[linear_tree: 0]
[max_bin: 255]
[max_bin_by_feature: ]
[min_data_in_bin: 3]
[bin_construct_sample_cnt: 200000]
[data_random_seed: 1]
[is_enable_sparse: 1]
[enable_bundle: 1]
[use_missing: 1]
[zero_as_missing: 0]
[feature_pre_filter: 1]
[pre_partition: 0]
[two_round: 0]
[header: 0]
[label_column: ]
[weight_column: ]
[group_column: ]
[ignore_column: ]
[categorical_feature: ]
[forcedbins_filename: ]
[precise_float_parser: 0]
[parser_config_file: ]
[objective_seed: 5]
[num_class: 1]
[is_unbalance: 0]
[scale_pos_weight: 1]
[sigmoid: 1]
[boost_from_average: 1]
[reg_sqrt: 0]
[alpha: 0.9]
[fair_c: 1]
[poisson_max_delta_step: 0.7]
[tweedie_variance_power: 1.5]
[lambdarank_truncation_level: 30]
[lambdarank_norm: 1]
[label_gain: ]
[lambdarank_position_bias_regularization: 0]
[eval_at: ]
[multi_error_top_k: 1]
[auc_mu_weights: ]
[num_machines: 1]
[local_listen_port: 12400]
[time_out: 120]
[machine_list_filename: ]
[machines: ]
[gpu_platform_id: -1]
[gpu_device_id: -1]
[gpu_use_dp: 0]
[num_gpu: 1]

end of parameters

pandas_categorical:[]
