tree
version=v4
num_class=1
num_tree_per_iteration=1
label_index=0
max_feature_idx=28
objective=binary sigmoid:1
feature_names=open high low close volume SMA_10 SMA_30 SMA_100 SMA_200 EMA_20 EMA_200 RSI_14 MACD Signal_Line Upper_Band Lower_Band ATR_14 ADX_14 CCI_14 OBV %K %D hour day_of_week lag_1 lag_2 lag_3 lag_4 lag_5
feature_infos=[4131.2299999999996:73577.350000000006] [4610:73777] [3782.1300000000001:73215.139999999999] [4130.6400000000003:73577.350000000006] [0:137207.18859999999] [4824.2089999999998:73174.834999999992] [5037.273666666666:73028.51933333333] [5219.7835999999998:71815.484700000001] [5461.8512499999997:70178.790349999996] [4995.5837282851389:73047.528323142324] [5838.6083970051659:69761.377583744063] [5.5605670126904982:95.854267048766289] [-2360.9460327477354:1887.2236274780516] [-2077.4839220854774:1744.7269192312694] [5285.8377108112381:74727.795140676651] [4211.7807979748686:72708.739523991317] [14.930000000000291:3189.2171428571428] [2.0842714546167458:90.52722382389662] [-227.78479126482554:227.89303930723926] [-415542.28330200177:1431674.7207219906] [0:100] [1.7839708065778497:99.184158628538611] [0:23] [0:6] [4130.6400000000003:73577.350000000006] [4130.6400000000003:73577.350000000006] [4130.6400000000003:73577.350000000006] [4130.6400000000003:73577.350000000006] [4130.6400000000003:73577.350000000006]
tree_sizes=2238 2301 2297 2291 2283 2307 2305 2306 2312 2318 2299 2308 2306 2307 2310 2298 2300 2297 2312 2314 2293 2302 2294 2295 2300 2307 2311 2312 2295 2307

Tree=0
num_leaves=20
num_cat=0
split_feature=18 18 21 22 21 22 4 21 17 21 12 15 23 23 18 8 0 18 23
split_gain=159.151 37.97 21.68 17.7203 14.8126 14.0897 13.8107 13.2258 11.2582 11.1698 11.1017 10.9849 10.5301 10.2643 12.4148 9.87767 9.51596 9.39012 8.46471
threshold=-19.988233655592349 48.499805778700512 59.145976756616271 18.500000000000004 11.677723966943224 7.5000000000000009 1799.8070055000001 12.3122490786113 28.141652069342815 94.051216003295522 -962.1029091813906 60197.460016970719 5.5000000000000009 3.5000000000000004 -55.846694156103894 69730.60530000001 69564.925000000003 169.11770350720525 4.5000000000000009
decision_type=2 2 2 2 2 2 2 2 2 2 2 2 2 2 2 2 2 2 2
left_child=3 2 16 5 8 7 17 -1 -5 18 -6 -11 -4 14 -7 -9 -2 -3 -8
right_child=1 6 12 4 10 13 9 15 -10 11 -12 -13 -14 -15 -16 -17 -18 -19 -20
leaf_value=0.039238848178178028 0.032041638151676065 0.030323922442545819 0.033540012301210946 0.045972061404360512 0.050575248523414107 0.033762560391705394 0.032188448933751834 0.034974968824913341 0.035340357561716745 0.02562972411426916 0.035614679269854468 0.039238848178178028 0.036486780867476455 0.034664485140928306 0.03122169790097868 0.023818009473261292 0.023180081782765566 0.018492494605196953 0.030385170804477807
leaf_weight=74.979709088802338 1153.6877905130386 1128.4446217864752 840.52253888547421 25.743033453822136 4.9986472725868216 687.81386470794678 1309.1457206904888 1014.725396335125 16.245603635907173 48.986743271350861 643.82576870918274 6.7481738179922095 141.71165017783642 673.31778761744499 266.92776435613632 7.9978356361389151 12.246685817837713 6.7481738179922095 324.91207271814346
leaf_count=300 4616 4515 3363 103 20 2752 5238 4060 65 196 2576 27 567 2694 1068 32 49 27 1300
internal_value=0.0328994 0.0318686 0.0328706 0.0346719 0.0361024 0.0343093 0.0311067 0.0351849 0.0418586 0.0316797 0.0357299 0.0272775 0.0339652 0.033719 0.0330522 0.0348877 0.0319486 0.0302536 0.0318299
internal_weight=0 4973.15 2148.17 3416.58 690.813 2725.76 2824.99 1097.7 41.9886 1689.79 648.824 55.7349 982.234 1628.06 954.742 1022.72 1165.93 1135.19 1634.06
internal_count=33568 19898 8595 13670 2764 10906 11303 4392 168 6761 2596 223 3930 6514 3820 4092 4665 4542 6538
is_linear=0
shrinkage=1


Tree=1
num_leaves=20
num_cat=0
split_feature=20 20 20 21 20 21 22 22 21 23 11 6 19 23 18 11 11 21 16
split_gain=177.805 67.0609 38.4566 20.2374 28.145 18.6729 18.8229 16.3348 13.8024 12.4663 10.7439 10.1181 9.4413 8.94014 10.3032 8.41529 8.15954 8.23079 8.12434
threshold=43.741032231671483 82.59778514653074 9.1674340259045248 53.243920277574432 53.997542765179361 58.164828511204966 18.500000000000004 21.500000000000004 80.530577702044482 3.5000000000000004 50.183192182963104 9402.8466666666682 222771.15775899959 4.5000000000000009 183.80674079480028 58.00509591081309 52.492893334617214 87.867374638800726 477.40357142857209
decision_type=2 2 2 2 2 2 2 2 2 2 2 2 2 2 2 2 2 2 2
left_child=2 3 12 10 11 6 9 -8 -6 -4 -2 -5 -1 14 -3 -7 -15 -18 -16
right_child=1 13 5 4 8 15 7 -9 -10 -11 -12 -13 -14 16 18 -17 17 -19 -20
leaf_value=0.010515068777164462 -0.00059755566631364764 -0.0027569530516841551 0.00043295432965872061 0.0087974964858865308 -0.00064218324284225591 0.005387964817608476 0.0043987542120739924 0.00096673871073934506 0.0013973992773062697 0.0019274307464343871 -0.0026319454017345416 0.0022752003143487942 0.0047444893965466542 0.00033821014992749032 0.00012654907388179095 0.01792677494508706 -0.0061993191322087336 -0.0023186543021717484 0.011198150030922954
leaf_weight=31.739974841475487 545.09976790845394 982.75581702589989 1356.3629618734121 25.742928341031075 2022.7200286984444 77.727867901325226 355.38646464049816 227.4292086660862 396.90085926651955 948.46803446114063 495.62154123187065 312.66393844783306 265.66537487506866 30.992670029401779 33.741444885730743 5.7483421117067328 189.95621663331985 76.732814610004425 8.2478870898485166
leaf_count=127 2181 3932 5427 103 8093 311 1422 910 1588 3795 1983 1251 1063 124 135 23 760 307 33
internal_value=0 -0.00105337 0.00193191 -0.000378192 7.01655e-05 0.00158873 0.00145394 0.0030595 -0.000307622 0.00104795 -0.00156639 0.00277136 0.00536034 -0.00299284 -0.00254969 0.00625141 -0.00451836 -0.00508276 0.00230132
internal_weight=0 5121.18 3268.53 3798.75 2758.03 2971.12 2887.65 582.816 2419.62 2304.83 1040.72 338.407 297.405 1322.43 1024.75 83.4762 297.682 266.689 41.9893
internal_count=33568 20490 13078 15199 11035 11888 11554 2332 9681 9222 4164 1354 1190 5291 4100 334 1191 1067 168
is_linear=0
shrinkage=0.01


Tree=2
num_leaves=20
num_cat=0
split_feature=20 20 20 21 20 21 22 22 21 23 11 15 19 23 18 11 11 21 16
split_gain=174.271 65.7222 37.6979 19.8341 27.5862 18.3045 18.4503 16.0123 13.5278 12.219 10.5293 10.4605 9.25743 8.76109 10.0978 8.25323 7.99615 8.06553 7.96473
threshold=43.741032231671483 82.59778514653074 9.1674340259045248 53.243920277574432 53.997542765179361 58.164828511204966 18.500000000000004 21.500000000000004 80.530577702044482 3.5000000000000004 50.183192182963104 9329.6654540886339 222771.15775899959 4.5000000000000009 183.80674079480028 58.00509591081309 52.492893334617214 87.867374638800726 477.40357142857209
decision_type=2 2 2 2 2 2 2 2 2 2 2 2 2 2 2 2 2 2 2
left_child=2 3 12 10 11 6 9 -8 -6 -4 -2 -5 -1 14 -3 -7 -15 -18 -16
right_child=1 13 5 4 8 15 7 -9 -10 -11 -12 -13 -14 16 18 -17 17 -19 -20
leaf_value=0.010412156206728355 -0.00059157371434271982 -0.0027292702111547614 0.00042862831395094458 0.0087462999008277118 -0.00063575471530168061 0.0053346110543806939 0.0043551313811246552 0.00095708836694445218 0.0013834565296231411 0.0019082224241932957 -0.0026055193692256207 0.0022287883214962816 0.004697469416064721 0.00033483029644413144 0.00012528361053974882 0.01775436299726698 -0.0061368054504856578 -0.0022953911189043759 0.011088512869674619
leaf_weight=31.733185037970543 545.10511608421803 982.79657587409019 1356.3529870510101 26.738380044698715 2022.7407646626234 77.720246896147728 355.35687460005283 227.42527812719345 396.89190679788589 948.4356659501791 495.641656935215 311.65204808115959 265.64145892858505 30.992508009076118 33.741377323865891 5.7461328208446494 189.97224219143391 76.735366955399513 8.2461515814065915
leaf_count=127 2181 3932 5427 107 8093 311 1422 910 1588 3795 1983 1247 1063 124 135 23 760 307 33
internal_value=0 -0.00104282 0.00191266 -0.000374408 6.94643e-05 0.00157289 0.00143944 0.00302908 -0.000304544 0.00103749 -0.00155069 0.00274378 0.00530729 -0.00296278 -0.0025241 0.00618963 -0.0044729 -0.00503158 0.00227841
internal_weight=0 5121.25 3268.41 3798.77 2758.02 2971.04 2887.57 582.782 2419.63 2304.79 1040.75 338.39 297.375 1322.48 1024.78 83.4664 297.7 266.708 41.9875
internal_count=33568 20490 13078 15199 11035 11888 11554 2332 9681 9222 4164 1354 1190 5291 4100 334 1191 1067 168
is_linear=0
shrinkage=0.01


Tree=3
num_leaves=20
num_cat=0
split_feature=20 20 20 21 20 21 20 20 23 27 3 18 12 14 19 14 10 23 18
split_gain=171.407 59.7239 21.6287 23.2246 19.0371 18.8371 39.5009 20.5179 19.2901 12.2359 15.203 11.8331 10.9284 10.007 9.0783 8.85327 8.80049 8.58595 9.8964
threshold=70.366802356899299 21.401027464152531 82.59778514653074 80.530577702044482 9.1674340259045248 59.145976756616271 43.741032231671483 55.849643824678026 3.5000000000000004 56490.505000000012 57760.240000000013 132.80193311496137 588.0396597689579 8942.6749420548149 222771.15775899959 9685.6323153572539 48260.330662524902 4.5000000000000009 183.80674079480028
decision_type=2 2 2 2 2 2 2 2 2 2 2 2 2 2 2 2 2 2 2
left_child=1 4 3 12 14 6 8 -7 -3 11 -11 -5 13 -2 -1 -8 -14 18 -4
right_child=2 5 17 9 -6 7 15 -9 -10 10 -12 -13 16 -15 -16 -17 -18 -19 -20
leaf_value=0.010310793716316441 0.0026950708258106299 0.00022744487071125211 -0.002701876403113616 0.0027164441199133572 0.0023294392336734634 0.003913591955725851 0.0013502181869070905 0.00088018390539324766 0.0022046656410246489 -0.017270919959637157 -0.0012084139055687883 -0.0034878021913273302 0.0081125770349169454 -0.0024282834571355562 0.0046509632813880129 -0.0013755827038652664 -0.001754478705766333 -0.0044279555134455612 0.0022557520768491683
leaf_weight=31.724734619259834 39.990643307566643 1167.8695616424084 982.83328914642334 253.17472568154335 883.18362161517143 294.88323353230953 131.46414321660995 914.51928009092808 854.42758533358574 6.4980878680944434 63.231846526265144 34.989644378423691 18.995415225625038 816.56127354502678 265.61483427882195 1272.6961295604706 17.245980784296989 297.71455375850201 41.985233992338181
leaf_count=127 160 4673 3932 1013 3534 1180 526 3659 3419 26 253 140 76 3267 1063 5092 69 1191 168
internal_value=0 0.00105821 -0.00204149 -0.00109872 0.00306626 0.000546858 0.00016815 0.00161981 0.00106283 0.00105355 -0.00270527 0.00196311 -0.00196151 -0.00218908 0.00525484 -0.00112038 0.0034172 -0.00293305 -0.00249877
internal_weight=0 5816.38 2573.22 1250.69 1180.52 4635.86 3426.46 1209.4 2022.3 357.894 69.7299 288.164 892.793 856.552 297.34 1404.16 36.2414 1322.53 1024.82
internal_count=33568 23273 10295 5004 4724 18549 13710 4839 8092 1432 279 1153 3572 3427 1190 5618 145 5291 4100
is_linear=0
shrinkage=0.01


Tree=4
num_leaves=20
num_cat=0
split_feature=20 20 20 21 20 21 20 20 23 27 3 18 12 14 8 8 2 12 14
split_gain=167.995 58.5414 21.1969 22.7618 18.6637 18.463 38.715 20.1124 18.9076 11.9925 14.8964 11.5979 10.7109 9.80755 9.21824 8.97836 16.1531 8.89574 8.67694
threshold=70.366802356899299 21.401027464152531 82.59778514653074 80.530577702044482 9.1674340259045248 59.145976756616271 43.741032231671483 55.849643824678026 3.5000000000000004 56490.505000000012 57760.240000000013 132.80193311496137 588.0396597689579 8942.6749420548149 69730.60530000001 27543.182300000004 26995.515000000003 -317.48889917702758 9685.6323153572539
decision_type=2 2 2 2 2 2 2 2 2 2 2 2 2 2 2 2 2 2 2
left_child=1 4 3 12 15 6 8 -7 -3 11 -11 -5 13 -2 -6 17 -17 -1 -8
right_child=2 5 -4 9 14 7 18 -9 -10 10 -12 -13 -14 -15 -16 16 -18 -19 -20
leaf_value=-0.0036020955394540839 0.0026682353270337843 0.00022517150472549212 -0.002903621065048761 0.0026894110061720898 0.0023942110917633008 0.0038747705495208976 0.0013367460550456156 0.00087139417879725223 0.0021827150440049507 -0.01709440401314824 -0.0011963053555977352 -0.003452726242790033 0.0033832405937384048 -0.0024039151009316775 -0.0095602724908901635 -0.012171180185842701 0.0044930294183861668 0.0085135868463566584 -0.001361798498914904
leaf_weight=6.4954897761344901 39.988924369215965 1167.8647581338882 1322.5765430927277 253.1624141484499 876.64548695087433 294.85942353308201 131.46121571958065 914.50634737312794 854.39004951715469 6.4995268583297721 63.233118176460266 34.991636842489243 36.239140138030052 816.59015910327435 6.4982084333896628 5.9962879568338385 194.37952715158463 90.428969338536263 1272.7223925292492
leaf_count=26 160 4673 5291 1013 3508 1180 526 3659 3419 26 253 140 145 3267 26 24 778 362 5092
internal_value=0 0.00104765 -0.00202103 -0.00108772 0.00303581 0.000541396 0.00016647 0.00160366 0.00105222 0.00104304 -0.00267811 0.00194355 -0.00194184 -0.00216712 0.00230625 0.00520298 0.00399435 0.00770164 -0.00110916
internal_weight=0 5816.25 2573.28 1250.7 1180.44 4635.8 3426.44 1209.37 2022.25 357.887 69.7326 288.154 892.818 856.579 883.144 297.3 200.376 96.9245 1404.18
internal_count=33568 23273 10295 5004 4724 18549 13710 4839 8092 1432 279 1153 3572 3427 3534 1190 802 388 5618
is_linear=0
shrinkage=0.01


Tree=5
num_leaves=20
num_cat=0
split_feature=20 20 20 21 20 21 18 18 12 22 13 21 20 10 20 4 22 4 13
split_gain=147.514 69.7194 23.8103 24.8308 15.9391 13.9125 14.4837 13.5945 12.6021 11.5224 11.4821 11.2088 13.7112 12.1683 10.9994 10.7848 10.3143 9.57909 11.7703
threshold=70.366802356899299 12.579121402200395 34.233339376134289 59.781491061283198 80.363566884020841 75.769894923670606 134.93983660001524 6.470512493260979 -86.515738767491698 18.500000000000004 -439.91576767444445 86.59039616340246 91.47033564405389 8969.3651776506322 46.227505888518415 1239.4457980000002 5.5000000000000009 1970.1382355000003 12.553316305278694
decision_type=2 2 2 2 2 2 2 2 2 2 2 2 2 2 2 2 2 2 2
left_child=1 -1 8 7 5 17 10 -4 15 -10 -7 13 16 -6 -5 -3 -13 18 -2
right_child=4 2 3 14 11 6 -8 -9 9 -11 -12 12 -14 -15 -16 -17 -18 -19 -20
leaf_value=0.0044792416424267872 -0.0013919304048866019 0.0026518690675909101 -2.6665808018956438e-05 0.0052091675264964313 0.0012358034364557131 0.01301902789300732 -0.0060528122487427853 -0.0016805175440126349 0.0016343959789151936 0.0042422070242471082 0.00053359623941864344 -0.0032786933774666795 -0.0032119345545617703 -0.0036358946379623264 0.0010158368391528626 -0.0002137334841324233 0.00083093730947706725 -0.00063088900732910221 -0.0052704003366110443
leaf_weight=491.91769202053547 162.72322253882885 169.92837400734425 1581.2586713582277 66.456349745392799 54.49173940718174 7.4980264306068412 33.743600159883499 724.84494955837727 935.62847538292408 206.89606490731239 417.38126906752586 81.490258395671844 281.97131814062595 867.39062468707561 1065.158138692379 578.26077044010162 243.7196069508791 249.45339897274971 150.72390361130238
leaf_count=1969 651 680 6327 266 218 30 135 2900 3744 828 1670 326 1128 3470 4262 2314 975 998 603
internal_value=0 0.000877141 0.000544597 4.8849e-05 -0.00200695 -0.00103979 0.00025312 -0.000546498 0.00144597 0.00210664 0.000753932 -0.00265309 -0.0015981 -0.00334793 0.0012621 0.000437101 -0.000198843 -0.00209318 -0.00325693
internal_weight=0 5820.35 5328.43 3437.72 2550.59 1021.52 458.623 2306.1 1890.71 1142.52 424.879 1529.06 607.181 921.882 1131.61 748.189 325.21 562.901 313.447
internal_count=33494 23290 21321 13755 10204 4087 1835 9227 7566 4572 1700 6117 2429 3688 4528 2994 1301 2252 1254
is_linear=0
shrinkage=0.01


Tree=6
num_leaves=20
num_cat=0
split_feature=20 20 20 21 20 21 18 18 12 22 13 21 20 10 20 4 22 4 4
split_gain=144.578 68.3429 23.3375 24.3371 15.6211 13.6352 14.1946 13.3235 12.3524 11.2953 11.2567 10.9849 13.4377 11.9255 10.7828 10.5708 10.1087 9.55817 9.49226
threshold=70.366802356899299 12.579121402200395 34.233339376134289 59.781491061283198 80.363566884020841 75.769894923670606 134.93983660001524 6.470512493260979 -86.515738767491698 18.500000000000004 -439.91576767444445 86.59039616340246 91.47033564405389 8969.3651776506322 46.227505888518415 1239.4457980000002 5.5000000000000009 4320.0187400000004 3200.0027695000003
decision_type=2 2 2 2 2 2 2 2 2 2 2 2 2 2 2 2 2 2 2
left_child=1 -1 8 7 5 -2 10 -4 15 -10 -7 13 16 -6 -5 -3 -13 -8 -15
right_child=4 2 3 14 11 6 17 -9 9 -11 -12 12 -14 18 -16 -17 -18 -19 -20
leaf_value=0.004434981500364212 -0.0020721953639726491 0.0026254975627480583 -2.6399177544503685e-05 0.0051577973302053305 0.0012234634957447488 0.01289206475083301 -0.010896496132104274 -0.0016636731357646737 0.0016181056358454272 0.0042002030774177263 0.00052826462177105746 -0.0032458020703998829 -0.0031797216891443453 -0.0043682386325790169 0.0010056970545437509 -0.00021159517937179847 0.00082263548473176292 -0.00021696289968901693 -0.002176067707284699
leaf_weight=491.85892774164677 562.91476164758205 169.91888023912907 1581.2593857198954 66.447098419070244 54.490936860442162 7.4961583465337744 18.247942328453064 724.86191360652447 935.59756298363209 206.87556585669518 417.37758509814739 81.492855951189995 281.9795293956995 563.20218259096146 1065.1386775970459 578.26325495541096 243.71738430857658 15.498146116733549 304.21897551417351
leaf_count=1969 2252 680 6327 266 218 30 73 2900 3744 828 1670 326 1128 2253 4262 2314 975 62 1217
internal_value=0 0.000868389 0.000539158 4.83608e-05 -0.00198684 -0.00102938 0.00025059 -0.000541028 0.00143156 0.00208566 0.000746402 -0.00262649 -0.0015821 -0.00331435 0.00124951 0.000432734 -0.000196855 -0.00599184 -0.00359941
internal_weight=0 5820.22 5328.36 3437.71 2550.64 1021.53 458.62 2306.12 1890.66 1142.47 424.874 1529.1 607.19 921.912 1131.59 748.182 325.21 33.7461 867.421
internal_count=33494 23290 21321 13755 10204 4087 1835 9227 7566 4572 1700 6117 2429 3688 4528 2994 1301 135 3470
is_linear=0
shrinkage=0.01


Tree=7
num_leaves=20
num_cat=0
split_feature=18 18 21 22 22 22 16 26 21 22 4 22 13 3 11 12 8 11 25
split_gain=128.978 33.6213 17.9816 13.668 12.9198 12.8906 13.8712 10.7108 10.4641 9.56149 8.54703 8.53825 7.73404 11.4265 11.3612 14.9649 9.81837 8.07416 7.47474
threshold=-32.029954224343321 66.065511793107291 9.5802475095464903 5.5000000000000009 19.500000000000004 18.500000000000004 183.47500000000028 70997.825000000026 82.587603883357488 7.5000000000000009 1781.2760815000004 18.500000000000004 375.27974839551246 57012.445000000007 51.384337879587513 -28.447015458449638 20077.524425000007 62.779412486687654 64627.610000000008
decision_type=2 2 2 2 2 2 2 2 2 2 2 2 2 2 2 2 2 2 2
left_child=2 12 11 -3 10 7 -7 9 -6 -4 -5 18 14 -14 15 -2 -16 -15 -1
right_child=1 3 5 4 8 6 -8 -9 -10 -11 -12 -13 13 17 16 -17 -18 -19 -20
leaf_value=0.0051418410742088737 -0.00059279595705760929 -0.003380785220721101 0.0019915926936926545 -0.0021875828882144109 -0.0045900126187914374 0.0049689427166536146 0.0017275920709167137 -0.0095766620465635808 -0.0012103806585044509 0.00069071971081688616 -0.00045981204982116546 0.011428839185808828 0.0028329444072461257 0.0013483871013616705 8.7663432216555058e-05 0.0015564449495331606 -0.0016289776231042286 -0.0043966940701106114 -0.0072301173287077514
leaf_weight=70.686827063560486 858.51658719778061 483.93847300112247 937.04725815355778 420.19603405892849 210.46867664158344 198.62389899790287 393.76322393119335 9.2463620007038099 162.23057672381401 1423.0817519575357 898.61514462530613 21.47474168241024 177.44780342280865 50.735192462801933 505.86849291622639 520.31348164379597 976.01780679821968 47.240361958742142 5.2457681745290747
leaf_count=283 3435 1936 3750 1681 842 795 1576 37 649 5695 3595 86 710 203 2024 2082 3905 189 21
internal_value=0 -0.000943627 0.00163404 -0.00189888 -0.00147491 0.001495 0.0028144 0.00116512 -0.00311891 0.00120721 -0.00101031 0.00586161 -0.000280996 0.00131946 -0.000435084 0.000218239 -0.00104297 -0.00142169 0.00428713
internal_weight=0 5311.59 3059.17 2175.45 1691.51 2961.76 592.387 2369.38 372.699 2360.13 1318.81 97.4073 3136.14 275.423 2860.72 1378.83 1481.89 97.9756 75.9326
internal_count=33494 21251 12243 8703 6767 11853 2371 9482 1491 9445 5276 390 12548 1102 11446 5517 5929 392 304
is_linear=0
shrinkage=0.01


Tree=8
num_leaves=20
num_cat=0
split_feature=20 20 20 21 20 21 18 18 12 13 22 17 21 20 10 22 18 22 12
split_gain=139.6 66.4555 22.4159 24.0583 15.2747 13.3543 13.9009 12.8139 12.0995 11.0313 10.8984 10.7856 10.734 13.1716 11.6864 9.80566 8.80444 8.41884 8.07954
threshold=70.366802356899299 12.579121402200395 34.233339376134289 59.781491061283198 80.363566884020841 75.769894923670606 134.93983660001524 6.470512493260979 -86.515738767491698 -439.91576767444445 18.500000000000004 17.276534435915128 86.59039616340246 91.47033564405389 8969.3651776506322 5.5000000000000009 183.80674079480028 6.5000000000000009 768.79176367395314
decision_type=2 2 2 2 2 2 2 2 2 2 2 2 2 2 2 2 2 2 2
left_child=1 -1 8 7 5 18 9 -4 17 -7 -10 -5 14 15 -6 -14 -16 -3 -2
right_child=4 2 3 11 12 6 -8 -9 10 -11 -12 -13 13 -15 16 -17 -18 -19 -20
leaf_value=0.0043707201075225618 -0.0022085543098258921 0.0019708031170752841 -3.3579275051490581e-05 -2.9178740883091846e-05 0.0012273647498914431 0.01277716289741947 -0.0059161127073191402 -0.0016392250364446227 0.0015915146526743027 0.00053596885146079114 0.0041280492120049118 0.0019918179236419458 -0.0031837561911311806 -0.0031340952125987302 -0.0037557664325925679 0.0008231590381174189 0.0013128370596950318 -0.00030839009954873554 0.0063531101875618457
leaf_weight=491.76234549283981 551.68871858716011 237.38857498764992 1581.2360845804214 419.83578164875507 54.491133987903595 7.493901699781417 33.747991696000099 724.88376420736313 935.54387065768242 417.38201910257339 206.83569325506687 711.72800648212433 81.49651101231575 281.98851139843464 831.70923545956612 243.71738271415234 35.743698716163635 510.76344726979733 11.246946722269056
leaf_count=1969 2207 950 6327 1680 218 30 135 2900 3744 1670 828 2848 326 1128 3327 975 143 2044 45
internal_value=0 0.000853351 0.000528719 4.77176e-05 -0.00195229 -0.00100551 0.000261211 -0.000538283 0.00140336 0.000751877 0.00205077 0.00124198 -0.00258479 -0.00155241 -0.00326473 -0.000180948 -0.00354691 0.000414798 -0.0020375
internal_weight=0 5819.98 5328.22 3437.68 2550.71 1021.56 458.624 2306.12 1890.53 424.876 1142.38 1131.56 1529.15 607.202 921.944 325.214 867.453 748.152 562.936
internal_count=33494 23290 21321 13755 10204 4087 1835 9227 7566 1700 4572 4528 6117 2429 3688 1301 3470 2994 2252
is_linear=0
shrinkage=0.01


Tree=9
num_leaves=20
num_cat=0
split_feature=20 20 20 21 20 21 18 18 12 13 22 17 21 20 10 22 17 22 12
split_gain=136.822 65.1452 21.9709 23.5799 14.9704 13.0882 13.6239 12.5586 11.8599 10.8166 10.6841 10.5717 10.52 12.9091 11.4535 9.61041 8.75378 8.25168 7.91911
threshold=70.366802356899299 12.579121402200395 34.233339376134289 59.781491061283198 80.363566884020841 75.769894923670606 134.93983660001524 6.470512493260979 -86.515738767491698 -439.91576767444445 18.500000000000004 17.276534435915128 86.59039616340246 91.47033564405389 8969.3651776506322 5.5000000000000009 59.879861893559003 6.5000000000000009 768.79176367395314
decision_type=2 2 2 2 2 2 2 2 2 2 2 2 2 2 2 2 2 2 2
left_child=1 -1 8 7 5 18 9 -4 17 -7 -10 -5 14 15 -6 -14 -16 -3 -2
right_child=4 2 3 11 12 6 -8 -9 10 -11 -12 -13 13 -15 16 -17 -18 -19 -20
leaf_value=0.0043276236120121684 -0.0021864215480948425 0.0019511800627782375 -3.3243430595967885e-05 -2.8887010503542151e-05 0.0012151096090592243 0.012654511314136405 -0.0058567626302605284 -0.0016228009249639019 0.0015756557773593371 0.00053061382612082332 0.0040872620403613249 0.0019719772622703493 -0.0031518680798195385 -0.0031027031899274488 -0.0033330649911570628 0.00081493487790471985 -0.0091704940263443828 -0.00030530407261942323 0.0062902760437044403
leaf_weight=491.69328072667122 551.70056752860546 237.37828333675861 1581.2370169609785 419.83601719141006 54.490308254957199 7.4908843636512747 33.749074190855026 724.89788188040257 935.51057754456997 417.37833848595619 206.81085383892059 711.70019379258156 81.497810900211334 281.99311183393002 840.96920429170132 243.71510343253613 26.498785376548767 510.76678512990475 11.24570696055889
leaf_count=1969 2207 950 6327 1680 218 30 135 2900 3744 1670 828 2848 326 1128 3364 975 106 2044 45
internal_value=0 0.000844839 0.00052344 4.72407e-05 -0.00193275 -0.000995445 0.000258603 -0.000532896 0.00138937 0.000744371 0.00203037 0.00122959 -0.00255891 -0.00153687 -0.00323203 -0.000179139 -0.00351138 0.000410654 -0.00201709
internal_weight=0 5819.83 5328.14 3437.67 2550.73 1021.56 458.618 2306.13 1890.47 424.869 1142.32 1131.54 1529.16 607.206 921.958 325.213 867.468 748.145 562.946
internal_count=33494 23290 21321 13755 10204 4087 1835 9227 7566 1700 4572 4528 6117 2429 3688 1301 3470 2994 2252
is_linear=0
shrinkage=0.01


Tree=10
num_leaves=20
num_cat=0
split_feature=20 20 20 20 4 23 2 4 17 17 22 19 12 22 22 15 18 17 17
split_gain=156.599 62.1496 24.34 20.8001 14.6719 11.3869 10.6163 10.4096 9.16742 9.54642 9.11137 8.5518 8.02611 12.0091 8.14135 7.71133 7.70202 7.69936 7.46854
threshold=69.039559992773022 11.539924065658871 34.233339376134289 85.211320101979808 1816.2063240000002 4.5000000000000009 8713.3000000000011 1194.9147350000003 12.559374558075341 12.229610164562656 1.5000000000000002 1211462.5982429946 -86.515738767491698 7.5000000000000009 18.500000000000004 5224.9589979655602 183.80674079480028 50.420643069772503 37.243999965730971
decision_type=2 2 2 2 2 2 2 2 2 2 2 2 2 2 2 2 2 2 2
left_child=1 11 12 4 7 8 -6 -2 9 -5 -8 -1 13 -3 -14 -4 -10 18 -7
right_child=3 2 15 5 6 17 10 -9 16 -11 -12 -13 14 -15 -16 -17 -18 -19 -20
leaf_value=0.0053222532571559058 -0.0012070652408402846 0.0024940857775576052 0.0088692977638010172 -0.0044710352248725129 0.0039694086591893288 -0.0047181771585654312 -0.0040638158892928253 -0.0035465334116654111 -0.0022689959237515282 -0.017004294809633828 -0.00025719308532510431 0.0015955831272288275 0.0017525361065856423 -9.002421593466299e-05 0.0039327539265479874 0.00018025023001671928 0.0029273722743204215 0.0030914190007547415 -0.010505157713987438
leaf_weight=357.01784478127956 455.19280277192593 279.84151451289654 10.245580509304999 93.49650864303112 54.734483003616333 190.99587681889534 68.738382861018181 326.70306172966957 695.22520725429058 6.4998172521591178 737.62429818511009 74.410495653748512 958.70481143891811 503.262885004282 208.53077548742294 3286.70270614326 29.743961811065674 11.24980480968952 25.249612152576447
leaf_count=1430 1821 1120 41 374 219 764 275 1307 2781 26 2951 298 3837 2014 835 13151 119 45 101
internal_value=0 0.00103106 0.000731084 -0.00189596 -0.00119288 -0.00299353 -0.000292404 -0.00218458 -0.00244731 -0.0052857 -0.000581689 0.0046795 0.00161659 0.000833405 0.00214204 0.000207252 -0.0020558 -0.00497428 -0.00539389
internal_weight=0 5678.72 5247.29 2695.45 1642.99 1052.46 861.097 781.896 824.965 99.9963 806.363 431.428 1950.34 783.104 1167.24 3296.95 724.969 227.495 216.245
internal_count=33509 22726 20998 10783 6573 4210 3445 3128 3300 400 3226 1728 7806 3134 4672 13192 2900 910 865
is_linear=0
shrinkage=0.01


Tree=11
num_leaves=20
num_cat=0
split_feature=20 20 20 21 20 21 20 21 23 19 18 13 6 20 4 19 22 11 21
split_gain=153.484 60.9279 23.8573 20.5872 20.3862 19.3178 13.2465 12.0097 12.4265 11.7396 11.3171 11.0913 9.77864 9.19239 8.52143 8.38536 8.03306 9.07076 8.00175
threshold=69.039559992773022 11.539924065658871 34.233339376134289 59.145976756616271 85.211320101979808 80.530577702044482 53.639894164140848 86.59039616340246 4.5000000000000009 97714.013309000104 69.074486965976391 721.77323259283025 23386.721666666672 76.925501872203199 1135.5003100000001 1211462.5982429946 7.5000000000000009 50.739490849002884 27.645164529714769
decision_type=2 2 2 2 2 2 2 2 2 2 2 2 2 2 2 2 2 2 2
left_child=1 15 18 6 5 16 -4 8 11 -7 -9 -6 -5 -11 -12 -1 -2 -18 -3
right_child=4 2 3 12 7 9 -8 10 -10 13 14 -13 -14 -15 -16 -17 17 -19 -20
leaf_value=0.0052700925094069989 -0.0031211475102077323 0.0010366473193615226 0.000139468545785245 0.0026054936967906252 -0.0033616524598685639 0.0053152360701352961 -0.0015768581224548622 0.0031953903101134763 -0.0066048821328486117 0.0023778639988270779 0.0018506028553193249 0.0081828347041897932 0.00061751364716229737 -0.00084009468795044596 -0.0027380983964596494 0.0015797154624422423 0.0010137217720940709 -0.0018452537163879379 0.0023281592640012738
leaf_weight=356.94627219438553 373.4578028023243 1098.8108141422272 1610.2495721131563 392.07113213837147 398.48980711400509 44.487349271774292 623.91149400174618 40.747646182775497 136.74592550098896 117.46036198735237 44.748877331614494 8.4996383786201459 670.70390769839287 363.43564668297768 423.23374706506729 74.406362682580948 135.7307049036026 608.43735036253929 851.44539846479893
leaf_count=1430 1494 4398 6443 1569 1594 178 2496 163 547 470 179 34 2684 1454 1693 298 543 2434 3408
internal_value=0 0.00102078 0.000723786 0.00020518 -0.00187698 -0.00118094 -0.000339833 -0.00296358 -0.00399684 0.000400555 -0.00185921 -0.00312056 0.0013509 -5.40982e-05 -0.00229932 0.00463352 -0.00192439 -0.0013238 0.0016005
internal_weight=0 5678.54 5247.19 3296.94 2695.47 1643.01 2234.16 1052.47 543.735 525.383 508.73 406.989 1062.78 480.896 467.983 431.353 1117.63 744.168 1950.26
internal_count=33509 22726 20998 13192 10783 6573 8939 4210 2175 2102 2035 1628 4253 1924 1872 1728 4471 2977 7806
is_linear=0
shrinkage=0.01


Tree=12
num_leaves=20
num_cat=0
split_feature=20 20 20 21 20 18 21 21 22 4 21 4 20 16 20 4 22 18 20
split_gain=150.431 59.8447 19.9808 18.9329 14.0285 13.1076 24.0749 12.6105 14.8509 12.4468 11.7711 12.2548 11.7616 11.2205 11.2139 11.0948 13.8182 11.0919 10.9869
threshold=69.039559992773022 18.718690435893834 85.211320101979808 80.530577702044482 11.038933350664951 -46.42886368293123 58.164828511204966 23.682934650405848 17.500000000000004 1831.4059420000001 86.59039616340246 1528.5483730000003 53.997542765179361 326.82428571428596 34.233339376134289 1900.3706420000003 2.5000000000000004 69.074486965976391 53.639894164140848
decision_type=2 2 2 2 2 2 2 2 2 2 2 2 2 2 2 2 2 2 2
left_child=1 4 3 -2 -1 7 18 8 -3 -6 11 13 -8 -4 -9 -5 -17 -12 -7
right_child=2 5 10 15 9 6 12 14 -10 -11 17 -13 -14 -15 -16 16 -18 -19 -20
leaf_value=0.0047231094777037972 -0.0019051144887982266 -0.0012970055659937776 -0.008869887129661384 -0.0012144371627926889 0.0042409253385361934 -4.2417165798460638e-05 0.0032998318483365486 0.002664952237503015 0.0028150104290796943 0.0011500236180738822 0.0031635042159541254 -0.003071805821892681 0.00079633175289673525 -0.0031225956256329579 0.00073090746922468638 -0.0039141106752770462 0.0025559859962595473 -0.0022763121774730119 -0.0017154653045896604
leaf_weight=397.56587542593479 1117.64272095263 322.82533071935177 82.496270850300789 235.70483350753784 204.33780461549759 1409.9926953166723 239.31488946080208 664.79376475512981 120.65696215629578 359.48525670170784 40.746776208281517 403.48721586167812 869.42463986575603 57.748328551650047 546.02819648385048 37.991674706339836 251.68103793263435 467.9862225651741 543.93689566850662
leaf_count=1593 4471 1292 330 943 818 5642 958 2661 483 1439 163 1614 3479 231 2185 152 1007 1872 2176
internal_value=0 0.0010106 -0.00185821 -0.00116913 0.00328457 0.000547135 0.000159709 0.00126439 -0.000178261 0.00227021 -0.00293394 -0.0039569 0.0013367 -0.00650333 0.00179278 0.000396555 0.00170741 -0.00184061 -0.000508162
internal_weight=0 5678.36 2695.49 1643.02 961.389 4716.97 3062.67 1654.3 443.482 563.823 1052.46 543.732 1108.74 140.245 1210.82 525.378 289.673 508.733 1953.93
internal_count=33509 22726 10783 6573 3850 18876 12255 6621 1775 2257 4210 2175 4437 561 4846 2102 1159 2035 7818
is_linear=0
shrinkage=0.01


Tree=13
num_leaves=20
num_cat=0
split_feature=20 20 20 21 20 18 21 21 22 4 21 23 20 19 20 18 18 20 21
split_gain=147.44 58.6644 19.5837 18.5557 13.7564 12.8474 23.5964 12.3605 14.556 12.2018 11.5374 12.0994 11.5294 11.474 10.9923 10.8712 10.8016 9.00639 8.48817
threshold=69.039559992773022 18.718690435893834 85.211320101979808 80.530577702044482 11.038933350664951 -46.42886368293123 58.164828511204966 23.682934650405848 17.500000000000004 1831.4059420000001 86.59039616340246 4.5000000000000009 53.997542765179361 97714.013309000104 34.233339376134289 69.074486965976391 19.670855254520212 76.925501872203199 46.276833451816621
decision_type=2 2 2 2 2 2 2 2 2 2 2 2 2 2 2 2 2 2 2
left_child=1 4 3 -2 -1 7 16 8 -3 -6 11 -4 -8 -5 -9 -12 -7 -15 -11
right_child=2 5 10 13 9 6 12 14 -10 18 15 -13 -14 17 -16 -17 -18 -19 -20
leaf_value=0.0046768165223114227 -0.0018860369176579423 -0.0012839975847462116 -0.0030527340474010142 0.0052516561792338304 0.0041990312402047829 -9.8455147734197914e-05 0.0032671371552852129 0.0026384898071373365 0.0027870791217933068 0.001461844738029105 0.0031319514979995552 -0.006491011386972733 0.00078838064293936146 0.0023504399770474037 0.00072360909697612706 -0.0022535379645179112 -0.00186931647028231 -0.00083485761416889244 -0.006165422355017023
leaf_weight=397.48652715981007 1117.658303335309 322.83483365178108 406.99034418165684 44.482305347919464 204.31285820901394 1507.4859036654234 239.29275852441788 664.74686866998672 120.64753438532352 344.23762392997742 40.745709970593452 136.73427501320839 869.41126243770123 117.45424830913544 546.02024182677269 467.98849703371525 446.45406545698643 363.43600183725357 15.236505240201948
leaf_count=1593 4471 1292 1628 178 818 6032 958 2661 483 1378 163 547 3479 470 2185 1872 1786 1454 61
internal_value=0 0.00100053 -0.00183962 -0.00115743 0.00325211 0.000541673 0.000158114 0.00125179 -0.000176478 0.00224765 -0.00290462 -0.00391738 0.00132337 0.000392593 0.00177494 -0.0018222 -0.000503078 -5.68698e-05 0.00113856
internal_weight=0 5678.17 2695.49 1643.03 961.274 4716.89 3062.64 1654.25 443.482 563.787 1052.46 543.725 1108.7 525.373 1210.77 508.734 1953.94 480.89 359.474
internal_count=33509 22726 10783 6573 3850 18876 12255 6621 1775 2257 4210 2175 4437 2102 4846 2035 7818 1924 1439
is_linear=0
shrinkage=0.01


Tree=14
num_leaves=20
num_cat=0
split_feature=20 20 20 21 20 18 21 21 22 4 21 4 20 19 16 20 20 18 20
split_gain=144.508 57.5078 19.1948 18.1861 13.4898 12.5924 23.1275 12.1154 14.2669 11.9619 11.3086 11.9579 11.3019 11.2469 10.974 10.7752 10.6848 10.6549 8.82743
threshold=69.039559992773022 18.718690435893834 85.211320101979808 80.530577702044482 11.038933350664951 -46.42886368293123 58.164828511204966 23.682934650405848 17.500000000000004 1831.4059420000001 86.59039616340246 1528.5483730000003 53.997542765179361 97714.013309000104 326.82428571428596 34.233339376134289 53.639894164140848 69.074486965976391 76.925501872203199
decision_type=2 2 2 2 2 2 2 2 2 2 2 2 2 2 2 2 2 2 2
left_child=1 4 3 -2 -1 7 16 8 -3 -6 11 14 -8 -5 -4 -9 -7 -12 -15
right_child=2 5 10 13 9 6 12 15 -10 -11 17 -13 -14 18 -16 -17 -18 -19 -20
leaf_value=0.0046310191892945871 -0.0018671540189137371 -0.0012711213843562452 -0.0087344350103634779 0.0051996811144473833 0.0041575830272173172 -3.8744754745728243e-05 0.0032347808677530817 0.0026122974651614323 0.0027594337018672873 0.0011272090087799305 0.0031007279948502332 -0.0030040086317581777 0.00078050898032509016 0.0023270415023366928 -0.0030504224587641327 0.00071638336608606165 -0.0016886172248054417 -0.0022309976029881544 -0.00082650215683334374
leaf_weight=397.40361112356186 1117.6717273890972 322.843974635005 82.486248850822449 44.47769632935524 204.28635247051716 1409.9999336600304 239.2695671916008 664.69812016189098 120.6377285271883 359.46291360259056 40.744453445076942 403.48034335672855 869.39774991571903 117.44892543554306 57.745574101805687 546.01221403479576 543.95014448463917 467.98954853415489 363.43900194764137
leaf_count=1593 4471 1292 330 178 818 5642 958 2661 483 1439 163 1614 3479 470 231 2185 2176 1872 1454
internal_value=0 0.000990562 -0.00182123 -0.00114585 0.00322 0.000536266 0.000156534 0.00123931 -0.000174713 0.00222533 -0.00287561 -0.0038783 0.00131018 0.000388673 -0.00639384 0.00175727 -0.000498044 -0.00180398 -5.63013e-05
internal_weight=0 5677.96 2695.48 1643.04 961.153 4716.81 3062.62 1654.19 443.482 563.749 1052.45 543.712 1108.67 525.366 140.232 1210.71 1953.95 508.734 480.888
internal_count=33509 22726 10783 6573 3850 18876 12255 6621 1775 2257 4210 2175 4437 2102 561 4846 7818 2035 1924
is_linear=0
shrinkage=0.01


Tree=15
num_leaves=20
num_cat=0
split_feature=20 20 4 18 21 20 21 6 20 21 22 18 1 12 18 12 4 10 16
split_gain=134.681 58.2569 17.2597 19.9461 14.9172 34.1013 13.3161 11.0354 10.5179 10.5647 9.73781 8.64388 9.28215 8.31684 8.27395 7.92086 7.42802 12.826 7.2525
threshold=70.366802356899299 16.396205844505232 2820.0932555000004 137.44303562078343 62.702663193304964 43.741032231671483 58.164828511204966 9668.7500000000018 91.47033564405389 89.580046816107213 18.500000000000004 48.499805778700512 71226.115000000005 449.04025866076341 -193.38427910050791 709.91499086389388 1465.1732900000002 11563.040524643151 228.17642857142792
decision_type=2 2 2 2 2 2 2 2 2 2 2 2 2 2 2 2 2 2 2
left_child=1 10 3 11 5 6 -3 -5 9 13 14 -2 -13 -4 -1 -7 -6 -18 -16
right_child=2 4 8 7 16 15 -8 -9 -10 -11 -12 12 -14 -15 18 -17 17 -19 -20
leaf_value=-0.0042167278454490796 -0.0005877779548910994 0.0008001844791075065 -0.0011395666290814602 0.0044753070260519787 0.00047289115879161101 -0.0010153733052402512 0.006433931535384867 -0.0069772890135149689 -0.0026653247728382506 0.0031028748578987263 0.0057408464176126753 -0.0025443721965557622 -0.013525179880462774 0.0023721970869177819 0.0043821690028080576 0.0075978273240325947 0.0054277365571979317 0.0015527661135566174 0.0021494331930643393
leaf_weight=16.220943927764893 255.72317039966583 2420.679628521204 584.42663437128067 8.9994551539421064 376.07643686234951 1640.8879531770945 42.694695338606834 129.23848897218704 256.99076023697853 80.492263227701187 140.95648986101151 1164.390142083168 7.7492673099040976 76.235456675291061 238.34187670052052 10.746783927083014 105.68237420916557 445.5019601136446 373.41422261297703
leaf_count=65 1023 9689 2338 36 1505 6565 171 517 1028 322 565 4658 31 305 955 43 423 1783 1496
internal_value=0 0.000801613 -0.00194972 -0.0026047 0.000410617 0.000152423 0.000897827 -0.00623171 -0.000922064 -0.000317599 0.00336556 -0.00225355 -0.00261697 -0.000734335 0.0028324 -0.000959329 0.00155643 0.00229574 0.00301931
internal_weight=0 5811.2 2564.25 1566.1 5042.27 4115.01 2463.37 138.238 998.145 741.154 768.934 1427.86 1172.14 660.662 627.977 1651.63 927.261 551.184 611.756
internal_count=33518 23260 10258 6265 20179 16468 9860 553 3993 2965 3081 5712 4689 2643 2516 6608 3711 2206 2451
is_linear=0
shrinkage=0.01


Tree=16
num_leaves=20
num_cat=0
split_feature=20 20 4 18 21 20 21 6 20 11 22 12 18 1 7 11 18 4 10
split_gain=132.002 57.1088 16.9162 19.5512 14.6211 33.4332 13.9841 10.8164 10.3087 11.295 9.54964 9.51579 8.47186 9.09828 8.16632 8.15162 8.10982 7.28099 12.5739
threshold=70.366802356899299 16.396205844505232 2820.0932555000004 137.44303562078343 62.702663193304964 39.55295078316535 56.886742009806184 9668.7500000000018 91.47033564405389 72.702459162420425 18.500000000000004 709.91499086389388 48.499805778700512 71226.115000000005 68848.367350000015 46.757629420895832 -193.38427910050791 1465.1732900000002 11563.040524643151
decision_type=2 2 2 2 2 2 2 2 2 2 2 2 2 2 2 2 2 2 2
left_child=1 10 3 12 5 6 -3 -5 9 15 16 -7 14 -14 -2 -4 -1 -6 -19
right_child=2 4 8 7 17 11 -8 -9 -10 -11 -12 -13 13 -15 -16 -17 -18 18 -20
leaf_value=-0.0041738499629656771 -0.0008529168259655451 0.00092936581103474113 0.0054413031801344323 0.0044305456725161783 0.00046816678074838131 -0.00081585043171687537 0.0070358947375982915 -0.0069078490119467298 -0.0026386968902014554 0.0022078437161103409 0.005684944946381513 0.0078522690444402434 -0.0025189207158480657 -0.013390765197869286 0.011201075364240778 -0.0011329953441966106 0.0029894841675581125 0.0053742111614600609 0.0015372940491696135
leaf_weight=16.223691776394844 249.97454641759396 2044.2899370789528 19.495831236243248 8.9994717538356763 376.07270042598248 2019.7345272153616 38.202057227492332 129.23228953778744 256.98829951882362 143.23254458606243 140.9193110615015 12.744616359472273 1164.3936769515276 7.7487846910953513 5.7496394813060752 578.42598123848438 611.68203262984753 105.66766245663166 445.48592177033424
leaf_count=65 1000 8183 78 36 1505 8081 153 517 1028 573 565 51 4658 31 23 2314 2451 423 1783
internal_value=0 0.000793622 -0.00193023 -0.00257865 0.000406517 0.000150901 0.00104139 -0.00616967 -0.000912846 -0.000314423 0.00333238 -0.000761497 -0.00223101 -0.00259079 -0.000581898 -0.000918634 0.0028044 0.00154093 0.00227291
internal_weight=0 5811.02 2564.24 1566.1 5042.2 4114.97 2082.49 138.232 998.143 741.154 768.825 2032.48 1427.87 1172.14 255.724 597.922 627.906 927.226 551.154
internal_count=33518 23260 10258 6265 20179 16468 8336 553 3993 2965 3081 8132 5712 4689 1023 2392 2516 3711 2206
is_linear=0
shrinkage=0.01


Tree=17
num_leaves=20
num_cat=0
split_feature=20 20 4 18 21 20 21 6 20 11 22 11 18 1 8 18 20 4 23
split_gain=129.377 55.9835 16.5798 19.165 14.3308 32.8726 12.9037 10.602 10.1038 11.0878 9.36545 8.72868 8.30522 9.59501 8.38217 7.94899 7.25294 7.16613 11.5738
threshold=70.366802356899299 16.396205844505232 2820.0932555000004 137.44303562078343 62.702663193304964 43.741032231671483 58.164828511204966 9668.7500000000018 91.47033564405389 67.830963926870353 18.500000000000004 46.757629420895832 38.175074684913362 71226.115000000005 63792.736075000001 -193.38427910050791 3.377256210684433 6272.8339905000012 1.0000000180025095e-35
decision_type=2 2 2 2 2 2 2 2 2 2 2 2 2 2 2 2 2 2 2
left_child=1 10 3 12 5 6 -3 -5 9 11 15 -4 14 -14 -2 -1 -17 -6 -19
right_child=2 4 8 7 17 -7 -8 -9 -10 -11 -12 -13 13 -15 -16 16 -18 18 -20
leaf_value=-0.0041314513403627037 -0.00070031590113840345 0.00078517285028177413 0.0053872259762720986 0.0043862756530200402 0.0011802899572347166 -0.0009421207204246086 0.0063321073440694821 -0.0068392616075912014 -0.0026123438552592077 0.0014281514457247118 0.0056296648114928438 -0.0014396943455264903 -0.0023994168484050169 -0.012908725665800756 0.0078492704924296736 0.0065284249584797276 0.0026276334771878451 -0.0027270570017345016 0.0052029250697146661
leaf_weight=16.226270213723183 138.98779475688934 2420.5848133116961 19.494621977210045 8.9993993490934354 803.2782094180584 1651.6705116629601 42.677534371614456 129.22305454313755 256.98496432602406 245.21607293188572 140.88022062182426 476.44372297823429 1267.6321803927422 8.7474937289953214 12.498652800917624 52.104993715882301 559.5016281157732 22.484858766198158 101.42697776854038
leaf_count=65 556 9689 78 36 3215 6608 171 517 1028 981 565 1906 5071 35 50 209 2242 90 406
internal_value=0 0.000785712 -0.00191094 -0.00255288 0.000402458 0.000149393 0.000881277 -0.00610839 -0.00090372 -0.000311279 0.00329954 -0.00117134 -0.0022087 -0.00247144 5.08259e-06 0.00277668 0.00295996 0.00152558 0.00376396
internal_weight=0 5810.84 2564.23 1566.09 5042.12 4114.93 2463.26 138.222 998.139 741.154 768.713 495.938 1427.87 1276.38 151.486 627.833 611.607 927.19 123.912
internal_count=33518 23260 10258 6265 20179 16468 9860 553 3993 2965 3081 1984 5712 5106 606 2516 2451 3711 496
is_linear=0
shrinkage=0.01


Tree=18
num_leaves=20
num_cat=0
split_feature=20 20 20 21 21 23 18 20 7 20 21 20 22 22 22 16 23 20 18
split_gain=126.804 54.8811 14.1145 29.3401 14.1199 13.6391 10.8317 10.6801 10.5879 9.96195 10.9389 9.58762 9.18507 8.83748 9.45185 11.789 9.05671 12.9835 9.12741
threshold=70.366802356899299 16.396205844505232 34.576988214332864 62.702663193304964 23.976869594151932 4.5000000000000009 12.061851508712419 21.778014205976948 64229.226450000009 85.211320101979808 87.867374638800726 53.997542765179361 18.500000000000004 6.5000000000000009 22.500000000000004 146.33250000000018 2.5000000000000004 89.096802431775444 49.328333488351383
decision_type=2 2 2 2 2 2 2 2 2 2 2 2 2 2 2 2 2 2 2
left_child=1 12 4 6 7 13 -4 -3 -6 10 -7 -5 -1 16 -15 -16 18 -18 -2
right_child=5 2 3 11 8 9 -8 -9 -10 -11 -12 -13 -14 14 15 -17 17 -19 -20
leaf_value=0.0027492531237405531 0.0023745091524707959 0.0014388656369110637 -9.9301364069391418e-05 0.0040175386386285131 0.0021340409855420111 -0.0025527867273806666 -0.0015379232835930152 -0.0012256921693643975 -0.0020444740590792264 -0.0048481305705311692 0.0060684046690794623 0.0011343578999747715 0.0055749962510227716 -0.00082865208958205416 -0.010992396828647152 -0.0021962532284609242 -0.0029791796004850456 -0.0094067103972563064 -0.0022555760613693996
leaf_weight=627.75564876198769 50.244700729846954 269.7776852697134 1733.8886208534241 135.32495425641537 967.85194236040115 423.71666026115417 749.63982948660851 340.02025347948074 64.694496497511864 223.18418657779694 15.24728651344776 780.84885691106319 140.83928579092026 1291.8651212304831 19.998144313693047 63.994188606739044 157.73593330383301 39.246417000889778 278.97347442805767
leaf_count=2516 201 1080 6938 542 3875 1695 2999 1361 259 893 61 3125 565 5168 80 256 631 157 1116
internal_value=0 0.000777881 0.00039844 3.06995e-05 0.00115967 -0.00189185 -0.000533542 -4.68783e-05 0.00187223 -0.00312794 -0.00225333 0.00156022 0.00326705 -0.00146154 -0.00103999 -0.00429057 -0.00256374 -0.00425979 -0.00154894
internal_weight=0 5810.64 5042.05 3399.7 1642.34 2564.21 2483.53 609.798 1032.55 662.148 438.964 916.174 768.595 1902.06 1375.86 83.9923 526.201 196.982 329.218
internal_count=33518 23260 20179 13604 6575 10258 9937 2441 4134 2649 1756 3667 3081 7609 5504 336 2105 788 1317
is_linear=0
shrinkage=0.01


Tree=19
num_leaves=20
num_cat=0
split_feature=20 20 20 21 21 23 11 18 20 7 20 22 22 22 16 23 20 18 19
split_gain=124.283 53.8004 13.8343 28.7572 13.8402 13.3686 13.9344 10.616 10.4676 10.3778 9.39929 9.00856 8.66187 9.26389 11.5551 8.87676 12.7277 8.94584 8.84681
threshold=70.366802356899299 16.396205844505232 34.576988214332864 62.702663193304964 23.976869594151932 4.5000000000000009 51.384337879587513 12.061851508712419 21.778014205976948 64229.226450000009 53.997542765179361 18.500000000000004 6.5000000000000009 22.500000000000004 146.33250000000018 2.5000000000000004 89.096802431775444 49.328333488351383 67098.789577500007
decision_type=2 2 2 2 2 2 2 2 2 2 2 2 2 2 2 2 2 2 2
left_child=1 11 4 7 8 12 -7 -4 -3 -6 -5 -1 15 18 -15 17 -17 -2 -14
right_child=5 2 3 10 9 6 -8 -9 -10 -11 -12 -13 13 14 -16 16 -18 -19 -20
leaf_value=0.0027220910156824313 0.0023507991914740716 0.0014245357070860642 -9.8308265759055246e-05 0.0039779501294256898 0.0021128385463284956 0.00043173819768217264 -0.0036931591907954932 -0.0015225217243077527 -0.0012133978241181545 -0.0020239117336263526 0.0011230433021613875 0.0055209291910099049 0.0024170073167777092 -0.010882854460859062 -0.0021742912364903881 -0.0029493806263902207 -0.0093135025667478305 -0.0022330328401145346 -0.0010318967563093329
leaf_weight=627.67983773350716 50.243954166769981 269.76663328707218 1733.8916614502668 135.30508677661419 967.7890662997961 95.738837569952011 566.39327189326286 749.65075582265854 340.03064347803593 64.698234915733337 780.82880857586861 140.79656752943993 79.234257817268372 19.997445642948151 63.994171693921089 157.73631648719311 39.242812290787697 278.97190767526627 1212.6323194354773
leaf_count=2516 201 1080 6938 542 3875 383 2266 2999 1361 259 3125 565 317 80 256 631 157 1116 4851
internal_value=0 0.00077013 0.000394462 3.03929e-05 0.00114812 -0.00187294 -0.00309673 -0.000528203 -4.64093e-05 0.00185362 0.00154469 0.00323488 -0.00144692 -0.00102959 -0.0042477 -0.00253813 -0.00421726 -0.00153346 -0.000820365
internal_weight=0 5810.44 5041.96 3399.68 1642.28 2564.19 662.132 2483.54 609.797 1032.49 916.134 768.476 1902.05 1375.86 83.9916 526.195 196.979 329.216 1291.87
internal_count=33518 23260 20179 13604 6575 10258 2649 9937 2441 4134 3667 3081 7609 5504 336 2105 788 1317 5168
is_linear=0
shrinkage=0.01


Tree=20
num_leaves=20
num_cat=0
split_feature=18 18 21 21 18 23 21 17 21 15 19 4 4 19 23 14 10 10 7
split_gain=92.82 16.8757 15.7924 14.8373 12.6863 18.1716 12.1225 16.2747 9.58739 10.0353 9.03242 8.20298 8.06288 7.70946 7.6623 7.59803 8.62621 8.62414 7.47086
threshold=6.470512493260979 -46.42886368293123 94.051216003295522 52.223195716268108 48.499805778700512 4.5000000000000009 64.17454141508729 17.276534435915128 9.5802475095464903 56268.961053689251 849082.76755149744 1556.3942350000002 1670.2722145000002 -149090.46483700158 4.5000000000000009 36209.721784492453 20753.028683380977 66347.582705380046 61417.478800000004
decision_type=2 2 2 2 2 2 2 2 2 2 2 2 2 2 2 2 2 2 2
left_child=1 8 4 14 6 12 -2 -8 15 11 -11 -10 -6 -5 -3 16 -1 -17 -4
right_child=2 3 18 13 5 -7 7 -9 9 10 -12 -13 -14 -15 -16 17 -18 -19 -20
leaf_value=0.0077689177861927387 -0.0011413484567553711 -0.0010263943904249271 -0.0075163975265696535 0.009518125768703185 -0.0019356773420935397 -0.0027852493955306092 -0.001669049516101188 0.001901863004897468 0.0026405756303225811 -0.013119502718983257 8.8000902226278413e-05 0.0012187402797035379 -0.00054855214778586276 0.001399474920511007 0.00076027034007717178 0.0082240547160547673 -0.0015807099130618297 -0.0040177406266196421 0.0023184139266321348
leaf_weight=14.443142667412756 753.34936738014221 792.42527668178082 54.493033349514008 11.990882962942122 605.6579671651125 773.55213636159897 186.66295951604843 403.5699879527092 561.09557998180389 5.2423309385776511 421.99599289894104 1465.7138322144747 1360.0050315111876 476.44121488928795 344.33798503875732 51.095731019973755 31.152496322989464 6.4851325899362555 8.9995453059673292
leaf_count=58 3014 3171 218 48 2423 3095 747 1615 2247 21 1690 5870 5441 1907 1378 205 125 26 36
internal_value=0 0.000937919 -0.00117346 0.00014112 -0.0010965 -0.0014869 -0.000300576 0.000772551 0.00144431 0.00131876 -7.40588e-05 0.00161236 -0.000975952 0.00159879 -0.000485194 0.0044305 0.00138093 0.0068453 -0.00612239
internal_weight=0 4182.42 4146.29 1625.2 4082.8 2739.22 1343.58 590.233 2557.22 2454.05 427.238 2026.81 1965.66 488.432 1136.76 103.177 45.5956 57.5809 63.4926
internal_count=33335 16746 16589 6504 16335 10959 5376 2362 10242 9828 1711 8117 7864 1955 4549 414 183 231 254
is_linear=0
shrinkage=0.01


Tree=21
num_leaves=20
num_cat=0
split_feature=20 20 20 21 10 18 20 21 21 23 21 10 23 19 3 10 3 16 18
split_gain=112.4 46.0271 11.9325 22.5273 13.9048 11.5726 11.0476 24.1145 15.7614 14.3078 10.1297 10.0666 9.18981 9.16386 9.2333 8.69487 8.6359 7.96391 7.40775
threshold=70.366802356899299 11.539924065658871 85.211320101979808 86.59039616340246 19701.83349057713 70.218269579688396 43.741032231671483 62.393477857642594 59.145976756616271 3.5000000000000004 65.458486059726937 23948.358769136412 4.5000000000000009 67098.789577500007 9306.9500000000025 20753.028683380977 16558.220000000005 768.02214285714365 -173.57091557763314
decision_type=2 2 2 2 2 2 2 2 2 2 2 2 2 2 2 2 2 2 2
left_child=1 15 3 13 -5 -6 8 17 9 -3 -10 -9 -4 16 -15 -1 -2 -8 -17
right_child=2 6 12 4 5 -7 7 11 10 -11 -12 -13 -14 14 -16 18 -18 -19 -20
leaf_value=0.0068205079157972106 0.0043923563032170175 0.00011762832137951665 -0.002189799978967101 0.0076309733044662969 -0.0064858623631601654 0.0020974522228356597 -0.00096385552664075846 0.002626413591953813 0.0080240000315779103 0.0015832048984139018 -0.00063389950598996081 0.00043232454844065172 -0.0044726902136118501 -0.0055639261400943106 -0.0017221573488352157 -0.0010607012875668896 -0.0015412042807668538 0.0020157883087399192 0.0036516501857726193
leaf_weight=78.949300646781921 46.237745016813278 1613.6871259361506 813.40241561830044 37.990206152200699 18.996697574853897 90.735726073384285 1544.4812167733908 333.4950417727232 48.645742803812027 1134.4015303850174 18.711677491664886 560.66052748262882 225.14176422357559 65.991728261113167 1202.8929962366819 37.392055541276932 52.243935540318489 95.231961011886597 309.27230829000473
leaf_count=317 185 6460 3254 152 76 363 6179 1335 195 4542 75 2244 901 264 4812 150 209 381 1241
internal_value=0 0.000660448 -0.00185905 -0.0012931 0.00241673 0.000611523 0.000408626 -7.04086e-05 0.000839752 0.000722613 0.00561886 0.00125066 -0.0026847 -0.00169389 -0.00192196 0.00382546 0.00124464 -0.000790803 0.00314336
internal_weight=0 5774.93 2553.63 1515.09 147.723 109.732 5349.31 2533.87 2815.45 2748.09 67.3574 894.156 1038.54 1367.37 1268.88 425.614 98.4817 1639.71 346.664
internal_count=33335 23119 10216 6061 591 439 21411 10139 11272 11002 270 3579 4155 5470 5076 1708 394 6560 1391
is_linear=0
shrinkage=0.01


Tree=22
num_leaves=20
num_cat=0
split_feature=20 20 20 21 7 18 21 20 23 21 7 16 23 22 10 11 18 0 17
split_gain=110.165 45.1244 11.6962 22.0792 13.9492 11.3159 10.8727 17.3384 15.1156 12.3996 10.2798 9.57131 9.00923 8.54974 8.52955 8.06858 7.26269 7.80276 7.14188
threshold=70.366802356899299 11.539924065658871 85.211320101979808 86.59039616340246 19351.771800000002 70.218269579688396 72.487546135590193 43.741032231671483 3.5000000000000004 56.222608121854101 6343.2921500000002 245.37142857142877 4.5000000000000009 22.500000000000004 20753.028683380977 66.87730769877497 -173.57091557763314 60953.500000000007 30.560371715409758
decision_type=2 2 2 2 2 2 2 2 2 2 2 2 2 2 2 2 2 2 2
left_child=1 14 3 10 18 -6 7 8 -3 -9 -2 15 -4 -12 -1 -8 -16 -18 -5
right_child=2 6 12 4 5 -7 11 9 -10 -11 13 -13 -14 -15 16 -17 17 -19 -20
leaf_value=0.0067552003769072236 0.0059395836179000393 0.00020982628028530054 -0.0021679394641314995 0.011226135997273994 -0.0064207180369346001 0.0020626911614109638 0.0036053764685978719 -0.001047583503083272 0.0016989676457092769 0.00043508568966161253 -0.0015941492810573055 0.00054889163759681717 -0.0044283743048481924 -0.0052651517801143213 -0.0010500354122791175 0.013178081208978018 0.0043778014558502679 0.00030389030119481851 0.0023163782174904207
leaf_weight=78.915606677532196 17.493523582816124 1651.3426851779222 813.38843464851379 22.491633519530296 18.997538387775421 91.233836486935616 121.41466435790062 1200.8634416610003 1160.7822144329548 1063.6580002903938 1283.1299169510603 141.66618488729 225.12097153067589 66.742969855666161 37.394142344594002 9.4934285283088666 251.37918077409267 57.829204007983208 14.994419142603872
leaf_count=317 70 6611 3254 90 76 365 486 4804 4648 4257 5133 567 901 267 150 38 1009 232 60
internal_value=0 0.000653865 -0.00184049 -0.00128017 0.00239265 0.00060064 0.000404548 0.000300081 0.000824511 -0.000351166 -0.00167695 0.00235022 -0.00265794 -0.00177566 0.00378806 0.00429959 0.00311249 0.00361588 0.00766223
internal_weight=0 5774.74 2553.59 1515.08 147.717 110.231 5349.22 5076.65 2812.12 2264.52 1367.37 272.574 1038.51 1349.87 425.518 130.908 346.603 309.208 37.4861
internal_count=33335 23119 10216 6061 591 441 21411 20320 11259 9061 5470 1091 4155 5400 1708 524 1391 1241 150
is_linear=0
shrinkage=0.01


Tree=23
num_leaves=20
num_cat=0
split_feature=20 20 20 21 7 18 21 20 23 21 7 16 23 22 10 11 21 18 1
split_gain=107.975 44.2399 11.4647 21.6402 13.6744 11.0906 10.6572 16.9938 14.8161 12.1528 10.0759 9.3827 8.8324 8.37994 8.3677 7.91296 7.13882 7.12056 8.06732
threshold=70.366802356899299 11.539924065658871 85.211320101979808 86.59039616340246 19351.771800000002 70.218269579688396 72.487546135590193 43.741032231671483 3.5000000000000004 56.222608121854101 6343.2921500000002 245.37142857142877 4.5000000000000009 22.500000000000004 20753.028683380977 66.87730769877497 94.051216003295522 -173.57091557763314 60997.990000000013
decision_type=2 2 2 2 2 2 2 2 2 2 2 2 2 2 2 2 2 2 2
left_child=1 14 3 10 -5 -6 7 8 -3 -9 -2 15 16 -12 -1 -8 -4 -16 -19
right_child=2 6 12 4 5 -7 11 9 -10 -11 13 -13 -14 -15 17 -17 -18 18 -20
leaf_value=0.0066906440691096945 0.0058808510683612016 0.00020772921641013331 -0.0018965057368001926 0.0075867411518989979 -0.006356363223821355 0.0020421055671147148 0.0035696657031593871 -0.0010370980878410519 0.0016820691511685831 0.00043073893545504536 -0.0015782067636454546 0.00054340988175038041 -0.0043845368723436084 -0.0052126107371925599 -0.0010394779124371361 0.013051320320447033 -0.0056598919854755625 0.0043677035519418123 0.00026549903069801438
leaf_weight=78.880448669195175 17.491560056805611 1651.3330367207527 759.38477027416229 37.480504333972931 18.997977375984192 91.23200598359108 121.40305741131306 1200.8745283931494 1160.7196221798658 1063.6479035913944 1283.1307333558798 141.66432964801788 225.09816871583462 66.741562843322754 37.396187379956245 9.4897946119308454 53.987902760505676 249.81830602884293 59.323702543973923
leaf_count=317 70 6611 3038 150 76 365 486 4804 4648 4257 5133 567 901 267 150 38 216 1003 238
internal_value=0 0.000647348 -0.00182212 -0.00126738 0.00236884 0.000594642 0.000400509 0.000297084 0.000816287 -0.000347654 -0.00166019 0.00232687 -0.00263146 -0.0017579 0.00375106 0.00425709 -0.0021463 0.00308194 0.0035805
internal_weight=0 5774.55 2553.55 1515.07 147.71 110.23 5349.13 5076.58 2812.05 2264.52 1367.36 272.557 1038.47 1349.87 425.419 130.893 813.373 346.538 309.142
internal_count=33335 23119 10216 6061 591 441 21411 20320 11259 9061 5470 1091 4155 5400 1708 524 3254 1391 1241
is_linear=0
shrinkage=0.01


Tree=24
num_leaves=20
num_cat=0
split_feature=20 20 20 21 7 18 22 18 16 7 18 23 22 10 21 18 20 17 21
split_gain=105.829 43.3732 11.2379 21.21 13.4055 10.87 10.5353 12.7207 12.6531 9.87607 8.85809 8.65921 8.21372 8.20928 7.9727 14.4931 10.3198 7.00419 6.99784
threshold=70.366802356899299 11.539924065658871 85.211320101979808 86.59039616340246 19351.771800000002 70.218269579688396 17.500000000000004 -66.529275487254296 162.49142857142829 6343.2921500000002 -80.311055244383866 4.5000000000000009 22.500000000000004 20753.028683380977 59.145976756616271 -16.59408078225184 53.997542765179361 30.560371715409758 94.051216003295522
decision_type=2 2 2 2 2 2 2 2 2 2 2 2 2 2 2 2 2 2 2
left_child=1 13 3 9 17 -6 14 10 -9 -2 -8 18 -11 -1 15 -3 -16 -5 -4
right_child=2 6 11 4 5 -7 7 8 -10 12 -12 -13 -14 -15 16 -17 -18 -19 -20
leaf_value=0.0066268253956112038 0.0058227945364739539 0.00034405624034200804 -0.0018775752335894159 0.011042482340143399 -0.0062927830741065106 0.0020217290096947653 0.0018407655884374325 0.0020870023279508398 -0.00029956432552407644 -0.001562425655979498 0.0054035879929550624 -0.0043411711647753648 -0.0051606635531647781 0.0030517079645214725 0.0030277116056874943 -0.0011493956420412725 0.00041482294702591192 0.0022177962518329705 -0.0056037641668328676
leaf_weight=78.843877106904984 17.489312559366226 2194.7533683180809 759.37083429098129 22.482590064406395 18.998026371002197 91.230003193020821 269.85712286829948 348.77148146927357 611.91348400712013 1283.1299371570349 94.122862815856934 225.0734231621027 66.739258900284767 346.47206392884254 191.69329345226288 923.10179051756859 714.82737283408642 14.991445049643515 53.983386799693108
leaf_count=317 70 8786 3038 90 76 365 1081 1396 2449 5133 377 901 267 1391 768 3693 2861 60 216
internal_value=0 0.000640897 -0.00180394 -0.00125472 0.00234529 0.000588706 0.000396511 0.00117005 0.000566866 -0.00164359 0.00276209 -0.00260525 -0.00174033 0.00371445 0.000141892 -9.81093e-05 0.000967346 0.00751218 -0.00212489
internal_weight=0 5774.36 2553.49 1515.06 147.702 110.228 5349.04 1324.66 960.685 1367.36 363.98 1038.43 1349.87 425.316 4024.38 3117.86 906.521 37.474 813.354
internal_count=33335 23119 10216 6061 591 441 21411 5303 3845 5470 1458 4155 5400 1708 16108 12479 3629 150 3254
is_linear=0
shrinkage=0.01


Tree=25
num_leaves=20
num_cat=0
split_feature=18 18 4 18 26 22 22 22 18 27 28 19 23 18 22 22 13 11 22
split_gain=115.209 18.998 19.8838 14.129 15.5677 10.5572 9.81538 9.32111 11.4402 9.21366 8.45136 8.3065 7.91235 8.13869 7.54137 9.43448 7.96586 12.9242 7.45712
threshold=-32.029954224343321 48.499805778700512 1799.8070055000001 130.3104615916906 50742.525000000009 18.500000000000004 7.5000000000000009 3.5000000000000004 183.80674079480028 57985.855000000003 58583.965000000004 482052.62585099967 3.5000000000000004 -52.7536223696777 21.500000000000004 22.500000000000004 11.744453223574247 49.606592408676782 15.500000000000002
decision_type=2 2 2 2 2 2 2 2 2 2 2 2 2 2 2 2 2 2 2
left_child=5 18 3 4 -3 6 9 8 -4 11 -11 -1 13 -8 16 -16 -7 -18 -2
right_child=1 2 7 -5 -6 14 12 -9 -10 10 -12 -13 -14 -15 15 -17 17 -19 -20
leaf_value=0.0010673339034632445 -0.00056580179618331882 -0.0029586815632957476 -0.0029349270300908863 -0.0061283153001321809 -0.00036966459476227834 0.0027179494167348028 0.0006295046517581285 -0.00039939397983183709 0.0077299044038654664 -0.0095931482752597171 0.00040745130245370713 0.0032009386932946495 0.0016700497238262943 -0.0019145683299706493 -0.00069225329895414344 0.0033430996275929615 0.0080158549613228262 0.00036617500302907032 0.00060703437444481814
leaf_weight=271.60219603776932 1739.0355835705996 686.81356287002563 240.17783300578594 94.183666974306107 350.91282141208649 264.73473516106606 707.5339552462101 1444.833646312356 10.497938707470892 8.9877515584230405 141.32589790225029 556.01479172706604 604.65417243540287 152.92495742440224 113.57024794816971 118.2725545167923 80.298084616661072 30.465501636266708 787.66490352153778
leaf_count=1088 6959 2748 961 377 1404 1061 2834 5781 42 36 566 2227 2422 612 455 474 322 122 3152
internal_value=0 -0.000830313 -0.00139342 -0.00241978 -0.00208319 0.00160457 0.00131125 -0.000708232 -0.0024883 0.00208708 -0.000190518 0.00250075 0.000793395 0.00017736 0.00278448 0.00136635 0.00366007 0.00591181 -0.000200186
internal_weight=0 5354.12 2827.42 1131.91 1037.73 3050.38 2443.04 1695.51 250.676 977.931 150.314 827.617 1465.11 860.459 607.341 231.843 375.498 110.764 2526.7
internal_count=33643 21424 11313 4529 4152 12219 9785 6784 1003 3917 602 3315 5868 3446 2434 929 1505 444 10111
is_linear=0
shrinkage=0.01


Tree=26
num_leaves=20
num_cat=0
split_feature=20 20 20 4 18 22 21 8 13 11 18 23 4 21 21 21 8 8 10
split_gain=116.381 44.7915 33.1651 12.7281 16.4242 12.5889 14.9862 16.8659 11.8645 11.8475 11.3208 12.3921 10.7323 10.4382 10.3153 10.2609 9.72762 9.08162 8.87817
threshold=39.55295078316535 80.363566884020841 11.539924065658871 2820.0932555000004 130.3104615916906 8.5000000000000018 65.745641274506951 20077.524425000007 375.27974839551246 67.830963926870353 8.8106931856144755 2.5000000000000004 2731.3601215000003 55.638283783048173 46.93488661212043 86.59039616340246 56825.566700000003 64295.63210000001 9099.0319594519624
decision_type=2 2 2 2 2 2 2 2 2 2 2 2 2 2 2 2 2 2 2
left_child=2 5 17 4 15 10 9 -8 -6 -7 13 -12 14 -2 -4 -3 -14 -1 -5
right_child=1 3 12 18 8 6 7 -9 -10 -11 11 -13 16 -15 -16 -17 -18 -19 -20
leaf_value=0.0047115100605140551 -0.00076684792548602427 -0.0033153900616540596 0.0015199410032808592 0.0025594564472252623 -0.0055173732810379307 -0.00031102377783543192 0.0033508824177354156 0.00035970699786619072 -0.019606938550912591 -0.0093184632480168752 -0.00020479499003940233 -0.0025091805987604381 0.00069814394665864029 0.0021213463394407304 0.0046169615847438941 -0.00080361350246743333 -0.0030614003295221142 -0.00032772122700118348 -0.0015689815076016878
leaf_weight=389.2612888365984 380.90138825774193 461.31982477009296 1383.706173941493 56.735686838626862 138.39624258875847 1496.0735523700714 264.60144625604153 655.48533344268799 6.2463302314281455 14.746345013380049 386.88400493562222 588.09750039875507 877.5126396715641 186.35333478450775 116.6085292994976 251.19813166558743 74.680647924542427 39.381188988685608 636.10926768183708
leaf_count=1564 1524 1846 5541 227 554 5986 1059 2623 25 59 1548 2353 3514 746 467 1005 299 158 2545
internal_value=0 -0.000797037 0.00168219 -0.00223884 -0.00305354 -0.000234561 0.00021379 0.00121992 -0.00612583 -0.000398941 -0.000941262 -0.00159477 0.00123365 0.000181976 0.00176065 -0.00242986 0.000403282 0.00424853 -0.00123091
internal_weight=0 5523.15 2881.15 1550.01 857.161 3973.14 2430.91 920.087 144.643 1510.82 1542.24 974.982 2452.51 567.255 1500.31 712.518 952.193 428.642 692.845
internal_count=33643 22100 11543 6202 3430 15898 9727 3682 579 6045 6171 3901 9821 2270 6008 2851 3813 1722 2772
is_linear=0
shrinkage=0.01


Tree=27
num_leaves=20
num_cat=0
split_feature=18 18 4 18 26 21 23 22 21 22 16 27 16 22 18 22 16 21 23
split_gain=111.026 18.2667 19.3838 13.6425 15.2847 10.936 11.6217 10.3463 9.69333 9.61094 9.63079 9.85676 9.32301 9.06968 11.2133 8.58103 9.17226 8.30668 7.74988
threshold=-32.029954224343321 48.499805778700512 1799.8070055000001 130.3104615916906 50742.525000000009 58.164828511204966 5.5000000000000009 18.500000000000004 11.677723966943224 7.5000000000000009 28.947142857143071 57985.855000000003 254.52071428571489 3.5000000000000004 183.80674079480028 15.500000000000002 269.14250000000078 76.994217683040503 3.5000000000000004
decision_type=2 2 2 2 2 2 2 2 2 2 2 2 2 2 2 2 2 2 2
left_child=7 5 3 4 -3 15 -7 9 -9 10 -1 -12 -8 14 -4 -2 -17 -5 -11
right_child=1 2 13 17 -6 6 12 8 -10 18 11 -13 -14 -15 -16 16 -18 -19 -20
leaf_value=-0.0077177902916374698 -0.0013005531886806818 -0.0029175363381754773 -0.0028889269650221494 -0.0027301859882251883 -0.00035213187693177014 0.00014277397586123973 0.0050574085298183882 0.0076823511011205369 0.0024201942650075364 0.00016269864787938113 0.0025861499829931511 -0.00020014871539964538 -5.1208513824520138e-05 -0.00038616594916758833 0.0076695370414876923 0.0015764214142570357 -0.0012733979379644593 -0.0087026112307888488 0.0016400597795161822
leaf_weight=9.9857157915830594 976.76781329512596 686.79288725554943 240.1703917235136 42.207939848303795 350.90563590824604 936.9162929058075 94.425193712115288 37.297120571136475 569.92157928645611 860.3973273485899 817.50242371857166 150.30712758004665 57.462436571717262 1444.8056694418192 10.498101353645323 263.41503794491291 197.703100502491 51.950817629694939 604.57892288267612
leaf_count=40 3908 2748 961 169 1404 3750 378 150 2284 3446 3275 602 230 5781 42 1054 791 208 2422
internal_value=0 -0.000815158 -0.00136733 -0.00238073 -0.00205003 -0.000197281 0.000558752 0.00157522 0.00274341 0.00128484 0.00205261 0.00215342 0.00312471 -0.000690812 -0.00244673 -0.000769769 0.000354569 -0.00602539 0.000772389
internal_weight=0 5354.02 2827.33 1131.86 1037.7 2526.69 1088.8 3049.99 607.219 2442.77 977.795 967.81 151.888 1695.47 250.668 1437.89 461.118 94.1588 1464.98
internal_count=33643 21424 11313 4529 4152 10111 4358 12219 2434 9785 3917 3877 608 6784 1003 5753 1845 377 5868
is_linear=0
shrinkage=0.01


Tree=28
num_leaves=20
num_cat=0
split_feature=20 20 20 4 18 21 13 12 4 21 21 8 8 10 19 13 19 21 21
split_gain=112.339 43.5093 32.4231 12.3224 15.9277 12.0812 11.6581 10.8571 10.531 10.1404 10.0527 9.50765 8.95685 8.69736 11.4985 8.56674 8.42353 8.18492 8.06827
threshold=39.55295078316535 80.363566884020841 11.539924065658871 2820.0932555000004 130.3104615916906 87.222565179395758 375.27974839551246 658.49894554581635 2731.3601215000003 46.93488661212043 86.59039616340246 56825.566700000003 36641.104750000006 9099.0319594519624 256790.95130449912 176.74634307546111 857016.42668849719 59.482550385510315 9.5802475095464903
decision_type=2 2 2 2 2 2 2 2 2 2 2 2 2 2 2 2 2 2 2
left_child=2 5 12 4 10 7 -6 17 9 -4 -3 -10 -1 -5 -15 -13 -7 -2 -14
right_child=1 3 8 13 6 16 -8 -9 11 -11 -12 15 18 14 -16 -17 -18 -19 -20
leaf_value=0.0057043958163384544 -0.00083054398779908254 -0.0032683216192657843 0.0014926906425950051 0.002539058852228986 -0.00542873817257283 0.010672916528682264 -0.019399116321823204 0.0032133875372090987 0.00067825834746065752 0.0045636316302615325 -0.00078210023561343044 -0.0046101643778732101 0.0070221239047880326 -0.0050064286691239249 -0.0010245795898002235 0.0042595905304735606 0.00085443420707382244 9.1682566992032935e-05 0.0019547771565996759
leaf_weight=204.42655736207962 1884.8948907256126 461.27969710528851 1383.5719880312681 56.735447391867638 138.36159202456474 16.985734194517136 6.2427542656660071 86.961500063538551 877.44991371035576 116.58600649237633 251.19254891574383 61.45093660056591 37.797786474227905 83.477708667516708 552.6173532307148 13.234215945005415 17.994838133454323 1966.2800618857145 186.24228963255882
leaf_count=822 7541 1846 5541 227 554 68 25 348 3514 467 1005 246 152 334 2211 53 72 7869 748
internal_value=0 -0.000783173 0.00165273 -0.00220424 -0.00300592 -0.000228816 -0.00603186 -0.000280786 0.00120928 0.00173135 -0.00239177 0.000386722 0.00419079 -0.00121252 -0.00154714 -0.00303844 0.00562206 -0.000359686 0.00280969
internal_weight=0 5523.02 2880.76 1549.91 857.077 3973.12 144.604 3938.14 2452.29 1500.16 712.472 952.135 428.467 692.831 636.095 74.6852 34.9806 3851.17 224.04
internal_count=33643 22100 11543 6202 3430 15898 579 15758 9821 6008 2851 3813 1722 2772 2545 299 140 15410 900
is_linear=0
shrinkage=0.01


Tree=29
num_leaves=20
num_cat=0
split_feature=20 20 20 21 21 20 11 21 4 20 23 26 20 18 21 4 4 8 21
split_gain=110.214 37.9392 35.529 19.19 13.4762 15.6316 12.6393 12.1248 10.9784 10.8064 9.34346 10.9899 9.29264 10.7538 8.94653 8.84328 8.84005 8.8328 8.3565
threshold=44.471947959521387 80.363566884020841 11.539924065658871 59.145976756616271 66.071354803233916 71.652480446121558 43.243893291289183 80.530577702044482 2324.8038155000004 84.190575110039489 3.5000000000000004 48640.92500000001 44.804113856353467 6.470512493260979 22.655962957184091 802.86719500000015 1799.8070055000001 64295.63210000001 65.458486059726937
decision_type=2 2 2 2 2 2 2 2 2 2 2 2 2 2 2 2 2 2 2
left_child=2 4 17 10 12 -6 -7 8 -3 -9 11 -4 15 -14 -12 -2 -11 -1 -5
right_child=1 7 3 18 5 6 -8 9 -10 16 14 -13 13 -15 -16 -17 -18 -19 -20
leaf_value=0.0046070011347456594 0.005208262876919465 -0.0049448184335771101 0.00091829872534032991 0.0081684952050813716 0.0014478917862400164 0.010271865429403308 -0.00078267420395470276 0.00046870009851446856 -0.0020230991492158437 -0.0036601018186893787 2.7058734686138709e-05 -0.00096096948360259373 9.2859810345021865e-05 -0.0013797307402401405 0.0020963907825220932 -0.0087865788186371942 -0.0013982722018646726 -0.00036335609949758824 0.00098396372943225659
leaf_weight=388.96594358980656 5.4987752139568356 249.05952548980713 1249.5077661126852 53.594153925776482 742.2372954338789 10.496192768216131 708.13500264286995 209.70408451557159 265.91936276853085 246.33563633263111 272.10182532668114 414.38311003148556 872.99877998232841 1148.0436197966337 899.87241351604462 25.242851704359055 578.8209523409605 39.373042061924934 23.196190312504768
leaf_count=1564 22 997 5003 215 2971 42 2833 839 1064 986 1090 1659 3493 4593 3604 101 2316 158 93
internal_value=0 -0.000879021 0.00146104 0.00106558 -0.000303995 0.000430056 -0.000621214 -0.0021823 -0.00343613 -0.00155835 0.000932011 0.000450277 -0.000826639 -0.000743638 0.00161595 -0.00628331 -0.0020735 0.00415012 0.00599825
internal_weight=0 5062.49 3340.99 2912.66 3512.65 1460.87 718.631 1549.84 514.979 1034.86 2835.87 1663.89 2051.78 2021.04 1171.97 30.7416 825.157 428.339 76.7903
internal_count=33643 20257 13386 11664 14055 5846 2875 6202 2061 4141 11356 6662 8209 8086 4694 123 3302 1722 308
is_linear=0
shrinkage=0.01


end of trees

feature_importances:
%K=128
%D=94
CCI_14=68
hour=53
volume=33
day_of_week=32
RSI_14=19
EMA_200=17
MACD=16
ATR_14=15
OBV=15
SMA_200=11
Signal_Line=11
ADX_14=11
SMA_100=10
close=5
SMA_30=5
Upper_Band=5
high=4
Lower_Band=4
lag_3=4
lag_4=4
open=2
low=2
lag_2=1
lag_5=1

parameters:
[boosting: gbdt]
[objective: binary]
[metric: binary_logloss]
[tree_learner: serial]
[device_type: cpu]
[data_sample_strategy: bagging]
[data: ]
[valid: ]
[num_iterations: 10000]
[learning_rate: 0.01]
[num_leaves: 20]
[num_threads: 0]
[seed: 0]
[deterministic: 0]
[force_col_wise: 0]
[force_row_wise: 0]
[histogram_pool_size: -1]
[max_depth: 5]
[min_data_in_leaf: 20]
[min_sum_hessian_in_leaf: 0.001]
[bagging_fraction: 0.8]
[pos_bagging_fraction: 1]
[neg_bagging_fraction: 1]
[bagging_freq: 5]
[bagging_seed: 3]
[feature_fraction: 0.9]
[feature_fraction_bynode: 1]
[feature_fraction_seed: 2]
[extra_trees: 0]
[extra_seed: 6]
[early_stopping_round: 0]
[early_stopping_min_delta: 0]
[first_metric_only: 0]
[max_delta_step: 0]
[lambda_l1: 0]
[lambda_l2: 0]
[linear_lambda: 0]
[min_gain_to_split: 0]
[drop_rate: 0.1]
[max_drop: 50]
[skip_drop: 0.5]
[xgboost_dart_mode: 0]
[uniform_drop: 0]
[drop_seed: 4]
[top_rate: 0.2]
[other_rate: 0.1]
[min_data_per_group: 100]
[max_cat_threshold: 32]
[cat_l2: 10]
[cat_smooth: 10]
[max_cat_to_onehot: 4]
[top_k: 20]
[monotone_constraints: ]
[monotone_constraints_method: basic]
[monotone_penalty: 0]
[feature_contri: ]
[forcedsplits_filename: ]
[refit_decay_rate: 0.9]
[cegb_tradeoff: 1]
[cegb_penalty_split: 0]
[cegb_penalty_feature_lazy: ]
[cegb_penalty_feature_coupled: ]
[path_smooth: 0]
[interaction_constraints: ]
[verbosity: -1]
[saved_feature_importance_type: 0]
[use_quantized_grad: 0]
[num_grad_quant_bins: 4]
[quant_train_renew_leaf: 0]
[stochastic_rounding: 1]
[linear_tree: 0]
[max_bin: 255]
[max_bin_by_feature: ]
[min_data_in_bin: 3]
[bin_construct_sample_cnt: 200000]
[data_random_seed: 1]
[is_enable_sparse: 1]
[enable_bundle: 1]
[use_missing: 1]
[zero_as_missing: 0]
[feature_pre_filter: 1]
[pre_partition: 0]
[two_round: 0]
[header: 0]
[label_column: ]
[weight_column: ]
[group_column: ]
[ignore_column: ]
[categorical_feature: ]
[forcedbins_filename: ]
[precise_float_parser: 0]
[parser_config_file: ]
[objective_seed: 5]
[num_class: 1]
[is_unbalance: 0]
[scale_pos_weight: 1]
[sigmoid: 1]
[boost_from_average: 1]
[reg_sqrt: 0]
[alpha: 0.9]
[fair_c: 1]
[poisson_max_delta_step: 0.7]
[tweedie_variance_power: 1.5]
[lambdarank_truncation_level: 30]
[lambdarank_norm: 1]
[label_gain: ]
[lambdarank_position_bias_regularization: 0]
[eval_at: ]
[multi_error_top_k: 1]
[auc_mu_weights: ]
[num_machines: 1]
[local_listen_port: 12400]
[time_out: 120]
[machine_list_filename: ]
[machines: ]
[gpu_platform_id: -1]
[gpu_device_id: -1]
[gpu_use_dp: 0]
[num_gpu: 1]

end of parameters

pandas_categorical:[]
