tree
version=v4
num_class=1
num_tree_per_iteration=1
label_index=0
max_feature_idx=28
objective=binary sigmoid:1
feature_names=open high low close volume SMA_10 SMA_30 SMA_100 SMA_200 EMA_20 EMA_200 RSI_14 MACD Signal_Line Upper_Band Lower_Band ATR_14 ADX_14 CCI_14 OBV %K %D hour day_of_week lag_1 lag_2 lag_3 lag_4 lag_5
feature_infos=[4131.2299999999996:68635.119999999995] [4610:69000] [3782.1300000000001:68451.190000000002] [4130.6400000000003:68633.690000000002] [0:137207.18859999999] [4824.2089999999998:68002.839999999997] [5037.273666666666:67416.46666666666] [5219.7835999999998:66221.838900000002] [5461.8512499999997:65244.838449999996] [4995.5837282851389:67442.079903017002] [5838.6083970051659:64523.805919081831] [5.5605670126904982:95.854267048766289] [-2360.9460327477354:1887.2236274780516] [-2077.4839220854774:1744.7269192312694] [5285.8377108112381:69399.509600066493] [4211.7807979748686:66500.881177875955] [14.930000000000291:3189.2171428571428] [2.0842714546167458:90.52722382389662] [-227.78479126482554:227.89303930723926] [-415542.28330200177:1383687.4554779944] [0:100] [2.3334631348722268:99.026387588760258] [0:23] [0:6] [4130.6400000000003:68633.690000000002] [4130.6400000000003:68633.690000000002] [4130.6400000000003:68633.690000000002] [4130.6400000000003:68633.690000000002] [4130.6400000000003:68633.690000000002]
tree_sizes=3418 3420 3433 3420 3425 3414 3384 3413 3423 3417 3435

Tree=0
num_leaves=31
num_cat=0
split_feature=20 20 20 21 20 4 18 23 21 18 21 17 21 23 11 18 11 21 4 19 21 17 21 11 12 10 22 20 4 17
split_gain=183.635 54.4184 50.9035 20.2793 21.8419 20.8401 20.1473 14.9269 13.7483 12.3844 12.298 11.9438 11.7203 11.6063 11.5557 11.1657 11.2227 10.6238 10.3827 12.3053 10.1501 9.7713 11.4635 11.8829 9.64826 9.5854 9.47098 16.506 9.34123 10.9413
threshold=43.784820741380422 79.474815597343138 12.398430483223876 56.281863770582213 67.392793423965784 1801.1128495000003 19.400154969150158 2.5000000000000004 58.222996292864586 -46.786749492733072 23.910886841151058 50.987677952195178 87.011588394283777 3.5000000000000004 57.919231993280754 48.180033704725922 66.493360971566105 54.998974483406904 892.88435500000014 724259.64972899877 65.993469876721619 29.433893698614074 65.675464108161222 79.629811774332481 -366.61758537422423 23305.453308082015 17.500000000000004 21.663307340692274 2486.7458450000004 28.642663730876631
decision_type=2 2 2 2 2 2 2 2 2 2 2 2 2 2 2 2 2 2 2 2 2 2 2 2 2 2 2 2 2 2
left_child=2 3 -1 6 20 -6 -2 24 9 10 26 15 21 -11 -10 16 -9 -15 19 -12 -5 -7 -23 -24 -3 -22 27 -4 -17 -30
right_child=1 7 8 4 5 12 -8 11 14 13 18 -13 -14 17 -16 28 -18 -19 -20 -21 25 22 23 -25 -26 -27 -28 -29 29 -31
leaf_value=0.081769670161754099 0.027634024979444342 -0.074145105230232405 0.048229801654512683 0.036209787380278122 0.0095366680597704853 0.023889552428980936 0.0015224683006916512 0.062088279128907298 0.075996702217187934 0.025574976378535244 0.022682861293873192 0.045014654892398441 0.105253320035298 0.052250524590387717 0.2148996303024823 -0.019115091306357385 -0.093612293657314494 -0.028607964841976571 0.053194160464961518 0.099217134775580029 0.07098013202191672 0.00022369651620564313 0.063533784887235073 -0.055506307800047443 0.018118881166685325 0.042781825462792702 0.059247977854088876 0.014088689863684445 -0.0094646942396952871 0.025266220732510676
leaf_weight=484.11341768503189 904.49481600522995 11.496756434440611 336.15516096353531 644.06828981637955 500.10890489816666 378.3932443857193 438.87618041038513 39.238929569721222 76.478423237800598 493.86066770553589 26.492525696754456 50.735686004161835 23.993230819702148 370.14557129144669 6.4981666803359976 374.89423155784607 5.2485192418098441 16.995205163955688 1045.2051175832748 101.47137200832367 217.18872481584549 39.988718032836914 202.69281452894211 8.7475320696830732 800.7740786075592 270.92356467247009 196.44457733631134 244.68096846342087 254.42821848392487 140.96023106575012
leaf_count=1937 3619 46 1345 2577 2001 1514 1756 157 306 1976 106 203 96 1481 26 1500 21 68 4182 406 869 160 811 35 3204 1084 786 979 1018 564
internal_value=0.033592 0.0219699 0.0517414 0.0288546 0.0345845 0.0249025 0.0191034 0.00707652 0.0467534 0.0455776 0.0500225 -0.00206109 0.036656 0.0357373 0.0868746 -0.0049925 0.0437191 0.0487009 0.0564858 0.0833721 0.0444525 0.0340428 0.049323 0.058609 0.016813 0.0553288 0.0402671 0.0338476 -0.00780582 0.00291725
internal_weight=0 5307.25 3398.54 3629.48 2286.11 1153.92 1343.37 1677.78 2914.43 2831.45 1950.45 865.506 653.816 881.001 82.9766 814.77 44.4874 387.141 1173.17 127.964 1132.18 629.822 251.429 211.44 812.271 488.112 777.281 580.836 770.283 395.388
internal_count=34833 21235 13598 14522 9147 4617 5375 6713 11661 11329 7804 3463 2616 3525 332 3260 178 1549 4694 512 4530 2520 1006 846 3250 1953 3110 2324 3082 1582
is_linear=0
shrinkage=1


Tree=1
num_leaves=31
num_cat=0
split_feature=20 20 20 21 20 21 18 17 22 20 17 22 18 22 3 21 4 18 20 22 22 22 4 4 12 4 4 12 11 4
split_gain=148.796 45.6296 41.3325 14.0669 24.1798 21.0655 13.2943 11.5523 13.8234 13.0126 14.0314 11.4824 15.1259 11.1934 11.8058 11.1733 10.8905 11.5055 10.8868 10.7943 10.4863 9.95792 15.6572 12.9215 10.9312 9.79865 9.68439 9.8586 15.6068 9.77029
threshold=43.784820741380422 82.656598072751564 12.398430483223876 80.603480402800628 72.678752959999926 65.993469876721619 184.42828727841894 44.053290007061086 14.500000000000002 63.441089159180983 37.935457607534225 13.500000000000002 19.400154969150158 6.5000000000000009 57857.475000000006 58.222996292864586 4075.8157320000005 21.664875138504588 68.698794093117002 15.500000000000002 18.500000000000004 21.500000000000004 2954.9787115000004 3153.2456765000002 -84.785063699541737 1169.1867570000002 2486.7458450000004 -0.65586754295418348 59.915559120723564 14200.156360000003
decision_type=2 2 2 2 2 2 2 2 2 2 2 2 2 2 2 2 2 2 2 2 2 2 2 2 2 2 2 2 2 2
left_child=2 3 -1 4 5 11 -3 9 16 10 -7 12 -2 14 -5 20 17 -9 -15 -12 -4 22 24 -24 -22 -26 27 -20 -29 -28
right_child=1 6 15 13 -6 7 -8 8 -10 -11 19 -13 -14 18 -16 -17 -18 -19 26 -21 21 -23 23 -25 25 -27 29 28 -30 -31
leaf_value=0.043423060681417686 -0.0055620047878319374 -0.028431676701720133 0.0077335354479861271 -0.0046991886153105733 -0.023416925017250689 0.032110768188793049 0.023752910140471956 0.059703896350615238 0.095719400374615571 -0.0039294329081140224 -0.0090120310993680001 0.00079322593489051347 -0.028349517538951555 0.097509665364797785 -0.12881405085841599 0.048055866607369623 0.072634506936155349 -0.051695769397357476 -0.057598806582793288 -0.17060049589313778 0.020427322221086182 0.0064528266315505879 -0.13821537865092426 0.012274616839318998 0.039652619008195278 0.092445139559427694 0.046313632547853846 0.055591048971201408 -0.021208117437835978 -0.041273930964162223
leaf_weight=483.44144539535046 754.5783846527338 1284.8429246544838 2260.1960090994835 108.20421779155731 722.59861421585083 225.0732693374157 50.746085569262505 13.991144284605978 33.224691689014435 432.05105060338974 14.737645655870439 843.3429439663887 474.43827134370804 18.485256567597389 8.2480712831020337 82.815177530050278 22.227109506726265 27.482810884714127 24.990877315402031 5.7457677423954001 82.443585053086281 223.594617202878 5.9962877929210654 117.66800260543823 69.686520516872406 70.956114172935486 120.43042241036892 46.742199599742889 60.983100682497025 14.241779208183287
leaf_count=1937 3019 5140 9046 433 2891 901 203 56 133 1729 59 3374 1898 74 33 332 89 110 100 23 330 895 24 471 279 284 482 187 244 57
internal_value=0 -0.0104592 0.0163439 -0.0050824 -0.00708038 -0.00293383 -0.0264489 0.0111368 0.0434279 0.0065178 0.0248995 -0.00819264 -0.0143587 0.0126439 -0.01349 0.0118504 0.0161541 -0.0141153 0.0232897 -0.0543389 0.0107911 0.0229077 0.0335182 0.00497759 0.0493392 0.0662872 0.0181587 -0.00101219 0.0121152 0.0370511
internal_weight=0 5307.41 3396.8 3971.82 3569.49 2846.89 1335.59 774.533 96.9258 677.608 245.557 2072.36 1229.02 402.326 116.452 2913.36 63.7011 41.474 285.874 20.4834 2830.54 570.345 346.751 123.664 223.086 140.643 267.388 132.716 107.725 134.672
internal_count=34833 21235 13598 15892 14282 11391 5343 3100 388 2712 983 8291 4917 1610 466 11661 255 166 1144 82 11329 2283 1388 495 893 563 1070 531 431 539
is_linear=0
shrinkage=0.1


Tree=2
num_leaves=31
num_cat=0
split_feature=18 20 20 21 4 20 20 17 20 21 4 22 23 3 3 19 21 17 18 10 22 21 5 22 21 14 18 11 12 20
split_gain=122.307 44.6142 28.1886 22.1288 14.6445 14.022 11.5406 10.8276 10.1439 13.7801 10.0029 12.8961 12.5495 9.84989 9.67451 9.47384 9.43796 9.35161 8.97408 8.95464 9.50436 8.94759 8.85388 13.3602 10.0717 8.74046 9.32309 8.54098 8.48303 8.35162
threshold=-44.780115231614325 72.678752959999926 12.398430483223876 58.222996292864586 1801.1128495000003 53.762529459363293 45.882408120819782 45.31762144323455 85.273417338500067 87.345311131090327 1145.1974750000002 11.500000000000002 1.5000000000000002 30323.035000000003 64781.650000000009 1146914.3284929984 23.910886841151058 17.338785043609441 184.42828727841894 29336.828062567089 6.5000000000000009 91.955021144103469 13760.158000000001 18.500000000000004 46.91496302706053 59100.7356867614 72.980576385272528 45.434233379141403 780.05588966938024 21.663307340692274
decision_type=2 2 2 2 2 2 2 2 2 2 2 2 2 2 2 2 2 2 2 2 2 2 2 2 2 2 2 2 2 2
left_child=2 3 -1 5 10 -2 7 -5 9 -6 11 13 15 -3 17 21 29 27 -10 20 -20 -12 23 -7 -24 26 -14 -8 -11 -4
right_child=1 4 16 6 8 22 14 -9 18 28 12 -13 25 -15 -16 -17 -18 -19 19 -21 -22 -23 24 -25 -26 -27 -28 -29 -30 -31
leaf_value=0.039526524637843938 -0.0022806188121765364 -0.010771533330425465 0.012995213880432227 0.032833318539216769 -0.0097576006526738333 -0.013959886167850724 0.10205899046874296 0.15733502992228804 -0.023661146923672872 0.041413139626210675 0.0041329124489253846 0.0069581930121643508 -0.024601862922392224 -0.057147735295741436 -0.12056656748643593 -0.074749682045024884 0.017549360675707178 0.01304574680448886 0.096601894457507706 0.076281239677227691 -0.046133470090013923 -0.11897189268256048 -0.0031268720949300362 0.064733992367802903 -0.035114699954364031 -0.11400291304445852 -0.061243618746184662 -0.0054736188090729124 -0.089987754219882643 -0.0076824623109560094
leaf_weight=478.12411308288574 1463.330770522356 92.227325856685638 450.55612003803253 78.240887954831123 728.71452620625496 96.986487522721291 7.4948208630084983 7.6700053215026847 772.86916486918926 78.159822002053261 106.73870474100113 134.7081837952137 116.71428221464157 90.971037715673447 5.9956876635551444 21.748617991805077 1472.6134958863258 873.41007615625858 5.9979380369186428 18.244238466024399 20.993263110518456 6.2498338520526877 135.9809262752533 27.745983645319939 356.45189897716045 20.486006319522858 171.43647854030132 510.15645423531532 5.2426356077194205 344.81781594455242
leaf_count=1920 5856 369 1804 314 2916 388 30 31 3092 313 427 539 467 364 24 87 5897 3497 24 73 84 25 544 111 1426 82 686 2042 21 1380
internal_value=0 -0.00804983 0.0174603 -0.000959016 -0.0186155 -0.00761213 0.00837482 0.0439487 -0.013268 -0.00535075 -0.0300668 -0.0165297 -0.0397731 -0.0338006 0.00618723 -0.0143102 0.0128085 0.00673356 -0.0211273 0.0221643 -0.0144151 -0.00267649 -0.0202534 0.00354509 -0.0262815 -0.0508891 -0.046402 -0.00391671 0.0331533 0.00403084
internal_weight=0 5954.97 2746.11 3563.46 2391.5 2080.5 1482.97 85.9109 1630.22 812.117 761.28 317.907 443.374 183.198 1397.06 134.737 2267.99 1391.06 818.105 45.2354 26.9912 112.989 617.165 124.732 492.433 308.637 288.151 517.651 83.4025 795.374
internal_count=34833 23832 11001 14263 9569 8325 5938 345 6523 3250 3046 1272 1774 733 5593 539 9081 5569 3273 181 108 452 2469 499 1970 1235 1153 2072 334 3184
is_linear=0
shrinkage=0.1


Tree=3
num_leaves=31
num_cat=0
split_feature=20 20 20 21 20 21 22 17 14 4 21 16 21 19 18 11 12 22 21 21 18 16 12 20 4 9 21 17 22 16
split_gain=100.054 30.5832 27.6093 12.3297 16.755 18.0973 11.7083 10.13 11.9534 9.52068 14.0858 11.5762 9.13569 8.9752 9.85408 8.93113 10.6737 9.87421 8.92417 9.97564 9.52738 8.71164 9.0726 11.2043 8.97264 8.705 8.92879 10.7282 8.5975 8.86395
threshold=43.784820741380422 82.656598072751564 10.751449220543476 51.346369988858179 66.09702927051417 80.603480402800628 18.500000000000004 21.135741510346019 62796.125409674489 1590.7351655000002 86.707307152416163 62.494642857142878 50.107242560455184 73950.377349000119 26.015821306646657 51.40046194474187 -63.653294908181117 18.500000000000004 75.788511259330775 72.840350605616521 54.580285327005242 1233.1714285714286 -316.67062337634383 71.36192196937256 2354.1137340000005 6239.0295452032287 65.993469876721619 31.277720229627089 8.5000000000000018 789.9917857142857
decision_type=2 2 2 2 2 2 2 2 2 2 2 2 2 2 2 2 2 2 2 2 2 2 2 2 2 2 2 2 2 2
left_child=2 3 -1 12 25 7 -4 8 15 10 -3 -12 -2 14 -9 18 -17 28 19 -6 -20 22 24 -24 -15 -5 27 -27 -18 -30
right_child=1 9 6 4 5 -7 -8 13 -10 -11 11 -13 -14 21 -16 16 17 -19 20 -21 -22 -23 23 -25 -26 26 -28 -29 29 -31
leaf_value=0.038883889263834376 -0.010765345984028261 -0.054684341383651761 0.0070986324397622176 0.090374151082136284 0.0093672032350954112 0.011090806140386215 0.022668099130487573 -0.0716609805274179 -0.16365349480190075 -0.017371731889407688 0.085916246268338575 -0.020190437156577267 -0.043100298507407417 -0.0051473041674367451 0.045503017844600174 -0.13777119853262901 -0.032593525993727196 -0.05121251900708941 0.13782065271465468 -0.10303941685438811 -0.024508160765079112 0.10626760199049963 0.010597257919644309 -0.018066096837557537 -0.11670440380536065 -0.0056961368622164537 0.018747193007342493 0.018261841289957184 -0.0063995260013638136 0.11703473417042837
leaf_weight=378.18832342326641 863.04465687274933 179.99964581429958 2409.6780154854059 12.48332157731056 53.986743599176407 390.17990754544735 604.0822773873806 8.2401761561632139 5.9949311316013327 1060.083446264267 11.738459452986715 82.875650987029076 97.21971195936203 13.488351821899416 55.710007980465889 8.4948980957269651 186.18074163794518 109.46878781914711 9.7475034743547422 9.2474478632211667 5.7475310862064353 6.4947694689035407 216.55392168462276 368.32315804064274 15.489182263612745 665.52667532861233 410.82866340875626 259.89660802483559 191.94782936573029 5.9996051788330069
leaf_count=1523 3453 721 9653 50 216 1563 2422 33 24 4243 47 332 389 54 223 34 745 438 39 37 23 26 867 1474 62 2663 1647 1040 768 24
internal_value=0 -0.008575 0.0134154 -0.00417271 -0.00102514 -0.00774758 0.0102194 -0.0135302 -0.0231703 -0.0216704 -0.0382644 -0.00702613 -0.014039 -0.00526335 0.0304061 -0.0217203 -0.0266306 -0.0247179 0.0095949 -0.00707128 0.0776085 -0.00894042 -0.0101594 -0.00745333 -0.0647772 0.00725518 0.00647868 0.00103224 -0.0171674 -0.00265835
internal_weight=0 5304.99 3391.95 3970.3 3010.03 1661.3 3013.76 1271.12 586.816 1334.7 274.614 94.6141 960.264 684.3 63.9502 580.821 502.092 493.597 78.7292 63.2342 15.495 620.349 613.855 584.877 28.9775 1348.74 1336.25 925.423 384.128 197.947
internal_count=34833 21235 13598 15892 12050 6650 12075 5087 2348 5343 1100 379 3842 2739 256 2324 2009 1975 315 253 62 2483 2457 2341 116 5400 5350 3703 1537 792
is_linear=0
shrinkage=0.1


Tree=4
num_leaves=31
num_cat=0
split_feature=18 20 20 21 20 4 18 4 4 22 3 19 20 3 4 21 19 7 18 18 17 17 17 22 16 22 16 7 16 21
split_gain=84.0512 28.8014 18.6785 16.5826 10.856 10.7526 10.4015 10.1837 8.85751 9.63652 10.7363 8.55872 8.50923 10.8745 12.8268 12.8159 8.96637 10.0782 10.0103 9.22331 8.5699 10.12 10.9021 8.4255 8.15281 8.07597 8.47109 13.3809 8.01876 8.55821
threshold=-44.780115231614325 72.678752959999926 12.398430483223876 58.222996292864586 60.695394970695126 1963.2844715000003 137.68210962316843 1470.5177040000001 1801.1128495000003 18.500000000000004 60648.240000000005 1224597.2913579964 85.273417338500067 16842.590000000004 4128.9209960000007 65.675464108161222 324466.08375449997 9386.3351500000008 148.80309365306061 184.42828727841894 43.692202053851496 20.972581648388083 19.067597440726562 22.500000000000004 80.922857142857225 19.500000000000004 257.62928571428603 21843.361750000004 27.493214285714402 75.465490303255379
decision_type=2 2 2 2 2 2 2 2 2 2 2 2 2 2 2 2 2 2 2 2 2 2 2 2 2 2 2 2 2 2
left_child=2 3 25 4 -2 6 28 23 -4 10 -10 -9 13 14 -7 -16 17 18 -14 -18 21 22 -19 -5 -20 26 -1 -28 -3 -30
right_child=1 5 8 7 -6 12 -8 11 9 -11 -12 -13 16 -15 15 -17 19 20 24 -21 -22 -23 -24 -25 -26 -27 27 -29 29 -31
leaf_value=0.041857355174446199 -0.0039387529338696077 0.091503954920693353 0.019188926727156524 -0.0011775733854894879 -0.025406424814855201 -0.001982597549498847 -0.068454031165750592 0.011442640036665388 0.0034442494145013967 0.023363238005365973 -0.075512127791165382 0.062236052231535603 0.008682660896566094 -0.0098533471937696446 -0.039050724712475338 0.069409104010542788 -0.0144705100904199 -0.06071794791115373 -0.03210681083266155 0.038870016028647952 0.0014566559846164785 -0.10508336818293496 0.065016345579298404 -0.059857872732572218 -0.17660894327638962 0.063996149694097462 -0.10046256990885397 0.018655046959482956 -0.03720535586590238 -0.015136529820665587
leaf_weight=198.81986276805401 1809.2610191255808 6.2436005920171729 798.01754949986935 501.91342917084694 270.81791035830975 127.89402866363525 49.839997991919518 919.63827273249626 1185.5972074717283 264.97771787643433 17.475718185305595 34.415158554911613 64.44626972079277 550.4643499404192 13.242947205901144 61.436645209789276 549.97518347203732 36.704256430268288 13.485987886786463 34.447381108999252 20.737807586789131 42.461775347590446 8.4915193617343885 25.722700133919716 5.4954863786697379 69.552784487605095 9.9044468998908979 197.05857452750206 259.52948579192162 544.15700376033783
leaf_count=803 7241 25 3199 2010 1084 512 200 3687 4749 1063 70 138 258 2204 53 246 2202 147 54 138 83 170 34 103 22 281 40 796 1040 2181
internal_value=0 -0.00667263 0.0144897 -0.000974948 -0.00673376 -0.0151671 -0.0241146 0.00710959 0.0107092 0.00609965 0.00229734 0.0132749 -0.0101369 -0.00256343 0.0172458 0.0501759 -0.0174839 -0.0362434 -0.0101163 -0.0113265 -0.0563524 -0.0700287 -0.0370946 -0.00403829 -0.0739428 0.0325124 0.0271159 0.0129545 -0.0213861 -0.0222631
internal_weight=0 5950.82 2741.4 3561.77 2080.08 2389.05 859.77 1481.69 2266.07 1468.05 1203.07 954.053 1529.28 753.038 202.574 74.6796 776.246 191.823 83.4277 584.423 108.395 87.6576 45.1958 527.636 18.9815 475.336 405.783 206.963 809.93 803.686
internal_count=34833 23832 11001 14263 8325 9569 3446 5938 9081 5882 4819 3825 6123 3015 811 299 3108 768 334 2340 434 351 181 2113 76 1920 1639 836 3246 3221
is_linear=0
shrinkage=0.1


Tree=5
num_leaves=31
num_cat=0
split_feature=18 20 20 23 4 21 20 22 8 13 18 21 12 19 13 12 13 15 12 16 17 18 6 11 6 6 19 11 21 7
split_gain=68.157 24.1291 15.677 10.455 9.80626 9.51953 14.9078 14.2424 12.6634 14.6172 12.6199 12.1907 12.1104 12.0081 11.9902 11.5466 11.3892 9.62253 11.0747 11.0105 9.33723 9.90779 10.5609 9.35868 8.81586 8.9023 8.5 8.4693 13.4216 9.45691
threshold=-44.780115231614325 79.474815597343138 10.751449220543476 2.5000000000000004 1561.9354745000003 56.281863770582213 63.441089159180983 8.5000000000000018 28338.459275000005 -418.65984627497875 19.400154969150158 85.154380073457418 3.55010364118607 1224597.2913579964 175.16852629994352 444.24401563352882 161.0284926011627 56946.015185536518 144.93750685907074 487.7082142857144 50.987677952195178 48.180033704725922 42739.094000000012 64.936957664084943 20173.763166666671 21217.70316666667 1188356.8927929976 67.128436667707959 69.777357935070725 28889.725300000002
decision_type=2 2 2 2 2 2 2 2 2 2 2 2 2 2 2 2 2 2 2 2 2 2 2 2 2 2 2 2 2 2
left_child=2 5 -1 -3 -4 10 8 12 -7 -10 -2 17 -8 26 16 -12 -14 19 -19 24 21 22 23 -5 -9 -26 -11 -27 -29 -30
right_child=1 3 4 20 -6 6 7 11 9 13 15 -13 14 -15 -16 -17 -18 18 -20 -21 -22 -23 -24 -25 25 27 -28 28 29 -31
leaf_value=0.032147319495312708 -0.0025071281912617451 -0.00803807999011826 0.02016355663687015 0.072107792558296149 0.0059578251448073579 0.023776100180536035 0.0068345573466132171 0.010943496398813979 0.084172372729172162 -0.0083577735032292089 -0.022791881644026769 0.05465658072110207 -0.031897497510019711 0.039526021978296702 0.0016645444326837699 0.11144277868322944 -0.12953653637333332 0.021051105150576413 -0.10544504031360219 0.030705876239388918 0.017769357126313431 -0.029081185668906884 -0.071556889720322772 -0.06376789332989756 -0.078017138759373841 -0.0030160460008203261 -0.074682199248969905 -0.17562600152065833 0.02611816609120143 -0.087033650242596419
leaf_weight=371.7507545799017 1463.5222140699625 810.46635670959949 683.08082394301891 27.228317081928253 1683.6679121851921 471.89381872117519 165.24667540192604 312.99881890416145 19.212178841233253 286.13947419822216 485.50377307832241 45.312350302934647 280.88354605436325 51.086811259388924 118.28300669789314 6.4937296062707892 12.477343678474424 11.471198201179506 17.448815032839775 125.30319978296757 50.712416380643845 768.09150224924088 9.7294129282236081 6.2287056595087043 19.219809979200363 325.58117106556892 20.722252249717712 7.2351251989603034 16.721420601010326 13.230571687221525
leaf_count=1508 5857 3247 2742 109 6751 1893 662 1254 77 1147 1944 182 1125 205 474 26 50 46 70 502 203 3082 39 25 77 1304 83 29 67 53
internal_value=0 -0.00600826 0.0130565 -0.016192 0.0100578 -0.0020251 0.00230635 -0.00378229 0.012858 -0.00080252 -0.0071649 0.00411858 -0.0160333 -0.00536338 -0.0252132 -0.0210202 -0.0360503 0.00142196 -0.05527 0.00342069 -0.0238586 -0.0264608 0.0201447 0.0468118 -0.00149872 -0.0116938 -0.0128366 -0.00817992 -0.0533908 -0.0238639
internal_weight=0 5948.44 2738.5 1672.46 2366.75 4275.99 2320.47 1471.41 849.055 377.161 1955.52 894.522 576.891 357.949 411.644 491.998 293.361 849.21 28.92 820.29 861.99 811.278 43.1864 33.457 694.987 381.988 306.862 362.768 37.1871 29.952
internal_count=34833 23832 11001 6705 9493 17127 9300 5895 3405 1512 7827 3584 2311 1435 1649 1970 1175 3402 116 3286 3458 3255 173 134 2784 1530 1230 1453 149 120
is_linear=0
shrinkage=0.1


Tree=6
num_leaves=31
num_cat=0
split_feature=20 20 20 21 7 22 4 13 19 22 20 2 12 18 22 13 21 4 4 23 21 16 4 16 16 17 8 11 12 13
split_gain=57.2282 17.0809 15.0336 12.6598 9.23996 10.0751 10.206 10.0844 9.09882 9.03167 8.72846 8.71425 8.58883 12.8089 11.3118 10.3465 10.3409 8.26461 11.3823 8.2923 8.24748 8.16368 10.1354 9.20328 9.02795 8.14709 8.99814 8.34613 11.4883 10.3538
threshold=44.138618787143038 83.63101069653554 10.751449220543476 86.101278906416368 43025.132450000012 4.5000000000000009 13634.8943275 49.387817064679012 -55516.06916949986 18.500000000000004 82.005013017041762 57977.720000000008 -75.150824410900881 -31.515346251180461 21.500000000000004 89.594042060486316 37.146127833131445 2288.8821570000005 1169.1867570000002 1.5000000000000002 45.237061887812629 276.9785714285718 679.19528500000013 60.653214285714455 172.53642857142927 31.083530594051311 6387.3423500000017 59.432457999902169 35.500859550445973 175.16852629994352
decision_type=2 2 2 2 2 2 2 2 2 2 2 2 2 2 2 2 2 2 2 2 2 2 2 2 2 2 2 2 2 2
left_child=2 3 20 11 5 -5 7 -7 -3 -4 -6 25 13 -11 17 -16 -15 18 21 -19 -1 22 23 -14 -24 27 -27 -2 -29 -30
right_child=1 8 9 4 10 6 -8 -9 -10 12 -12 -13 14 16 15 -17 -18 19 -20 -21 -22 -23 24 -25 -26 26 -28 28 29 -31
leaf_value=0.026652785581902445 -0.0041006214363779291 -0.066158599636400597 0.0050244819003551593 -0.025395987149750738 0.014181423766972885 0.036417379532642589 -0.073254961939557536 0.1143749274007976 -0.015360920360220296 0.012640689091786337 -0.10267085729489162 -0.027953377215254524 -0.053854144275770434 -0.097608214598324722 0.021792705795532042 -0.041054900873213673 0.030145921426458028 0.06683592739961787 0.091732100408704761 0.0002558603227281541 0.12302569735077429 0.098384306497744489 0.0038138779072510692 0.1001732506721746 -0.1319669168605862 0.092750450054898084 0.0026925903391202609 0.014377996399829659 -0.03919691321336502 0.00026653428410720951
leaf_weight=364.87783239781857 2204.376476302743 36.335557118058205 2433.5959061086178 16.474538758397102 23.893111258745193 36.57694961130619 5.2307361662387839 30.371327266097069 1192.5641936957836 219.19209845364094 8.7273009270429593 150.810650780797 4.9743418097496059 20.229257211089138 107.6068471968174 34.623415052890778 9.225260376930235 26.360503077507019 58.184606045484543 64.422333851456642 9.1014646589755994 14.66971220076084 27.341923549771309 17.620862230658531 5.9651218801736823 11.203553095459936 1140.2596123069525 79.584635987877846 234.08032889664173 92.855859667062759
leaf_count=1486 8830 146 9758 66 96 147 21 122 4786 881 35 605 20 81 432 139 37 106 235 259 37 59 110 71 24 45 4570 319 938 372
internal_value=0 -0.00654101 0.0100771 -0.00339695 0.0284232 0.0451667 0.0612723 0.0717831 -0.0168629 0.00775252 -0.0170814 -0.0043831 0.0186286 0.0043206 0.0284626 0.00649358 -0.0575952 0.0426953 0.0589872 0.0195886 0.0289982 0.03199 0.014567 0.0662641 -0.0205038 -0.0034383 0.00356884 -0.00652861 -0.0196945 -0.0279886
internal_weight=0 5263.34 3417.99 4034.45 121.274 88.6536 72.179 66.9483 1228.9 3044.01 32.6204 3913.17 610.416 248.647 361.77 142.23 29.4545 219.539 128.757 90.7828 373.979 70.572 55.9022 22.5952 33.307 3762.36 1151.46 2610.9 406.521 326.936
internal_count=34833 21098 13735 16166 487 356 290 269 4932 12212 131 15679 2454 999 1455 571 118 884 519 365 1523 284 225 91 134 15074 4615 10459 1629 1310
is_linear=0
shrinkage=0.1


Tree=7
num_leaves=31
num_cat=0
split_feature=20 20 22 23 20 10 18 21 17 16 22 21 19 18 19 20 18 17 3 25 6 6 20 21 18 1 16 20 9 11
split_gain=46.7368 15.1019 12.0973 13.9471 10.5514 13.0981 10.0373 9.69932 10.175 11.2678 9.84584 9.4013 9.3922 9.29484 9.25131 11.8873 9.47336 9.12857 8.88234 8.65231 8.48395 8.96805 8.28432 9.6737 9.90182 8.18684 11.4645 8.03785 8.00754 8.59511
threshold=54.132468289369704 12.398430483223876 7.5000000000000009 2.5000000000000004 84.906529281002705 19316.147719994351 9.8124976625418281 83.253717985377691 41.524255083860659 295.81642857142907 22.500000000000004 73.140429249697078 67059.169043500151 184.42828727841894 179307.13861250033 71.025255219967477 103.16660549886306 9.2710108245904514 19059.260000000006 19546.035000000003 26765.39783333334 26983.273333333338 59.992145753845115 65.675464108161222 62.19191045188488 19353.445000000003 131.4692857142858 98.057077619002925 24024.963814754381 56.282689823008162
decision_type=2 2 2 2 2 2 2 2 2 2 2 2 2 2 2 2 2 2 2 2 2 2 2 2 2 2 2 2 2 2
left_child=1 -1 3 12 5 7 11 8 9 14 -9 -5 -2 -8 -4 16 -16 -6 -7 25 28 -22 -10 -24 -25 26 -20 -23 29 -14
right_child=2 -3 4 6 17 18 13 10 22 -11 -12 -13 20 -15 15 -17 -18 -19 19 -21 21 27 23 24 -26 -27 -28 -29 -30 -31
leaf_value=0.024076753650578445 0.038822806804768434 0.005192651854224007 -0.0086246787710367902 0.010629823726788203 -0.058805869082153975 0.1215553544657587 -0.029247427747163664 0.057485171706423588 0.11105409520789743 -0.12197223611457352 -0.074105128348759847 -0.10167841335302662 0.0077957138093342959 0.080955263905982747 0.032715724255731389 -0.0077813765554179907 0.17007319361377621 -0.011092402837132717 -0.082586490833261583 -0.0048474617669136133 0.11164150956618296 0.0032988659095828086 -0.026505714487380573 0.084734184955493397 -0.0075187371452473091 -0.1151511579281191 0.098091034851814321 -0.10522402147688455 -0.075992180900703366 -0.032861120524379485
leaf_weight=474.59638904035091 48.365070104598999 3932.433495387435 275.96064990758896 112.63529172539711 42.466146901249886 5.4824301004409781 693.62014612555504 65.902042642235756 13.448202908039091 7.2339918762445441 6.2228785008192053 7.9817678183317176 91.604209408164024 7.7388439774513236 126.51200371980667 98.327539637684822 5.2286262810230246 718.9925702214241 8.491383835673334 1373.4691139906645 7.4849253892898551 306.54054988920689 23.966601312160492 31.596260726451874 18.416024774312973 13.976666018366812 5.9888586997985831 6.9803278446197501 24.208676666021347 120.26346378028393
leaf_count=1937 194 15771 1106 451 171 22 2784 265 54 29 25 32 367 31 507 394 21 2888 34 5507 30 1229 96 127 74 56 24 28 97 482
internal_value=0 0.0072263 -0.00745455 -0.0149654 -0.00368175 4.9306e-06 -0.0234488 0.0114815 0.00732105 0.00194957 0.0461317 0.00319789 -0.00344788 -0.0280314 0.0037211 0.0185295 0.0381673 -0.0137534 -0.00548147 -0.00597827 -0.00711776 0.00346525 0.0388557 0.0257312 0.0507639 -0.0605565 -0.00786038 0.000882678 -0.0215081 -0.0152825
internal_weight=0 4407.03 4269.11 1427.42 2841.68 2080.22 821.976 672.815 600.69 513.263 72.1249 120.617 605.447 701.359 506.029 230.068 131.741 761.459 1407.41 1401.93 557.082 321.006 87.4271 73.9789 50.0123 28.4569 14.4802 313.521 236.076 211.868
internal_count=34833 17708 17125 5725 11400 8341 3298 2698 2408 2057 290 483 2427 2815 2028 922 528 3059 5643 5621 2233 1287 351 297 201 114 58 1257 946 849
is_linear=0
shrinkage=0.1


Tree=8
num_leaves=31
num_cat=0
split_feature=20 20 20 21 4 18 20 23 20 12 11 17 18 8 22 11 7 4 21 13 20 17 21 28 11 17 11 11 16 12
split_gain=39.5259 12.9961 10.9174 10.1744 11.1553 11.2626 10.2255 8.70181 8.30583 7.90264 7.57391 7.54417 8.91173 11.7203 7.48697 8.96165 8.63863 8.55761 8.30243 10.4143 8.6812 8.85771 10.7116 8.63047 8.12933 8.00187 10.0938 11.2058 8.54311 7.50399
threshold=39.609903741172253 79.157580701112934 3.5912455366385565 59.218403686025169 1494.8678565000002 50.801973761457141 77.660910082221889 2.5000000000000004 46.2168262034184 -366.61758537422423 42.300944111028564 42.153552093249864 48.180033704725922 44246.626825000007 7.5000000000000009 79.629811774332481 19992.031350000001 1576.3730075000001 64.456675258470128 -9.2727326887652879 77.660910082221889 43.278693906493103 83.253717985377691 19995.855000000007 55.396514438375235 30.272907645170253 57.919231993280754 61.409071257967518 91.911785714285656 38.092909227538264
decision_type=2 2 2 2 2 2 2 2 2 2 2 2 2 2 2 2 2 2 2 2 2 2 2 2 2 2 2 2 2 2
left_child=2 3 -1 -2 5 6 8 9 -5 -3 -6 12 13 -9 24 16 17 -16 19 -19 21 22 23 -20 -12 29 -27 -28 -29 -26
right_child=1 7 -4 4 10 -7 -8 11 -10 -11 14 -13 -14 -15 15 -17 -18 18 20 -21 -22 -23 -24 -25 25 26 27 28 -30 -31
leaf_value=0.048816771065660555 -0.0068871284831816607 -0.087466154273225002 0.0084283453622627114 0.081484503755750171 0.051354664641457576 -0.021674306886901293 0.089498413975314245 0.048038795462717165 -0.0016407314664647601 -0.0036369594258274553 0.012701288532171224 0.0043924496953030197 -0.025345914619949696 -0.086965789912943167 0.10793276524584212 -0.086943860786187835 0.0053316887703110313 -0.072791309967456225 0.018675420686509469 0.014783432782807845 -0.021146825818820214 0.082808832648495034 0.11481168965273694 0.13609102051529806 0.019034073417752602 0.099323863190736383 -0.075591893163358514 -0.072494645360507093 0.022169719812259119 -0.045576181755849238
leaf_weight=68.508427664637566 1963.5835507512093 11.403353586792944 2899.9221799522638 12.398830875754355 40.299018159508705 298.42522892355919 13.457220882177351 33.663506001234055 393.7848124653101 812.74586789309978 169.60582190752029 118.35258437693119 720.07573257386684 7.9488798528909674 12.213175997138022 8.9650158137083036 515.71707573533058 18.214046716690063 180.5557909309864 53.362811088562012 28.615137979388237 36.045230209827423 13.553234338760374 6.4849630445241919 21.950889319181442 9.9536894261836988 18.938121244311333 10.986359834671019 72.079268828034401 99.265914723277092
leaf_count=281 7865 46 11673 50 162 1197 54 135 1578 3261 680 475 2901 32 49 36 2069 73 725 214 115 146 55 26 88 40 76 44 289 398
internal_value=0 -0.00486858 0.00936047 -0.00175198 0.00320326 -0.00682325 0.003738 -0.0121809 0.000896682 -0.00479686 0.00867081 -0.019096 -0.0227457 0.02225 0.00732329 0.0125231 0.0135543 0.0257033 0.0227217 -0.00750157 0.0308772 0.0371681 0.0289668 0.0227464 -0.00395635 -0.0160727 0.00320296 -0.00617667 0.0096493 -0.0338761
internal_weight=0 5702.65 2968.43 3998.46 2034.87 718.066 419.641 1704.19 406.184 824.149 1316.81 880.041 761.688 41.6124 1276.51 873.726 864.761 349.044 336.831 71.5769 265.254 236.639 200.594 187.041 402.78 233.174 111.957 102.004 83.0656 121.217
internal_count=34833 22879 11954 16029 8164 2879 1682 6850 1628 3307 5285 3543 3068 167 5123 3508 3472 1403 1354 287 1067 952 806 751 1615 935 449 409 333 486
is_linear=0
shrinkage=0.1


Tree=9
num_leaves=31
num_cat=0
split_feature=18 20 21 20 4 21 2 12 19 11 21 23 22 22 19 12 28 21 20 21 21 20 18 20 4 19 26 21 17 5
split_gain=33.725 11.6107 12.4724 8.79426 8.26616 8.27313 8.53566 8.23067 8.20022 7.73971 10.1003 9.5749 7.49526 10.7415 14.75 11.2812 9.31493 15.5467 10.2166 9.14332 8.46286 16.5142 8.31776 7.71729 7.46264 7.45928 7.33658 7.09853 7.75218 6.9709
threshold=-44.780115231614325 72.678752959999926 58.222996292864586 3.5912455366385565 1963.2844715000003 87.676928915580973 58871.590000000004 701.66078906967971 1224597.2913579964 65.833691759734521 75.465490303255379 4.5000000000000009 18.500000000000004 8.5000000000000018 1111620.5591024987 88.380132759157291 57848.44000000001 19.019918749277242 21.663307340692274 8.8656967939631119 22.886729622541434 17.842534401825521 -50.000755788977244 22.374517634339394 1457.3913900000002 1203819.0058879971 16533.080000000005 77.603207997001689 50.392854601848704 11773.435000000001
decision_type=2 2 2 2 2 2 2 2 2 2 2 2 2 2 2 2 2 2 2 2 2 2 2 2 2 2 2 2 2 2
left_child=3 2 -2 -1 5 6 9 -7 25 -3 -11 27 13 14 16 20 18 -18 22 -14 21 -16 -5 -20 -8 -4 29 -12 -29 -21
right_child=1 4 8 12 -6 7 24 -9 -10 10 11 -13 19 -15 15 -17 17 -19 23 26 -22 -23 -24 -25 -26 -27 -28 28 -30 -31
leaf_value=0.044862100967240151 -0.0056042227763374456 -0.014488964248630016 0.0055417307746796467 0.0263728071017682 -0.0052177507830709685 -0.00040645075769421698 -0.036905572282627877 0.11124695057667333 0.035603373007409088 -0.10593562701309696 0.071325772745579483 -0.080414606853081702 0.1056409762053791 -0.00063089750461210227 0.059162337198802387 0.12201659304568682 -0.12707820332211883 0.0050416589164571082 -0.066376319781654022 0.035124005932708625 0.047520973500637574 -0.061661557076909436 -0.0840918724982192 0.0029651088601407838 -0.13311190088637051 -0.047581828160886463 0.011873613570669662 -0.0052214807349088566 -0.10225539771344315 0.13398400792181009
leaf_weight=67.457762435078621 2078.6952691376209 573.10818603634834 1361.5826071947813 310.52574403584003 1523.8588377535343 125.61927865445614 24.178557053208351 6.9684898257255545 90.339536353945732 20.85979750752449 9.4731432199478132 25.982628256082535 11.926863387227057 1192.1633516848087 21.644586309790611 15.411468937993048 13.384510338306425 26.619964331388474 16.706402137875557 71.16892945766449 107.6142880320549 23.697543367743492 6.9694606810808173 408.60070434212685 12.096628487110136 26.954805135726929 426.76390527188778 47.251132354140282 9.9707097858190519 7.9270510077476493
leaf_count=279 8325 2308 5467 1255 6123 506 98 28 363 84 38 105 49 4799 88 62 54 107 67 288 433 95 28 1639 49 108 1726 190 40 32
internal_value=0 -0.00422661 -0.000609999 0.00920486 -0.00963407 -0.0175006 -0.021712 0.00546178 0.00640984 -0.0192145 -0.0430676 -0.0289173 0.00830098 0.00569248 0.0136179 0.0404692 0.00784271 -0.0391624 0.0103742 0.0190987 0.0322527 -0.00398488 0.023948 0.000241322 -0.0689873 0.00451048 0.0170582 -0.00885525 -0.0221293 0.0450318
internal_weight=0 5936.94 3557.57 2728.58 2379.37 855.509 722.921 132.588 1478.88 686.646 113.537 92.6776 2661.12 2143.34 951.175 168.368 782.807 40.0045 742.802 517.787 152.956 45.3421 317.495 425.307 36.2752 1388.54 505.86 66.695 57.2218 79.096
internal_count=34833 23832 14263 11001 9569 3446 2912 534 5938 2765 457 373 10722 8627 3828 678 3150 161 2989 2095 616 183 1283 1706 147 5575 2046 268 230 320
is_linear=0
shrinkage=0.1


Tree=10
num_leaves=31
num_cat=0
split_feature=20 22 22 18 17 22 20 3 21 16 21 11 23 20 21 27 16 20 16 16 4 4 20 20 16 22 21 21 4 21
split_gain=28.1366 10.2438 9.77199 9.05622 8.82927 8.70586 12.2462 9.68163 11.0724 12.5491 9.49516 8.45812 8.43011 12.0612 11.3983 8.98134 10.0087 14.0074 8.79556 8.71737 8.70471 9.82644 10.9605 7.9158 8.16914 8.03755 7.57475 7.53412 7.95843 7.398
threshold=54.132468289369704 1.5000000000000002 18.500000000000004 -121.9288294489953 65.161232438882209 7.5000000000000009 33.988764665468317 57225.380000000012 38.035183298729095 703.84321428571423 22.175305015790318 65.229646086316109 3.5000000000000004 42.712379566606067 52.006870375288607 19996.110000000004 746.06928571428546 46.906874315881971 138.41964285714303 257.62928571428603 3337.5178900000005 4983.4677010000005 20.103000018486785 18.994980310230876 46.024999999999899 2.5000000000000004 93.956324275097714 62.738880755793225 366.85669000000007 56.634089804166649
decision_type=2 2 2 2 2 2 2 2 2 2 2 2 2 2 2 2 2 2 2 2 2 2 2 2 2 2 2 2 2 2
left_child=2 4 5 -3 -2 6 7 8 23 -10 -9 12 15 -14 -15 18 -17 20 -7 -20 -18 -22 -23 25 -25 -1 29 28 -8 -5
right_child=1 3 -4 26 -6 11 27 10 9 -11 -12 -13 13 14 -16 16 17 -19 19 -21 21 22 -24 24 -26 -27 -28 -29 -30 -31
leaf_value=0.0053469525518419388 -0.023734917371223324 -0.1325794330248434 0.015011075636254076 -0.013881571901573648 0.10701650435628073 -0.0015160938847537766 0.080225928232073127 -0.096036862038089393 0.058916500384382869 -0.10036467091124224 0.01114197331740607 0.093698449783343865 0.013011524175605716 -0.028609907558541692 0.015526814663339803 -0.016289440709493268 0.079061129280638923 0.12979142220042003 0.055153320419073337 -0.039693861837816508 -0.077535904251385568 0.09930966455116251 -0.024791275684238178 -0.063618929530032758 0.0090086264071872809 0.041448714406148085 -0.038325962807537681 0.040968040356711657 -0.0047409650401345768 -0.0016730975591964809
leaf_weight=96.562684446573257 358.04596391320229 5.4949480295181266 884.01181058585644 586.06018634140491 5.2401297688484183 266.41212925314903 11.219598323106764 14.421033158898352 96.611415401101112 5.2132481336593619 19.365768522024155 9.3993846178054792 652.53843472898006 162.15534536540508 91.543585419654846 734.31397181749344 12.446875318884848 10.478171586990355 56.200285315513611 11.709248363971708 16.41713584959507 10.843093514442446 20.708669751882553 16.188897803425789 357.3192922025919 170.65932616591454 63.645115688443184 40.976244807243347 631.38914857804775 3242.7306878566742
leaf_count=393 1439 22 3571 2350 21 1071 45 58 389 21 78 38 2627 649 367 2955 50 42 226 47 66 44 83 65 1434 694 256 165 2530 13037
internal_value=0 -0.00578849 0.00561279 -0.00429167 -0.0218489 0.00324921 0.00915388 0.0177481 0.0201302 0.0507616 -0.0346046 -0.000945282 -0.00138013 0.00581818 -0.0126838 -0.00710475 -0.0128253 0.0230563 0.00667304 0.0387994 0.00454478 -0.0147906 0.0178573 0.0152622 0.00586074 0.0284031 -0.00411056 -0.000606471 -0.00325749 -0.00354181
internal_weight=0 4261.22 4399.1 3897.93 363.286 3515.09 1459.93 776.342 742.555 101.825 33.7868 2055.17 2045.77 906.237 253.699 1139.53 805.208 70.8939 334.322 67.9095 60.4158 47.9689 31.5518 640.73 373.508 267.222 3892.44 683.585 642.609 3828.79
internal_count=34833 17125 17708 15665 1460 14137 5872 3132 2996 410 136 8265 8227 3643 1016 4584 3240 285 1344 273 243 193 127 2586 1499 1087 15643 2740 2575 15387
is_linear=0
shrinkage=0.1


end of trees

feature_importances:
%K=56
%D=50
volume=29
hour=29
CCI_14=28
ADX_14=21
ATR_14=18
RSI_14=17
MACD=15
OBV=13
day_of_week=9
close=7
Signal_Line=7
SMA_30=5
SMA_100=5
SMA_200=3
EMA_200=3
low=2
SMA_10=2
EMA_20=2
Upper_Band=2
lag_5=2
high=1
Lower_Band=1
lag_2=1
lag_3=1
lag_4=1

parameters:
[boosting: gbdt]
[objective: binary]
[metric: binary_logloss]
[tree_learner: serial]
[device_type: cpu]
[data_sample_strategy: bagging]
[data: ]
[valid: ]
[num_iterations: 10000]
[learning_rate: 0.1]
[num_leaves: 31]
[num_threads: 0]
[seed: 0]
[deterministic: 0]
[force_col_wise: 0]
[force_row_wise: 0]
[histogram_pool_size: -1]
[max_depth: -1]
[min_data_in_leaf: 20]
[min_sum_hessian_in_leaf: 0.001]
[bagging_fraction: 1]
[pos_bagging_fraction: 1]
[neg_bagging_fraction: 1]
[bagging_freq: 0]
[bagging_seed: 3]
[feature_fraction: 1]
[feature_fraction_bynode: 1]
[feature_fraction_seed: 2]
[extra_trees: 0]
[extra_seed: 6]
[early_stopping_round: 0]
[early_stopping_min_delta: 0]
[first_metric_only: 0]
[max_delta_step: 0]
[lambda_l1: 0]
[lambda_l2: 0]
[linear_lambda: 0]
[min_gain_to_split: 0]
[drop_rate: 0.1]
[max_drop: 50]
[skip_drop: 0.5]
[xgboost_dart_mode: 0]
[uniform_drop: 0]
[drop_seed: 4]
[top_rate: 0.2]
[other_rate: 0.1]
[min_data_per_group: 100]
[max_cat_threshold: 32]
[cat_l2: 10]
[cat_smooth: 10]
[max_cat_to_onehot: 4]
[top_k: 20]
[monotone_constraints: ]
[monotone_constraints_method: basic]
[monotone_penalty: 0]
[feature_contri: ]
[forcedsplits_filename: ]
[refit_decay_rate: 0.9]
[cegb_tradeoff: 1]
[cegb_penalty_split: 0]
[cegb_penalty_feature_lazy: ]
[cegb_penalty_feature_coupled: ]
[path_smooth: 0]
[interaction_constraints: ]
[verbosity: -1]
[saved_feature_importance_type: 0]
[use_quantized_grad: 0]
[num_grad_quant_bins: 4]
[quant_train_renew_leaf: 0]
[stochastic_rounding: 1]
[linear_tree: 0]
[max_bin: 255]
[max_bin_by_feature: ]
[min_data_in_bin: 3]
[bin_construct_sample_cnt: 200000]
[data_random_seed: 1]
[is_enable_sparse: 1]
[enable_bundle: 1]
[use_missing: 1]
[zero_as_missing: 0]
[feature_pre_filter: 1]
[pre_partition: 0]
[two_round: 0]
[header: 0]
[label_column: ]
[weight_column: ]
[group_column: ]
[ignore_column: ]
[categorical_feature: ]
[forcedbins_filename: ]
[precise_float_parser: 0]
[parser_config_file: ]
[objective_seed: 5]
[num_class: 1]
[is_unbalance: 0]
[scale_pos_weight: 1]
[sigmoid: 1]
[boost_from_average: 1]
[reg_sqrt: 0]
[alpha: 0.9]
[fair_c: 1]
[poisson_max_delta_step: 0.7]
[tweedie_variance_power: 1.5]
[lambdarank_truncation_level: 30]
[lambdarank_norm: 1]
[label_gain: ]
[lambdarank_position_bias_regularization: 0]
[eval_at: ]
[multi_error_top_k: 1]
[auc_mu_weights: ]
[num_machines: 1]
[local_listen_port: 12400]
[time_out: 120]
[machine_list_filename: ]
[machines: ]
[gpu_platform_id: -1]
[gpu_device_id: -1]
[gpu_use_dp: 0]
[num_gpu: 1]

end of parameters

pandas_categorical:[]
