tree
version=v4
num_class=1
num_tree_per_iteration=1
label_index=0
max_feature_idx=48
objective=binary sigmoid:1
feature_names=open high low close volume IBIT FBTC BITB ARKB BTCO EZBC BRRR HODL BTCW GBTC BTC Total SMA_10 SMA_30 SMA_100 SMA_200 EMA_20 EMA_200 RSI_14 MACD Signal_Line Upper_Band Lower_Band ATR_14 ADX_14 CCI_14 OBV %K %D hour day_of_week close_lag_1 close_lag_2 close_lag_7 close_lag_30 etf_total_lag_1 etf_total_lag_2 etf_total_lag_7 etf_total_lag_30 lag_1 lag_2 lag_3 lag_4 lag_5
feature_infos=[49804.010000000002:66686.009999999995] [51542:66849.240000000005] [49000:66326] [49804:66686] [125.55714999999999:20888.722870000001] [-13.5:224.09999999999999] [-162.30000000000001:123.59999999999999] [-30:50.399999999999999] [-102:203.09999999999999] [-11.1:10.199999999999999] [-23:8.6999999999999993] [-4.5999999999999996:5.2000000000000002] [-23:22.100000000000001] [0:118.5] [-182.90000000000001:26.199999999999999] [-8.8000000000000007:191.09999999999999] [-287.80000000000001:494.39999999999998] [52040.900000000001:66340.580999999991] [53836.098000000005:65826.780666666658] [54897.062300000005:65387.605299999996] [56019.801249999997:64471.310999999994] [53998.790703793165:66344] [56234.024869948626:66344] [14.401532137858823:83.119207967380603] [-2319.5700356213129:1266.1832326469012] [-2036.3497216460833:1111.5791772980726] [54657.09313756472:67447.668827847592] [48399.470391410265:65609.259748430341] [133.54142857142764:1958.0364285714277] [4.2828126747050428:82.894040035278735] [-199.53112630001897:215.02205828660939] [-119263.5557600001:1560.1699800000001] [0:100] [3.8423545105612877:97.48914078690261] [0:23] [0:6] [49804:66686] [49804:66686] [49804:66686] [49804:66686] [-287.80000000000001:494.39999999999998] [-287.80000000000001:494.39999999999998] [-287.80000000000001:494.39999999999998] [-287.80000000000001:494.39999999999998] [49804:66686] [49804:66686] [49804:66686] [49804:66686] [49804:66686]
tree_sizes=3378

Tree=0
num_leaves=31
num_cat=0
split_feature=31 33 40 2 29 32 18 5 30 3 39 31 22 29 3 38 38 42 32 29 27 32 38 26 46 20 31 20 48 46
split_gain=11.1061 12.2274 9.43487 12.7706 12.5677 8.4267 10.6876 10.636 8.17061 7.24611 9.3505 7.55021 7.19323 9.59288 8.78687 7.36662 8.55575 11.7014 13.9313 7.90313 8.2114 7.1613 8.49331 6.23531 5.92449 5.67762 7.30929 7.00872 5.50389 8.80094
threshold=-116662.37829500013 91.398790579076419 -76.59999999999998 63130.635000000009 8.5637394061474428 34.814833189834623 64084.211500000005 23.450000000000003 -11.067956618412753 65816.270000000004 64085.975000000006 -69153.243490000008 59805.599066017101 24.057864791486718 56773.140000000007 61019.290000000001 60221.530000000006 61.70000000000001 78.015046238970015 27.865182748235465 58500.982729979165 84.036918057966218 54408.010000000009 64660.122063900119 58046.005000000012 59298.453950000003 -95299.887755000091 58379.766250000008 58673.560000000005 57969.010000000009
decision_type=2 10 10 2 10 10 8 2 10 2 10 2 2 10 2 8 10 10 10 10 10 8 10 8 10 10 2 8 8 8
left_child=-1 2 21 4 -4 6 -5 -7 -9 10 11 -10 14 -14 -6 16 17 18 19 20 -16 22 -2 -13 -20 26 -19 -28 29 -21
right_child=1 -3 3 5 12 7 -8 8 9 -11 -12 23 13 -15 15 -17 -18 25 24 28 -22 -23 -24 -25 -26 -27 27 -29 -30 -31
leaf_value=0.11882562903560057 0.077797319993694797 -0.13031337915965607 0.15216113013214896 0.10064262843748319 0.068247627371871913 -0.16047181258412946 -0.038760376148082892 -0.15738280862151494 0.037338848577371075 -0.13452417929816746 0.071203484611959952 -0.17643166639097102 0.0110171999574014 0.12695623905914893 -0.0099706252010638048 0.085490127939052113 -0.089931115536227263 0.073489347544294661 -0.038517936140107997 -0.10683007069488104 0.1012806284584698 -0.1296753791386695 -0.040464008636555152 -0.029901991241307786 -0.16324399562750147 0.12395416766583878 -0.10683007069488107 0.041487266491608193 -0.13452417929816746 0.052154626842503687
leaf_weight=5.9996098279952994 6.4995773136615744 9.4993822276592237 5.9996098279952994 8.2494635134935397 14.499057084321974 9.2493984848260862 16.498927026987076 5.2496585994958869 6.7495610564947119 4.9996748566627494 10.499317198991774 5.2496585994958922 23.498471826314926 10.249333456158636 21.998569369316105 6.9995447993278495 15.249008312821386 12.499187141656879 6.2495935708284369 6.4995773136615762 9.4993822276592237 8.2494635134935361 92.49398484826088 6.4995773136615762 9.7493659704923612 6.4995773136615744 6.4995773136615744 6.2495935708284387 6.2495935708284369 7.4995122849941263
leaf_count=24 26 38 24 33 58 37 66 21 27 20 42 21 94 41 88 28 61 50 25 26 38 33 370 26 39 26 26 25 25 30
internal_value=-0.0161294 -0.0183418 -0.0153579 -0.00468625 0.00991703 -0.039774 0.00770729 -0.0640041 -0.0412697 -0.0233405 -0.00417088 -0.0469509 0.00489665 0.0462283 -0.00534147 -0.0141057 -0.0201812 -0.00949092 -0.0329678 -0.00775265 0.0235813 -0.0401591 -0.0326994 -0.0953727 -0.114523 0.0406053 0.0191492 -0.0341255 -0.0564944 -0.0216597
internal_weight=0 365.976 356.477 249.234 175.989 73.2452 24.7484 48.4968 39.2474 33.9978 28.9981 18.4988 169.989 33.7478 136.241 121.742 114.743 99.4935 67.7456 51.7466 31.498 107.243 98.9936 11.7492 15.999 31.7479 25.2484 12.7492 20.2487 13.9991
internal_count=1488 1464 1426 997 704 293 99 194 157 136 116 74 680 135 545 487 459 398 271 207 126 429 396 47 64 127 101 51 81 56
is_linear=0
shrinkage=1


end of trees

feature_importances:
ADX_14=3
OBV=3
%K=3
close_lag_7=3
close=2
SMA_200=2
lag_3=2
low=1
IBIT=1
SMA_30=1
EMA_200=1
Upper_Band=1
Lower_Band=1
CCI_14=1
%D=1
close_lag_30=1
etf_total_lag_1=1
etf_total_lag_7=1
lag_5=1

parameters:
[boosting: gbdt]
[objective: binary]
[metric: binary_logloss]
[tree_learner: serial]
[device_type: cpu]
[data_sample_strategy: bagging]
[data: ]
[valid: ]
[num_iterations: 10000]
[learning_rate: 0.1]
[num_leaves: 31]
[num_threads: 0]
[seed: 0]
[deterministic: 0]
[force_col_wise: 0]
[force_row_wise: 0]
[histogram_pool_size: -1]
[max_depth: -1]
[min_data_in_leaf: 20]
[min_sum_hessian_in_leaf: 0.001]
[bagging_fraction: 1]
[pos_bagging_fraction: 1]
[neg_bagging_fraction: 1]
[bagging_freq: 0]
[bagging_seed: 3]
[feature_fraction: 1]
[feature_fraction_bynode: 1]
[feature_fraction_seed: 2]
[extra_trees: 0]
[extra_seed: 6]
[early_stopping_round: 0]
[early_stopping_min_delta: 0]
[first_metric_only: 0]
[max_delta_step: 0]
[lambda_l1: 0]
[lambda_l2: 0]
[linear_lambda: 0]
[min_gain_to_split: 0]
[drop_rate: 0.1]
[max_drop: 50]
[skip_drop: 0.5]
[xgboost_dart_mode: 0]
[uniform_drop: 0]
[drop_seed: 4]
[top_rate: 0.2]
[other_rate: 0.1]
[min_data_per_group: 100]
[max_cat_threshold: 32]
[cat_l2: 10]
[cat_smooth: 10]
[max_cat_to_onehot: 4]
[top_k: 20]
[monotone_constraints: ]
[monotone_constraints_method: basic]
[monotone_penalty: 0]
[feature_contri: ]
[forcedsplits_filename: ]
[refit_decay_rate: 0.9]
[cegb_tradeoff: 1]
[cegb_penalty_split: 0]
[cegb_penalty_feature_lazy: ]
[cegb_penalty_feature_coupled: ]
[path_smooth: 0]
[interaction_constraints: ]
[verbosity: -1]
[saved_feature_importance_type: 0]
[use_quantized_grad: 0]
[num_grad_quant_bins: 4]
[quant_train_renew_leaf: 0]
[stochastic_rounding: 1]
[linear_tree: 0]
[max_bin: 255]
[max_bin_by_feature: ]
[min_data_in_bin: 3]
[bin_construct_sample_cnt: 200000]
[data_random_seed: 1]
[is_enable_sparse: 1]
[enable_bundle: 1]
[use_missing: 1]
[zero_as_missing: 0]
[feature_pre_filter: 1]
[pre_partition: 0]
[two_round: 0]
[header: 0]
[label_column: ]
[weight_column: ]
[group_column: ]
[ignore_column: ]
[categorical_feature: ]
[forcedbins_filename: ]
[precise_float_parser: 0]
[parser_config_file: ]
[objective_seed: 5]
[num_class: 1]
[is_unbalance: 0]
[scale_pos_weight: 1]
[sigmoid: 1]
[boost_from_average: 1]
[reg_sqrt: 0]
[alpha: 0.9]
[fair_c: 1]
[poisson_max_delta_step: 0.7]
[tweedie_variance_power: 1.5]
[lambdarank_truncation_level: 30]
[lambdarank_norm: 1]
[label_gain: ]
[lambdarank_position_bias_regularization: 0]
[eval_at: ]
[multi_error_top_k: 1]
[auc_mu_weights: ]
[num_machines: 1]
[local_listen_port: 12400]
[time_out: 120]
[machine_list_filename: ]
[machines: ]
[gpu_platform_id: -1]
[gpu_device_id: -1]
[gpu_use_dp: 0]
[num_gpu: 1]

end of parameters

pandas_categorical:[]
