tree
version=v4
num_class=1
num_tree_per_iteration=1
label_index=0
max_feature_idx=28
objective=binary sigmoid:1
feature_names=open high low close volume SMA_10 SMA_30 SMA_100 SMA_200 EMA_20 EMA_200 RSI_14 MACD Signal_Line Upper_Band Lower_Band ATR_14 ADX_14 CCI_14 OBV %K %D hour day_of_week lag_1 lag_2 lag_3 lag_4 lag_5
feature_infos=[4131.2299999999996:68718.889999999999] [4230.6999999999998:69000] [3959:68581] [4105.8800000000001:68734.259999999995] [0:15109.114949999999] [4419.1909999999998:68579.252999999997] [4550.6406666666671:68533.243333333332] [4770.6193000000003:67995.5101] [4884.1619000000001:67760.230750000002] [4530.5527664285091:68537.795783300186] [4953.807806598511:67537.924878374193] [3.9100796445804207:95.492164498389016] [-1745.6078883381197:1186.7605493887677] [-1341.2954132488269:1050.0830730995178] [4610.3805599338093:69328.35751158098] [3667.1758566114722:68436.999735284175] [0:2617.963571428571] [2.4098162984606843:94.980492288069257] [-230.02177869554939:231.62640988055603] [-612945.04412300524:82158.941063999606] [0:100] [0:100] [0:23] [0:6] [4130.6400000000003:68718.899999999994] [4130.6400000000003:68718.899999999994] [4246.7399999999998:68718.899999999994] [4230.9399999999996:68734.259999999995] [3936.77:68718.899999999994]
tree_sizes=3526 3510 3510 3534 3538 3525 3530 3533

Tree=0
num_leaves=31
num_cat=0
split_feature=20 20 20 18 20 3 11 11 11 4 20 11 22 18 16 4 8 18 21 12 22 22 11 20 23 12 17 21 23 18
split_gain=1487.99 380.735 319.969 116.098 106.142 61.9052 60.6083 51.7376 48.8465 48.1684 38.5595 35.9824 29.1551 28.2007 28.0744 27.716 27.5288 30.6672 25.5046 23.5021 21.6024 21.0894 19.4484 18.5215 18.0516 17.0943 16.778 16.7683 16.2265 15.1984
threshold=55.628453742677827 23.103337088459565 78.317053764860518 103.13917416567163 7.493278497624476 19167.975000000002 45.075895123683701 57.860536991560359 43.865734696670003 90.528473000000005 93.917877142294344 55.563856057924177 10.500000000000002 -81.158070973756509 7.5903571428572976 156.02065950000002 19618.245400000003 -92.763601296513968 45.973272139359224 -65.907433567463144 13.500000000000002 17.500000000000004 40.141584981882012 4.654920793104842 4.5000000000000009 -2.0490172673780758 55.079004766639514 58.462856699848025 4.5000000000000009 -89.070839224958931
decision_type=8 10 8 10 10 2 10 10 10 2 10 10 2 10 10 2 10 10 10 2 2 2 10 10 2 2 10 10 2 10
left_child=1 4 11 7 9 13 19 -4 -7 14 28 21 -8 26 -1 -10 17 -11 -14 -3 -15 -2 25 -18 27 -21 -6 -13 -5 -24
right_child=2 6 3 10 5 8 12 -9 15 16 -12 24 18 20 -16 -17 23 -19 -20 22 -22 -23 29 -25 -26 -27 -28 -29 -30 -31
leaf_value=-0.026640251931129177 -0.005982058508330221 0.0018095345077208265 -0.010051525096364132 -0.02344662818781091 0.031033529674547353 0.016759374925031462 -0.0040714657358914535 -0.023161229344850189 -0.0052574939114123781 0.058778578585193794 -0.039266149608624817 -0.018910052687673311 -0.00084659161938894546 0.0034908459738710153 0.020755718203830556 0.012799976609217405 0.039510115737111912 0.011110813838268853 0.0083942433582852721 0.016020866962153928 0.030367844736353795 0.0026270136518885693 -0.0026660418025459642 0.023356485517960643 -0.017519772255283506 0.073374076574545477 0.080025665591518455 -0.0067363477640317842 -0.034555789856098952 0.0099245205615071264
leaf_weight=141.24989897012711 11140.742031514645 3934.2471860051155 6021.7456929087639 4788.2465751767159 2713.4980591535568 7483.4946473836899 9867.4929422140121 6019.7456943392754 1999.9985694885254 908.99934983253479 3685.2473641037941 1353.2490320801735 6733.2451840043068 750.24946337938309 1084.749224126339 1478.2489426732063 1749.2487488389015 158.49988663196564 5367.7461606860161 3505.7474924921989 497.24964433908463 3821.4972666501999 1165.2491665482521 1194.4991456270218 3259.9976682662964 52.749962270259857 71.749948680400848 6903.9950618743896 1812.4987035989761 5410.2461302876472
leaf_count=565 44563 15737 24087 19153 10854 29934 39470 24079 8000 3636 14741 5413 26933 3001 4339 5913 6997 634 21471 14023 1989 15286 4661 4778 13040 211 287 27616 7250 21641
internal_value=-0.00167499 0.00940804 -0.0144524 -0.0232699 0.0203863 0.0161056 0.00324461 -0.0166053 0.0122084 0.0326421 -0.031072 -0.00701742 -3.72033e-05 0.0266991 0.0152951 0.0024169 0.0379441 0.051701 0.00325245 0.00836937 0.0142039 -0.00378322 0.010916 0.0329554 -0.011219 0.0168711 0.0322956 -0.00873145 -0.0264971 0.00769334
internal_weight=0 56268.5 48807 22327.5 20231.7 14994.5 36036.7 12041.5 10961.7 5237.25 10286 26479.5 21968.5 4032.75 1226 3478.25 4011.25 1067.5 12101 14068.2 1247.5 14962.2 10134 2943.75 11517.2 3558.5 2785.25 8257.24 6600.75 6575.5
internal_count=420302 225074 195228 89310 80927 59978 144147 48166 43847 20949 41144 105918 87874 16131 4904 13913 16045 4270 48404 56273 4990 59849 40536 11775 46069 14234 11141 33029 26403 26302
is_linear=0
shrinkage=1


Tree=1
num_leaves=31
num_cat=0
split_feature=20 20 20 18 11 1 11 18 15 20 11 18 11 8 17 16 4 4 22 3 20 21 22 21 18 20 21 18 21 20
split_gain=1217.9 359.02 240.138 96.0222 83.8852 58.9204 43.7988 37.301 36.9737 35.3824 30.4569 25.3858 24.9868 24.7964 24.6123 20.7807 20.7729 19.1492 18.294 19.8366 22.7179 26.4563 17.7484 22.2971 17.7456 17.446 17.2872 17.1479 16.1816 15.6228
threshold=46.23442464746261 77.645427187625572 11.982650102909362 103.13917416567163 42.97793486090842 16857.030000000002 58.977463541767925 -121.65051819760619 26716.511376824412 89.607979593070056 55.563856057924177 -101.31267810484856 42.97793486090842 58572.131249999999 50.693947119972272 9.1967857142859177 112.39807200000001 1.0000000180025095e-35 1.5000000000000002 19122.940000000002 25.41648926230215 35.2397107819315 16.500000000000004 41.970867807685359 31.408271831113797 25.026264492352926 83.411349184804251 31.408271831113797 19.364008437234862 4.654920793104842
decision_type=8 8 10 8 10 2 10 10 10 10 10 10 10 10 8 10 2 2 2 2 10 10 2 10 10 10 10 10 10 10
left_child=2 10 5 6 8 11 17 16 25 -5 22 28 -9 15 -12 -6 -7 -3 -17 20 27 -22 -2 -24 -16 -4 -11 -20 -1 -18
right_child=1 3 4 9 13 7 -8 12 -10 26 14 -13 -14 -15 24 18 29 -19 19 -21 21 -23 23 -25 -26 -27 -28 -29 -30 -31
leaf_value=0.06064300494949261 -0.0028690430043276181 -0.19917289550844058 0.024429932515935671 -0.019666360717777488 -0.010463109444500737 0.015200223967482827 -0.020130889577535657 0.022269965840077961 0.0096271968489324167 -0.023633624883583466 -0.0085748256417625957 0.02560401582518515 0.0059879488979671797 -0.01306204985363724 0.022324750237826919 -0.0041129267070656294 0.045897890512097028 -0.0081183218755573657 0.024148335394953577 0.004697734633421647 -0.0019223317250849866 0.014958738890272667 -0.011726556871703583 0.0053545262850599627 -0.0023558759724343703 0.01469015074225161 -0.035167598646406249 -0.16140745163457904 0.036228078325200912 0.029237499760084974
leaf_weight=749.80914470553398 16191.840308979154 5.2499040663242331 3539.9407126456499 4554.4471374303102 810.47616299986839 612.41497460007668 5437.0438675284386 2927.4723114669323 8264.8878429085016 1930.6751212030649 11661.583038508892 539.6211684346199 1390.0766101330519 768.99251042306423 437.23939773440361 1676.9681209921837 936.10136990249157 7241.4832417219877 1301.0710508227348 12809.349247127771 1550.9913176894188 2312.7282097935677 875.24562531709671 6024.4555301964283 872.97562630474567 3827.5559658408165 3974.7536697387695 4.9995163530111304 425.52051301300526 1411.5636703073978
leaf_count=3001 64768 21 14162 18221 3242 2450 21751 11712 33061 7725 46648 2159 5561 3076 1749 6708 3746 28967 5205 51238 6204 9251 3501 24098 3492 15311 15904 20 1703 5647
internal_value=0 -0.00947556 0.0122332 -0.0191961 0.0086594 0.026885 -0.0133467 0.0229557 0.0142189 -0.0262891 -0.00323742 0.0435598 0.0170278 0.0045668 -0.00711477 0.00522917 0.031602 -0.00825673 0.00587621 0.00680793 0.0120364 0.00818227 -0.00105929 0.00318775 0.00588044 0.0193699 -0.0313968 0.023438 0.0518037 0.0358806
internal_weight=0 59207 45860.5 23143.7 36868 8992.58 12683.8 7277.63 15632.4 10459.9 36063.3 1714.95 4317.55 21235.6 12971.8 20466.6 2960.08 7246.73 19656.1 17979.1 5169.79 3863.72 23091.5 6899.7 1310.22 7367.5 5905.43 1306.07 1175.33 2347.67
internal_count=420302 236845 183457 92589 147478 35979 50739 29116 62534 41850 144256 6863 17273 84944 51889 81868 11843 28988 78626 71918 20680 15455 92367 27599 5241 29473 23629 5225 4704 9393
is_linear=0
shrinkage=0.1


Tree=2
num_leaves=31
num_cat=0
split_feature=20 20 20 11 18 20 11 14 11 16 4 18 10 15 22 11 22 21 20 11 17 17 22 28 21 11 21 9 19 4
split_gain=990.77 309.044 166.232 82.5872 54.311 53.5304 41.9901 36.0427 34.841 32.3879 27.6128 34.4307 26.4508 25.2537 24.9657 23.0221 21.6106 21.9505 20.3077 20.9514 20.2921 18.5637 17.3277 16.4183 16.3481 15.8187 15.7779 20.5919 15.2687 15.1704
threshold=61.861466541205175 25.41648926230215 86.13495051651519 42.97793486090842 89.510416254251297 7.493278497624476 58.130137498814669 20267.992579132657 45.075895123683701 7.5903571428572976 156.02065950000002 -82.317188205009543 30649.688077841944 11362.934023454154 10.500000000000002 59.725739727976823 2.5000000000000004 83.411349184804251 73.539950560171903 68.82924402480505 54.037504120627297 19.546252006089428 17.500000000000004 31331.105000000003 20.019229694833665 35.571139280117507 66.482108027127154 9182.8851877846118 -51696.039550000649 122.72183200000002
decision_type=8 10 8 10 8 10 10 10 10 10 2 10 2 10 2 10 2 8 10 10 10 10 2 10 10 10 10 2 2 2
left_child=1 3 6 5 15 7 -2 -1 20 -9 13 21 25 -5 -10 -4 -6 -18 29 -20 -3 -12 -19 -14 -11 -7 -16 -28 -29 -8
right_child=2 8 4 10 16 12 18 9 14 24 11 -13 23 -15 26 -17 17 22 19 -21 -22 -23 -24 -25 -26 -27 27 28 -30 -31
leaf_value=0.047939300681141321 -0.0045458667631366858 0.0080835789357179121 -0.0041201576909834295 0.019760497232678094 -0.012786637865898301 0.028502192838189139 -0.016982390451754228 -0.033764989021991147 -0.0027487933745014449 0.03152263717941723 0.01403092054075037 0.0051154226765184226 -0.025306214030200409 -2.3321995837083171e-06 0.0021958284588485702 -0.020667584454372952 -0.020057429212405154 -0.03445622477152193 -0.018316274883070638 -0.0049529744387542428 -0.0055041491400519829 0.03397210612984309 -0.022220643350256634 0.013162426350509619 0.013470453024680874 0.018070670952739766 0.047809464892897668 0.0035262085500435561 0.027457673416391978 -0.0031761213829046443
leaf_weight=989.20343565940857 17194.761708885431 12099.16844625771 2146.6991335600615 790.7997988909483 1244.4608001410961 2424.4766742140055 1077.6292426288128 87.992921516299248 12223.96408508718 2415.4575453102589 865.13355058431625 1688.467020213604 113.72431410849094 3545.6284959465265 13361.321881130338 1382.102274402976 3014.7999452501535 3766.2426171898842 5739.75423617661 1474.6648692339659 1208.906499221921 1013.997612118721 1670.9242286831141 4542.2133467048407 633.15763700008392 3630.5715476870537 150.49348522722721 1161.9523819684982 345.98658619821072 3043.9801867753267
leaf_count=3966 68784 48401 8588 3165 4982 9704 4311 352 48897 9671 3462 6755 455 14184 53447 5531 12067 15079 22967 5901 4836 4058 6690 18173 2535 14530 602 4648 1384 12177
internal_value=0 0.00788816 -0.0119566 0.0172193 -0.0212239 0.0216178 -0.0076608 0.0312959 0.00265539 0.0260471 0.00896275 0.0154792 0.0178899 0.00360166 0.000606757 -0.0106012 -0.0250898 -0.0269013 -0.0123856 -0.0155847 0.00684927 0.0247914 -0.030696 0.0122228 0.0277734 0.0222475 0.0033377 0.0125373 0.00901712 -0.00678589
internal_weight=0 63292.6 41756 22740.8 13225.2 14836.8 28530.8 4125.81 40551.8 3136.61 7904.03 3567.6 10711 4336.43 27243.7 3528.8 9696.43 8451.97 11336 7214.42 13308.1 1879.13 5437.17 4655.94 3048.62 6055.05 15019.8 1658.43 1507.94 4121.61
internal_count=420302 253225 167077 91010 52937 59386 114140 16524 162215 12558 31624 14275 42862 17349 108978 14119 38818 33836 45356 28868 53237 7520 21769 18628 12206 24234 60081 6634 6032 16488
is_linear=0
shrinkage=0.1


Tree=3
num_leaves=31
num_cat=0
split_feature=18 20 20 18 11 18 2 22 11 20 7 2 11 21 20 5 20 18 20 4 23 12 17 11 16 23 10 7 23 16
split_gain=815.582 234.902 163.02 66.4324 54.1062 41.8959 34.7103 29.0228 28.9571 26.1534 25.7682 24.6381 17.2476 16.2042 23.9732 18.5581 17.0705 16.1184 16.0373 15.8957 15.7804 15.6377 15.3443 15.2125 15.1889 14.9737 14.2465 13.7446 15.8677 13.1685
threshold=-15.198587885990225 77.645427187625572 12.900376845703432 103.13917416567163 42.578272924433655 -112.27218775437721 16590.615000000002 16.500000000000004 57.597563546629623 95.353585787150351 30653.015550000007 56770.42500000001 38.633373467749699 34.17966022235202 26.943410424246071 19134.652000000006 37.775684373229957 -61.046979199047364 70.708058893506532 1.0000000180025095e-35 4.5000000000000009 -40.606923335741151 26.350285416736444 52.690874943835503 6.403571428571273 2.5000000000000004 37651.901459317494 31955.573900000007 5.5000000000000009 4.5442857142856425
decision_type=8 8 10 8 10 10 2 2 10 10 8 2 10 10 10 10 10 10 10 2 2 2 8 10 10 2 2 10 2 10
left_child=2 7 5 8 10 6 -1 11 19 20 -4 18 -7 14 15 -6 -15 -18 -2 -3 -5 -21 -11 -23 -14 26 -20 28 -12 -8
right_child=1 3 4 9 13 12 29 -9 -10 22 27 -13 24 16 -16 -17 17 -19 25 21 -22 23 -24 -25 -26 -27 -28 -29 -30 -31
leaf_value=0.044970489213471881 -0.0024313358322610619 -0.1807963802312553 0.014860543403427739 -0.015643487525216961 0.015889245435205153 0.02242596968310882 -0.04092438705747789 0.0016261715774930259 -0.01544689293594443 -0.024874330179310098 -0.022803816445025177 -0.017816173577740142 -0.040351523622001069 0.010975198165265439 -0.0036449174245457927 0.0021181923209327418 -0.010436168488334622 0.0048733746720123596 -0.0071838635218918539 -0.019029809237665486 -0.025914498951341798 0.0039486600111125507 -0.040750414436903352 -0.0074531216389345642 0.011022326193252677 -0.013197445619301251 0.010642801669690642 0.0073971173811991017 0.081632719496474826 0.024260262803809617
leaf_weight=951.04190137982368 18373.501308739185 5.1906908899545661 9004.1085767745972 5479.869331330061 1356.8037905991077 1793.7534998953342 31.22983630001545 10746.044608384371 6481.2821338027716 2040.4397766888142 237.70927438139915 1332.3844613134861 58.710522934794426 4590.9191073924303 5582.5688869059086 3510.5590722262859 787.20724807679653 5440.2312875539064 1741.7916643917561 772.87496297061443 2057.5118514746428 1717.4995593428612 867.64803160727024 3672.1075795143843 2910.3595129996538 3083.7490138113499 603.67033752799034 5713.3677022457123 15.496565163135527 4062.6603131741285
leaf_count=3821 73499 21 36039 21947 5431 7186 125 42988 25948 8181 951 5330 235 18366 22331 14044 3149 21762 6968 3092 8243 6871 3479 14691 11652 12337 2415 22859 62 16279
internal_value=0 -0.0077867 0.00997315 -0.0156533 0.00687775 0.0214105 0.0277609 -0.00272346 -0.0107794 -0.0215553 0.0114833 -0.00458307 0.0146838 0.00363592 0.000827434 0.00595695 0.00634876 0.0029381 -0.00384233 -0.00587466 -0.0184472 -0.00572732 -0.0296111 -0.00381973 0.0100065 -0.0086174 -0.00259567 0.00638671 -0.0164121 0.023763
internal_weight=0 58975.6 46046.7 23094.4 36239 9807.76 5044.93 35881.1 12649 10445.5 14970.7 25135.1 4762.82 21268.3 10449.9 4867.36 10818.4 6227.44 23802.7 6167.67 7537.38 6162.48 2908.09 5389.61 2969.07 5429.21 2345.46 5966.57 253.206 4093.89
internal_count=420302 236010 184292 92473 144994 39298 20225 143537 50623 41850 59911 100549 19073 85083 41806 19475 43277 24911 95219 24675 30190 24654 11660 21562 11887 21720 9383 23872 1013 16404
is_linear=0
shrinkage=0.1


Tree=4
num_leaves=31
num_cat=0
split_feature=20 20 20 18 11 1 11 12 16 18 20 19 11 8 22 18 22 12 19 12 20 21 21 13 3 12 16 12 11 16
split_gain=669.493 191.387 128.946 56.9831 42.1552 34.8851 26.3938 25.5712 23.8756 22.7246 21.7529 21.6103 19.7813 19.7792 18.2838 18.2168 18.1665 18.1279 24.5264 15.7333 15.6069 14.9944 14.9238 14.5132 14.4925 23.9694 19.0562 16.5288 17.2711 15.362
threshold=45.868188592135816 76.971591427539792 11.520108469868047 103.13917416567163 44.109008385503081 16857.030000000002 54.89394087425449 -123.05582379281257 4.5442857142856425 -121.65051819760619 89.607979593070056 -216880.0045000035 37.482639099391342 58572.131249999999 1.5000000000000002 -101.31267810484856 17.500000000000004 -1.2838336014547165 11129.963682499781 -40.606923335741151 70.708058893506532 25.010613729305163 41.970867807685359 2.9728709168604213 19122.940000000002 2.3762165590915179 10.96678571428564 122.78601734061887 50.247710309189308 74.549999999999798
decision_type=8 8 10 8 10 2 10 2 10 10 10 2 10 10 2 10 2 2 2 2 10 10 10 2 2 2 10 2 10 10
left_child=2 16 5 6 7 15 19 11 23 -10 -5 -4 -9 14 -6 -1 20 -14 -19 -3 -2 -11 -18 -7 25 -16 -26 28 -28 -30
right_child=1 3 4 10 13 8 -8 12 9 21 -12 -13 17 -15 24 -17 22 18 -20 -21 -22 -23 -24 -25 26 -27 27 -29 29 -31
leaf_value=0.040544272100352836 -0.0024112586205863639 -0.015801646817015992 -0.0088222321240082769 -0.014301686151834372 -0.0066793984499452039 -0.022148101987327168 -0.01259222519365304 0.016507906280597048 0.024555036329185001 0.01564100572959291 -0.023415757384363571 0.0098617765516012378 0.007693060383475149 -0.013771492091802316 0.0024460048308020017 0.017534663660110736 -0.010712034103998843 0.016255982659090881 0.065859183779084576 -0.00015400238368916118 -0.0083843188106139891 -0.00053427558392098564 0.002846245115710291 -0.14874747082138198 -0.022041130867248872 0.016276834078966931 0.0057404709595618424 0.022830899355587176 -0.0081624938001597907 0.0046303542095385624
leaf_weight=1116.302874699235 20991.155858010054 788.386674284935 1231.9564682543278 4716.8878932595253 1506.3583870828152 51.441496625542641 9048.1943069249392 5249.9728627949953 2833.4243049025536 3353.0793797969818 5887.234196677804 1244.2740530669689 9526.9555712640285 658.94319245219231 2522.2187971323729 497.38274143636227 900.46510022878647 798.73774585127831 113.89554341137409 3474.1936802864075 5526.0324197262526 691.23667231202126 8248.7226755470037 10.989765569567679 298.98642760515213 2490.1040545552969 6962.6822245270014 427.20145656168461 2168.4021416604519 1655.1673408448696
leaf_count=4499 83972 3155 4930 18898 6026 206 36232 21024 11369 13436 23629 4979 38131 2636 10092 1994 3602 3198 456 13900 22110 2768 32998 44 1196 9965 27853 1709 8674 6621
internal_value=0 -0.00697129 0.00914703 -0.0138927 0.00657985 0.0202082 -0.00953586 0.0100103 0.0171288 0.0176876 -0.0193617 0.000566242 0.0115008 0.00324563 0.00386752 0.0334521 -0.00233035 0.0089828 0.0224464 -0.00304812 -0.00365601 0.0128764 0.00151184 -0.0444334 0.00482895 0.00931711 0.00287488 0.00353922 0.00277515 -0.00262466
internal_weight=0 59581.3 45409.7 23914.9 36855.9 8553.86 13310.8 18165.8 6940.17 6877.74 10604.1 2476.23 15689.6 18690.1 18031.1 1613.69 35666.4 10439.6 912.633 4262.58 26517.2 4044.32 9149.19 62.4313 16524.8 5012.32 11512.4 11213.5 10786.3 3823.57
internal_count=420302 238496 181806 95814 147490 34316 53287 72718 27823 27573 42527 9909 62809 74772 72136 6493 142682 41785 3654 17055 106082 16204 36600 250 66110 20057 46053 44857 43148 15295
is_linear=0
shrinkage=0.1


Tree=5
num_leaves=31
num_cat=0
split_feature=20 20 20 11 11 18 20 23 8 16 14 16 0 11 23 6 21 18 4 18 18 21 12 22 22 11 17 20 17 18
split_gain=544.753 133.411 120.049 50.7178 40.9638 34.4322 32.0398 24.6728 24.5179 23.4859 23.3287 22.2751 22.0109 21.3651 21.2831 20.1346 19.0231 24.4413 18.8604 21.2703 17.9784 23.2402 17.5065 16.7731 15.7728 17.0453 17.9067 15.7382 15.6377 15.3026
threshold=54.150051300244137 25.41648926230215 86.13495051651519 42.97793486090842 55.563856057924177 81.22546741917823 7.493278497624476 4.5000000000000009 58572.131249999999 8.0917857142852831 20267.992579132657 8.5028571428572075 19122.980000000003 59.725739727976823 4.5000000000000009 11907.905333333336 64.122840945053511 44.830433148411124 174.02886500000002 -135.83184939764632 -154.92714010588438 29.013721388576709 40.388394203935611 2.5000000000000004 18.500000000000004 45.968092999828407 47.969599647144932 21.163055085888072 53.095315698903178 -30.076220504714396
decision_type=8 10 8 10 10 8 10 2 10 10 10 10 2 10 2 8 8 10 2 10 10 10 2 2 2 10 10 10 10 10
left_child=1 3 4 6 -2 13 10 16 20 -5 -1 -12 29 -4 -8 -7 -6 -18 -14 27 -3 -22 -21 -17 25 28 -27 -20 -23 -11
right_child=2 8 5 9 7 15 14 -9 -10 12 11 -13 18 -15 -16 23 17 -19 19 22 21 24 -24 -25 -26 26 -28 -29 -30 -31
leaf_value=0.037199599228388114 -0.0013711764552770869 0.027102459153525112 0.0024127745244607525 -0.02658268634009954 -0.01287971766820924 -0.026824618063967048 0.010607234156887288 -0.013933419021435396 -0.011417665956104097 0.018072652785163696 -0.026359928312860284 0.021075756224964434 -0.00058596634880398357 -0.017196012868420447 0.020600462680458759 -0.0045740135464048103 0.0080771066174911525 -0.0057198168679048695 0.057775409150655169 0.0028462760279512312 -0.0020957434632089341 0.0084696522973813672 0.023734958663749611 -0.017654238909674616 0.009598518036643423 -7.5559995509897078e-05 0.01807613274105032 -0.030490655616132612 -0.0082379324063462222 -0.024536393019712749
leaf_weight=980.82722750306129 19180.367711886764 313.92298214137554 1506.4361953288317 211.2318672388792 2873.5884109884501 2121.5156344473362 7755.2925227582455 5058.8999184668064 1176.249634757638 1923.2957243323326 102.34430226683617 3024.1224791258574 3457.4051062911749 880.38581928610802 2938.7810758054256 1126.4587853252888 1509.4782043546438 8595.22744782269 144.51462599635124 1502.1938847750425 6812.7777928709984 6552.4946092218161 547.42354038357735 7558.356324583292 4879.3652484714985 10926.652226895094 571.92505773901939 23.483274877071381 612.57602427899837 88.150427609682083
leaf_count=3966 76734 1257 6029 846 11499 8516 31083 20256 4706 7712 410 12148 13834 3529 11779 4519 6040 34413 580 6013 27259 26220 2192 30344 19522 43710 2288 94 2451 353
internal_value=0 0.00692606 -0.00749389 0.012784 -0.00458841 -0.0156902 0.0162368 -0.00800954 0.00275069 0.00631288 0.0237442 0.019523 0.00721688 -0.00481998 0.0133534 -0.0180911 -0.00570043 -0.00365878 0.00403103 0.0112292 0.00329408 0.00304787 0.00842534 -0.0159577 0.0045363 0.00321285 0.000827283 0.0454373 0.00704124 0.0162053
internal_weight=0 54545 50410.7 22699.1 37217.6 13193.2 14801.4 18037.2 31846 7897.7 4107.29 3126.47 7686.47 2386.82 10694.1 10806.3 12978.3 10104.7 5675.02 2217.62 30669.7 30355.8 2049.62 8684.82 23543 18663.6 11498.6 167.998 7165.07 2011.45
internal_count=420302 218423 201879 91010 148942 52937 59386 72208 127413 31624 16524 12558 30778 9558 42862 43379 51952 40453 22713 8879 122707 121450 8205 34863 94191 74669 45998 674 28671 8065
is_linear=0
shrinkage=0.1


Tree=6
num_leaves=31
num_cat=0
split_feature=18 20 20 20 11 18 11 7 12 19 16 22 1 4 17 4 16 18 8 21 13 1 21 16 11 21 20 21 18 22
split_gain=448.024 107.89 100.718 39.1254 38.7527 25.8226 23.4713 22.6244 21.4089 26.9994 18.7277 17.9883 17.4399 15.8519 15.7023 15.1412 14.9946 14.3222 14.0811 13.8327 13.2697 12.599 14.8968 14.3295 16.2909 12.3954 17.3438 18.6672 14.6666 14.1972
threshold=-1.0000000180025095e-35 77.645427187625572 12.900376845703432 93.032386894080233 40.628767691252428 -112.27218775437721 60.555007367903762 19623.8717 -104.03340653178928 -137358.21423249916 37.73750000000058 16.500000000000004 57558.445000000014 449.71443000000005 6.4650200497550712 1.0000000180025095e-35 37.73750000000058 -65.125613264226885 9193.1591750000025 47.027636991693797 -59.727712598844548 9889.8350000000009 89.878440040071027 11.22464285714263 66.147155472661254 63.391904502896061 37.775684373229957 34.17966022235202 -63.068354769426342 1.0000000180025095e-35
decision_type=8 8 10 10 10 10 10 10 2 2 10 2 2 2 8 2 10 10 10 8 2 2 10 10 10 10 10 10 10 2
left_child=2 11 5 6 8 7 15 -1 9 20 -8 12 16 -10 -5 -3 18 -7 19 -2 -4 -16 23 24 -23 26 27 -6 -28 -29
right_child=1 3 4 14 25 17 10 -9 13 -11 -12 -13 -14 -15 21 -17 -18 -19 -20 -21 -22 22 -24 -25 -26 -27 28 29 -30 -31
leaf_value=0.032271133041879271 -0.022831224052324437 -0.15773258856812211 -0.0047143860131559426 0.02448467677948081 0.0018568432316863857 0.012298817935051647 -0.02024635711570387 0.016873667600630509 0.009007467543318378 0.014358169140240863 -0.0096379242431801609 0.0012068661857227241 -0.017429089755404917 0.0181885674390024 -0.03159056057099055 -0.0056770304968981194 -0.0010313391529263715 -0.006417668465145009 -0.008345017603296076 0.0050881831976971785 -0.062341936645139817 0.02513313201378381 -0.02339182572992015 -0.014474594331890687 -0.071950777254652862 0.012073406054165596 -0.0098494565278548062 -0.014959062003838151 0.00066805257737355959 0.0099648683955746321
leaf_weight=1281.2877407521009 201.46814361214638 6.553221106529235 1639.3288690000772 84.349175542593002 10593.014601409435 4305.5510268956423 2545.5216259360313 3739.1642937809229 6011.0190752893686 1043.9338461756706 4805.9671846926212 9150.2204440534115 937.50625628232956 2736.801914691925 699.17831109464169 9473.1974538713694 11235.083820417523 451.74254167079926 7476.6358055919409 1489.039386510849 40.955853953957558 160.00267919898033 2315.612947255373 2915.1913464516401 19.377527520060539 1331.5029288232327 1508.2231887280941 238.42214857041836 10966.841727271676 5516.1466371119022
leaf_count=5193 806 27 6561 339 42399 17280 10216 15032 24081 4179 19282 36607 3752 10970 2813 37948 44952 1810 29915 5958 164 643 9315 11716 78 5327 6034 954 43874 22077
internal_value=0 -0.00640435 0.00666765 -0.0115713 0.00452233 0.0158008 -0.00907066 0.0208033 0.0094691 0.00172794 -0.0133112 -0.00250246 -0.00409297 0.0118798 -0.0183666 -0.00578214 -0.00348016 0.0105215 -0.0064814 0.00176086 -0.00611902 -0.0189583 -0.0173257 -0.0127866 0.0146457 0.00264036 0.00220458 0.00434747 -0.000603504 0.00893223
internal_weight=0 53514.9 51403.9 23025 41626.2 9777.75 16831.2 5020.45 11472 2724.22 7351.49 30490 21339.7 8747.82 6193.71 9479.75 20402.2 4757.29 9167.14 1690.51 1680.28 6109.36 5410.18 3094.57 179.38 30154.2 28822.6 16347.6 12475.1 5754.57
internal_count=420302 214367 205935 92377 166620 39315 67473 20225 45955 10904 29498 121990 85383 35051 24904 37975 81631 19090 36679 6764 6725 24565 21752 12437 721 120665 115338 65430 49908 23031
is_linear=0
shrinkage=0.1


Tree=7
num_leaves=31
num_cat=0
split_feature=20 20 20 11 11 1 20 23 21 4 21 7 16 23 22 15 4 21 21 18 4 12 19 22 4 11 16 21 13 4
split_gain=367.282 107.57 70.2166 42.9523 23.9099 22.3042 20.9645 20.6 18.2456 17.6531 17.0131 16.6864 16.6835 16.5919 16.3738 16.1443 16.0896 16.0591 16.0543 14.8262 14.4061 13.8545 16.8537 15.6367 21.2152 13.1211 13.0634 12.6921 12.4888 12.4402
threshold=45.868188592135816 73.539950560171903 11.520108469868047 58.130137498814669 44.109008385503081 16857.030000000002 92.584244772746032 4.5000000000000009 55.667909439742886 97.405605000000023 19.364008437234862 9079.014000000001 4.5442857142856425 4.5000000000000009 13.500000000000002 37713.768078248024 881.48184000000003 60.540142698264724 90.275021153607582 -121.65051819760619 1.0000000180025095e-35 -123.05582379281257 -226804.41120500347 19.500000000000004 501.03092850000007 54.237111329610151 9.1967857142859177 74.544541864000522 83.173795253338099 25.750045000000004
decision_type=8 8 10 10 10 2 10 2 8 2 10 10 10 2 2 10 2 10 10 10 2 2 2 2 2 10 10 8 2 2
left_child=2 8 5 9 7 10 13 21 25 20 -1 -10 -7 27 26 17 -13 -16 -11 28 -3 22 -4 24 -23 -2 -6 -5 -14 -9
right_child=1 3 4 6 14 12 -8 29 11 18 -12 16 19 -15 15 -17 -18 -19 -20 -21 -22 23 -24 -25 -26 -27 -28 -29 -30 -31
leaf_value=0.033789254857327186 -0.0022631296319046194 -0.14737702157591623 -0.011855716344347997 -0.01593034188417124 -0.01675318419337991 -0.039041468004123447 -0.018544294338011285 -0.016747012181924797 0.010771521737456581 -0.0065401561023331724 0.012619763552348708 -0.00092577466790392084 0.017072465244606157 -0.016966326441520917 0.0075759867062299788 -0.0014793074854467713 0.01099288419213682 0.033982416875298002 -0.023524770670547111 0.0090805617998262755 0.00057345469063487962 0.0024790513039040368 0.0065603593985656935 0.016160823999945617 0.013283765133747389 -0.0097643347261691417 0.00059876444114283819 -0.0063353452667150381 0.048906319007374417 0.013686972554024346
leaf_weight=981.31529073417187 9109.6596462130547 6.5922410190105429 959.09950648248196 1746.2010406702757 452.63839727640152 62.236672788858414 4827.731597468257 138.04844614863396 1530.1906804591417 7195.6043321937323 619.16285020112991 16569.440492451191 2691.9250419437885 3063.9836350083351 5376.2839628010988 2151.9432813078165 1215.741151124239 240.61135274171829 603.16898389160633 4036.120392292738 3976.9048370569944 7094.2271721959114 1031.2682758569717 1522.2583196759224 2443.109096378088 3134.1884061396122 10464.304378047585 6549.1460001319647 129.15034629404545 4960.1919928044081
leaf_count=3988 36443 28 3838 7001 1811 250 19450 553 6122 28822 2505 66294 10848 12303 21517 8610 4864 963 2421 16204 15930 28421 4129 6100 9798 12541 41871 26277 521 19879
internal_value=0 -0.00516514 0.00677972 -0.00968063 0.00488735 0.014961 -0.013024 0.00747261 -0.00116328 -0.00508737 0.0255996 0.000751081 0.0125002 -0.0106778 0.00237648 0.00588554 -0.000111051 0.00870716 -0.00785377 0.012968 0.000328613 0.00536678 -0.0023138 0.00674903 0.00524682 -0.00418329 -0.000120682 -0.00835513 0.0185298 0.0128629
internal_weight=0 59528.6 45353.9 27969.3 36834 8519.91 16187.1 18148.2 31559.2 11782.3 1600.48 19315.4 6919.43 11359.3 18685.8 7768.84 17785.2 5616.9 7798.77 6857.2 3983.5 13050 1990.37 11059.6 9537.34 12243.8 10916.9 8295.35 2821.08 5098.24
internal_count=420302 238496 181806 112232 147490 34316 65031 72718 126264 47201 6493 77280 27823 45581 74772 31090 71158 22480 31243 27573 15958 52286 7967 44319 38219 48984 43682 33278 11369 20432
is_linear=0
shrinkage=0.1


end of trees

feature_importances:
%K=42
RSI_14=33
CCI_14=28
%D=23
hour=17
volume=15
ATR_14=15
MACD=11
day_of_week=9
ADX_14=8
high=5
SMA_200=5
OBV=5
SMA_100=4
close=3
Signal_Line=3
Lower_Band=3
low=2
EMA_200=2
Upper_Band=2
open=1
SMA_10=1
SMA_30=1
EMA_20=1
lag_5=1

parameters:
[boosting: gbdt]
[objective: binary]
[metric: binary_logloss]
[tree_learner: serial]
[device_type: cpu]
[data_sample_strategy: bagging]
[data: ]
[valid: ]
[num_iterations: 10000]
[learning_rate: 0.1]
[num_leaves: 31]
[num_threads: 0]
[seed: 0]
[deterministic: 0]
[force_col_wise: 0]
[force_row_wise: 0]
[histogram_pool_size: -1]
[max_depth: -1]
[min_data_in_leaf: 20]
[min_sum_hessian_in_leaf: 0.001]
[bagging_fraction: 1]
[pos_bagging_fraction: 1]
[neg_bagging_fraction: 1]
[bagging_freq: 0]
[bagging_seed: 3]
[feature_fraction: 1]
[feature_fraction_bynode: 1]
[feature_fraction_seed: 2]
[extra_trees: 0]
[extra_seed: 6]
[early_stopping_round: 0]
[early_stopping_min_delta: 0]
[first_metric_only: 0]
[max_delta_step: 0]
[lambda_l1: 0]
[lambda_l2: 0]
[linear_lambda: 0]
[min_gain_to_split: 0]
[drop_rate: 0.1]
[max_drop: 50]
[skip_drop: 0.5]
[xgboost_dart_mode: 0]
[uniform_drop: 0]
[drop_seed: 4]
[top_rate: 0.2]
[other_rate: 0.1]
[min_data_per_group: 100]
[max_cat_threshold: 32]
[cat_l2: 10]
[cat_smooth: 10]
[max_cat_to_onehot: 4]
[top_k: 20]
[monotone_constraints: ]
[monotone_constraints_method: basic]
[monotone_penalty: 0]
[feature_contri: ]
[forcedsplits_filename: ]
[refit_decay_rate: 0.9]
[cegb_tradeoff: 1]
[cegb_penalty_split: 0]
[cegb_penalty_feature_lazy: ]
[cegb_penalty_feature_coupled: ]
[path_smooth: 0]
[interaction_constraints: ]
[verbosity: -1]
[saved_feature_importance_type: 0]
[use_quantized_grad: 0]
[num_grad_quant_bins: 4]
[quant_train_renew_leaf: 0]
[stochastic_rounding: 1]
[linear_tree: 0]
[max_bin: 255]
[max_bin_by_feature: ]
[min_data_in_bin: 3]
[bin_construct_sample_cnt: 200000]
[data_random_seed: 1]
[is_enable_sparse: 1]
[enable_bundle: 1]
[use_missing: 1]
[zero_as_missing: 0]
[feature_pre_filter: 1]
[pre_partition: 0]
[two_round: 0]
[header: 0]
[label_column: ]
[weight_column: ]
[group_column: ]
[ignore_column: ]
[categorical_feature: ]
[forcedbins_filename: ]
[precise_float_parser: 0]
[parser_config_file: ]
[objective_seed: 5]
[num_class: 1]
[is_unbalance: 0]
[scale_pos_weight: 1]
[sigmoid: 1]
[boost_from_average: 1]
[reg_sqrt: 0]
[alpha: 0.9]
[fair_c: 1]
[poisson_max_delta_step: 0.7]
[tweedie_variance_power: 1.5]
[lambdarank_truncation_level: 30]
[lambdarank_norm: 1]
[label_gain: ]
[lambdarank_position_bias_regularization: 0]
[eval_at: ]
[multi_error_top_k: 1]
[auc_mu_weights: ]
[num_machines: 1]
[local_listen_port: 12400]
[time_out: 120]
[machine_list_filename: ]
[machines: ]
[gpu_platform_id: -1]
[gpu_device_id: -1]
[gpu_use_dp: 0]
[num_gpu: 1]

end of parameters

pandas_categorical:[]
