tree
version=v4
num_class=1
num_tree_per_iteration=1
label_index=0
max_feature_idx=28
objective=binary sigmoid:1
feature_names=open high low close volume SMA_10 SMA_30 SMA_100 SMA_200 EMA_20 EMA_200 RSI_14 MACD Signal_Line Upper_Band Lower_Band ATR_14 ADX_14 CCI_14 OBV %K %D hour day_of_week lag_1 lag_2 lag_3 lag_4 lag_5
feature_infos=[4131.2299999999996:68635.119999999995] [4610:69000] [3782.1300000000001:68451.190000000002] [4130.6400000000003:68633.690000000002] [0:137207.18859999999] [4824.2089999999998:68002.839999999997] [5037.273666666666:67416.46666666666] [5219.7835999999998:66221.838900000002] [5461.8512499999997:65244.838449999996] [4995.5837282851389:67442.079903017002] [5838.6083970051659:64523.805919081831] [5.5605670126904982:95.854267048766289] [-2360.9460327477354:1887.2236274780516] [-2077.4839220854774:1744.7269192312694] [5285.8377108112381:69399.509600066493] [4211.7807979748686:66500.881177875955] [14.930000000000291:3189.2171428571428] [2.0842714546167458:90.52722382389662] [-227.78479126482554:227.89303930723926] [-415542.28330200177:1383687.4554779944] [0:100] [2.3334631348722268:99.026387588760258] [0:23] [0:6] [4130.6400000000003:68633.690000000002] [4130.6400000000003:68633.690000000002] [4130.6400000000003:68633.690000000002] [4130.6400000000003:68633.690000000002] [4130.6400000000003:68633.690000000002]
tree_sizes=3415 3452 3445 3424 3445 3446 3453 3428 3442

Tree=0
num_leaves=31
num_cat=0
split_feature=20 20 20 21 20 4 18 23 21 17 18 8 18 21 23 21 15 13 19 12 4 20 12 8 4 19 18 21 22 12
split_gain=182.807 55.5193 51.1655 22.1952 21.0142 19.1775 17.2691 15.7184 14.5238 12.7282 14.5429 14.243 12.5034 13.3804 12.0048 11.9165 10.5433 11.1961 12.609 10.439 9.8551 12.5042 9.71265 9.64801 9.62355 13.1526 9.09099 9.07436 9.28363 11.7126
threshold=44.048147832701609 79.145383148124623 12.416137939178197 56.254189243491417 67.392793423965784 1777.9470600000002 19.425678548545928 2.5000000000000004 58.832339889495408 42.182409112614351 48.288908300143156 44246.626825000007 -46.158346023077094 23.939065566568697 3.5000000000000004 82.394252083785361 27870.882616336428 -417.12200689134312 1222560.0339879973 444.24401563352882 13634.8943275 70.714584255538242 -365.00630393755631 9136.2674000000025 889.23722000000009 723731.62776799838 -81.353990664484101 66.33651290247316 15.500000000000002 14.269949627684584
decision_type=8 8 10 8 10 2 10 2 10 10 10 10 10 10 2 10 10 2 2 2 2 10 2 10 2 2 10 8 2 2
left_child=2 3 -1 6 16 -6 -2 22 12 10 11 -9 13 -4 -14 -7 27 -18 -19 -8 21 -17 -3 -23 25 -15 -26 28 -5 -30
right_child=1 7 8 4 5 15 19 9 -10 -11 -12 -13 14 24 -16 20 17 18 -20 -21 -22 23 -24 -25 26 -27 -28 -29 29 -31
leaf_value=0.081998871793164063 0.027187139584626263 -0.07375231738879201 0.040158342639798852 0.032815411579572878 0.010805744229857431 0.031178878517768301 0.0010783491451157798 0.078814854791424444 0.089617158226252991 0.028563270315988085 -0.0096055521164101834 -0.069403232372418799 0.025692236528621425 0.02161410540267103 0.049090647930459988 0.18742786927016139 0.094992181246488602 0.023837823502978008 0.06899299355956709 0.1397482197786202 -0.040362567908249283 0.15886797348696488 0.018800535796869616 0.053286004157436492 0.044804495828463652 0.099273045321428513 0.063251140300592701 0.06822180555076815 0.036249840977145689 0.09844196393744227
leaf_weight=487.60882556438446 886.99319422245026 11.496671438217161 786.77221059799194 251.17727816104889 484.35976624488831 542.34297871589661 428.1260472536087 34.240086674690247 77.977423667907715 121.2149053812027 728.28914284706116 7.9976844787597647 496.6062206029892 27.741968035697937 392.63632237911224 9.2473226785659772 28.741678595542908 405.13270437717438 72.978870868682861 5.498408079147338 7.7477568387985221 9.7471779584884626 824.51128423213959 77.227640748023987 546.59174859523773 101.97047710418701 522.59869515895844 256.67568624019623 62.231982350349426 58.982923030853271
leaf_count=1951 3549 46 3148 1005 1938 2170 1713 137 312 485 2914 32 1987 111 1571 37 115 1621 292 22 31 39 3299 309 2187 408 2091 1027 249 236
internal_value=0.0340293 0.0224036 0.0519889 0.0294967 0.0355009 0.0258498 0.0191917 0.0076768 0.0470334 -0.00155848 -0.00629706 0.0507499 0.0458783 0.0502916 0.0360236 0.0371241 0.0451074 0.0343743 0.0307303 0.0028367 0.0681366 0.0768729 0.0175278 0.0651185 0.0569414 0.0826639 0.0538208 0.0537552 0.0437839 0.0665124
internal_weight=0 5314.96 3440.5 3587.21 2266.59 1130.67 1320.62 1727.75 2952.9 891.742 770.527 42.2378 2874.92 1985.68 889.243 646.313 1135.92 506.853 478.112 433.624 103.97 96.2221 836.008 86.9748 1198.9 129.712 1069.19 629.068 372.392 121.215
internal_count=35032 21266 13766 14353 9069 4524 5284 6913 11815 3568 3083 169 11503 7945 3558 2586 4545 2028 1913 1735 416 385 3345 348 4797 519 4278 2517 1490 485
is_linear=0
shrinkage=1


Tree=1
num_leaves=31
num_cat=0
split_feature=20 20 20 21 20 21 19 22 18 5 17 20 22 17 17 4 19 18 26 18 22 18 21 16 17 19 13 13 23 4
split_gain=148.119 45.619 41.5467 18.1599 20.1907 27.0626 14.2181 12.2924 12.262 12.0616 11.6382 13.3069 13.0104 11.3273 10.8209 10.7283 10.6572 9.96005 9.95092 9.63056 9.55467 15.8382 10.0714 9.47937 9.6329 9.14036 9.8065 10.6839 8.98081 11.5097
threshold=44.048147832701609 83.630673955961882 12.416137939178197 86.09967093305228 72.678752959999926 65.991608689668581 67034.337989500098 17.500000000000004 184.51858495148588 18578.793500000003 44.06547664113382 63.437052128350608 14.500000000000002 37.960071092619025 42.904629772654353 3853.3799695000002 1206314.6074179972 28.154852037820806 61075.795000000006 21.723059075105912 13.500000000000002 19.425678548545928 61.441530892037981 123.04607142857172 39.658952133525645 568543.07263099949 -175.58408092849695 -47.772083620544393 2.5000000000000004 2524.3862785000006
decision_type=8 8 10 8 10 10 2 2 10 10 8 10 2 10 10 2 2 10 10 10 2 10 10 10 10 2 2 2 2 2
left_child=2 3 -1 4 5 20 17 -4 14 -5 11 13 15 25 28 19 18 -6 -8 -12 21 22 -2 24 -22 -7 -27 -28 -3 -30
right_child=1 8 7 9 6 10 16 -9 -10 -11 12 -13 -14 -15 -16 -17 -18 -19 -20 -21 23 -23 -24 -25 -26 26 27 -29 29 -31
leaf_value=0.043235575675334287 -0.0094146407922906447 -0.023651640509539662 0.0080352018587191067 0.079112100645163705 -0.11231477103764601 0.058455855685111795 -0.017297127351015362 0.023045781301988592 0.021819943178892812 0.011498934812728774 0.054823442489742316 -0.0012390959069826148 0.092126060898593459 -0.043103213145736355 -0.0071054899025250421 0.069655333761646884 -0.058266100935466129 0.026306667825376558 -0.086967171061322804 -0.04589581263222603 0.0089304349624561141 -0.028350773600391357 0.02525540999242061 -0.0081608455901152743 0.076943991571817305 0.11430139684253754 -0.066236195539101303 0.021081099111820278 -0.057540797320731842 -0.027690745095411685
leaf_weight=486.93103709816933 648.60724943876266 492.70329764485359 2229.612912401557 38.215947538614273 5.4982519745826712 90.153298795223236 866.07804283499718 722.29407313466072 48.996822148561478 85.21900637447834 14.238968402147291 479.25301560759544 36.723081886768341 20.984149441123009 186.71686205267906 25.480539575219154 74.739498287439346 90.466393142938614 20.997854217886925 28.485684141516685 281.14104314148426 471.91943803429604 96.216840356588364 534.06645698845387 22.489926263689995 9.7449325025081617 15.992846488952635 113.18887841701508 256.73001100122929 259.98366624116898
leaf_count=1951 2595 1971 8924 153 22 361 3465 2891 196 341 57 1918 147 84 747 102 299 362 84 114 1125 1888 385 2137 90 39 64 453 1027 1040
internal_value=0 -0.0104623 0.0161723 -0.00533804 -0.00651939 -0.00219107 -0.0183396 0.0117081 -0.027212 0.0324322 0.0129981 0.00851806 0.0441374 0.0272178 -0.0292204 0.0182994 -0.0220017 0.0183644 -0.0189463 -0.0123288 -0.00835894 -0.0140175 -0.00493594 -0.000139976 0.0139682 0.0336594 0.0175683 0.0102711 -0.0333111 -0.0425218
internal_weight=0 5315.03 3438.84 4069.9 3946.47 2888.69 1057.78 2951.91 1245.13 123.435 834.245 729.317 104.928 250.064 1196.13 68.2052 961.815 95.9646 887.076 42.7247 2054.44 1216.74 744.824 837.697 303.631 229.08 138.927 129.182 1009.42 516.714
internal_count=35032 21266 13766 16285 15791 11559 4232 11815 4981 494 3339 2919 420 1001 4785 273 3848 384 3549 171 8220 4868 2980 3352 1215 917 556 517 4038 2067
is_linear=0
shrinkage=0.1


Tree=2
num_leaves=31
num_cat=0
split_feature=20 20 20 21 20 17 18 21 23 1 21 18 21 23 17 18 8 22 13 20 22 13 13 13 2 11 18 12 27 26
split_gain=120.034 37.2161 33.7956 16.1761 14.7744 13.256 12.6851 11.8143 11.089 10.46 12.1472 10.1433 10.8889 9.76882 9.73002 10.568 12.5373 8.91582 8.85138 8.78788 14.8723 9.78789 8.71923 9.82687 9.57212 8.63437 8.45568 8.45369 8.40576 10.4568
threshold=44.048147832701609 79.145383148124623 12.416137939178197 56.254189243491417 66.086492235249025 20.986477706181194 19.425678548545928 58.832339889495408 2.5000000000000004 57786.935000000005 82.694443490709645 -46.158346023077094 23.939065566568697 3.5000000000000004 49.769126673839914 48.288908300143156 44246.626825000007 19.500000000000004 125.37528756406839 21.684082521981697 19.500000000000004 -301.83510329269677 191.83358446469421 77.368159519159931 56575.400000000009 57.804166798583715 -137.25520131799891 444.24401563352882 47830.040000000001 59858.830000000009
decision_type=8 8 10 8 10 10 10 10 2 2 10 10 10 2 10 10 10 2 2 10 2 2 2 2 2 8 10 2 10 10
left_child=2 3 17 6 -5 9 -2 11 -3 10 -6 12 19 28 15 16 -10 -1 -11 22 -21 -22 23 24 -4 -9 -14 -8 -13 -30
right_child=1 8 7 4 5 -7 27 25 14 18 -12 13 26 -15 -16 -17 -18 -19 -20 20 21 -23 -24 -25 -26 -27 -28 -29 29 -31
leaf_value=0.033389234862146559 -0.0055529995420684269 -0.013202436766772708 0.017846156090326904 0.010427853314619104 -0.019172377205286348 0.0034676320030394992 -0.028000872144417856 0.038947893646797002 0.036956363488659036 -0.020521222310979494 0.031250746772555647 -0.0041049314850698368 -0.0044822275765833688 0.012415487604696369 0.0094878529309305112 -0.034850724994683731 -0.09698713249881008 0.071689331697639691 -0.13103721066691132 -0.017316375235892426 -0.055021868506238164 0.057568935269816657 0.070884554728731342 -0.044611769958981876 -0.054477532377861161 0.15948363734146953 0.022425735206157624 0.097011042638259257 -0.067373685145324588 0.041654466668072515
leaf_weight=414.62218746542931 887.11914765834808 836.15410536527634 375.49338072538376 1021.8486052155495 472.90620167553425 688.62587732076645 428.19084949791431 71.316841244697571 39.722596600651741 14.493616700172426 53.145952790975571 441.58875872194767 131.1441944539547 392.3860372453928 60.491047486662865 782.81183043122292 8.4799486696720106 71.220387756824493 14.494537413120268 280.07355400919914 9.2407683134078962 46.9530930519104 24.983088105916977 30.478747367858887 19.237365156412125 6.4831526130437842 1066.603353202343 5.4785401672124854 43.984397292137146 10.99586735665798
leaf_count=1665 3549 3345 1503 4092 1892 2756 1713 286 159 58 213 1767 525 1571 242 3133 34 286 58 1121 37 188 100 122 77 26 4272 22 176 44
internal_value=0 -0.0094176 0.0145645 -0.00360914 0.00151884 -0.00580118 -0.012405 0.0105409 -0.0214749 -0.0173008 -0.0140782 0.00949971 0.0134767 0.000622763 -0.0292338 -0.0320524 0.0133926 0.0390037 -0.075781 0.00433468 -0.00789629 0.039054 0.0134705 0.0100971 0.0143214 0.0489923 0.0194795 -0.0264216 -0.00869578 -0.0455684
internal_weight=0 5313.96 3436.81 3586.3 2265.51 1243.67 1320.79 2950.96 1727.66 555.04 526.052 2873.16 1984.21 888.955 891.505 831.014 48.2025 485.843 28.9882 786.46 336.267 56.1939 450.193 425.209 394.731 77.8 1197.75 433.669 496.569 54.9803
internal_count=35032 21266 13766 14353 9069 4977 5284 11815 6913 2221 2105 11503 7945 3558 3568 3326 193 1951 116 3148 1346 225 1802 1702 1580 312 4797 1735 1987 220
is_linear=0
shrinkage=0.1


Tree=3
num_leaves=31
num_cat=0
split_feature=20 20 20 21 20 21 22 4 22 8 17 20 13 22 26 13 18 19 4 12 17 11 22 4 12 4 4 17 16 4
split_gain=97.3078 31.2372 27.9173 15.8961 21.8132 15.7313 12.2989 12.1724 20.5344 10.5358 10.224 11.0644 11.3895 11.0527 11.4876 10.449 10.0326 9.91856 9.71403 9.53389 12.0279 9.8379 9.39486 16.9357 10.0997 10.966 9.35269 12.6877 9.29813 9.16153
threshold=44.048147832701609 83.630673955961882 10.755356354322815 80.613836212919864 72.678752959999926 65.991608689668581 18.500000000000004 2477.4777100000006 8.5000000000000018 29198.622300000003 44.06547664113382 70.383941250454427 -30.621744224840956 14.500000000000002 43578.395000000011 170.14548534515629 184.51858495148588 -46879.641460999854 14200.156360000003 84.646063267277 15.298395432137815 56.307390610402663 21.500000000000004 2948.4706070000007 -80.834939679669318 1177.4972550000002 2094.8485255000001 6.7890637233340714 362.52535714285705 1795.5524530000002
decision_type=8 8 10 8 10 10 2 2 2 10 8 10 2 2 10 2 10 2 2 2 10 10 2 2 2 2 2 10 10 2
left_child=2 3 -1 4 5 -2 -4 9 -9 -5 11 -7 -13 14 28 -14 17 -3 -10 26 -21 -22 23 24 -8 -26 -6 -28 -12 -19
right_child=1 16 6 7 19 10 22 8 18 -11 13 12 15 -15 -16 -17 -18 29 -20 20 21 -23 -24 -25 25 -27 27 -29 -30 -31
leaf_value=0.038647815274740094 -0.0069995352865925235 -0.076625670655561542 0.0067521783223625821 0.021891070490650914 -0.02636557232113141 0.011341586200216155 0.022032100862214871 -0.012608287439546001 0.060055909540759095 -0.020778873261305241 0.014755704068751372 0.034950400135994091 -0.055176757091689323 0.086136580295772813 -0.077592082766810649 0.025726853541288942 0.022008155338552941 -0.037575352417648124 -0.021839673243185091 -0.085018920007619569 0.10796704149427083 -0.030623439802407167 0.0072374161148876367 0.0042770432988560791 0.037161260031981398 0.09157718628816898 0.11109265924691097 -0.0039414965832455387 0.121780403971016 -0.017314538766638566
leaf_weight=380.91330586373806 2054.12551240623 34.981882780790329 2439.0491049438715 100.64640074968338 264.88095985352993 556.20846828818321 89.037592947483063 75.881172358989716 134.05183525383472 136.13593776524067 43.647272005677223 27.497168615460396 75.491747081279755 33.819411933422089 10.984366044402121 20.245038002729416 48.991862192749977 301.56526002287865 16.238119080662727 43.209010452032089 5.2462748289108267 216.14647826552391 241.69659741222858 134.95330481231213 73.318756297230721 74.831593886017799 9.9978529363870603 233.90462942421436 9.9722626805305463 858.613515406847
leaf_count=1534 8220 140 9771 403 1060 2228 357 304 537 545 175 110 302 136 44 81 196 1208 65 173 21 865 969 541 294 300 40 936 40 3437
internal_value=0 -0.00847846 0.0131213 -0.00423796 -0.00647788 -0.0024131 0.00993634 0.013206 0.0297971 -0.00264164 0.00969838 0.00533493 -0.0217757 0.0398205 0.0155745 -0.0380684 -0.0223447 -0.0241628 0.0512075 -0.0213623 -0.0367583 -0.0273393 0.0225884 0.0325585 0.0486499 0.0646471 -0.0133554 0.00077389 0.0346604 -0.0225809
internal_weight=0 5312.48 3433.8 4068.33 3605.38 2831.99 3052.89 462.953 226.171 236.782 777.866 679.442 123.234 98.4233 64.6039 95.7368 1244.15 1195.16 150.29 773.385 264.602 221.393 613.838 372.141 237.188 148.15 508.783 243.902 53.6195 1160.18
internal_count=35032 21266 13766 16285 14431 11336 12232 1854 906 948 3116 2721 493 395 259 383 4981 4785 602 3095 1059 886 2461 1492 951 594 2036 976 215 4645
is_linear=0
shrinkage=0.1


Tree=4
num_leaves=31
num_cat=0
split_feature=18 20 20 21 4 20 16 20 20 18 17 4 4 18 10 28 4 22 3 21 4 22 9 21 11 18 12 7 20 22
split_gain=82.5134 30.0412 18.878 17.5385 12.0649 10.3458 10.6956 10.0569 10.0393 11.7015 9.55322 10.1827 9.53511 9.51606 9.26785 9.0602 8.69395 9.26782 9.54306 8.68061 8.61855 11.6347 11.2367 11.0307 11.9232 8.4334 8.38113 8.26417 8.20017 8.18273
threshold=-45.203897940932109 72.678752959999926 12.416137939178197 59.183712650763361 1992.0450400000002 53.725348696551819 69.432142857142495 54.088462223343932 91.587096365880214 82.12099198864523 17.329091840243319 1092.0360500000004 11892.245244500002 137.7691878244452 10656.096307489917 64763.250000000007 1810.9435510000003 18.500000000000004 60643.130000000005 86.364376148812525 1283.6998185000002 12.500000000000002 58492.186044797178 75.466001939294529 51.412909101503963 20.518099109528602 84.646063267277 8696.6452000000008 83.630673955961882 1.5000000000000002
decision_type=8 8 10 8 2 10 10 10 10 10 8 2 2 10 2 8 2 2 2 8 2 2 2 10 10 10 2 10 10 2
left_child=2 3 -1 5 13 -2 -7 14 27 -10 11 -9 -11 19 -5 29 -4 18 -18 20 21 -3 -22 24 -23 -16 -15 -6 -25 -12
right_child=1 4 16 7 8 6 -8 10 9 12 15 -13 -14 26 25 -17 17 -19 -20 -21 22 23 -24 28 -26 -27 -28 -29 -30 -31
leaf_value=0.032419098794960355 -0.0018143366843684818 -0.03113107071172945 0.01892032506333401 0.075407428862994341 0.024403230149582553 0.010992468336106391 -0.022529006836053741 -0.032835870081101434 0.031302730762266466 -0.02405621778981832 -0.019983531727381362 0.0017284155703717826 -0.078733405769772696 -0.045514412292961187 0.034927448626561573 -0.12333135730991301 0.0032956153863647388 0.022918746160344637 -0.071668310106309044 -0.0021643902577144218 -0.034720673652337122 0.079029503561103998 -0.12088742104024562 0.057032314677672905 -0.042657232843431786 -0.0081736978656705983 -0.14484407586414119 -0.0076348786786501095 -0.013624797134682107 0.015204076771171358
leaf_weight=478.81053134799004 1505.3064694404602 206.15064768493176 802.61211024224758 33.878086403012276 87.077187180519104 114.95081742107868 553.49139709770679 117.40388472378254 34.458045035600662 298.18883302807808 73.153935164213181 311.04332976043224 35.714323252439499 40.901947721838951 120.63838192820549 4.9939915835857382 1177.3080803751945 263.97409081459045 17.230310082435608 175.88061134517193 300.81786945462227 9.4895217269659025 15.935915336012838 48.20061694085598 53.156911864876747 72.786720976233482 10.721262603998182 1068.0285433977842 24.915655165910721 684.14761437475681
leaf_count=1934 6026 826 3218 136 349 460 2215 470 138 1194 293 1246 143 164 484 20 4716 1059 69 705 1205 38 64 193 213 292 43 4277 100 2742
internal_value=0 -0.00656262 0.0143811 -0.00076765 -0.0152006 -0.00641157 -0.0167644 0.00788403 -0.00980387 -0.0241789 0.0042046 -0.00774295 -0.0299045 -0.0244784 0.0271589 0.0109197 0.0105614 0.00596158 0.00221432 -0.021901 -0.0271712 -0.0161612 -0.0390557 0.0065699 -0.0242244 0.0187083 -0.0661435 -0.0052197 0.0329547 0.011805
internal_weight=0 6001.43 2739.94 3591.79 2409.64 2173.75 668.442 1418.05 1523.47 368.361 1190.74 428.447 333.903 886.171 227.303 762.296 2261.12 1458.51 1194.54 834.548 658.667 341.913 316.754 135.763 62.6464 193.425 51.6232 1155.11 73.1163 757.302
internal_count=35032 24036 10996 14384 9652 8701 2675 5683 6101 1475 4771 1716 1337 3551 912 3055 9062 5844 4785 3344 2639 1370 1269 544 251 776 207 4626 293 3035
is_linear=0
shrinkage=0.1


Tree=5
num_leaves=31
num_cat=0
split_feature=18 20 20 21 20 21 20 7 13 19 18 4 16 20 5 21 23 21 4 17 4 22 19 21 11 22 21 22 11 5
split_gain=66.9042 24.9941 15.6282 10.9497 9.70506 13.7944 9.70761 9.86097 13.2884 10.1498 9.54767 9.52142 8.73376 8.38312 9.27122 8.29603 8.04379 9.05153 11.5693 10.6294 7.73507 7.69511 7.64753 9.38624 7.6346 9.25575 7.601 7.58559 10.8821 7.56757
threshold=-45.203897940932109 82.651573949426862 10.755356354322815 86.09967093305228 72.678752959999926 59.183712650763361 63.437052128350608 28446.757500000003 -417.12200689134312 1222560.0339879973 184.51858495148588 1557.8794505000003 504.73857142857122 53.725348696551819 13787.424500000003 46.856983202882809 2.5000000000000004 70.400663596026973 497.52037000000007 24.785073252390834 1041.1893750000002 18.500000000000004 1277910.6689379953 73.692754452738015 45.647223850975173 4.5000000000000009 64.444436683704296 18.500000000000004 50.535383077681111 58664.639500000005
decision_type=8 10 10 8 10 10 10 10 2 2 10 2 8 10 10 10 2 8 2 10 2 2 2 10 10 2 10 2 10 8
left_child=2 3 -1 4 5 13 7 -7 -9 -10 -3 -4 26 -2 27 -16 -8 18 -18 -19 -11 -13 -6 -24 -20 -26 -12 -15 -29 -27
right_child=1 10 11 -5 22 6 16 8 9 20 12 21 -14 14 15 -17 17 19 24 -21 -22 -23 23 -25 25 29 -28 28 -30 -31
leaf_value=0.031936026328635791 -0.0016328491821829554 -0.019614360244765056 0.019938038767552759 0.029607569101163956 -0.010135081904379823 0.026552236922588845 0.011440752977458571 0.09649614588041916 -0.010366590745942685 -0.0064063871913600055 -0.10410009369045847 0.0027405883773179937 0.1351827998302792 -0.005129698814220463 7.9010530335308672e-05 -0.028579364003527043 0.074900432716588694 -0.013301384219993898 0.028739622516657588 0.032009788912128447 0.083946138219555017 0.020321198719481109 -0.10920250652809549 -0.014318590722256112 -0.077436255299456858 -0.018757958022661697 0.023953147051803292 0.12090486185440828 0.0033465180734136043 -0.12540623297298251
leaf_weight=374.53180052340031 1505.3516778200865 1290.6864386200905 679.71854616701603 104.20011666417122 927.29947735369205 370.98943135142326 308.38368307054043 14.174345850944517 241.28552371263504 16.698979765176773 5.2475878596305838 1379.0381271243095 6.2487645447254172 107.94861647486687 136.16982360184193 391.21030022203922 11.239376902580259 128.84826548397541 20.476084262132645 86.548450380563736 21.902990236878395 303.8213291913271 17.672780022025108 25.424333244562149 41.22084666788578 140.13423885405064 39.73584109544754 12.994586929678915 19.983357787132263 6.9851309210062018
leaf_count=1519 6026 5175 2729 418 3715 1490 1236 57 967 67 21 5527 25 432 545 1566 45 516 82 347 88 1221 71 102 165 561 159 52 80 28
internal_value=0 -0.00590913 0.0129577 -0.00244431 -0.00317786 -0.000774984 0.00693252 0.0157112 0.00203411 -0.00274974 -0.0179338 0.00994915 0.0244036 -0.00577071 -0.0150912 -0.0211798 -0.000916346 -0.00966754 -0.0239316 0.00490508 0.0448602 0.00591457 -0.0120489 -0.0532275 -0.0292512 -0.0355559 0.00901497 0.00769365 0.0496691 -0.0238215
internal_weight=0 5999.06 2737.11 4657.14 4552.94 3582.55 1408.89 665.051 294.062 279.887 1341.92 2362.58 51.2322 2173.66 668.307 527.38 743.836 435.452 220.056 215.397 38.602 1682.86 970.397 43.0971 208.816 188.34 44.9834 140.927 32.9779 147.119
internal_count=35032 24036 10996 18656 18238 14350 5649 2669 1179 1122 5380 9477 205 8701 2675 2111 2980 1744 881 863 155 6748 3888 173 836 754 180 564 132 589
is_linear=0
shrinkage=0.1


Tree=6
num_leaves=31
num_cat=0
split_feature=18 20 20 21 8 22 22 19 20 12 18 20 23 17 13 18 11 21 20 22 18 11 16 8 11 13 17 22 10 15
split_gain=54.2484 20.5816 13.2185 9.48755 8.36427 8.33517 12.4712 12.3027 8.65565 8.61659 8.38488 8.2156 7.62791 8.32642 8.2586 8.18583 14.0721 7.56862 13.4985 11.2758 10.5785 10.4147 13.2475 10.0264 11.0934 9.30126 9.14603 8.87394 9.33789 8.84012
threshold=-45.203897940932109 79.472189403688006 3.6048002574823417 87.32804986409279 56864.720350000011 18.500000000000004 8.5000000000000018 1155790.2574679989 21.684082521981697 121.54631158226768 -50.501614145814649 22.405246489871079 2.5000000000000004 49.769126673839914 -573.6336177857944 48.288908300143156 66.191771057234106 56.254189243491417 63.437052128350608 8.5000000000000018 19.425678548545928 52.085242733760388 775.43892857142873 28287.342650000002 42.354209164673286 -109.61825767983755 32.189460707932426 4.5000000000000009 35635.529125139656 46454.882312822105
decision_type=8 8 10 8 8 2 2 2 10 2 10 10 2 10 2 10 10 10 10 2 10 10 10 10 10 2 10 2 2 8
left_child=2 3 -1 17 5 6 7 8 10 -9 -4 -10 14 15 -3 16 -14 20 23 21 -2 25 26 -19 -25 27 -23 29 -29 -20
right_child=1 12 4 -5 -6 -7 -8 9 11 -11 -12 -13 13 -15 -16 -17 -18 18 19 -21 -22 22 -24 24 -26 -27 -28 28 -30 -31
leaf_value=0.054884544815017311 -0.0023519884036598735 -0.092112219893617717 0.028038460352613204 0.059673286428651787 -0.0111693333051327 0.023747403790280674 0.0021494038940138059 0.041640498040626188 -0.063395379194036275 0.15832708849253796 -0.082790257311987081 0.0070651262171735063 0.040860813182839767 0.014718223910834502 -0.0065796653786670996 -0.026295569505964324 -0.12747647165437778 0.021515457053462129 0.042264753153924729 0.003107187509916249 -0.01929634976670451 -0.035602506203282758 0.081941208614656591 0.061356380729860077 -0.0050340690725328222 0.026613982562886909 -0.002843973905059481 -0.13256291502405917 -0.015469465052814947 -0.096477970247373993
leaf_weight=69.013010963797569 1481.5350130051374 11.448489874601362 323.80387926101685 25.077862486243248 166.15442903339863 486.50705832242966 1122.1233510524035 108.96847881376743 17.21566067636013 6.718578726053237 6.9734179824590674 426.74874912202358 37.37789361178875 59.977585822343826 808.74526897072792 763.40838401019573 5.7267501205205908 475.56887316703796 22.963072001934055 883.47668746113777 490.40660098195076 289.71958583593369 11.701485753059385 27.106682270765305 351.96187445521355 95.372942060232162 120.74995255470276 11.740280896425249 16.219640672206879 5.7404013127088538
leaf_count=281 5930 46 1304 101 668 1962 4508 438 69 27 28 1711 150 240 3240 3068 23 1911 92 3541 1965 1161 47 109 1411 382 484 47 65 23
internal_value=0 -0.00532089 0.0116755 -0.00165551 0.0105567 0.0120012 0.0091617 0.0179986 0.0134564 0.0484171 0.025702 0.00433287 -0.0146856 -0.0212284 -0.00777355 -0.0239017 0.018496 -0.0020145 0.00186695 -0.00398335 -0.00656592 -0.0148929 -0.0229749 0.0118453 -0.000286577 0.00754902 -0.0259658 -0.0245402 -0.0646366 0.0145176
internal_weight=0 5996.03 2734.23 4309.34 2665.21 2499.06 2012.55 890.429 774.742 115.687 330.777 443.964 1686.68 866.491 820.194 806.513 43.1046 4284.26 2312.32 1457.68 1971.94 574.207 422.171 854.637 379.069 152.036 410.47 56.6634 27.9599 28.7035
internal_count=35032 24036 10996 17269 10715 10047 8085 3577 3112 465 1332 1780 6767 3481 3286 3241 173 17168 9273 5842 7895 2301 1692 3431 1520 609 1645 227 112 115
is_linear=0
shrinkage=0.1


Tree=7
num_leaves=31
num_cat=0
split_feature=20 20 22 20 21 4 12 18 6 16 18 20 20 18 20 18 20 9 25 13 17 17 16 19 18 3 18 17 19 10
split_gain=45.6347 16.1578 11.8278 11.5803 14.649 11.1542 11.9706 10.7188 9.51985 11.2272 9.44053 8.62778 8.40477 8.04914 8.00334 11.7483 12.7662 8.96124 13.7048 11.9159 8.76114 13.799 10.7754 8.29295 15.6417 7.74259 7.65981 7.58899 9.65601 14.538
threshold=54.088462223343932 12.416137939178197 3.5000000000000004 84.226598899135595 80.613836212919864 2477.4777100000006 -85.632125043835899 184.51858495148588 16827.021000000004 165.44857142857137 137.7691878244452 96.002042179532751 74.705955370520272 -121.71726380410253 79.472189403688006 103.33630383605919 83.93312023945272 19054.786238337987 17000.910000000003 -38.692884799665087 41.867377617401075 36.561574391595485 252.75035714285647 160933.93601850045 103.33630383605919 6216.5500000000011 107.88200166273492 42.904629772654353 334325.76947299851 9259.948672042965
decision_type=8 10 2 8 8 2 2 10 10 10 10 10 10 10 10 10 10 2 10 2 8 10 8 2 10 2 10 10 2 2
left_child=1 -1 7 4 13 6 -6 11 -7 -10 -8 25 -11 -4 17 16 -16 18 20 -20 21 22 23 -15 -25 -2 -17 28 29 -5
right_child=2 -3 3 27 5 8 10 -9 9 12 -12 -13 -14 14 15 26 -18 -19 19 -21 -22 -23 -24 24 -26 -27 -28 -29 -30 -31
leaf_value=0.024490175556412232 0.094800860422390665 0.0050308450470693431 -0.12848117692999861 -0.0057534982749165272 -0.10618311775974872 0.066024540846683147 0.0091978414132836799 0.076832819983603196 -0.040500772627296844 0.081724215501798675 -0.10362315395799543 -0.078708012870829819 0.017748945226760637 -0.0086222918323674395 -0.044249226131700098 0.12321034615788636 0.10809656314283858 -0.0069413659076926473 0.14035734410503406 0.030528534393348673 0.033492856199408727 -0.062482943529221548 -0.1338510165397882 0.011967117789260604 0.12684542940030705 -0.019465433957264442 0.0020544378160322961 0.0065287371506029847 -0.011726488845043907 -0.059246882063006927
leaf_weight=478.47940723598003 5.9821236580610266 3943.3777920603752 5.2451864629983893 88.184074327349663 10.220287919044493 59.161653071641922 190.25940680503845 11.483658164739607 26.43107607960701 26.082157239317894 7.7176521867513648 24.629927203059196 96.560385018587112 228.28159326314926 142.44808343052864 5.7317707836627951 5.7214226424694052 1360.1022896170616 12.204218566417692 51.840123578906059 77.924732431769371 35.694333165884018 5.7355087697505942 173.86326535046101 12.719573169946669 679.677425801754 58.250395655632019 150.03306180238724 630.43125332891941 119.85638390481472
leaf_count=1951 24 15818 21 354 41 238 763 46 106 105 31 99 387 915 572 23 23 5453 49 208 313 143 23 697 51 2727 234 601 2534 482
internal_value=0 0.0071365 -0.00732962 -0.00497561 -0.0014638 0.0157194 -0.000648297 -0.0190079 0.032084 0.0186144 0.00479979 -0.0205574 0.0313544 -0.00475259 -0.00445359 -0.0229028 -0.0383665 -0.00245497 0.00774448 0.0514574 0.002504 -0.0027882 0.00227781 0.0041598 0.0197985 -0.0184685 0.0129081 -0.0141848 -0.0178912 -0.0365721
internal_weight=0 4421.86 4302.47 3580.7 2592.2 416.433 208.197 721.773 208.235 149.074 197.977 710.289 122.643 2175.76 2170.52 212.152 148.17 1958.37 598.263 64.0443 534.219 456.294 420.6 414.864 186.583 685.66 63.9822 988.505 838.472 208.04
internal_count=35032 17769 17263 14367 10396 1671 835 2896 836 598 794 2850 492 8725 8704 852 595 7852 2399 257 2142 1829 1686 1663 748 2751 257 3971 3370 836
is_linear=0
shrinkage=0.1


Tree=8
num_leaves=31
num_cat=0
split_feature=20 20 20 15 21 18 16 20 16 13 21 21 11 11 16 22 21 22 7 15 10 4 23 16 20 16 21 22 7 16
split_gain=38.0327 11.9928 11.0939 10.119 8.37746 8.23201 8.74761 10.7566 11.1004 9.38553 8.02895 9.26626 12.2155 8.45847 7.66681 7.9299 12.2607 9.66456 10.3591 8.91345 9.06854 8.84167 7.81809 10.415 10.2291 9.52166 8.33353 8.08825 9.81248 8.20056
threshold=44.048147832701609 85.272797843517125 10.755356354322815 9007.3127416035823 45.165976694727384 -193.47611318301492 236.31250000000017 4.7406096999599798 712.17035714285737 -331.88011775813612 58.194431445077477 57.576839455179361 49.715019186126966 57.804166798583715 759.66607142857163 7.5000000000000009 30.543499703684976 22.500000000000004 9398.5721500000018 57488.701299763605 57775.954895219598 497.52037000000007 2.5000000000000004 236.31250000000017 63.437052128350608 662.19464285714366 33.435023718587679 1.5000000000000002 56127.189900000005 626.42892857142954
decision_type=8 8 10 10 10 10 10 10 10 2 10 10 10 8 10 2 10 2 10 10 2 2 2 10 10 10 10 2 8 10
left_child=2 3 4 -2 5 -1 -7 8 9 -8 11 -4 -13 -12 15 21 -17 19 -19 20 -18 -5 23 -23 26 -26 -24 28 29 -25
right_child=1 -3 10 14 -6 6 7 -9 -10 -11 13 12 -14 -15 -16 16 17 18 -20 -21 -22 22 24 27 25 -27 -28 -29 -30 -31
leaf_value=-0.054065080121148003 0.014044234994857003 -0.014778871320120983 0.0056967104123428012 0.0279968211013224 0.11949652738459592 0.043143465418160359 -0.096984271854302542 -0.0039282324543593516 0.13101106380741478 0.040944819119375107 0.027150941377958246 -0.17873455937218974 0.031264714251527624 0.14329132004146436 0.014230758137983419 -0.063026333796971257 0.0010581735183767212 -0.14464677959908306 -0.019881655806412834 -0.034456508125253707 0.075571054342449456 -0.016161493740185176 0.087547098676948057 -0.023465594127836387 -0.027902270731467196 -0.10806357976238197 -0.0099774308806506954 0.024754552559232958 -0.15419996375104494 0.095689685700199964
leaf_weight=13.654560223221777 324.816974401474 1066.8687536120415 2948.4915096312761 53.651290148496628 9.052968814969061 152.04456730186939 5.5889021605253211 139.49537041783333 12.391358166933058 42.063543349504471 79.179325848817825 6.2298953980207425 4.9875477850437164 6.8101885169744483 210.66409458220005 32.48733839392662 2143.9995248764753 6.9765225797891608 144.31627109646797 70.703609585762024 16.45871165394783 284.42224137485027 8.9971649497747404 40.920883432030678 376.02450442314148 15.425641283392904 335.16670742630959 155.40658478438854 4.9778301417827597 6.7250874936580649
leaf_count=56 1304 4291 11839 215 37 623 23 571 51 173 320 25 20 28 845 130 8599 28 579 284 66 1140 36 164 1510 62 1343 623 20 27
internal_value=0 -0.00530367 0.00822334 -0.0029151 0.0244702 0.0221148 0.0250734 0.0113045 0.0466935 0.0247678 0.00622674 0.00535159 -0.0853638 0.036349 -0.00432493 -0.00538238 -0.00200817 -0.00117612 -0.0256349 0.000482406 0.00162582 -0.0117399 -0.0134759 -0.00372414 -0.0200041 -0.0310611 -0.00742794 0.0132804 -0.0206046 -0.00664718
internal_weight=0 5299.01 3419.99 4232.14 374.291 365.238 351.584 199.539 60.0438 47.6524 3045.7 2959.71 11.2174 85.9895 3907.32 3696.66 2414.94 2382.45 151.293 2231.16 2160.46 1281.72 1228.07 492.453 735.614 391.45 344.164 208.03 52.6238 47.646
internal_count=35032 21266 13766 16975 1534 1497 1441 818 247 196 12232 11884 45 348 15671 14826 9686 9556 607 8949 8665 5140 4925 1974 2951 1572 1379 834 211 191
is_linear=0
shrinkage=0.1


end of trees

feature_importances:
%K=48
%D=31
CCI_14=30
hour=24
volume=21
ADX_14=17
Signal_Line=14
ATR_14=13
OBV=11
RSI_14=10
MACD=9
day_of_week=8
SMA_200=6
SMA_100=4
EMA_200=4
Lower_Band=4
SMA_10=3
lag_3=3
close=2
EMA_20=2
high=1
low=1
SMA_30=1
lag_2=1
lag_4=1
lag_5=1

parameters:
[boosting: gbdt]
[objective: binary]
[metric: binary_logloss]
[tree_learner: serial]
[device_type: cpu]
[data_sample_strategy: bagging]
[data: ]
[valid: ]
[num_iterations: 10000]
[learning_rate: 0.1]
[num_leaves: 31]
[num_threads: 0]
[seed: 0]
[deterministic: 0]
[force_col_wise: 0]
[force_row_wise: 0]
[histogram_pool_size: -1]
[max_depth: -1]
[min_data_in_leaf: 20]
[min_sum_hessian_in_leaf: 0.001]
[bagging_fraction: 1]
[pos_bagging_fraction: 1]
[neg_bagging_fraction: 1]
[bagging_freq: 0]
[bagging_seed: 3]
[feature_fraction: 1]
[feature_fraction_bynode: 1]
[feature_fraction_seed: 2]
[extra_trees: 0]
[extra_seed: 6]
[early_stopping_round: 0]
[early_stopping_min_delta: 0]
[first_metric_only: 0]
[max_delta_step: 0]
[lambda_l1: 0]
[lambda_l2: 0]
[linear_lambda: 0]
[min_gain_to_split: 0]
[drop_rate: 0.1]
[max_drop: 50]
[skip_drop: 0.5]
[xgboost_dart_mode: 0]
[uniform_drop: 0]
[drop_seed: 4]
[top_rate: 0.2]
[other_rate: 0.1]
[min_data_per_group: 100]
[max_cat_threshold: 32]
[cat_l2: 10]
[cat_smooth: 10]
[max_cat_to_onehot: 4]
[top_k: 20]
[monotone_constraints: ]
[monotone_constraints_method: basic]
[monotone_penalty: 0]
[feature_contri: ]
[forcedsplits_filename: ]
[refit_decay_rate: 0.9]
[cegb_tradeoff: 1]
[cegb_penalty_split: 0]
[cegb_penalty_feature_lazy: ]
[cegb_penalty_feature_coupled: ]
[path_smooth: 0]
[interaction_constraints: ]
[verbosity: -1]
[saved_feature_importance_type: 0]
[use_quantized_grad: 0]
[num_grad_quant_bins: 4]
[quant_train_renew_leaf: 0]
[stochastic_rounding: 1]
[linear_tree: 0]
[max_bin: 255]
[max_bin_by_feature: ]
[min_data_in_bin: 3]
[bin_construct_sample_cnt: 200000]
[data_random_seed: 1]
[is_enable_sparse: 1]
[enable_bundle: 1]
[use_missing: 1]
[zero_as_missing: 0]
[feature_pre_filter: 1]
[pre_partition: 0]
[two_round: 0]
[header: 0]
[label_column: ]
[weight_column: ]
[group_column: ]
[ignore_column: ]
[categorical_feature: ]
[forcedbins_filename: ]
[precise_float_parser: 0]
[parser_config_file: ]
[objective_seed: 5]
[num_class: 1]
[is_unbalance: 0]
[scale_pos_weight: 1]
[sigmoid: 1]
[boost_from_average: 1]
[reg_sqrt: 0]
[alpha: 0.9]
[fair_c: 1]
[poisson_max_delta_step: 0.7]
[tweedie_variance_power: 1.5]
[lambdarank_truncation_level: 30]
[lambdarank_norm: 1]
[label_gain: ]
[lambdarank_position_bias_regularization: 0]
[eval_at: ]
[multi_error_top_k: 1]
[auc_mu_weights: ]
[num_machines: 1]
[local_listen_port: 12400]
[time_out: 120]
[machine_list_filename: ]
[machines: ]
[gpu_platform_id: -1]
[gpu_device_id: -1]
[gpu_use_dp: 0]
[num_gpu: 1]

end of parameters

pandas_categorical:[]
