tree
version=v4
num_class=1
num_tree_per_iteration=1
label_index=0
max_feature_idx=28
objective=binary sigmoid:1
feature_names=open high low close volume SMA_10 SMA_30 SMA_100 SMA_200 EMA_20 EMA_200 RSI_14 MACD Signal_Line Upper_Band Lower_Band ATR_14 ADX_14 CCI_14 OBV %K %D hour day_of_week lag_1 lag_2 lag_3 lag_4 lag_5
feature_infos=[4131.2299999999996:73577.350000000006] [4610:73777] [3782.1300000000001:73215.139999999999] [4130.6400000000003:73577.350000000006] [0:137207.18859999999] [4824.2089999999998:73174.834999999992] [5037.273666666666:73028.51933333333] [5219.7835999999998:71815.484700000001] [5461.8512499999997:70178.790349999996] [4995.5837282851389:73047.528323142324] [5838.6083970051659:69761.377583744063] [5.5605670126904982:95.854267048766289] [-2360.9460327477354:1887.2236274780516] [-2077.4839220854774:1744.7269192312694] [5285.8377108112381:74727.795140676651] [4211.7807979748686:72708.739523991317] [14.930000000000291:3189.2171428571428] [2.0842714546167458:90.52722382389662] [-227.78479126482554:227.89303930723926] [-415542.28330200177:1431674.7207219906] [0:100] [1.7839708065778497:99.184158628538611] [0:23] [0:6] [4130.6400000000003:73577.350000000006] [4130.6400000000003:73577.350000000006] [4130.6400000000003:73577.350000000006] [4130.6400000000003:73577.350000000006] [4130.6400000000003:73577.350000000006]
tree_sizes=3416 3449 3435 3446 3450 3442 3445 3465

Tree=0
num_leaves=31
num_cat=0
split_feature=20 20 20 21 20 21 18 20 23 4 20 18 17 6 4 4 4 13 12 22 17 22 16 20 22 21 8 4 18 12
split_gain=200.787 84.2566 30.9303 34.921 24.6472 22.6712 17.4243 15.5595 13.2558 12.9281 12.6474 11.8676 11.1705 10.7239 12.0216 12.8027 10.5431 10.4163 10.3047 11.7294 10.1234 10.0287 10.0005 10.5744 9.91682 12.5306 10.0818 9.751 9.29679 9.0695
threshold=70.292566687867705 11.61868551110099 34.383351084592469 59.04372980068981 84.798516030286365 80.506270588082643 6.5654567708537899 45.766416815462925 4.5000000000000009 1904.1438165000002 80.305560952783907 184.00858595523079 17.355574833670602 16814.438833333337 3668.3224045000002 8621.6208755000025 3931.7493760000007 -185.62281420524923 -85.230265461522308 6.5000000000000009 45.000913840507828 1.0000000180025095e-35 103.37071428571447 32.638644633915128 16.500000000000004 37.756681608732016 68430.220750000022 15335.127170000002 -24.685186380909425 -710.63375809705201
decision_type=8 10 10 8 8 10 8 10 2 2 10 10 8 10 2 2 2 2 2 2 10 2 10 10 2 10 8 2 10 2
left_child=1 -1 18 6 5 10 16 20 11 -7 -2 -6 17 14 -11 -16 -4 -9 19 22 -5 -15 -3 29 25 26 -20 -12 -27 -24
right_child=4 2 3 7 8 9 -8 12 -10 13 27 -13 -14 21 15 -17 -18 -19 24 -21 -22 -23 23 -25 -26 28 -28 -29 -30 -31
leaf_value=0.080757477715880488 0.017662665951502742 0.18211165443039065 0.037176430256605386 0.077141187091269603 0.0053776986213007541 0.01928097705001016 0.015987346949281715 0.15603030263844161 -0.01619992186122178 0.045458138135860519 -0.010558084868101301 0.058009986101914046 0.051227325185547096 -0.054398785682965307 0.1542418086871912 0.033991891847236277 0.019380996498528133 0.03096100794518342 0.044237488091119548 0.033209118248231188 0.1937512659739051 0.042231951659418746 -0.00024225975133561339 0.12100369382693985 0.067603880229699376 0.076625998605951234 -0.041379279715393354 0.090085975664479595 0.027985313816106642 0.055643375140259188
leaf_weight=537.59996272623539 967.23005846142769 6.2482561916112891 1470.3396470099688 76.478655785322189 1010.4679913073778 264.17627178132534 859.2601914703846 6.7481166869401923 300.41615769267082 51.985491514205933 259.67752732336521 44.737514331936836 872.00663410127163 11.24686114490032 28.991908729076385 12.74644263088703 430.37988647818565 504.60917003452778 794.02839682996273 668.81334275007248 8.247698172926901 238.43345627188683 32.990792691707611 21.993861794471741 387.64181412756443 216.93945497274399 13.996093869209288 9.9972099065780622 47.986607551574707 242.43234023451805
leaf_count=2151 3870 25 5883 306 4043 1057 3438 27 1202 208 1039 179 3489 45 116 51 1722 2019 3177 2676 33 954 132 88 1551 868 56 40 192 970
internal_value=0.0334109 0.0426756 0.0396021 0.0344329 0.0125698 0.0200935 0.0278047 0.0468938 0.00233288 0.0359121 0.0123233 0.00760915 0.044346 0.0487062 0.0775491 0.117519 0.033147 0.0326115 0.0485849 0.0406093 0.0884926 0.0378792 0.056908 0.0542777 0.0538952 0.0489424 0.0427545 -0.00682707 0.0678156 0.0489493
internal_weight=0 7198.74 6661.14 4228.07 3200.11 1844.49 2759.98 1468.09 1355.62 607.58 1236.9 1055.21 1383.36 343.404 93.7238 41.7384 1900.72 511.357 2433.07 972.479 84.7264 249.68 303.665 297.417 1460.59 1072.95 808.024 269.675 264.926 275.423
internal_count=41607 28803 26652 16917 12804 7380 11043 5874 5424 2431 4949 4222 5535 1374 375 167 7605 2046 9735 3891 339 999 1215 1190 5844 4293 3233 1079 1060 1102
is_linear=0
shrinkage=1


Tree=1
num_leaves=31
num_cat=0
split_feature=20 20 20 21 20 21 21 23 18 11 23 21 17 4 22 13 21 20 6 20 16 8 21 3 18 22 8 6 11 22
split_gain=162.638 68.9864 23.7486 35.955 19.9525 18.3579 16.3402 14.5374 19.0793 11.4558 10.735 10.6346 10.5247 10.4768 10.0214 10.0643 10.0108 19.6187 9.83469 9.78744 11.4135 9.77615 9.74114 10.3018 9.61 9.59039 16.2921 13.3566 10.1576 9.50122
threshold=70.292566687867705 12.671420004260787 43.973213125611345 66.004710525990006 84.798516030286365 80.506270588082643 58.713018048356723 3.5000000000000004 -50.766571285592029 50.382269087539704 4.5000000000000009 57.462825884694425 65.473764057552458 1904.1438165000002 18.500000000000004 0.73296209973875626 52.142853041430158 54.271507816037023 42908.467333333341 3.3952843354712603 228.92785714285705 23570.836725000001 55.192186566758664 69580.24500000001 184.00858595523079 18.500000000000004 63841.424950000008 66193.521333333352 50.260449949119341 4.5000000000000009
decision_type=8 10 10 8 8 10 10 2 10 10 2 10 10 2 2 2 10 10 10 10 10 10 10 2 10 2 8 8 10 2
left_child=1 14 6 16 5 9 7 8 25 11 24 -2 -11 -7 19 -16 -4 -18 -10 -1 -21 -5 23 -9 -6 26 -3 28 -27 -15
right_child=4 2 3 21 10 13 -8 22 18 12 -12 -13 -14 29 15 -17 17 -19 -20 20 -22 -23 -24 -25 -26 27 -28 -29 -30 -31
leaf_value=0.069654026271645228 -0.048550448038767902 0.010675478347829212 -0.014204410059785592 0.031278394860402389 -0.02522259375037297 -0.012714466088780869 0.051917404000170392 0.019501494331349047 -0.0014203967589207969 -0.024678166117072308 -0.044639210158497353 0.012657570225967023 0.049498115200624901 -0.020183688284389628 0.046997742948998916 0.11011167865314715 0.017488775998823782 -0.0098044622824925484 -0.027913033992100114 0.048210338377100252 0.015164191089345379 0.0085609915535545169 -0.037071417056665057 -0.12434466046841766 0.022152215586576082 0.028384219780471683 -0.03595777826328226 0.13041151704824999 -0.058589687344431846 0.021929185183772126
leaf_weight=66.890877306461334 33.997062489390373 967.16387085616589 1105.0251102000475 306.59016670286655 1010.7427103072405 264.22544492781162 95.085860580205917 1357.5000038444996 460.5359358638525 1011.6653272658587 300.48027977347374 171.98756782710552 19.497106209397316 66.433756232261658 82.376537621021271 36.443203926086426 388.0968492180109 819.46341745555401 201.40205796062946 175.74140274524689 257.87181028723717 495.71391993761063 31.734366491436958 4.997031942009925 44.712372288107872 236.35660053789616 81.20827741920948 12.243372067809103 14.236915424466131 276.74928520619869
leaf_count=268 136 3871 4421 1227 4043 1057 381 5433 1843 4047 1202 688 78 266 330 146 1553 3279 806 704 1033 1984 127 20 179 946 325 49 57 1108
internal_value=0 0.00834122 0.00533688 -0.000998378 -0.0187541 -0.0119845 0.0110362 0.00988181 0.00435868 -0.0189748 -0.0279632 0.0025554 -0.0232756 0.00225305 0.040248 0.0663554 -0.00732656 -0.00103271 -0.00948108 0.03405 0.0285576 0.0172422 0.0176983 0.0189739 -0.0232156 0.0113454 0.00706321 0.0284258 0.023443 0.0137769
internal_weight=0 7196.68 6577.35 3114.89 3200.49 1844.56 3462.46 3367.38 1973.15 1237.15 1355.94 205.985 1031.16 607.408 619.324 118.82 2312.59 1207.56 661.938 500.504 433.613 802.304 1394.23 1362.5 1055.46 1311.21 1048.37 262.837 250.594 343.183
internal_count=41607 28803 26322 12464 12804 7380 13858 13477 7897 4949 5424 824 4125 2431 2481 476 9253 4832 2649 2005 1737 3211 5580 5453 4222 5248 4196 1052 1003 1374
is_linear=0
shrinkage=0.1


Tree=2
num_leaves=31
num_cat=0
split_feature=20 20 20 21 21 20 21 20 13 20 23 3 6 18 20 7 19 21 4 21 21 11 22 15 4 19 17 17 12 4
split_gain=132.043 57.875 16.2081 26.4277 14.9693 14.8432 14.1939 13.5024 12.8435 12.671 12.3372 16.1205 12.5993 11.194 11.082 11.0235 11.0058 10.287 10.0753 9.82324 9.78244 9.53661 11.0211 9.35037 9.29458 9.12786 10.0365 10.7554 8.99342 8.68853
threshold=71.577993092136893 16.449732514364943 43.973213125611345 65.701242506527947 58.713018048356723 92.639645930568705 86.515193546247957 80.305560952783907 -623.47995469701766 81.581134457407884 3.5000000000000004 57146.420000000006 58047.011000000006 -46.449487260098941 3.3952843354712603 8701.3622500000019 858217.80802049732 22.715365026629705 286.25121500000006 55.192186566758664 65.379510454006223 73.369774932531627 20.500000000000004 55559.89988934181 560.55675500000018 67271.619827000046 25.329580192933459 15.844934443855459 369.39250883773644 2537.9088180000003
decision_type=8 10 10 8 10 8 10 10 2 10 2 2 10 10 10 10 2 10 2 10 10 10 2 10 2 2 10 8 2 2
left_child=1 14 4 -4 10 6 7 8 -2 16 11 13 -13 23 -1 25 -8 -12 -5 -19 -6 22 -17 24 -3 26 27 -9 -14 -23
right_child=5 2 3 18 20 -7 9 15 -10 -11 17 12 28 -15 -16 21 -18 19 -20 -21 -22 29 -24 -25 -26 -27 -28 -29 -30 -31
leaf_value=0.065091341068855765 0.086447649960744388 0.11366455045425024 -0.0067905774231382422 -0.083247315258126064 0.068726621510667982 -0.033391023540308894 0.078232776121463871 0.055336853248335351 -0.011732354547850193 -0.0060757164016821876 -0.0028430119011233178 -0.10535281014930549 -0.017936073869790049 -0.005910040529501389 0.026945582353726478 -0.028145135577433578 0.00065832447555679637 0.02144295124656348 0.014148795038572965 -0.035723906162825884 -0.0034145069922656467 -0.061658063267665132 -0.062373760156283757 0.073262474696260058 0.010062723310305971 -0.036758041719192024 0.094097321480365426 -0.12525101921768747 0.088202985793235281 0.021047131013811754
leaf_weight=83.520907193422318 13.496735274791716 8.7380529344081861 2334.9709218144417 10.743497774004934 66.960739344358444 494.82830902934074 35.947461053729057 8.2414922267198527 1041.5077604353428 453.81263375282288 251.9849471449852 16.240804865956306 250.06248550117016 490.82092681527138 864.15822216868401 719.72783906757832 37.229996636509895 992.69183242321014 932.88121746480465 30.997008427977562 26.13235442340374 15.994854196906088 108.21197938919067 24.728075712919235 963.82244338095188 19.737192407250404 19.985173508524895 5.4981728196144113 8.2464205026626569 61.705228820443153
leaf_count=336 54 35 9342 43 269 1980 144 33 4167 1816 1009 65 1001 1964 3465 2880 149 3975 3735 124 105 64 433 99 3859 79 80 22 33 247
internal_value=0 0.00724138 0.00383122 -0.00108309 0.00897649 -0.0175457 -0.0144601 -0.0182831 -0.0104763 0.000150937 0.00776626 0.0023453 -0.0199191 0.00645299 0.0303074 -0.0268704 0.0387658 0.0152567 0.0130399 0.019712 0.0484757 -0.0294752 -0.0326188 0.0125375 0.0109935 0.0172544 0.0488648 -0.0169286 -0.0145476 0.00402196
internal_weight=0 7357.7 6410.02 3278.6 3131.43 3035.92 2541.1 2014.11 1055 526.99 3038.33 1762.66 274.55 1488.11 947.679 959.102 73.1775 1275.67 943.625 1023.69 93.0931 905.64 827.94 997.289 972.56 53.462 33.7248 13.7397 258.309 77.7001
internal_count=41607 29459 25658 13120 12538 12148 10168 8059 4221 2109 12164 7056 1099 5957 3801 3838 293 5108 3778 4099 374 3624 3313 3993 3894 214 135 55 1034 311
is_linear=0
shrinkage=0.1


Tree=3
num_leaves=31
num_cat=0
split_feature=20 20 20 21 18 20 21 6 4 4 23 17 16 3 21 22 13 8 11 4 17 13 16 11 19 21 21 20 22 17
split_gain=107.606 47.5228 17.4278 21.9447 13.7397 13.5164 14.2336 8.9858 14.1953 10.5527 8.96069 11.1891 8.8833 16.3386 9.84919 8.82284 18.4404 9.80096 8.72217 9.41452 11.1049 10.6058 10.0038 9.96853 9.04078 8.47704 8.41972 14.5049 10.5145 9.97461
threshold=70.292566687867705 11.61868551110099 34.383351084592469 62.646098874487272 6.5654567708537899 84.798516030286365 80.506270588082643 16814.438833333337 3668.3224045000002 8232.8646835000018 2.5000000000000004 49.746864241514295 321.65964285714284 29809.510000000006 87.479489542860932 6.5000000000000009 -51.309353219189241 35352.326575000006 50.382269087539704 2081.2953770000004 10.390472469463766 99.408355481680118 408.66392857142853 61.911095571108838 157136.7522590007 57.462825884694425 24.041781997007352 21.452860524948907 17.500000000000004 47.667492105298784
decision_type=8 10 10 8 10 8 10 8 2 2 2 10 10 2 10 2 2 10 10 2 10 2 10 10 2 10 10 10 2 10
left_child=1 -1 26 4 -4 6 18 8 -8 -10 -7 12 14 -14 -12 16 -15 -18 25 -20 21 23 -22 24 -21 -2 27 -3 -29 -30
right_child=5 2 3 -5 -6 10 7 -9 9 -11 11 -13 13 15 -16 -17 17 -19 19 20 22 -23 -24 -25 -26 -27 -28 28 29 -31
leaf_value=0.035481005688283641 -0.042692279963115538 0.01458147030927455 0.0010805018093204154 0.012536862881118528 -0.012939156781349723 -0.014635001168002919 0.0044572368042688701 -0.0038256156954888359 0.10908797887993681 0.0014113277848422437 -0.056599318557468664 0.013591638655049788 -0.14529400679046592 0.032545688880074308 -0.02061050902215945 -0.0064527139255394859 0.027339116549240351 -0.10335270418651839 -0.028330146680016724 -0.0054917887527706913 -0.024959955223985621 -0.067450889371582945 0.0095790478526714008 -0.075023089975040869 0.093414892745947137 0.01196908804425573 0.016361742167029649 -0.018497312596954418 0.026834488404456708 -0.063072338718523094
leaf_weight=534.39510411024094 33.978439971804619 603.03394417464733 2030.5143365263939 1129.627362459898 1066.0510936379433 671.36025340855122 99.157428562641144 466.49253590404987 28.021504610776901 13.480049550533293 239.64365403354168 52.204631358385086 10.239199817180632 19.473650857806206 111.39079639315605 205.28626148402691 6.7444093674421302 38.459667235612869 561.57045151293278 12.996459186077116 291.64041735231876 9.2468395829200727 117.70233058929443 5.7469078153371802 31.98925493657589 171.9350019544363 1381.6677313745022 326.16701073944569 104.81885370612144 13.986428841948507
leaf_count=2151 136 2416 8127 4525 4265 2687 397 1867 113 54 960 209 41 78 446 822 27 154 2247 52 1167 37 471 23 128 688 5537 1306 420 56
internal_value=0 0.00678974 0.00448614 0.000606256 -0.00374603 -0.0152569 -0.00968499 0.00285461 0.0250094 0.0741137 -0.0228405 -0.030901 -0.0345806 -0.0213027 -0.0451793 -0.0166 -0.0488072 -0.0838536 -0.0158407 -0.0195939 -0.00914045 0.0310446 -0.0150286 0.048997 0.0648406 0.00294924 0.0112348 0.00447565 -0.00921992 0.0162501
internal_weight=0 7190.26 6655.87 4226.19 3096.57 3198.76 1843.96 607.152 140.659 41.5016 1354.8 683.442 631.238 280.203 351.034 269.964 64.6777 45.2041 1236.81 1030.89 469.322 59.9795 409.343 50.7326 44.9857 205.913 2429.67 1048.01 444.972 118.805
internal_count=41607 28803 26652 16917 12392 12804 7380 2431 564 167 5424 2737 2528 1122 1406 1081 259 181 4949 4125 1878 240 1638 203 180 824 9735 4198 1782 476
is_linear=0
shrinkage=0.1


Tree=4
num_leaves=31
num_cat=0
split_feature=20 20 20 21 22 11 17 7 20 19 22 22 23 4 8 22 20 21 18 16 7 11 21 4 18 13 18 4 21 12
split_gain=87.3932 36.0198 26.0474 16.4414 12.8854 14.907 14.6325 13.2626 12.9349 11.4504 11.3453 14.3813 12.9964 12.2064 11.734 11.4626 12.158 11.3772 9.77499 9.75473 9.83126 9.33661 9.24905 8.85271 15.0563 11.6895 9.08002 8.76372 11.5823 10.5356
threshold=43.973213125611345 79.66494616697203 11.61868551110099 56.142882798288355 7.5000000000000009 52.038387691484552 33.784295324623791 20058.329050000004 63.369016897731633 938544.16961199942 18.500000000000004 21.500000000000004 4.5000000000000009 2934.2638600000005 63841.424950000008 7.5000000000000009 19.181075145591439 38.373180585936062 18.893645204449324 767.34392857142882 68848.367350000015 63.736868435559764 87.164804190022423 2816.6415205000008 130.18465018293884 383.68145697593479 93.46632868602569 1199.5975800000003 20.697843512970579 -80.402246770294354
decision_type=8 8 10 8 2 10 10 10 10 2 2 2 2 2 8 2 10 10 10 10 10 10 8 2 10 2 10 2 10 2
left_child=2 3 -1 18 5 -5 8 22 -7 -9 12 13 14 17 15 16 -4 27 -2 20 -10 -17 -6 24 26 -26 -3 28 -12 -29
right_child=1 23 10 4 7 6 -8 9 19 -11 11 -13 -14 -15 -16 21 -18 -19 -20 -21 -22 -23 -24 -25 25 -27 -28 29 -30 -31
leaf_value=0.03203552012603867 -0.0049063966348984007 -0.027242375465569253 0.037438106012515897 0.011138559559642179 0.018987986127540806 0.0024389679879873389 0.0083859625164863106 -0.0087759199082578943 -0.039544058731181331 0.010515001834503249 0.067039144884724441 0.0021158271705110656 0.016632626443074755 0.0067013323918218284 -0.025516799710236512 -0.0038453267410388185 0.0064637755908421831 0.07762085702106386 -0.0218845997971884 0.057210391275068266 0.10175974131775048 0.13332436589075281 0.13130524547010561 -0.010986221541965019 -0.046344836273211926 -0.19451699618414653 -0.0071320669601311103 0.02377888630848423 -0.0090459984830914986 0.083678775459563176
leaf_weight=532.77031697332859 1026.3705198913813 566.60239730775356 157.10882645845413 315.73203758895397 533.76313821971416 130.39412023127079 188.7727514654398 562.70594289898872 335.19447535276413 678.93497531116009 26.90233339369297 286.58512160181999 759.78063873946667 140.37339560687542 150.87527877092361 1090.6872151792049 655.22590458393097 70.344701439142227 506.42117100954056 11.241623699665068 4.9972165971994391 4.9848656803369513 7.4338025897741309 890.40907497704029 174.12421154975891 5.4922532886266699 371.87194828689098 66.88329941034317 78.065949276089668 52.343252554535866
leaf_count=2151 4106 2270 630 1264 2138 522 756 2253 1342 2718 108 1149 3046 563 604 4370 2625 282 2026 45 20 20 30 3568 698 22 1490 268 313 210
internal_value=0 -0.00736876 0.0114211 -0.00220646 0.00239295 -0.00677807 -0.0152136 0.00746671 -0.0244595 0.00177244 0.00831882 0.0195081 0.00545469 0.0309686 0.00132975 0.00345263 0.0124543 0.0425341 -0.0105158 -0.0344398 -0.0374684 -0.00322126 0.0205308 -0.0184258 -0.0243504 -0.0508756 -0.0192736 0.0315251 0.0104539 0.0500763
internal_weight=0 6310.46 4072.93 4301.96 2769.17 986.332 670.6 1782.84 481.827 1241.64 3540.16 721.498 2818.66 434.913 2058.88 1908.01 812.335 294.54 1532.79 351.433 340.192 1095.67 541.197 2008.5 1118.09 179.616 938.474 224.195 104.968 119.227
internal_count=41607 25268 16339 17220 11088 3949 2685 7139 1929 4971 14188 2893 11295 1744 8249 7645 3255 1181 6132 1407 1362 4390 2168 8048 4480 720 3760 899 421 478
is_linear=0
shrinkage=0.1


Tree=5
num_leaves=31
num_cat=0
split_feature=20 20 18 21 4 20 17 20 21 22 19 22 20 6 20 23 14 21 15 12 18 22 22 18 21 14 16 8 3 21
split_gain=72.7654 31.7493 13.4329 18.7863 13.6443 10.6741 10.8493 10.2111 11.4515 11.3238 10.9301 10.4691 10.2417 10.7921 9.90644 12.6566 10.1347 9.91072 9.48769 13.2691 9.30734 8.49145 11.2387 10.2149 9.25272 8.42699 8.37285 8.23641 12.8292 8.5993
threshold=71.577993092136893 11.61868551110099 -46.449487260098941 58.400744377004791 1704.4288305000002 45.766416815462925 45.000913840507828 92.639645930568705 86.515193546247957 22.500000000000004 67271.619827000046 5.5000000000000009 81.867650051749351 45684.546166666674 60.543850155429496 1.0000000180025095e-35 68909.885506272287 42.299549602878777 56076.493934667938 -571.86020726326376 -66.557978999239054 13.500000000000002 18.500000000000004 98.218737835850717 86.85461281840405 66280.653663534657 52.971785714285623 27175.139175 26968.855000000003 21.370187534283133
decision_type=8 10 10 8 2 10 10 8 10 2 2 2 10 10 10 2 8 10 10 2 10 2 2 10 10 10 10 10 2 10
left_child=1 27 4 14 -3 6 -5 8 9 10 -2 -10 13 -13 -4 17 25 -16 -6 20 -20 -9 -23 24 -24 -17 -11 -1 -29 -30
right_child=7 2 3 5 18 -7 -8 21 11 26 -12 12 -14 -15 15 16 -18 -19 19 -21 -22 22 23 -25 -26 -27 -28 28 29 -31
leaf_value=0.046761207126302211 0.014385385015803104 0.018178614061561547 -0.0030395267092732654 0.029444199885721323 0.0059414397282778024 0.0062283408309461684 0.14400458627448573 -0.038108455928667316 -0.021931290034685334 -0.14405512725399147 -0.014384532050153909 0.080092586679737551 0.0038907134283269044 -0.007545252432060421 0.15131084637757644 -0.029115251179168102 -0.15229256462627583 0.010603746715239644 0.064019091275730716 -0.035080638686773073 -0.055009526764670857 0.0090151914197777721 0.095872863900884231 -0.055339818205219909 -0.025454071349003651 0.069257047413393488 -0.038489863780305222 -0.084368884233190472 0.034231541779290713 0.00010729698424747814
leaf_weight=174.13639909029007 142.67492175102234 1019.0016176104546 2184.0019488632679 92.849313899874687 1488.5883283764124 1539.3317028284073 9.0746734291315061 270.45099659264088 130.28260490298271 8.2277017533779127 1773.7050052434206 38.934836015105247 335.06203936040401 21.986291736364365 5.998764142394065 271.66974325478077 6.4972973912954322 30.241181299090385 26.463187143206596 124.24344922602177 8.7386981695890409 120.19348917901516 9.4665872454643267 74.773550927639008 18.706937566399574 8.9965505152940732 86.531126454472542 11.352373346686361 238.58194006979465 106.95243112742901
leaf_count=706 572 4087 8743 374 5968 6166 37 1085 522 33 7107 157 1342 88 24 1087 26 121 106 498 35 482 38 300 75 36 347 46 966 433
internal_value=0 0.00538048 0.00354554 -1.3976e-05 0.00908248 0.00830349 0.0396439 -0.0130346 -0.0104747 -0.0139112 -0.0122426 0.00265809 0.0107483 0.0484643 -0.00545828 -0.0217926 -0.0288203 0.0338949 0.00345822 -0.0197253 0.0344708 -0.0261946 -0.0117548 -0.0360043 0.015313 -0.025962 -0.0476559 0.028932 0.0202325 0.0236691
internal_weight=0 7346.72 6815.7 4148.66 2667.04 1641.26 101.924 3031 2537.4 2011.14 1916.38 526.266 395.983 60.9211 2507.41 323.404 287.164 36.2399 1648.03 159.445 35.2019 493.592 223.141 102.947 28.1735 280.666 94.7588 531.023 356.887 345.534
internal_count=41607 29459 27308 16614 10694 6577 411 12148 10168 8059 7679 2109 1587 245 10037 1294 1149 145 6607 639 141 1980 895 413 113 1123 380 2151 1445 1399
is_linear=0
shrinkage=0.1


Tree=6
num_leaves=31
num_cat=0
split_feature=20 20 23 21 20 21 22 3 22 12 23 17 22 16 12 11 8 11 20 20 28 22 14 17 17 21 17 11 21 21
split_gain=59.9631 28.6087 10.8204 10.6566 16.9221 12.4114 10.1722 13.5425 9.80706 9.92303 9.89092 9.69589 9.48067 9.07521 9.00165 8.9283 8.66559 12.4028 7.86155 7.74642 7.73974 7.58446 9.3059 7.71363 11.8051 7.31594 17.3414 10.2652 10.1517 9.63857
threshold=76.855295716301228 16.449732514364943 2.5000000000000004 75.409192648275678 53.881251885550249 59.04372980068981 17.500000000000004 42228.790000000008 6.5000000000000009 445.69711164837651 3.5000000000000004 59.891966411510118 4.5000000000000009 926.52285714285802 57.11641157690611 66.569899630999956 40878.436850000006 38.693107067264101 3.3952843354712603 72.894556585146219 9724.9100000000017 20.500000000000004 47395.600769360513 18.228279338205791 9.4311568679687472 55.192186566758664 44.136543778353648 68.155634833441113 49.822926611364061 51.140316617788763
decision_type=8 10 2 8 10 10 2 2 2 2 2 8 2 10 2 10 10 10 10 8 10 2 10 10 10 10 10 10 10 10
left_child=1 18 11 4 5 6 -3 16 9 14 -11 -2 -4 21 -5 -16 -8 -18 -1 -17 -7 23 -23 24 -9 28 27 -27 -6 -30
right_child=2 3 12 8 25 20 7 13 -10 10 -12 -13 -14 -15 15 19 17 -19 -20 -21 -22 22 -24 -25 -26 26 -28 -29 29 -31
leaf_value=0.050119578279591272 -0.0046576324043521924 0.00017641336907154711 -0.03803687859715512 0.013721164226494324 -0.0038814155475878683 0.075615043662853487 0.016879029336130152 0.074828675407473191 0.024563934030954918 0.10985187981836826 -0.026701027271625474 -0.046606094889240474 -0.016065632465288533 0.05319009064919919 -0.053519048709533536 0.13632769111268658 -0.0019223538584212793 0.11312582908823086 0.017707376885307376 -0.035764523606621669 0.019270433452977364 -0.07535846841737634 -0.013473906724395402 0.026862768665220443 -0.044397871700955632 -0.0056185862929831179 0.024604154526894014 -0.086835487542065048 -0.064413463722376704 -0.019601547316909908
leaf_weight=81.984469920396805 1064.8041310161352 2972.0273542106152 243.98042181134224 56.901059463620186 337.28688788414001 26.831986770033836 653.33329690992832 10.217117562890051 368.16335535049438 13.489501073956491 8.7419011294841749 58.107373431324959 1006.950569793582 24.195082053542137 62.894247218966484 4.991476342082021 15.963734224438666 22.687827482819557 857.8386495411396 5.4952985495328912 266.70970645546913 30.4401665776968 120.45106099545956 78.515589863061905 44.368694722652435 1441.7373723089695 204.45232744514942 15.732111662626265 62.209332138299942 210.11364921927452
leaf_count=336 4269 11907 980 228 1350 108 2620 41 1476 54 35 233 4042 97 252 20 64 91 3465 22 1073 122 483 315 178 5774 819 63 249 841
internal_value=0 0.00414476 -0.0139542 0.00196229 0.000865672 0.00457839 0.00311205 0.0118354 0.0157307 -0.00559244 0.0561561 -0.00682834 -0.0203509 -0.0056009 -0.0161292 -0.0392758 0.0196009 0.065609 0.0205348 0.0461476 0.0244208 -0.0106097 -0.0259582 0.00679034 -0.0220816 -0.00610649 -0.00266935 -0.00649525 -0.0154768 -0.0298384
internal_weight=0 7997.77 2373.84 7057.95 6537.27 4265.74 3972.2 1000.17 520.677 152.513 22.2314 1122.91 1250.93 308.188 130.282 73.381 691.985 38.6516 939.823 10.4868 293.542 283.993 150.891 133.101 54.5858 2271.53 1661.92 1457.47 609.61 272.323
internal_count=41607 32083 9524 28282 26195 17099 15918 4011 2087 611 89 4502 5022 1236 522 294 2775 155 3801 42 1181 1139 605 534 219 9096 6656 5837 2440 1090
is_linear=0
shrinkage=0.1


Tree=7
num_leaves=31
num_cat=0
split_feature=20 20 20 21 20 22 15 23 19 18 4 5 25 25 17 18 19 18 21 17 19 22 4 2 16 13 4 11 4 21
split_gain=49.8199 20.4773 14.2076 11.3837 12.1756 17.0137 12.965 8.53606 10.0444 9.63432 8.8561 8.11007 9.30681 8.44707 9.3483 7.70367 7.69303 7.69267 15.087 9.53347 7.64282 11.6945 9.09239 7.76246 12.2004 8.78972 7.33342 7.29436 7.48069 7.27786
threshold=43.973213125611345 80.305560952783907 11.61868551110099 53.15021778319327 54.271507816037023 3.5000000000000004 9325.281695052443 3.5000000000000004 -221741.20130700161 -50.766571285592029 2301.0234350000005 19108.278000000002 19310.890000000003 17012.455000000005 11.499232318688213 -46.449487260098941 -265676.86929550156 31.519428260500771 66.33655277974205 21.777858687242983 1224255.8797579941 17.500000000000004 2025.4020925000002 58700.005000000012 408.66392857142853 102.33331270629964 572.26496000000009 56.887102775125321 1953.1132250000003 75.114257722410613
decision_type=8 8 10 8 10 2 10 2 2 10 2 10 10 10 10 10 2 10 10 10 2 2 2 2 10 2 2 10 2 8
left_child=2 3 -1 16 6 17 15 8 -4 -10 -9 13 -13 29 -15 -5 -2 19 -19 -6 23 22 26 24 -14 -25 -22 -18 -29 -7
right_child=1 -3 7 4 5 11 -8 10 9 -11 -12 12 20 14 -16 -17 27 18 -20 -21 21 -23 -24 25 -26 -27 -28 28 -30 -31
leaf_value=0.023946856993890264 -0.080448493754989192 -0.014168612579182616 0.056807569531676622 -0.038555000740074646 -0.027925853146453683 0.00084563170520264401 0.011771437201595784 0.018627985843242569 0.0062718631426538904 -0.0082368626733613799 0.0027843241067859732 -0.059826335880698814 -0.0090142617019781397 -0.03084134220539236 0.062332502549344172 0.092425311971825505 -0.0058604404252919932 -0.062414364430113001 -0.013817627500520818 0.021846159760208674 0.050558116021030858 -0.014820337663053178 0.062416442813937038 0.0043702335409563781 0.013050077647490064 -0.054153586483919561 0.0055254400925550404 -0.047548382962176096 -0.0061246072817752861 0.026977385057641856
leaf_weight=527.47394128143787 15.246368095278738 1922.099266692996 33.173604011535645 5.2337062805891028 68.17472106218338 375.94216245412827 390.24825099110603 869.64742149412632 1345.3223440796137 693.66689972579479 593.62713691592216 26.459988787770271 729.51254101097584 13.231229424476622 57.847029164433479 31.617608889937401 1061.4518532902002 87.158573463559151 239.22782389819622 88.365729734301567 45.699644386768341 111.85074709355831 49.407336682081223 43.950331091880798 381.74723571538925 61.677266910672188 173.26746779680252 91.928006410598755 82.918434008955956 148.74683474004269
leaf_count=2151 61 7720 133 21 273 1506 1564 3493 5399 2780 2383 106 2922 53 232 127 4248 349 959 354 183 448 198 176 1529 247 694 368 332 598
internal_value=0 -0.00556351 0.00863729 -0.00178807 0.00143564 -0.00104417 0.0171254 0.00635315 0.00222403 0.00133597 0.0122005 0.00265721 -0.00100466 0.0126365 0.0449882 0.0738232 -0.00984862 -0.0180543 -0.026795 0.000170017 -3.01335e-05 0.0123454 0.0236673 -0.00389696 -0.00143458 -0.0298026 0.014924 -0.00897797 -0.0279037 0.00825386
internal_weight=0 6303.01 4062.91 4380.91 3129.37 2702.27 427.1 3535.44 2072.16 2038.99 1463.27 2219.34 1623.57 595.767 71.0783 36.8513 1251.54 482.927 326.386 156.54 1597.11 380.225 268.374 1216.89 1111.26 105.628 218.967 1236.3 174.846 524.689
internal_count=41607 25268 16339 17548 12539 10827 1712 14188 8312 8179 5876 8892 6503 2389 285 148 5009 1935 1308 627 6397 1523 1075 4874 4451 423 877 4948 700 2104
is_linear=0
shrinkage=0.1


end of trees

feature_importances:
%K=45
%D=37
hour=23
volume=20
ADX_14=16
CCI_14=16
RSI_14=11
day_of_week=10
ATR_14=8
OBV=8
SMA_200=7
MACD=7
Signal_Line=7
SMA_30=6
close=5
SMA_100=3
Upper_Band=3
Lower_Band=3
lag_2=2
low=1
SMA_10=1
lag_5=1

parameters:
[boosting: gbdt]
[objective: binary]
[metric: binary_logloss]
[tree_learner: serial]
[device_type: cpu]
[data_sample_strategy: bagging]
[data: ]
[valid: ]
[num_iterations: 10000]
[learning_rate: 0.1]
[num_leaves: 31]
[num_threads: 0]
[seed: 0]
[deterministic: 0]
[force_col_wise: 0]
[force_row_wise: 0]
[histogram_pool_size: -1]
[max_depth: -1]
[min_data_in_leaf: 20]
[min_sum_hessian_in_leaf: 0.001]
[bagging_fraction: 1]
[pos_bagging_fraction: 1]
[neg_bagging_fraction: 1]
[bagging_freq: 0]
[bagging_seed: 3]
[feature_fraction: 1]
[feature_fraction_bynode: 1]
[feature_fraction_seed: 2]
[extra_trees: 0]
[extra_seed: 6]
[early_stopping_round: 0]
[early_stopping_min_delta: 0]
[first_metric_only: 0]
[max_delta_step: 0]
[lambda_l1: 0]
[lambda_l2: 0]
[linear_lambda: 0]
[min_gain_to_split: 0]
[drop_rate: 0.1]
[max_drop: 50]
[skip_drop: 0.5]
[xgboost_dart_mode: 0]
[uniform_drop: 0]
[drop_seed: 4]
[top_rate: 0.2]
[other_rate: 0.1]
[min_data_per_group: 100]
[max_cat_threshold: 32]
[cat_l2: 10]
[cat_smooth: 10]
[max_cat_to_onehot: 4]
[top_k: 20]
[monotone_constraints: ]
[monotone_constraints_method: basic]
[monotone_penalty: 0]
[feature_contri: ]
[forcedsplits_filename: ]
[refit_decay_rate: 0.9]
[cegb_tradeoff: 1]
[cegb_penalty_split: 0]
[cegb_penalty_feature_lazy: ]
[cegb_penalty_feature_coupled: ]
[path_smooth: 0]
[interaction_constraints: ]
[verbosity: -1]
[saved_feature_importance_type: 0]
[use_quantized_grad: 0]
[num_grad_quant_bins: 4]
[quant_train_renew_leaf: 0]
[stochastic_rounding: 1]
[linear_tree: 0]
[max_bin: 255]
[max_bin_by_feature: ]
[min_data_in_bin: 3]
[bin_construct_sample_cnt: 200000]
[data_random_seed: 1]
[is_enable_sparse: 1]
[enable_bundle: 1]
[use_missing: 1]
[zero_as_missing: 0]
[feature_pre_filter: 1]
[pre_partition: 0]
[two_round: 0]
[header: 0]
[label_column: ]
[weight_column: ]
[group_column: ]
[ignore_column: ]
[categorical_feature: ]
[forcedbins_filename: ]
[precise_float_parser: 0]
[parser_config_file: ]
[objective_seed: 5]
[num_class: 1]
[is_unbalance: 0]
[scale_pos_weight: 1]
[sigmoid: 1]
[boost_from_average: 1]
[reg_sqrt: 0]
[alpha: 0.9]
[fair_c: 1]
[poisson_max_delta_step: 0.7]
[tweedie_variance_power: 1.5]
[lambdarank_truncation_level: 30]
[lambdarank_norm: 1]
[label_gain: ]
[lambdarank_position_bias_regularization: 0]
[eval_at: ]
[multi_error_top_k: 1]
[auc_mu_weights: ]
[num_machines: 1]
[local_listen_port: 12400]
[time_out: 120]
[machine_list_filename: ]
[machines: ]
[gpu_platform_id: -1]
[gpu_device_id: -1]
[gpu_use_dp: 0]
[num_gpu: 1]

end of parameters

pandas_categorical:[]
