tree
version=v4
num_class=1
num_tree_per_iteration=1
label_index=0
max_feature_idx=28
objective=binary sigmoid:1
feature_names=open high low close volume SMA_10 SMA_30 SMA_100 SMA_200 EMA_20 EMA_200 RSI_14 MACD Signal_Line Upper_Band Lower_Band ATR_14 ADX_14 CCI_14 OBV %K %D hour day_of_week lag_1 lag_2 lag_3 lag_4 lag_5
feature_infos=[4131.2299999999996:73577.350000000006] [4610:73777] [3782.1300000000001:73215.139999999999] [4130.6400000000003:73577.350000000006] [0:137207.18859999999] [4824.2089999999998:73174.834999999992] [5037.273666666666:73028.51933333333] [5219.7835999999998:71815.484700000001] [5461.8512499999997:70178.790349999996] [4995.5837282851389:73047.528323142324] [5838.6083970051659:69761.377583744063] [5.5605670126904982:95.854267048766289] [-2360.9460327477354:1887.2236274780516] [-2077.4839220854774:1744.7269192312694] [5285.8377108112381:74727.795140676651] [4211.7807979748686:72708.739523991317] [14.930000000000291:3189.2171428571428] [2.0842714546167458:90.52722382389662] [-227.78479126482554:227.89303930723926] [-415542.28330200177:1431674.7207219906] [0:100] [1.7839708065778497:99.184158628538611] [0:23] [0:6] [4130.6400000000003:73577.350000000006] [4130.6400000000003:73577.350000000006] [4130.6400000000003:73577.350000000006] [4130.6400000000003:73577.350000000006] [4130.6400000000003:73577.350000000006]
tree_sizes=3393 3437 3439 3435 3451 3433 3437 3424 3427 3410 3438 3415 3423

Tree=0
num_leaves=31
num_cat=0
split_feature=20 20 20 21 20 21 18 20 17 23 4 17 13 18 22 20 19 22 21 16 4 2 22 22 4 18 8 2 23 20
split_gain=201.777 82.5455 30.9516 38.9193 23.365 22.241 13.4296 12.6903 12.293 11.9467 11.6594 11.1123 10.8893 10.4381 10.4273 9.53114 9.14218 8.93074 8.81809 9.97273 8.67749 11.5333 12.4534 8.67643 9.09901 10.6879 8.58851 14.5797 8.5734 12.0384
threshold=70.346427798594519 11.562688369211793 39.177075913861493 59.119011635100499 84.844041921543564 80.52891626151488 6.5031462145002559 80.342415524942425 17.866693177966713 4.5000000000000009 1906.5135985000004 17.981806729773115 -186.19099346293402 183.91052240840037 5.5000000000000009 42.325871205729321 1219011.5278049901 20.500000000000004 86.889697074924996 601.39464285714337 2731.3601215000003 57353.420000000006 22.500000000000004 3.5000000000000004 10588.81573 35.376814302062549 27213.884875 26956.715 3.5000000000000004 21.402702489845826
decision_type=2 2 2 2 2 2 2 2 2 2 2 2 2 2 2 2 2 2 2 2 2 2 2 2 2 2 2 2 2 2
left_child=1 26 20 6 5 7 -4 23 12 13 -7 -10 -5 -6 16 -13 -12 -9 19 -11 28 22 -22 24 25 -2 -1 -28 29 -3
right_child=4 2 3 8 9 10 -8 17 11 18 14 15 -14 -15 -16 -17 -18 -19 -20 -21 21 -23 -24 -25 -26 -27 27 -29 -30 -31
leaf_value=0.098765581916150036 0.042280640349897092 0.062069194419882186 0.031075603092493024 0.15857660939027746 0.0052007661631091502 0.019440301787991728 0.014991149826846732 -0.00041863339219082307 0.18385834179036015 -0.034804864090808497 0.0052276960567908086 0.14020417031692545 0.033047311995084289 0.054976466837764706 0.056831441059281285 0.051360570416578169 0.1390906891609647 -0.055768513132162724 0.0069383218089394197 0.058548885546472043 0.040782067743809547 -0.0018760251836634767 0.10141791005096007 0.02161557212722081 0.10585263672383816 -0.022166126247836745 -0.036715613352390257 0.075423523267486137 0.05937434814925422 0.038513072248850026
leaf_weight=173.70184317231178 32.490992248058319 308.41449564695358 1401.3614887297153 6.9980598688125601 997.22353130578995 261.1775915324688 824.52141097187996 236.93431270122528 6.4981984496116629 174.45163530111313 70.730390816926956 12.24660477042198 552.34686821699142 43.987804889678955 266.17620572447777 862.51087883114815 5.4984756112098685 33.240784376859665 110.71930435299873 12.24660477042198 1058.9564165771008 61.233023852109909 34.990299344062805 796.02931007742882 7.2479905784130088 123.71570125222206 11.996674060821531 345.40424066781998 778.78409111499786 731.54718700051308
leaf_count=695 130 1234 5607 28 3990 1045 3299 948 26 698 283 49 2210 176 1065 3451 22 133 443 49 4237 245 140 3185 29 495 48 1382 3116 2927
internal_value=0.0333002 0.0425889 0.0395548 0.0334061 0.0122986 0.0196327 0.0251175 0.0119158 0.0462128 0.00225461 0.0353541 0.0535722 0.0346178 0.00730363 0.0474926 0.0526044 0.0148834 -0.00722856 -0.0154212 -0.0286813 0.0471354 0.0403575 0.0427215 0.0173065 -0.00367893 -0.0087612 0.0805247 0.0716594 0.0514404 0.045499
internal_weight=0 7171.51 6640.41 3666.48 3171.87 1833.24 2225.88 1229.66 1440.6 1338.63 603.583 881.256 559.345 1041.21 342.405 874.757 76.2289 270.175 297.418 186.698 2973.93 1155.18 1093.95 959.484 163.455 156.207 531.103 357.401 1818.75 1039.96
internal_count=41385 28694 26569 14670 12691 7335 8906 4920 5764 5356 2415 3526 2238 4166 1370 3500 305 1081 1190 747 11899 4622 4377 3839 654 625 2125 1430 7277 4161
is_linear=0
shrinkage=1


Tree=1
num_leaves=31
num_cat=0
split_feature=20 20 18 21 20 21 20 20 4 20 2 23 17 4 18 13 16 21 20 4 4 11 22 12 22 17 4 11 8 7
split_gain=163.442 67.002 26.4686 32.5351 19.0431 21.9471 14.8794 14.7952 12.4881 11.8093 10.9166 9.47066 10.0035 13.0416 12.3347 9.45071 9.41447 8.99795 9.58007 10.9502 14.9177 8.89285 8.78815 8.40043 8.33782 8.31655 8.27231 10.66 13.4402 10.9893
threshold=70.346427798594519 11.562688369211793 -46.372292863414039 59.119011635100499 83.225988656979609 80.52891626151488 53.628392141618917 45.164974380401681 1772.2571325000001 80.342415524942425 57353.420000000006 4.5000000000000009 12.544338032488701 712.72018000000014 183.91052240840037 -903.42504583851417 769.40214285714308 67.858917862761913 55.822826761621627 495.89612500000004 350.02219000000008 57.989303535137658 1.0000000180025095e-35 -571.86020726326376 7.5000000000000009 12.209059426462897 1976.0404085000002 51.475354337237967 67472.081500000015 66158.660800000012
decision_type=2 2 2 2 2 2 2 2 2 2 2 2 2 2 2 2 2 2 2 2 2 2 2 2 2 2 2 2 2 2
left_child=1 -1 8 6 5 9 16 21 -3 26 -10 12 25 -14 15 -15 -4 18 -9 20 -20 -5 -18 -12 -19 -6 27 -2 29 -29
right_child=4 2 3 7 11 -7 -8 17 10 -11 23 -13 13 14 -16 -17 22 24 19 -21 -22 -23 -24 -25 -26 -27 -28 28 -30 -31
leaf_value=0.042567197618686554 0.0025075022802838551 0.021769035858834856 -0.0030358130932421853 0.04351904080294576 -0.041072371489855805 0.0065451602854933984 -0.018144864947323727 0.022091643700210325 0.010206335469697321 -0.04180175025320966 0.025773170752831712 -0.041429066756515108 0.058258891920240946 -0.16019440892435824 0.034120606542862857 -0.022361688888295803 -0.086558151959204549 0.0027876651236999083 -0.019500864404893591 -0.0084006773379611665 0.11039116317994953 0.16326895138102812 0.038783578580322657 -0.034556966379578093 0.026825912465666926 -0.13793090225883498 -0.004113602849862427 -0.032465772699743975 0.052497968841212009 -0.15892959119134195
leaf_weight=530.33201664686203 126.73322133719921 1059.8131813555956 1700.4146665036678 77.923394814133644 132.74217639863491 482.03953106701374 751.41081422567368 180.90433803200722 1475.0020013749599 187.98114494979382 30.241041913628578 346.17538997530937 21.249475210905075 4.9997753947973242 39.220871016383171 988.69547079503536 5.9981655329465857 219.87968204915524 16.738905042409897 495.21218052506447 18.740826576948166 6.7376117855310431 82.973490163683891 97.463868752121925 419.74849852919579 9.4991413354873639 431.17605164647102 376.20112517476082 18.497490704059601 6.9990952163934699
leaf_count=2125 507 4242 6804 312 531 1929 3006 724 5903 752 121 1385 85 20 157 3955 24 880 67 1982 75 27 332 390 1680 38 1725 1505 74 28
internal_value=0 0.00836275 0.00563054 0.000464072 -0.0188989 -0.0113607 -0.00633564 0.0124961 0.0133471 -0.018882 0.00777791 -0.0268625 -0.0226477 -0.0192888 -0.0208842 -0.0230552 -0.00137663 0.0099553 0.00221861 -0.00455579 0.0491097 0.0530491 0.0303335 -0.0202705 0.0185625 -0.0475408 -0.0143922 -0.0227791 -0.0307568 -0.0347756
internal_weight=0 7169.53 6639.2 3976.68 3172.21 1629.63 2540.8 1435.89 2662.52 1147.59 1602.71 1542.58 1196.41 1054.17 1032.92 993.695 1789.39 1351.22 711.596 530.692 35.4797 84.661 88.9717 127.705 639.628 142.241 959.607 528.431 401.698 383.2
internal_count=41385 28694 26569 15913 12691 6520 10166 5747 10656 4591 6414 6171 4786 4217 4132 3975 7160 5408 2848 2124 142 339 356 511 2560 569 3839 2114 1607 1533
is_linear=0
shrinkage=0.1


Tree=2
num_leaves=31
num_cat=0
split_feature=20 20 20 21 20 22 15 22 22 23 10 21 4 22 20 23 13 14 17 21 11 21 25 11 19 17 21 11 4 4
split_gain=133.838 50.3437 35.5665 19.0738 18.5712 19.7449 12.1569 12.112 15.1384 13.9843 12.9389 12.0637 10.8104 10.2671 15.039 9.88124 10.2255 10.6339 9.72703 9.25703 9.19655 10.9358 12.6581 9.13754 8.74239 8.46928 12.4285 11.8021 9.16654 9.24884
threshold=43.737190770711557 80.342415524942425 11.562688369211793 53.22342107989747 53.977935349799978 7.5000000000000009 9314.6355003415683 18.500000000000004 21.500000000000004 4.5000000000000009 61663.328875767322 86.571144255139956 2936.7080850000007 7.5000000000000009 33.500920947583289 2.5000000000000004 -257.73451275763063 42519.611501904546 43.768283097584536 37.900523857631008 79.575040692453896 66.938461417377241 63532.485000000008 53.931374414025747 905246.38642899774 34.2556768727136 59.119011635100499 52.040459500710774 529.34400000000016 1258.1945500000002
decision_type=2 2 2 2 2 2 2 2 2 2 2 2 2 2 2 2 2 2 2 2 2 2 2 2 2 2 2 2 2 2
left_child=2 3 -1 23 6 25 -5 9 12 10 13 18 19 14 -4 16 17 -3 -7 -9 21 -20 -23 -2 -13 27 -27 28 -6 -30
right_child=1 15 7 4 5 11 -8 8 -10 -11 -12 24 -14 -15 -16 -17 -18 -19 20 -21 -22 22 -24 -25 -26 26 -28 -29 29 -31
leaf_value=0.038397776235070777 -0.0085276843551943537 0.0024086863853687787 0.024740132829835979 0.079946898556964449 0.053781545362327092 0.00015341014429267187 0.015762819009173031 0.034866421630342252 0.0041704797508866796 0.019256847498599322 -0.019752391035987034 0.098873635046946934 0.01113238013727632 -0.0003867959936710447 -0.0047907962028955883 -0.029583071814443852 -0.012603435069917946 -0.092206375327676782 -0.0020657379422490494 0.076415001709675884 -0.09021579507369587 0.053638542017586069 -0.058486560727341624 -0.02788018968843994 0.0038612536972579704 -0.059139903765313806 0.010497609779329965 -0.027494654318820644 -0.029632486204732574 0.014216461909556867
leaf_weight=529.18540431559086 948.54460880160332 18.489277496933937 512.78683212399483 31.977337211370468 27.975727826356888 1477.9189724624157 382.4622155725956 219.77664981782436 280.67551964521408 753.2273785173893 217.31879295408726 22.980938166379929 139.41239327192307 1047.4265365749598 259.83237326145172 990.71473978459835 866.23218703269958 33.224633604288101 83.223605573177338 70.930641308426857 6.9952543228864661 120.40635544061661 10.987179726362227 328.46699993312359 16.737729251384735 28.99760714173317 220.62885104119778 498.30077849328518 95.214497551321983 97.216994926333427
leaf_count=2125 3795 74 2053 128 112 5915 1531 880 1124 3016 870 92 558 4193 1040 3965 3466 133 333 284 28 482 44 1314 67 116 883 1994 381 389
internal_value=0 -0.00909431 0.0142346 -0.00320963 0.0010017 -0.00201576 0.0207151 0.0105827 0.0222364 0.0076144 0.00331011 0.00435612 0.0340254 0.00606384 0.0148089 -0.0226572 -0.0151823 -0.0583786 0.00308294 0.045004 0.0226198 0.0262975 0.0442626 -0.0135054 0.0588347 -0.0134605 0.00240824 -0.0189721 0.000295895 -0.00747986
internal_weight=0 6307.7 4030.57 4399.04 3122.02 2707.58 414.44 3501.39 710.795 2790.59 2037.36 1739.25 430.12 1820.05 772.619 1908.66 917.946 51.7139 1699.53 290.707 221.612 214.617 131.394 1277.01 39.7187 968.334 249.626 718.708 220.407 192.431
internal_count=41385 25242 16143 17604 12495 10836 1659 14018 2846 11172 8156 6961 1722 7286 3093 7638 3673 207 6802 1164 887 859 526 5109 159 3875 999 2876 882 770
is_linear=0
shrinkage=0.1


Tree=3
num_leaves=31
num_cat=0
split_feature=20 20 18 21 23 11 20 20 20 21 19 16 12 20 10 10 27 21 20 18 8 20 4 4 19 16 4 5 21 16
split_gain=111.545 46.2866 13.4882 26.275 13.0057 13.5999 11.3124 11.2076 10.493 17.8658 12.9546 9.94527 9.72038 9.2078 9.18809 8.69001 8.62556 8.52357 9.45002 9.15536 9.59275 10.5295 8.42184 9.83257 11.7944 10.2208 9.28634 8.03106 8.99419 7.96009
threshold=70.346427798594519 16.396205844505232 -46.372292863414039 59.119011635100499 4.5000000000000009 52.040459500710774 45.164974380401681 3.3932109041322587 83.225988656979609 80.52891626151488 66911.166908000057 347.69821428571521 658.71575513857908 53.628392141618917 68403.448473822398 67230.26240500297 67377.195000000022 87.540381808479751 79.699092979864403 132.84011303548417 10682.563075000004 86.276731939649537 18776.910430000004 2065.3055525000004 1207693.7323379961 131.50357142857166 4904.5062050000006 13778.947000000002 43.813074130972716 406.81678571428694
decision_type=2 2 2 2 2 2 2 2 2 2 2 2 2 2 2 2 2 2 2 2 2 2 2 2 2 2 2 2 2 2
left_child=1 7 11 13 8 -6 -5 -1 9 10 -2 22 -13 -4 15 16 -10 19 -19 -7 21 -21 23 -3 25 -25 -27 -15 -29 -12
right_child=4 2 3 6 5 17 -8 -9 14 -11 29 12 -14 27 -16 -17 -18 18 -20 20 -22 -23 -24 24 -26 26 -28 28 -30 -31
leaf_value=0.06286589706775382 0.032164152339995603 0.022308457332213594 -0.0019325519460273997 0.04677398861856822 0.0020455334119395515 -0.030903132194482937 0.0088757503782223041 0.024258167432367753 -0.017475302150922661 0.013073105065182906 -0.02495762713387098 0.00027887723963438972 0.12082850088138775 0.0072302765170742704 -0.096151595257329248 0.055284840150309281 -0.10100431079673203 0.12085122349012596 -0.013634058666014326 0.095344451780354972 -0.074734383559473413 -0.068530110188226842 0.061301326859104145 -0.0035684310875090663 -0.050685617924792238 0.039742830118932572 0.0061414992339772793 0.0065265783728543046 -0.025411001798627028 -0.0027672957951687012
leaf_weight=82.467225387692451 57.221323758363724 682.52476949989796 1773.7857668846846 83.639858260750771 140.14568372070789 465.50122065842152 1350.4936308115721 852.15779030323029 1152.1090378910303 371.42681278288364 467.53369130194187 826.47339753806591 6.7434270828962317 132.2358280569315 14.987423792481421 16.241020947694778 12.4967735260725 5.4883033335208884 108.89386211335659 7.4906422048807135 95.581036642193794 8.2273908853530866 38.218905553221703 346.40712685883045 35.470070824027061 147.09452044963837 186.57321824133396 106.49336326122284 512.69111284613609 247.08987094461918
leaf_count=332 229 2735 7099 336 561 1864 5408 3423 4611 1487 1871 3310 27 529 60 65 50 22 436 30 383 33 153 1387 142 589 747 426 2051 989
internal_value=0 0.00691317 0.00379943 0.000276315 -0.0156155 -0.026359 0.011086 0.0276647 -0.0117972 -0.00494731 -0.0136191 0.00994581 0.00125451 -0.0058628 -0.0183461 -0.0173586 -0.0183716 -0.0321184 -0.00718116 -0.0370636 -0.0628291 0.00956654 0.0149878 0.0137217 0.00553122 0.00846328 0.0209544 -0.0151405 -0.0199181 -0.017285
internal_weight=0 7163.47 6228.84 3959.34 3170.43 831.328 1434.13 934.625 2339.11 1143.27 771.845 2269.51 833.217 2525.21 1195.83 1180.85 1164.61 691.182 114.382 576.8 111.299 15.718 1436.29 1398.07 715.545 680.075 333.668 751.42 619.184 714.624
internal_count=41385 28694 24939 15849 12691 3329 5744 3755 9362 4576 3089 9090 3337 10105 4786 4726 4661 2768 458 2310 446 63 5753 5600 2865 2723 1336 3006 2477 2860
is_linear=0
shrinkage=0.1


Tree=4
num_leaves=31
num_cat=0
split_feature=20 20 21 20 21 21 4 18 20 21 23 18 21 21 6 4 18 23 8 21 20 20 21 11 4 20 12 11 12 18
split_gain=90.4123 37.6047 11.7605 22.3829 12.2254 11.9421 11.1046 19.8571 11.2439 11.7766 10.0569 13.1274 10.8455 10.1787 10.1711 9.59558 9.85648 11.7569 9.42492 9.28343 13.9732 9.19447 9.18933 13.0652 8.85049 8.84985 11.781 11.3211 8.81323 9.24449
threshold=70.346427798594519 16.396205844505232 67.858917862761913 43.737190770711557 58.788721683377325 65.418770234758469 1955.5044140000002 130.40669474525944 91.452001918807767 90.711861823760628 3.5000000000000004 -50.62043853425039 23.707160449173575 54.935470571746649 42715.222666666676 1280.4672370000001 117.21443602786859 1.5000000000000002 59644.218775000008 52.207912918082918 53.977935349799978 3.3932109041322587 75.438640777920952 51.375268496174542 17372.317652500005 77.575591615956384 562.12826488808798 43.349660148528528 -33.995639388827833 -7.666759735660083
decision_type=2 2 2 2 2 2 2 2 2 2 2 2 2 2 2 2 2 2 2 2 2 2 2 2 2 2 2 2 2 2
left_child=1 21 3 4 10 -6 7 15 9 25 11 -3 -12 -14 28 22 -17 -18 -11 -5 -21 -1 23 -2 -22 26 -8 -27 29 -13
right_child=6 2 -4 19 5 -7 8 -9 -10 18 12 14 13 -15 -16 16 17 -19 -20 20 24 -23 -24 -25 -26 27 -28 -29 -30 -31
leaf_value=0.056935373228491321 0.012611293267947561 0.0082619684650022829 0.016012495721980363 -0.011820839048799568 0.064009552306555806 -0.043947565772326121 0.00027564132894517028 -0.059816885167193551 -0.023014893635338488 0.019509563387284188 -0.0037214231256561849 -0.025284097345069562 0.020365433583824491 -0.035359963748838402 -0.028974509268828327 -0.031580227705741197 0.087907936366224237 -0.019561840528117058 0.12729911904533492 0.016237775696176505 -0.0070823464909180681 0.021868901329200399 -0.00026786652774719031 -0.035670172982500449 0.087530032761342039 0.130369186384835 0.064870989761940209 -0.01366391936977825 0.011162452504552991 0.041267457695532563
leaf_weight=81.977099984884262 75.44837786257267 1106.0139983296394 662.80173034965992 1132.2280108332634 64.860726192593575 12.169027596712111 385.72810472548008 119.41220866143703 430.12833200395107 83.419783130288124 285.8951550424099 172.62859696149826 941.76281021535397 33.960306510329247 192.37642550468445 481.50032936036587 15.485544353723524 29.707131013274193 8.9857272803783399 396.40888732671738 945.87297859787941 850.80633889138699 426.98992843925953 217.96100297570229 9.9915925264358503 5.4920735210180274 30.464291349053383 858.03114938735962 246.34926210343838 23.742795765399933
leaf_count=332 302 4431 2656 4530 261 49 1544 479 1723 334 1146 691 3774 136 770 1928 62 119 36 1588 3786 3423 1710 873 40 22 122 3437 986 95
internal_value=0 0.00622576 0.00342086 0.00192097 0.00761757 0.0469547 -0.0140622 -0.0208606 -0.00890748 -0.00448513 0.00660845 0.00168211 0.0134071 0.0184259 -0.00977662 -0.0171305 -0.0273892 0.0172633 0.0299913 -0.00514048 0.00045284 0.0249507 -0.00963019 -0.0232549 -0.00609337 -0.0069746 0.00500387 -0.0127479 -0.00143452 -0.0172375
internal_weight=0 7159.85 6227.06 5564.26 3079.76 77.0298 3168.75 1366.5 1802.25 1372.12 3002.73 1741.11 1261.62 975.723 635.097 1247.09 526.693 45.1927 92.4055 2484.5 1352.27 932.783 720.399 293.409 955.865 1279.72 416.192 863.523 442.721 196.371
internal_count=41385 28694 24939 22283 12339 310 12691 5473 7218 5495 12029 6973 5056 3910 2542 4994 2109 181 370 9944 5414 3755 2885 1175 3826 5125 1666 3459 1772 786
is_linear=0
shrinkage=0.1


Tree=5
num_leaves=31
num_cat=0
split_feature=20 20 21 18 21 22 20 22 20 17 20 21 13 19 4 18 21 21 17 19 0 21 16 17 21 14 23 20 10 22
split_gain=73.518 32.0248 10.2432 16.328 13.3807 13.0424 12.1532 9.38091 9.36619 9.21898 9.13262 11.3516 12.2814 11.0237 9.30896 11.7 9.96372 9.42887 9.36084 9.00752 10.1159 10.3227 8.87858 8.71553 8.33721 8.05458 10.1714 7.95748 13.586 9.10809
threshold=71.624773437259179 21.402702489845826 67.858917862761913 6.5031462145002559 23.707160449173575 17.500000000000004 34.221313549736827 1.5000000000000002 3.3932109041322587 47.695948283994319 80.342415524942425 87.216508209961191 -624.46420363887285 859557.58731050079 2818.9898415000002 137.48989704510748 95.195479678317369 86.889697074924996 55.722124409418804 -63451.178122499834 8663.5650000000005 73.636828330875147 44.618571428571549 22.069839976997013 48.268347173998613 7928.6739022765296 1.0000000180025095e-35 64.757540840509506 26621.349913111884 18.500000000000004
decision_type=2 2 2 2 2 2 2 2 2 2 2 2 2 2 2 2 2 2 2 2 2 2 2 2 2 2 2 2 2 2
left_child=1 8 3 4 5 -3 -6 -2 -1 -7 11 12 -9 -13 15 17 19 18 -12 -16 21 -21 -19 27 -8 26 -23 28 -4 -30
right_child=7 2 23 -5 6 9 24 10 -10 -11 14 13 -14 -15 16 -17 -18 22 -20 20 -22 25 -24 -25 -26 -27 -28 -29 29 -31
leaf_value=0.051625540329036594 -0.031791005470858578 -0.021379990127572811 0.053170411488335657 -0.0082984742057583792 0.015513053619625211 0.026253484586872367 -0.002776018737826574 0.095703733778792183 0.016716586280059471 -0.056760801075087491 -0.023501191536726994 0.1077221583042469 -0.0071822313192120187 -0.0028435680049643903 -0.047739395081348279 -0.052020625049577274 -0.072280056196327852 0.1075627319720113 -0.094542930704302641 0.1622624577824949 -0.0057616241101067544 0.09121714753191415 -0.0065368287981240102 0.023491627994837644 0.01013336514081041 0.12518854751483097 -0.045620207233324439 -0.01095722336127926 -0.018059757340067061 0.063227477194518072
leaf_weight=81.398541361093521 248.20305214822292 350.71435417234898 67.10037262737751 1494.1470787674189 1013.959547072649 110.28462211787701 1299.2879283428192 11.745095476508139 1377.853779271245 15.224271282553671 540.35209392011166 17.637989893555641 952.82978299260139 18.450389817357063 47.914253607392311 117.14364705979824 23.209825873374939 6.9856938272714606 19.206875562667847 6.4859530925750724 675.45163251459599 7.9908373802900377 287.28861132264137 385.45249433815479 813.50759002566338 6.2440600395202628 16.964577987790108 208.42522048950195 84.815309479832649 16.459195166826248
leaf_count=332 995 1405 269 5982 4065 442 5202 47 5542 61 2167 71 3815 74 192 471 93 28 77 26 2707 32 1151 1546 3259 25 68 835 340 66
internal_value=0 0.00540856 0.00210738 0.000490499 0.00413527 -0.01148 0.00651357 -0.0131704 0.0186638 0.0161838 -0.0114934 -0.00386929 -0.00592945 0.0511948 -0.0158399 -0.0223849 -0.00773673 -0.018319 -0.0259397 -0.00576835 -0.0029484 0.0474742 -0.00382825 0.0129194 0.00219459 0.0236113 -0.00180426 0.00210436 0.0182728 -0.00484891
internal_weight=0 7318.63 5859.38 5097.13 3602.98 476.223 3126.76 3004.1 1459.25 125.509 2755.9 1000.66 964.575 36.0884 1755.24 970.977 784.261 853.833 559.559 761.051 713.137 37.6854 294.274 762.253 2112.8 31.1995 24.9554 376.8 168.375 101.275
internal_count=41385 29346 23472 20416 14434 1908 12526 12039 5874 503 11044 4007 3862 145 7037 3894 3143 3423 2244 3050 2858 151 1179 3056 8461 125 100 1510 675 406
is_linear=0
shrinkage=0.1


Tree=6
num_leaves=31
num_cat=0
split_feature=20 20 20 21 12 20 22 9 19 22 15 22 22 23 8 12 19 4 18 13 4 22 20 4 11 18 10 19 7 21
split_gain=60.8681 23.1286 18.0542 13.9754 10.4622 9.72686 12.7199 10.6655 11.2493 11.1623 9.95036 9.53578 11.9005 10.1463 10.1496 9.66427 10.136 9.41807 11.5768 12.5231 9.33741 9.07455 10.2346 8.34948 8.2462 8.21742 8.68353 8.17592 8.10803 8.56796
threshold=43.737190770711557 79.088662756826352 11.562688369211793 53.22342107989747 -965.53001339881655 53.977935349799978 3.5000000000000004 19076.426579559764 1219011.5278049901 17.500000000000004 9314.6355003415683 18.500000000000004 21.500000000000004 4.5000000000000009 63827.145975000014 -75.48195970686082 1176814.693052999 2818.9898415000002 130.40669474525944 372.67168188275599 2027.8326895000002 7.5000000000000009 19.124091812862115 572.25123500000007 63.218060022753406 93.824463362755083 8384.1791048512077 1237744.3968599911 19087.694900000002 82.582370563220124
decision_type=2 2 2 2 2 2 2 2 2 2 2 2 2 2 2 2 2 2 2 2 2 2 2 2 2 2 2 2 2 2
left_child=2 3 -1 -2 -5 10 -7 28 -9 20 -6 13 15 14 21 16 -13 18 25 -20 23 22 -4 -10 -23 -3 -27 -15 29 -8
right_child=1 17 11 4 5 6 7 8 9 -11 -12 12 -14 27 -16 -17 -18 -19 19 -21 -22 24 -24 -25 -26 26 -28 -29 -30 -31
leaf_value=0.026939980159825329 -0.010667001158926775 -0.023793111896589291 0.033744096334989593 0.12208463124832514 0.069553021101442999 -0.015788371575517803 0.0099100876233686568 -0.006469213959935609 0.054696810890640019 -0.013774238742788018 0.011326076285990944 -0.0040792602526612239 0.0013543581796392908 0.010131356833435532 -0.025375588421462772 0.040845684015207009 0.048360719408428121 -0.0071930079351468501 -0.039237344389859485 -0.18667394896431433 0.065249793673099285 -0.0039447760849276358 0.0051735052678491631 0.0056850280691856415 0.11904340440620809 -0.11757169239749968 -0.002925243102261269 0.04029791689842973 0.12163060975935121 0.061702445140297213
leaf_weight=523.35529768466949 1271.7952311635017 598.76917736232281 155.22272782027721 7.2213990539312354 31.799572065472603 460.00673671066761 507.8493338227272 1169.5034730732441 43.92562347650528 105.05777770280838 380.81668892502785 132.5377049446106 280.25710481405258 647.07456293702126 138.85087333619595 245.15592503547668 51.058131650090218 909.50451952219009 173.62600496411324 5.9587475806474677 46.912424355745316 1082.8745819032192 652.17235198616982 166.54568506777287 5.4792248904705039 6.726185515522956 371.45795637369156 104.32863922417164 6.9808815568685523 34.084562554955482
leaf_count=2125 5089 2402 624 29 128 1843 2034 4685 176 421 1527 532 1124 2597 556 985 205 3647 700 24 188 4340 2614 667 22 27 1490 419 28 137
internal_value=0 -0.00613331 0.0096183 -0.00189955 0.00186657 0.00157264 -0.000739968 0.00258672 -0.00169877 0.0136942 0.0158135 0.00702449 0.0173787 0.00438944 0.000722016 0.0278532 0.0105043 -0.0148066 -0.0207939 -0.0441294 0.0249061 0.00263349 0.0106662 0.0159138 -0.0033256 -0.0165044 -0.00496428 0.0143198 0.0145469 0.0131675
internal_weight=0 6298.54 4018.37 4232.5 2960.7 2953.48 2540.87 2080.86 1531.94 362.442 412.616 3495.01 709.009 2786 2034.6 428.752 183.596 2066.04 1156.54 179.585 257.384 1895.75 807.395 210.471 1088.35 976.953 378.184 751.403 548.915 541.934
internal_count=41385 25242 16143 16952 11863 11834 10179 8336 6137 1452 1655 14018 2846 11172 8156 1722 737 8290 4643 724 1031 7600 3238 843 4362 3919 1517 3016 2199 2171
is_linear=0
shrinkage=0.1


Tree=7
num_leaves=31
num_cat=0
split_feature=20 20 23 22 17 22 13 11 17 17 19 17 18 15 20 21 10 16 16 18 4 11 12 16 18 21 3 12 22 3
split_gain=50.0669 21.9021 9.98965 10.9413 11.6903 9.8338 10.3871 9.6942 12.7337 14.2142 14.2102 9.86718 9.47683 9.15101 8.80782 8.87564 10.5385 9.64524 13.1572 8.79697 8.72479 8.50475 8.72328 8.22549 8.1844 16.0921 8.0287 8.07471 7.74175 7.62976
threshold=70.346427798594519 12.597496595596503 2.5000000000000004 7.5000000000000009 62.523744072081293 18.500000000000004 0.74516579079537959 59.017138347882934 25.14320674937618 23.680695958491025 1192458.9563449915 21.914372394548206 183.91052240840037 62492.815003483476 98.215441852383421 84.364602082739466 9075.8036472234144 305.78821428571393 549.26714285714354 88.219714297705323 2369.8342655000006 70.164194894454965 710.47571492146756 228.35857142857085 -46.372292863414039 59.119011635100499 61935.400000000009 11.724194424726194 11.500000000000002 57139.155000000006
decision_type=2 2 2 2 2 2 2 2 2 2 2 2 2 2 2 2 2 2 2 2 2 2 2 2 2 2 2 2 2 2
left_child=1 5 -2 4 12 23 -7 13 9 11 -10 14 21 26 15 16 -9 -17 -19 -12 -20 22 -4 -1 29 -26 27 -5 -13 -3
right_child=2 24 3 7 -6 6 -8 8 10 -11 19 28 -14 -15 -16 17 -18 18 20 -21 -22 -23 -24 -25 25 -27 -28 -29 -30 -31
leaf_value=0.032840072383444462 -0.0043415082115937937 0.0096580250283032701 -0.028979260344294801 -0.010823965920131753 0.05006369416799783 0.029327916490039869 0.094460907224811319 0.070618593446984054 0.0076344011057457029 -0.10410692955340971 0.00016509480519311061 -0.075421726203791728 0.073649579197290413 0.045321469629421005 -0.12040776804271068 -0.039290783178703853 -0.049377306204618582 0.058858951437287067 0.054293591181111871 -0.07379918230473613 -0.089378319446643303 -0.065012869376239915 0.058415112433065644 0.0062067450006829629 -0.0046734780122634064 0.0085835984687974518 -0.11451360465763855 0.017501618854125954 0.051014713031938955 -0.0054809103096195464
leaf_weight=190.68563514947891 1443.7102563530207 2182.2325224578381 450.946199670434 340.41979867219925 18.940770789980888 80.880528151988983 35.114779710769653 7.6958618611097327 238.42626528441906 25.369366750121117 26.665577962994576 5.9837341606617001 8.7003435343503934 40.869127526879311 10.897997930645941 46.035210207104683 149.43144972622395 35.606141313910484 6.213379472494128 40.506992116570473 13.22000467777252 66.494403839111328 11.71802097558975 295.91228812932968 2537.6497528553009 1432.48974211514 6.4788648188114157 142.87971243262291 25.397928416728973 392.83226424455643
leaf_count=776 5789 8759 1811 1366 76 329 143 31 957 102 107 24 35 164 44 185 601 143 25 163 53 267 47 1203 10161 5747 26 573 102 1576
internal_value=0 0.00463738 -0.010474 -0.0156247 -0.0271508 0.0228808 0.0490454 -0.0101022 -0.018475 -0.0322272 -0.00381133 -0.0261585 -0.0298699 -0.000138953 -0.0323467 -0.0286299 -0.0435001 -0.00551329 0.0227383 -0.0444375 -0.0434425 -0.031572 -0.0267658 0.0166437 0.00295778 0.000109887 -0.00393236 -0.00244996 0.0269063 0.00734854
internal_weight=0 7147.8 3162.61 1718.9 556.8 602.593 115.995 1162.1 631.45 325.851 305.599 300.482 537.859 530.648 269.1 258.202 157.127 101.075 55.0395 67.1726 19.4334 529.159 462.664 486.598 6545.2 3970.14 489.778 483.3 31.3817 2575.06
internal_count=41385 28694 12691 6902 2236 2451 472 4666 2537 1310 1227 1208 2160 2129 1082 1038 632 406 221 270 78 2125 1858 1979 26243 15908 1965 1939 126 10335
is_linear=0
shrinkage=0.1


Tree=8
num_leaves=31
num_cat=0
split_feature=20 20 22 22 13 21 23 20 22 8 22 20 4 21 22 11 3 21 17 11 20 22 17 20 13 18 19 18 23 20
split_gain=42.3024 16.6737 14.0048 13.4784 11.3029 12.0082 11.0767 12.6437 10.5846 10.0406 12.0879 14.2733 9.20374 9.0915 10.2737 14.1223 13.6719 10.946 8.7782 9.71828 10.212 8.75723 9.67032 9.88286 11.5517 9.5401 8.76669 8.71637 8.41721 8.41009
threshold=44.46332468679541 84.844041921543564 18.500000000000004 21.500000000000004 -16.296460479258247 9.6213371082091594 4.5000000000000009 3.3932109041322587 22.500000000000004 64458.212800000001 7.5000000000000009 19.124091812862115 2900.7790900000005 56.214670014347298 7.5000000000000009 43.797974233407622 19187.665000000005 84.070292642920521 43.392447781411953 42.778305198554968 64.092579358607239 22.500000000000004 18.102045541831547 20.254893918971778 -341.35662912663685 -50.62043853425039 731668.77719749825 18.726366128431142 1.5000000000000002 46.211438312874172
decision_type=2 2 2 2 2 2 2 2 2 2 2 2 2 2 2 2 2 2 2 2 2 2 2 2 2 2 2 2 2 2
left_child=2 8 6 4 5 -4 9 -8 13 10 11 -1 -7 27 15 -15 17 18 19 -16 -21 22 -5 24 -24 26 -23 29 -19 -2
right_child=1 -3 3 21 -6 12 7 -9 -10 -11 -12 -13 -14 14 16 -17 -18 28 -20 20 -22 25 23 -25 -26 -27 -28 -29 -30 -31
leaf_value=0.031726802582046819 -0.024654961595960211 -0.015117532980661234 0.10544022795826523 0.021168139114516451 0.046035601107587532 0.025556444850200928 0.121990164909322 0.013318039378040892 -0.024789391263321942 -0.022537577356067998 -0.0030072101843503134 0.0041903055148157847 -0.013577793150069132 0.045328472229402235 -0.12271071938093625 -0.0082819195687529913 0.00086513285973755698 0.11547830700019042 0.051351697269424693 0.034931929000462408 0.0010246432832266197 0.070096155001834984 0.030103689936572399 -0.011754601319828766 -0.11602854463477748 -0.010293947730006137 0.011201833069214753 -0.018798872398068316 0.032826855290350093 0.0015093564246845869
leaf_weight=261.24234013259411 144.95108544826508 1331.6505411714315 14.207422718405722 54.795650660991669 231.05150452256203 161.57251527905464 10.842990949749945 848.80641205608845 204.01300325989723 162.52501308917999 1307.0033661276102 673.60535454750061 95.687556698918343 51.359574019908905 5.4700838774442664 1135.3396535366774 1505.3837647140026 19.154303297400475 57.524513900279999 128.26072081923485 288.87635280191898 47.743141338229179 7.1721995621919659 76.833291888237 22.009949743747711 64.397734701633453 53.706914231181145 499.11148291826248 34.54154959321022 805.79680962860584
leaf_count=1059 580 5356 58 220 934 651 45 3415 818 653 5254 2701 385 206 22 4553 6037 77 231 515 1158 193 29 308 89 258 217 1999 139 3225
internal_value=0 -0.0051995 0.00789447 0.0194999 0.0297792 0.0159431 0.00494629 0.0146888 -0.00249295 0.00146302 0.00320296 0.0118854 0.0110005 -0.00152012 0.00143604 -0.0059617 0.00574109 0.0194912 0.0147025 0.00971387 0.0114504 0.00368649 -0.0129412 -0.0305712 -0.0801131 0.0198092 0.0389179 -0.00809752 0.0623102 -0.00247966
internal_weight=0 6211.43 4093.2 829.178 502.519 271.467 3264.03 859.649 4879.78 2404.38 2241.85 934.848 257.26 4675.77 3225.91 1186.7 2039.21 533.828 480.132 422.607 417.137 326.659 160.811 106.015 29.1821 165.848 101.45 1449.86 53.6959 950.748
internal_count=41385 24916 16469 3342 2028 1094 13127 3460 19560 9667 9014 3760 1036 18742 12938 4759 8179 2142 1926 1695 1673 1314 646 426 118 668 410 5804 216 3805
is_linear=0
shrinkage=0.1


Tree=9
num_leaves=31
num_cat=0
split_feature=20 20 22 16 19 21 17 21 18 19 22 18 12 19 16 16 12 12 13 20 11 3 12 13 4 22 4 4 15 21
split_gain=35.052 16.3084 7.79995 12.7268 9.31647 12.444 10.0817 7.92759 12.5599 13.2172 11.0594 9.76357 12.2674 8.60567 8.5302 7.91449 7.83561 8.21769 7.87221 7.6014 7.83146 7.8157 7.31682 9.04354 7.25158 7.00095 11.1309 11.8073 12.8433 7.47821
threshold=71.624773437259179 11.562688369211793 15.500000000000002 324.0564285714284 837219.18164449779 21.332677572551141 40.346114222827595 72.475976292927626 19.687246263840162 1205812.0885599905 6.5000000000000009 22.990897708671557 -50.365125251003967 901828.27276249893 28.789285714285537 828.28428571428583 130.41815272174065 89.718240424521369 174.22039891364656 47.922444943315021 45.89543863693342 64328.625000000007 250.71464975013808 396.60877399837858 442.20630500000004 7.5000000000000009 4168.9462910000011 1561.9354745000003 8855.7385885248168 73.077206353743634
decision_type=2 2 2 2 2 2 2 2 2 2 2 2 2 2 2 2 2 2 2 2 2 2 2 2 2 2 2 2 2 2
left_child=1 -1 7 16 15 6 -6 8 10 11 14 12 -10 -13 -3 -5 17 -4 -18 -11 21 -21 -20 -24 -9 26 27 -26 -29 -30
right_child=-2 2 3 4 5 -7 -8 24 9 19 -12 13 -14 -15 -16 -17 18 -19 22 20 -22 -23 23 -25 25 -27 -28 28 29 -31
leaf_value=0.020831494559412328 -0.009106280514733639 -0.071093522026167089 0.013101311946057665 -0.020413802768828128 0.028942325084675504 -0.00064506967508825435 0.13976145552968078 -0.097329569653957226 0.041350805374983507 -0.042846007959087801 -0.0032809337250357161 -0.0070397801051499094 -0.081507830606534895 -0.032106493753872409 0.0089678351442010456 0.041902757183697181 0.083199418354777205 -0.025996496793319529 -0.008421941259100096 0.16030414616168592 0.013290376851640329 -0.001249215458421638 0.10414708485539365 -0.039818690099034618 0.020843167365057331 0.03490482380182338 0.060952197996104608 0.10002848673719245 0.048265735089365491 -0.075794924986241061
leaf_weight=518.58709189295769 2995.6970944404602 13.428976342082022 1208.6768432557583 288.90397098660469 74.09973868727684 479.80339784920216 9.2321039587259275 5.4864699840545645 9.9847412407398206 22.184073835611343 1883.7813122272491 472.12496843934059 43.684848114848137 192.92429749667645 1477.4877296686172 21.927423983812332 30.61268050968647 56.260530099272728 34.622464239597321 7.4849700182676298 153.71418626606464 4.9916244447231293 16.133726626634601 5.980869621038436 55.66105817258358 135.0896519869566 26.431661486625671 5.4802694469690314 5.4875785559415808 42.405092790722847
leaf_count=2125 12039 54 4854 1160 298 1925 37 22 40 89 7555 1892 175 773 5930 88 123 226 139 30 616 20 65 24 223 543 106 22 22 170
internal_value=0 0.00373921 0.00243265 0.00728433 -0.00212068 0.00555001 0.0412197 6.28695e-05 -0.000996057 -0.0114426 0.00181189 -0.0176224 -0.0586511 -0.0143114 0.00824671 -0.0160177 0.0133627 0.0113624 0.0423298 0.0121357 0.0194749 0.09567 0.0202785 0.0652117 0.0164883 0.0187964 0.00273261 -0.0113808 -0.0449862 -0.06158
internal_weight=0 7302.67 6784.09 2226.25 873.967 563.135 83.3318 4557.83 4281.79 907.094 3374.7 718.719 53.6696 665.049 1490.92 310.831 1352.29 1264.94 87.3497 188.375 166.191 12.4766 56.7371 22.1146 276.042 270.555 135.466 109.034 53.3729 47.8927
internal_count=41385 29346 27221 8939 3508 2260 335 18282 17174 3635 13539 2880 215 2665 5984 1248 5431 5080 351 755 666 50 228 89 1108 1086 543 437 214 192
is_linear=0
shrinkage=0.1


Tree=10
num_leaves=31
num_cat=0
split_feature=20 20 22 22 21 12 23 20 21 22 8 22 20 13 6 8 19 21 17 20 20 18 11 19 18 18 3 7 21 20
split_gain=29.3283 11.9187 10.7503 10.9358 9.59317 11.6673 9.2504 10.3193 8.6882 8.39805 8.3255 8.98896 11.3982 8.15961 8.14411 7.97672 11.8256 7.89653 7.89245 7.77908 7.66156 7.62599 7.29995 6.82857 6.74754 6.70214 6.67183 13.8062 7.52224 7.63821
threshold=44.46332468679541 85.194243690278597 18.500000000000004 21.500000000000004 9.6213371082091594 -75.48195970686082 4.5000000000000009 3.3932109041322587 87.216508209961191 22.500000000000004 64458.212800000001 7.5000000000000009 33.500920947583289 526.29354498149712 66520.409500000023 22855.455900000004 767698.81978499831 58.788721683377325 8.0502026592670308 44.792204568381628 12.597496595596503 -40.494955541853393 56.878849308272116 1328351.1151949915 -181.43095064854455 -161.90794475721651 57139.155000000006 58784.124400000008 38.199055015095134 19.124091812862115
decision_type=2 2 2 2 2 2 2 2 2 2 2 2 2 2 2 2 2 2 2 2 2 2 2 2 2 2 2 2 2 2
left_child=2 8 6 4 -4 14 10 -8 9 19 11 12 26 -10 -6 22 24 23 -5 21 -7 -2 -13 -9 -17 -12 28 -28 29 -1
right_child=1 -3 3 18 5 20 7 17 13 -11 25 15 -14 -15 -16 16 -18 -19 -20 -21 -22 -23 -24 -25 -26 -27 27 -29 -30 -31
leaf_value=0.030330870241007998 -0.12562764137152457 -0.012887817884270528 0.094964816871047616 0.076144370720738416 0.00086329315294202005 0.092544458430783794 0.11142977852537346 0.008290153380707389 0.029657843957955524 -0.022695817436363806 0.058692368595207101 0.0058568239480183241 -0.0065502365873276874 -0.053552513392396889 0.085223609121799049 -0.12101550990183425 -0.0010212413103295656 0.070620217308542829 -0.00076786129177032535 -0.0015443829008862345 0.031950682083875144 -0.021814793810642576 0.082182086830733456 0.055581945950416989 -0.023847718511315071 -0.026211716985293884 -0.10492565683449039 0.010545523853767525 0.050968384501556697 0.0056202353196148991
leaf_weight=221.65915276110172 9.2442712932825071 1288.9966671317816 19.418031245470047 13.937690719962118 199.49284629523754 22.796954438090324 10.501716271042822 793.74454353749752 130.63620245456696 203.40110740065575 9.9004157632589322 420.95289504528046 290.25592689216137 12.953086391091345 12.140125527977942 7.3606504946947089 619.58227355778217 22.144472643733025 312.1696460545063 4531.2669453173876 246.49277001619339 30.169882267713547 12.915390253067015 31.753635257482529 245.78260745108128 152.61805771291256 13.118665039539335 49.141860514879227 71.769494786858559 287.12568785250187
leaf_count=904 37 5193 81 56 805 95 45 3197 525 816 40 1692 1163 52 49 30 2491 90 1258 18172 998 121 52 128 989 613 53 198 289 1153
internal_value=0 -0.00432849 0.00658099 0.0167679 0.0260547 0.0232723 0.00399876 0.0129107 -0.00208496 -0.00281391 0.000815096 0.00240095 0.00989775 0.0221515 0.00570254 -0.00295271 -0.00846182 0.0116901 0.00251934 -0.00192914 0.0370803 -0.0461633 0.00812887 0.0101093 -0.0266731 -0.0210395 0.0173247 -0.0137849 0.020661 0.0163858
internal_weight=0 6206.67 4086.78 826.448 500.341 480.923 3260.33 858.144 4917.67 4774.08 2402.18 2239.66 933.071 143.589 211.633 1306.59 872.726 847.643 326.107 4570.68 269.29 39.4142 433.868 825.498 253.143 162.518 642.815 62.2605 580.554 508.785
internal_count=41385 24916 16469 3342 2028 1947 13127 3460 19723 19146 9667 9014 3760 577 854 5254 3510 3415 1314 18330 1093 158 1744 3325 1019 653 2597 251 2346 2057
is_linear=0
shrinkage=0.1


Tree=11
num_leaves=31
num_cat=0
split_feature=20 20 21 20 18 4 1 18 21 17 20 2 14 18 22 21 12 20 19 18 18 17 13 7 28 16 4 22 20 19
split_gain=24.6695 12.2924 9.81399 10.1543 9.59793 10.3944 10.0323 9.46417 9.31091 9.37077 8.32583 15.027 9.36311 9.06152 8.17346 7.90297 7.83779 8.38166 10.3834 8.58517 7.81259 8.64709 8.88127 7.73272 15.2462 7.66745 7.61272 7.5318 7.41722 7.39912
threshold=74.321635150166856 21.402702489845826 23.707160449173575 34.221313549736827 48.429647686929108 2818.9898415000002 8880.5000000000018 49.286913373922552 59.119011635100499 22.069839976997013 29.692301827112342 8701.5000000000018 7207.0331486127525 -77.885008098832557 17.500000000000004 21.9903005708324 -75.48195970686082 32.835791080583043 1286391.1412379951 -49.653891813257907 -114.05979570919419 50.429500706771783 -56.913846179249653 42843.788600000007 59485.250000000007 462.81357142857092 1117.1530500000001 18.500000000000004 43.737190770711557 678453.73486149905
decision_type=2 2 2 2 2 2 2 2 2 2 2 2 2 2 2 2 2 2 2 2 2 2 2 2 2 2 2 2 2 2
left_child=1 -1 14 10 -2 7 -7 -6 -5 -10 20 12 -12 -13 -3 16 17 18 19 25 21 22 -4 -15 -25 29 -24 -28 -11 -16
right_child=4 2 3 8 5 6 -8 -9 9 28 11 13 -14 23 15 -17 -18 -19 -20 -21 -22 -23 26 24 -26 -27 27 -29 -30 -31
leaf_value=0.011202246263735288 0.0098128194620494859 -0.020633304773240348 -0.093174393249691609 -0.0035615895801850493 -0.1156029258069125 0.035969298214167035 -0.0051666864175023254 -0.015239042234162651 -0.0014462081005785703 0.065195506097737763 0.012165751336137775 0.049188297412143915 -0.12935321620370749 0.026757089053483299 -0.057301002511757716 -0.031761677695815109 0.059576648603256711 0.1170034852816989 0.12343870632056447 -0.14945111798188418 0.0082103512984397185 0.090607299387859247 0.078922868379554034 -0.039740042565869903 0.041464481481711703 -0.060581656533319289 -0.045066246645356675 0.041190204619851928 0.01115908088306259 0.073234603761514666
leaf_weight=1445.500881165266 264.36829183995724 351.61123222112656 18.413606643676758 2778.3062359392643 9.4605475515127164 63.186231300234795 960.66223868727684 1370.0468177050352 948.32070149481297 26.135292589664459 8.4689728468656558 114.84023688733578 10.436118975281714 219.28107748925686 6.4770240336656597 34.246748551726341 37.561922803521156 5.4765015691518775 4.949598252773284 5.2400255948305121 497.7446249127388 6.2110043317079535 7.6730158478021613 57.761524647474289 38.552328914403915 17.65861864387989 47.79698047041893 12.843294784426687 905.34952241182327 13.175296708941458
leaf_count=5874 1061 1409 74 11134 38 254 3862 5520 3805 107 34 462 42 882 26 138 152 22 20 21 2002 25 31 232 155 71 192 52 3635 53
internal_value=0 0.00290121 0.000957884 0.00211064 -0.00827235 -0.0102617 -0.002628 -0.0159273 0.000115952 0.00555127 0.0110446 0.021303 -0.0659565 0.0251356 -0.0128302 0.00915692 0.0246345 -0.000140185 -0.0136461 -0.029592 0.00324084 -0.0233742 -0.0315371 0.0163831 -0.00723565 -0.0127587 -0.014923 -0.0267976 0.0126752 0.0302126
internal_weight=0 7620.03 6174.53 5698.13 2667.72 2403.36 1023.85 1379.51 4658.11 1879.81 1040.02 449.34 18.9051 430.435 476.397 124.786 90.539 52.9771 47.5006 42.551 590.683 92.9379 86.7269 315.595 96.3139 37.3109 68.3133 60.6403 931.485 19.6523
internal_count=41385 30650 24776 22864 10735 9674 4116 5558 18681 7547 4183 1807 76 1731 1912 503 365 213 191 171 2376 374 349 1269 387 150 275 244 3742 79
is_linear=0
shrinkage=0.1


Tree=12
num_leaves=31
num_cat=0
split_feature=18 20 22 22 21 20 19 22 21 18 4 16 16 20 13 18 12 19 23 20 17 4 21 11 20 27 16 19 7 18
split_gain=20.8671 9.44331 8.82058 8.17816 7.42515 7.31657 8.46705 7.01469 8.61942 8.52589 8.58867 9.52068 8.18898 9.43391 7.56455 13.4396 9.88292 8.86193 7.36655 17.2901 10.593 8.30958 7.44168 13.3297 8.43735 9.65279 7.35314 8.51694 11.1585 6.97888
threshold=-32.044858052575272 92.682287648307593 22.500000000000004 1.5000000000000002 87.855339803747611 9.8014268144553309 218832.56196799967 7.5000000000000009 30.596940814371258 160.18868325508825 7169.9404350000013 195.83535714285844 71.685357142857313 40.961179311049342 -34.253160738388445 -17.777099870021495 -227.09623748219926 1154250.8048229984 2.5000000000000004 63.092035699666248 65.512573842637536 638.41069500000015 55.623897276549236 46.02254495067622 28.331960231941903 27419.450000000004 254.88071428571445 393975.66821799852 19640.036350000006 -105.646012822207
decision_type=2 2 2 2 2 2 2 2 2 2 2 2 2 2 2 2 2 2 2 2 2 2 2 2 2 2 2 2 2 2
left_child=5 2 7 -3 -4 6 -1 9 12 18 11 -11 -9 14 15 16 -14 -16 26 22 21 -21 24 -24 25 -20 27 28 -2 -7
right_child=1 3 4 -5 -6 29 -8 8 -10 10 -12 -13 13 -15 17 -17 -18 -19 19 20 -22 -23 23 -25 -26 -27 -28 -29 -30 -31
leaf_value=0.060659855078118899 -0.0012836059368910881 -0.059593813088484042 -0.024205900264859512 -0.012902024121123937 0.05424105100438488 -0.0033656007957986547 0.013718654908315113 0.045158695594294813 0.0018321360289885705 0.14426036955895971 -0.025883102797419583 0.018611296469241815 0.07647850958403124 -0.10556049088914206 0.06158470746743714 -0.14709865924103976 -0.068431689947001897 -0.068637420322309059 -0.043918753578968198 0.0044902689136474125 0.060949562421483194 -0.029278815885086119 0.077694551967692052 0.0055526766889450315 -0.011473551084963273 0.11227307292030871 0.0097691869351841359 -0.023348490627724924 0.088113612891889959 0.0071240142378119252
leaf_weight=43.15799418091774 207.3628896176815 41.005971282720566 246.71596936881542 440.29937498271465 12.686131611466406 851.19010037183762 350.45398636162281 12.208319917321203 3620.0762561708689 11.139349326491358 12.460647389292715 13.148649483919142 8.2366241812706011 18.234681993722916 16.196748688817028 10.479739084839823 10.980767652392386 7.715165138244628 5.9809707701206234 83.781854584813118 14.708319708704947 559.41753287613392 29.847625106573105 180.48738394677639 337.40216001868248 11.690839618444441 411.71044890582561 209.95499721169472 14.970377117395399 2488.6889164596796
leaf_count=180 832 166 991 1778 51 3433 1448 49 14540 45 50 53 33 73 65 42 44 31 24 337 59 2251 120 724 1352 47 1652 842 60 10013
internal_value=0 -0.00339737 -0.00232788 -0.01688 -0.0203694 0.00597039 0.0188656 -0.00152211 0.0010971 -0.00613314 0.0416113 0.0762385 -0.0305607 -0.0434276 -0.0222936 -0.0560008 -0.0063228 0.0195686 -0.00698184 -0.0119401 -0.0229613 -0.0248801 0.000884094 0.01579 -0.0079457 0.0594104 0.000204818 -0.00890427 0.00473578 0.00445067
internal_weight=0 6548.9 6067.59 481.305 259.402 3733.49 393.612 5808.19 3704.13 2104.06 36.7486 24.288 84.052 71.8437 53.609 29.6971 19.2174 23.9119 2067.32 1223.32 657.908 643.199 565.409 210.335 355.074 17.6718 843.999 432.288 222.333 3339.88
internal_count=41385 26311 24367 1944 1042 15074 1628 23325 14877 8448 148 98 337 288 215 119 77 96 8300 4914 2647 2588 2267 844 1423 71 3386 1734 892 13446
is_linear=0
shrinkage=0.1


end of trees

feature_importances:
%K=76
%D=50
hour=39
CCI_14=34
volume=30
OBV=21
ADX_14=20
RSI_14=16
ATR_14=16
MACD=15
day_of_week=15
Signal_Line=13
SMA_200=8
EMA_200=6
close=5
SMA_100=5
low=4
Lower_Band=4
Upper_Band=3
SMA_30=2
lag_4=2
open=1
high=1
SMA_10=1
EMA_20=1
lag_2=1
lag_5=1

parameters:
[boosting: gbdt]
[objective: binary]
[metric: binary_logloss]
[tree_learner: serial]
[device_type: cpu]
[data_sample_strategy: bagging]
[data: ]
[valid: ]
[num_iterations: 10000]
[learning_rate: 0.1]
[num_leaves: 31]
[num_threads: 0]
[seed: 0]
[deterministic: 0]
[force_col_wise: 0]
[force_row_wise: 0]
[histogram_pool_size: -1]
[max_depth: -1]
[min_data_in_leaf: 20]
[min_sum_hessian_in_leaf: 0.001]
[bagging_fraction: 1]
[pos_bagging_fraction: 1]
[neg_bagging_fraction: 1]
[bagging_freq: 0]
[bagging_seed: 3]
[feature_fraction: 1]
[feature_fraction_bynode: 1]
[feature_fraction_seed: 2]
[extra_trees: 0]
[extra_seed: 6]
[early_stopping_round: 0]
[early_stopping_min_delta: 0]
[first_metric_only: 0]
[max_delta_step: 0]
[lambda_l1: 0]
[lambda_l2: 0]
[linear_lambda: 0]
[min_gain_to_split: 0]
[drop_rate: 0.1]
[max_drop: 50]
[skip_drop: 0.5]
[xgboost_dart_mode: 0]
[uniform_drop: 0]
[drop_seed: 4]
[top_rate: 0.2]
[other_rate: 0.1]
[min_data_per_group: 100]
[max_cat_threshold: 32]
[cat_l2: 10]
[cat_smooth: 10]
[max_cat_to_onehot: 4]
[top_k: 20]
[monotone_constraints: ]
[monotone_constraints_method: basic]
[monotone_penalty: 0]
[feature_contri: ]
[forcedsplits_filename: ]
[refit_decay_rate: 0.9]
[cegb_tradeoff: 1]
[cegb_penalty_split: 0]
[cegb_penalty_feature_lazy: ]
[cegb_penalty_feature_coupled: ]
[path_smooth: 0]
[interaction_constraints: ]
[verbosity: -1]
[saved_feature_importance_type: 0]
[use_quantized_grad: 0]
[num_grad_quant_bins: 4]
[quant_train_renew_leaf: 0]
[stochastic_rounding: 1]
[linear_tree: 0]
[max_bin: 255]
[max_bin_by_feature: ]
[min_data_in_bin: 3]
[bin_construct_sample_cnt: 200000]
[data_random_seed: 1]
[is_enable_sparse: 1]
[enable_bundle: 1]
[use_missing: 1]
[zero_as_missing: 0]
[feature_pre_filter: 1]
[pre_partition: 0]
[two_round: 0]
[header: 0]
[label_column: ]
[weight_column: ]
[group_column: ]
[ignore_column: ]
[categorical_feature: ]
[forcedbins_filename: ]
[precise_float_parser: 0]
[parser_config_file: ]
[objective_seed: 5]
[num_class: 1]
[is_unbalance: 0]
[scale_pos_weight: 1]
[sigmoid: 1]
[boost_from_average: 1]
[reg_sqrt: 0]
[alpha: 0.9]
[fair_c: 1]
[poisson_max_delta_step: 0.7]
[tweedie_variance_power: 1.5]
[lambdarank_truncation_level: 30]
[lambdarank_norm: 1]
[label_gain: ]
[lambdarank_position_bias_regularization: 0]
[eval_at: ]
[multi_error_top_k: 1]
[auc_mu_weights: ]
[num_machines: 1]
[local_listen_port: 12400]
[time_out: 120]
[machine_list_filename: ]
[machines: ]
[gpu_platform_id: -1]
[gpu_device_id: -1]
[gpu_use_dp: 0]
[num_gpu: 1]

end of parameters

pandas_categorical:[]
