tree
version=v4
num_class=1
num_tree_per_iteration=1
label_index=0
max_feature_idx=38
objective=binary sigmoid:1
feature_names=open high low close volume SMA_5 SMA_10 SMA_20 SMA_30 SMA_50 SMA_75 SMA_100 SMA_200 EMA_5 EMA_10 EMA_20 EMA_30 EMA_50 EMA_75 EMA_100 EMA_200 RSI_14 MACD Signal_Line Upper_Band Lower_Band ATR_14 ADX_14 CCI_14 OBV %K %D hour day_of_week lag_1 lag_2 lag_3 lag_4 lag_5
feature_infos=[3172.6199999999999:73577.350000000006] [3184.75:73777] [3156.2600000000002:73215.139999999999] [3172.0500000000002:73577.350000000006] [0:137207.18859999999] [3181.5440000000003:73319.112000000008] [3186.5520000000001:73174.834999999992] [3204.7524999999996:73106.382000000012] [3215.0173333333337:73028.51933333333] [3227.7305999999999:72482.348799999992] [3238.2811999999999:72344.127333333337] [3265.7339999999995:71815.484700000001] [3351.5639999999999:70178.790349999996] [3184.6635545760519:73285.955607328855] [3192.0892104277546:73208.267244505172] [3208.3114595570059:73047.528323142324] [3222.786228087346:72878.245667512572] [3245.7192442985784:72538.697651961149] [3260.0335880444677:72063.180998989905] [3277.1730593617517:71579.454337631832] [3365.3247030763559:69761.377583744063] [4.3656573947936579:96.410499775062092] [-2360.9460327477354:1887.2236274780516] [-2077.4839220854774:1744.7269192312694] [3246.6047462557626:74727.795140690767] [3118.9806157866396:72708.739523904573] [8.0542857142857951:3189.2171428571428] [2.0842714546167458:90.52722382389662] [-228.10182075865902:228.37258825548133] [-764594.49386500032:1082622.5101589977] [0:100.00000000000001] [1.7839708065776223:99.184158628538384] [0:23] [0:6] [3172.0500000000002:73577.350000000006] [3172.0500000000002:73577.350000000006] [3172.0500000000002:73577.350000000006] [3172.0500000000002:73577.350000000006] [3172.0500000000002:73577.350000000006]
tree_sizes=3420 3461 3454 3458 3451 3453 3452 3458 3451 3438 3450 3441 3447 3442 3414 3429 3448 3435 3422 3394 3425 3395 3449 3387 3399 3360 3422 3371 3392 3426 3422 3357 3391 3425 3391 3386 3376

Tree=0
num_leaves=31
num_cat=0
split_feature=30 30 30 31 30 31 31 30 29 33 21 31 16 32 31 30 29 22 35 30 30 4 4 26 28 27 27 30 28 4
split_gain=290.603 120.329 48.6137 41.4406 37.4788 67.202 25.4142 22.4143 19.0912 24.6154 17.1699 17.0687 16.4856 16.3097 16.0973 25.8463 15.9953 15.4275 14.7718 14.7332 13.9998 13.7801 14.6574 13.7387 13.702 13.6759 13.4564 15.2663 12.8719 12.7161
threshold=71.650968279346429 14.23716027575214 85.321819797132505 80.593652123999419 44.032528596574885 58.310577746548539 36.939379223403357 33.87643894041161 266440.90845249902 3.5000000000000004 66.329330755457946 72.387683633057279 18223.180687174918 18.500000000000004 25.625809872725721 21.390927394967026 -56737.194160500279 -52.789413563409191 58926.780000000006 65.147081286167108 91.736203892781461 3804.4663655000004 8222.6092095000022 39.006428571428557 -31.26112226283303 19.914611389630625 26.061820378990181 3.5510353060707773 -119.6329143283251 1502.9490300000004
decision_type=2 2 2 2 2 2 2 2 2 2 2 2 2 2 2 2 2 2 2 2 2 2 2 2 2 2 2 2 2 2
left_child=1 25 3 -2 6 -6 7 13 -9 -10 16 19 21 14 15 -3 -4 24 -11 -7 -12 -5 -23 -16 -15 -1 27 -27 -25 -8
right_child=2 4 10 12 5 11 29 8 9 18 20 -13 -14 17 23 -17 -18 -19 -20 -21 -22 22 -24 28 -26 26 -28 -29 -30 -31
leaf_value=0.090936681481092796 0.012182611548556661 0.04933976322806613 -0.026574731911118546 0.045579153049682679 0.022008101297856401 0.047588690442182779 0.066599349394197205 0.01089646104022203 0.020565861545746571 0.093334225661677664 0.023164623136585474 0.060856334264392409 0.026410025197006123 0.050593742095046468 0.091451693533529638 0.019542534062440518 0.00056501519152597074 0.080894765946814273 0.015432980835830497 0.02805080875104303 -0.0033175725714917545 0.12607631100872324 0.029159611701252239 0.018882190476018575 -0.05671582999352652 0.12531514224656853 0.076094222629953134 0.034323759803989239 0.054074096806405098 0.048395858557309525
leaf_weight=382.38427340984344 1623.2587292790413 574.07625883817673 344.64569479227066 329.40030872821808 2381.0293939709663 1142.6541817188263 724.03087586164474 391.88139915466309 195.44085085391998 107.21755117177963 417.37368404865265 577.07535117864609 459.11105245351791 248.92466425895691 81.47534191608429 590.57126671075821 587.07232564687729 231.92980766296387 31.490469574928284 582.82361149787903 382.63419777154922 47.485628724098206 23.242965638637543 124.71225649118423 12.496218085289 20.743722021579742 477.85537958145142 165.94977617263794 623.81120681762695 816.50288969278336
leaf_count=1530 6495 2297 1379 1318 9527 4572 2897 1568 782 429 1670 2309 1837 996 326 2363 2349 928 126 2332 1531 190 93 499 50 83 1912 664 2496 3267
internal_value=0.0347906 0.0437046 0.0126122 0.0215827 0.0401367 0.0337875 0.0463911 0.0413294 0.0258703 0.0434311 -0.000247311 0.0459684 0.0393412 0.0458406 0.0418139 0.0342301 -0.00947407 0.0621205 0.0756485 0.0409893 0.0104985 0.0541784 0.0942274 0.0524554 0.0454642 0.0758695 0.0671998 0.0444339 0.0482107 0.0569513
internal_weight=0 10485.1 4214.22 2482.5 9438.14 4683.58 4754.56 3214.03 726.03 334.149 1731.73 2302.55 859.24 2488 1994.65 1164.65 931.718 493.351 138.708 1725.48 800.008 400.129 70.7286 829.999 261.421 1046.93 664.549 186.693 748.523 1540.53
internal_count=58815 41953 16862 9933 37764 18740 19024 12860 2905 1337 6929 9213 3438 9955 7981 4660 3728 1974 555 6904 3201 1601 283 3321 1046 4189 2659 747 2995 6164
is_linear=0
shrinkage=1


Tree=1
num_leaves=31
num_cat=0
split_feature=30 30 30 31 31 32 21 30 30 31 25 31 30 10 27 4 33 32 31 30 27 3 28 28 16 29 28 33 30 30
split_gain=235.779 112.248 33.9557 43.121 30.2259 24.3287 22.6434 21.2743 18.7231 27.1082 22.5226 18.2067 26.6538 15.9416 15.1662 13.9181 12.9659 12.8336 15.8306 14.7969 13.0341 20.9903 14.9367 12.6582 12.5674 12.5617 17.5361 14.7697 12.2946 12.2661
threshold=79.234935961214703 18.397631723477371 44.032528596574885 56.381859697876067 36.939379223403357 7.5000000000000009 52.053178030323892 10.069683450751191 89.21005806528494 86.348625276432116 6646.3503556664036 75.031392120179973 71.650968279346429 20600.442533333338 33.701534478635665 17756.283915000004 4.5000000000000009 17.500000000000004 23.651254430785936 35.269033998251963 33.236969827260168 42302.125000000007 -29.134826108590037 -140.69826034002799 18223.180687174918 27182.370038999503 -62.578731523912374 2.5000000000000004 57.04964657941499 52.05360195351679
decision_type=2 2 2 2 2 2 2 2 2 2 2 2 2 2 2 2 2 2 2 2 2 2 2 2 2 2 2 2 2 2
left_child=1 7 4 29 15 6 -5 -1 9 -2 -10 12 13 -7 28 17 -12 18 -3 23 21 -19 -22 -20 -13 26 -21 -27 -8 -4
right_child=8 2 3 5 -6 11 14 -9 10 -11 16 24 -14 -15 -16 -17 -18 20 19 25 22 -23 -24 -25 -26 27 -28 -29 -30 -31
leaf_value=0.045910880176704354 -0.026749282315353617 -0.014493194822898743 -0.0055647889907765157 0.011616549827639521 0.020715262007057297 0.021280674326470669 0.015379277278954127 0.022050276311273809 -0.081347831056339526 0.0020243508981103117 -0.025492299336613313 0.038480481768615342 -0.017557598405232331 -0.00010133133748559882 0.004863749813733359 0.06244534756215412 -0.052849892550906823 0.036056539720134881 -0.030689518747172902 0.010940761830761514 0.003468923098343079 -0.013179033900335493 -0.077815707917222046 0.014515104762656862 0.011200395646960678 -0.025414636925866124 -0.052822368841790916 0.028469346446728772 -0.028695283174925496 -0.020486684772054703
leaf_weight=582.31630437076092 1293.7721857130527 667.07170116901398 1025.6258257478476 445.32228723168373 1483.2600864470005 738.67250727117062 70.964317947626114 1042.9161550998688 100.23829826712608 438.3638931363821 773.46555209159851 312.54979526996613 419.23445668816566 660.4462753534317 253.64180381596088 38.734031528234482 223.24097126722336 340.17528103291988 66.725348517298698 66.498026072978973 173.88603736460209 116.15480901300907 25.984933227300644 864.67181277275085 367.34700843691826 89.491296947002411 122.7463563978672 117.86732079088688 585.29491785168648 1190.1134283393621
leaf_count=2333 5176 2669 4103 1782 5938 2956 284 4176 401 1754 3094 1251 1677 2643 1015 155 893 1362 267 266 696 465 104 3461 1470 358 491 472 2342 4761
internal_value=0 0.0061848 0.00231078 -0.00246369 0.00925434 0.00392794 -0.00686017 0.0305995 -0.0259413 -0.0194673 -0.0361639 0.00978016 0.00456005 0.0111874 -0.015903 0.00293482 -0.0316198 0.0020654 -0.00192472 0.00438858 0.0141967 0.0235241 -0.00709877 0.0112766 0.0237411 -0.0117876 -0.0304168 0.00521424 -0.0239293 -0.0135796
internal_weight=0 11867.7 10242.5 6069.21 4173.27 3853.47 1355.22 1625.23 2829.08 1732.14 1096.94 2498.25 1818.35 1399.12 909.901 2690.01 996.707 2651.27 1995.07 1328 656.201 456.33 199.871 931.397 679.897 396.603 189.244 207.359 656.259 2215.74
internal_count=58815 47497 40988 24284 16704 15420 5423 6509 11318 6930 4388 9997 7276 5599 3641 10766 3987 10611 7984 5315 2627 1827 800 3728 2721 1587 757 830 2626 8864
is_linear=0
shrinkage=0.1


Tree=2
num_leaves=31
num_cat=0
split_feature=30 30 30 31 31 30 31 30 32 32 21 32 31 30 30 24 28 29 27 29 37 22 26 33 23 22 31 2 27 20
split_gain=194.885 78.3212 35.4716 29.6432 28.4293 46.8186 18.6601 28.3051 17.953 13.7225 13.5731 13.5526 13.3398 24.457 16.0338 13.8718 15.3143 13.0978 12.7606 12.5556 12.4846 11.9463 11.802 11.6576 11.3535 11.3514 11.2858 24.8287 11.1356 12.0437
threshold=70.35127375294131 14.23716027575214 85.321819797132505 80.593652123999419 67.876731183332154 44.032528596574885 52.816127921933735 55.293398943034084 18.500000000000004 21.500000000000004 66.329330755457946 15.500000000000002 24.955851729368444 21.390927394967026 34.198814279537181 4040.1510115519732 -140.69826034002799 -242834.41002550058 45.414393675155004 1.0000000180025095e-35 67128.150000000009 184.2731208681362 285.25392857142845 3.5000000000000004 -16.158989163818873 -7.3230857633345741 15.741593416130547 9383.7450000000008 19.914611389630625 7096.4767869031266
decision_type=2 2 2 2 2 2 2 2 2 2 2 2 2 2 2 2 2 2 2 2 2 2 2 2 2 2 2 2 2 2
left_child=1 28 3 -2 5 8 -7 18 12 24 19 -9 13 26 15 -14 21 25 -8 -4 -12 -17 -13 -16 -10 -5 27 -3 29 -1
right_child=2 4 10 17 -6 6 7 11 9 -11 20 22 14 -15 23 16 -18 -19 -20 -21 -22 -23 -24 -25 -26 -27 -28 -29 -30 -31
leaf_value=0.10212471290944172 -0.017596785366022213 -0.065759336832934598 -0.050640735694246042 -0.06574461805428887 0.021113070463077491 -0.013706691165635677 0.013589793399634488 -0.015199487430145859 0.017202663883103941 0.0066983728708143514 -0.017051730336656887 0.016898243037780539 0.061630261105558692 -0.016118805803591464 -0.0073097207164615598 -0.025278802240185128 0.018639422899628014 -8.3326122147567351e-06 0.062453809513760727 -0.0270830362477281 -0.094747491279729257 0.11661883525802666 -0.021196574559503314 0.0125787514064961 0.045311306836205427 0.045795546847391899 0.022283596337738101 0.016365631630741052 0.025715984823661664 0.041417455986475032
leaf_weight=36.100826755166054 1832.4710069447756 52.698695212602615 387.13051925599575 9.9890264719724637 940.81683169305325 1650.1898592412472 569.96316592395306 833.9010684043169 287.11147002875805 375.88478660583496 778.79287686944008 308.30065371096134 67.615739986300468 628.90968251228333 653.33877505362034 118.42047788202763 1210.928023442626 765.64237846434116 58.972712680697441 544.37465046346188 21.245555236935616 6.2460704445838919 110.46390007436275 536.9195145368576 287.68131183087826 105.36782442033291 382.15570606291294 122.12523177266121 662.90463589131832 344.86116530001163
leaf_count=145 7331 211 1550 40 3767 6601 2281 3337 1150 1506 3116 1234 271 2516 2616 474 4850 3064 236 2178 85 25 442 2151 1153 422 1530 489 2659 1385
internal_value=0 0.00758691 -0.0174856 -0.0103496 0.00464237 0.00276676 -0.00594499 0.00086212 0.0092716 0.0215553 -0.0286684 -0.00782857 0.0061817 -0.00260416 0.0101991 0.0174408 0.0152036 0.00472449 0.0181716 -0.0368735 -0.019115 -0.0181694 0.00684939 0.00166187 0.0312709 0.036137 0.0126558 -0.00839001 0.0335458 0.0471702
internal_weight=0 10246.5 4445.01 2713.47 9202.64 8261.83 3531.79 1881.6 4730.04 950.678 1731.54 1252.67 3779.36 1185.89 2593.47 1403.21 1335.59 880.999 628.936 931.505 800.038 124.667 418.765 1190.26 574.793 115.357 556.98 174.824 1043.87 380.962
internal_count=58815 41029 17786 10857 36840 33073 14131 7530 18942 3809 6929 5013 15133 4746 10387 5620 5349 3526 2517 3728 3201 499 1676 4767 2303 462 2230 700 4189 1530
is_linear=0
shrinkage=0.1


Tree=3
num_leaves=31
num_cat=0
split_feature=30 30 30 31 31 32 21 4 27 30 28 33 38 31 32 30 28 30 31 30 29 22 27 21 31 28 4 4 22 23
split_gain=159.942 74.2473 21.3825 31.9244 23.3664 17.9526 18.5546 16.7958 15.752 15.5864 13.1428 15.8645 14.3485 14.2683 14.9813 13.0421 12.9854 13.2066 12.5265 20.2913 13.1105 13.8464 11.6045 11.4371 11.0344 10.746 16.0424 15.1961 13.3 12.3485
threshold=79.234935961214703 18.397631723477371 44.032528596574885 59.603863615751571 39.855179407387404 7.5000000000000009 52.053178030323892 2806.8218715000007 21.738033401083275 10.069683450751191 -50.927914066352521 3.5000000000000004 8770.1900000000005 24.955851729368444 19.500000000000004 60.752993982877335 131.59319610949839 88.47423554990182 75.031392120179973 65.147081286167108 245077.15010499899 10.252553814940258 34.701635058412741 30.677694865705607 20.95166609341992 -102.55184039808107 13901.260050000003 4931.5631365000008 236.8978741127394 6.7138132309248446
decision_type=2 2 2 2 2 2 2 2 2 2 2 2 2 2 2 2 2 2 2 2 2 2 2 2 2 2 2 2 2 2
left_child=1 9 4 15 10 6 -5 16 -8 -1 13 23 -13 14 -3 -4 -2 -18 19 20 21 -7 -16 -12 -14 26 27 29 -27 -15
right_child=7 2 3 5 -6 18 8 -9 -10 -11 11 12 24 25 22 -17 17 -19 -20 -21 -22 -23 -24 -25 -26 28 -28 -29 -30 -31
leaf_value=0.038131190500337579 -0.023658505457753175 -0.0073851648781595586 -0.0059880425399588648 0.013485668085112316 0.019541444694090547 0.0095712821057714649 -0.027848833065576291 -0.011347773960411089 -0.00021922746348618062 0.017668858423249618 -0.11065623443406838 -0.021181401425489469 -0.055289554299685011 -0.01349600030649984 0.047147773472853108 -0.022145705950921135 -0.021498354800611449 -0.066091781436173599 0.021275749233285544 -0.0058511281972759861 0.0022485513353294974 0.047519961044148039 -0.017456634464762283 -0.01487000933236653 0.024376209648010794 0.023620590868604428 0.095443199190996031 -0.052255394179640938 -0.054035830556719566 0.03322697929785242
leaf_weight=579.53436402976513 1503.9727064073086 751.60428500175476 2020.4501996785402 366.20306965708733 1157.112421810627 180.95957684516907 398.85834135115147 1050.3964707255363 427.49709567427635 1040.7529578208923 12.737414851784704 119.30361497402191 18.488422647118568 141.25549779832363 97.195150449872017 663.65627537667751 114.44235533475876 158.24307556450367 679.24739857017994 810.36398474872112 315.21323969960213 205.15245129168034 38.943802043795586 583.97841644287109 291.65384665131569 766.2222107052803 16.462883874773979 57.175914943218231 22.708017870783806 94.347163200378418
leaf_count=2333 6021 3008 8083 1466 4638 725 1596 4205 1711 4176 51 478 74 566 390 2655 458 634 2721 3243 1262 822 156 2339 1169 3071 66 229 91 378
internal_value=0 0.00509758 0.00194935 -0.00183912 0.00746288 0.00462144 -0.0052517 -0.0213722 -0.0135553 0.0249877 0.00282281 -0.0063665 0.00829017 0.0075711 -0.00185641 -0.00998309 -0.0272988 -0.0473765 0.00999553 0.00492699 0.0173808 0.0297345 0.0286671 -0.0169146 0.0196271 0.0151921 -0.000607915 -0.00600885 0.0213854 0.00521423
internal_weight=0 11857.1 10236.8 6067.6 4169.19 3383.5 1192.56 2827.05 826.355 1620.29 3012.08 1026.16 429.446 1985.91 887.743 2684.11 1776.66 272.685 2190.94 1511.69 701.325 386.112 136.139 596.716 310.142 1098.17 309.241 292.779 788.93 235.603
internal_count=58815 47497 40988 24284 16704 13546 4773 11318 3307 6509 12066 4111 1721 7955 3554 10738 7113 1092 8773 6052 2809 1547 546 2390 1243 4401 1239 1173 3162 944
is_linear=0
shrinkage=0.1


Tree=4
num_leaves=31
num_cat=0
split_feature=30 30 30 31 30 31 26 25 30 28 30 31 30 31 10 22 29 33 24 27 26 30 23 32 1 22 27 21 22 21
split_gain=131.888 53.7519 23.249 23.604 20.451 31.3102 18.7151 17.5701 15.3211 18.1699 15.2512 14.7906 13.0372 12.8865 11.7503 14.5248 11.2956 18.3202 14.2016 10.8346 10.7972 10.5598 10.8105 10.4351 14.9484 16.412 10.4406 12.0063 12.5436 13.7247
threshold=71.650968279346429 12.756940248434676 89.21005806528494 80.593652123999419 33.87643894041161 58.310577746548539 39.006428571428557 6646.3503556664036 83.021869859727886 155.10382437814636 52.05360195351679 40.517691771970028 45.790111368237682 67.607794457117677 11399.744200000003 -27.658829563501055 266440.90845249902 3.5000000000000004 57686.70344674118 22.179117594352736 665.82464285714184 66.75583158663521 -18.012934319251443 11.500000000000002 34254.605000000003 210.74351167737044 52.754341063497044 42.810862306683426 -206.17381713986103 49.91704433751601
decision_type=2 2 2 2 2 2 2 2 2 2 2 2 2 2 2 2 2 2 2 2 2 2 2 2 2 2 2 2 2 2
left_child=1 -1 3 -2 6 10 -3 -4 14 -10 11 16 -7 -14 15 -5 -6 -18 -19 21 -16 -15 -23 24 -12 26 27 -26 -29 -30
right_child=2 4 7 8 5 12 -8 -9 9 -11 23 -13 13 19 20 -17 17 18 -20 -21 -22 22 -24 -25 25 -27 -28 28 29 -31
leaf_value=0.0298754836979046 -0.017828971531333261 0.035539906793098201 -0.067520907254517079 -0.091407809494410006 -0.016999803975357605 0.03960179217614785 0.0080378245290753433 -0.023472824643212514 -0.015189368659974356 0.049157175838341345 -0.032822718985764297 0.0066011176347222852 0.0005135032436141846 0.017611892266142959 -0.0066758847754829435 0.033246621731742677 -0.013427594158803902 0.037065431902729339 -0.015722528553707479 0.025525758390619185 0.043168535083527672 0.034299272667971434 -0.021087336754323265 -0.0047983958033115184 0.1030363259965532 -0.067442661240958643 -0.08430255275934756 -0.047199461945889885 0.075511838889784397 0.00090023668751677919
leaf_weight=866.00007216632366 1831.5277777910233 269.92384181916714 99.626267433166504 9.7358717769384366 689.94839705526829 136.40216933190823 2969.7558860331774 994.72666820883751 620.74574935436249 47.221939504146576 450.67678543925285 1383.4151093810797 1176.4735218733549 310.30484035611153 322.28571304678917 234.33243937790394 336.0571373552084 181.34571835398674 70.886032447218895 547.61381138861179 50.232717677950859 43.42436371743679 186.9727681428194 646.885737195611 15.246997892856596 30.493982762098312 10.497425243258474 30.495233684778214 36.495396792888641 75.985594883561134
leaf_count=3493 7331 1084 401 39 2762 547 11908 3987 2485 189 1803 5541 4711 1244 1290 939 1345 728 284 2195 201 174 749 2588 61 122 42 122 146 304
internal_value=0 0.00601485 -0.0149438 -0.0105401 0.00386226 0.000567888 0.0103292 -0.0274828 -0.000147663 -0.0106404 -0.00489697 -0.000564383 0.00957686 0.00776854 0.0112194 0.0282742 -0.00831949 0.00186084 0.0222302 0.0156113 4.54489e-05 0.00557002 -0.0106483 -0.0137897 -0.0227394 7.18846e-05 0.0122742 0.0186817 0.00968609 0.0251086
internal_weight=0 10465.3 4210.44 3116.08 9599.3 6359.62 3239.68 1094.35 1284.55 667.968 3958.43 2661.65 2401.19 2264.79 616.587 244.068 1278.24 588.289 252.232 1088.32 372.518 540.702 230.397 1296.78 649.891 199.215 168.721 158.223 142.976 112.481
internal_count=58815 41953 16862 12474 38460 25468 12992 4388 5143 2674 15848 10660 9620 9073 2469 978 5119 2357 1012 4362 1491 2167 923 5188 2600 797 675 633 572 450
is_linear=0
shrinkage=0.1


Tree=5
num_leaves=31
num_cat=0
split_feature=30 30 32 33 30 31 31 30 30 31 26 30 31 27 30 31 21 31 27 23 4 12 4 4 29 26 29 32 3 28
split_gain=108.389 49.774 14.9088 14.3437 13.3625 30.0033 19.8166 18.2418 15.8584 15.7557 13.0179 12.0227 11.9528 12.0739 11.2219 13.0146 16.0052 12.3834 11.9624 10.8883 10.6718 10.1273 11.3076 10.0481 14.0276 9.8421 12.5353 10.5749 10.5748 9.68864
threshold=79.234935961214703 18.397631723477371 15.500000000000002 4.5000000000000009 34.551171054024117 28.917490449150492 65.797713182885417 56.701002732173087 70.35127375294131 55.755880386732365 321.72250000000031 3.5510353060707773 87.324128075979672 55.071911496454923 66.75583158663521 51.76792706057352 59.361965925832301 75.031392120179973 22.450609556451429 -986.80326546673371 2806.8218715000007 26324.412075000004 1191.6855960000003 882.33290000000011 862368.00151999807 233.40928571428591 114506.77110499922 18.500000000000004 67128.150000000009 108.79793516122602
decision_type=2 2 2 2 2 2 2 2 2 2 2 2 2 2 2 2 2 2 2 2 2 2 2 2 2 2 2 2 2 2
left_child=1 11 4 20 5 -3 7 9 -8 -6 14 -1 13 -10 15 16 -4 18 -16 -12 -2 -19 -23 29 -25 -13 -27 28 -28 -5
right_child=3 2 10 23 6 -7 8 -9 12 -11 19 25 -14 -15 17 -17 -18 21 -20 -21 -22 22 -24 24 -26 26 27 -29 -30 -31
leaf_value=0.051308863544048837 -0.019449119338102033 -0.0060770388573370381 0.010236013546771547 0.0062223589963532402 -0.0067230370987132236 0.020044506918386447 0.015575773235504436 -0.018351035626571467 -0.009454406337971219 0.01475900261076995 0.088724633208481826 0.025275106775118364 0.06613348704379976 0.041194835850648648 -0.028571546080742485 0.026053820652335608 -0.068737116891053857 0.028651969886841711 0.0074563698358793675 -0.0043704593086200715 -0.0050473470550655222 0.029924304577536961 -0.080198020912667256 -0.032039107522143673 -0.093005047979427935 -0.029349791890794563 0.010305571025173791 0.040528637931488906 -0.063859064549467728 -0.048331804023837383
leaf_weight=117.57152500748634 1249.4113579243422 917.99419082701206 1218.7214549332857 120.70238173007965 1905.187006816268 843.97775194048882 791.53134761750698 1133.2515562027693 752.54150454699993 415.96155343949795 12.73906287550926 839.38049572706223 23.456184893846512 50.205545172095299 203.62883459031582 647.37670792639256 26.214784651994705 169.48232255876064 168.35525165498257 911.20841984450817 874.76070919632912 17.485296428203583 19.978131473064423 492.57673647999763 40.872068047523499 75.674508899450302 442.80597461760044 118.81979641318321 20.098107695579529 44.576862454414368
leaf_count=477 5010 3676 4887 484 7630 3388 3174 4536 3013 1667 51 3383 94 201 815 2596 105 680 674 3651 3505 70 80 1976 164 305 1784 479 81 179
internal_value=0 0.00419889 0.00162355 -0.0176066 -0.0010673 0.00643508 -0.0036735 -0.00795096 0.00546031 -0.00287335 0.0070399 0.0205175 -0.00423066 -0.00628669 0.0108261 0.0145534 0.00857307 -0.00135706 -0.0122658 -0.0030869 -0.0135183 0.0182513 -0.0288007 -0.0300352 -0.0367102 0.0180988 0.00893597 0.0139164 0.00708553 -0.00849125
internal_weight=0 11843.6 10229.3 2822.9 6834.11 1761.97 5072.13 3454.4 1617.73 2321.15 3395.19 1614.35 826.203 802.747 2471.24 1892.31 1244.94 578.93 371.984 923.947 2124.17 206.946 37.4634 698.728 533.449 1496.78 657.398 581.724 462.904 165.279
internal_count=58815 47497 40988 11318 27379 7064 20315 13833 6482 9297 13609 6509 3308 3214 9907 7588 4992 2319 1489 3702 8515 830 150 2803 2140 6032 2649 2344 1865 663
is_linear=0
shrinkage=0.1


Tree=6
num_leaves=31
num_cat=0
split_feature=30 30 30 31 30 32 31 21 27 33 31 12 31 28 31 31 28 26 4 20 32 29 28 30 4 30 31 30 26 28
split_gain=87.8829 41.6511 20.1015 19.8965 20.3878 19.2547 13.6534 12.7622 12.2617 11.6674 11.5269 10.8496 10.3939 10.2899 10.6355 14.798 10.1577 12.4863 9.81099 10.0724 9.74148 10.2317 9.59807 9.29854 9.1409 9.03506 13.1716 11.4517 20.7042 13.9887
threshold=79.234935961214703 11.222041870347207 39.141903505832666 53.118440447912768 53.801163979542793 8.5000000000000018 75.031392120179973 33.811523415286082 44.587862100721317 4.5000000000000009 66.968122514455416 6434.2046750000018 51.085085776921538 28.954834200291177 39.52030776110049 46.501391136069429 183.7322477844107 477.72178571428549 983.0026170000001 3580.1256831922942 17.500000000000004 960726.53484199778 -15.690879838367877 42.963949082482763 1122.7190745000003 92.635553363253592 85.765117035216591 86.702498234543427 82.086071428571771 54.481604543140044
decision_type=2 2 2 2 2 2 2 2 2 2 2 2 2 2 2 2 2 2 2 2 2 2 2 2 2 2 2 2 2 2
left_child=1 -1 7 13 -5 -6 8 12 -7 16 -10 18 22 20 -15 -16 25 -18 19 -9 -4 -22 -3 -17 -12 26 -2 28 -28 -29
right_child=9 2 3 4 5 6 -8 11 10 -11 24 -13 -14 14 15 23 17 -19 -20 -21 21 -23 -24 -25 -26 -27 27 29 -30 -31
leaf_value=0.027643513866050753 -0.016825156180338849 -0.0014103323595261979 -0.0094375528075649924 0.018524989690294685 -0.0089431155180584709 -0.0022562572667846272 0.018268630842404637 -0.0085066685143690649 0.0020930792837457468 -0.027080818849668731 -0.0051070411315587254 0.0086407100345566624 -0.14066596631975453 -0.068904806230317528 0.011561114494227675 0.085237610642991957 0.0073100045384643089 0.12476939110549377 0.015599674742025605 0.06931746340942406 0.0099419644008765413 -0.048228654784346965 -0.11334317447057939 -0.033913127364970347 0.069206352122240911 -0.025823778863018718 0.07686727685036214 0.095249273100156087 0.0040555756949269975 -0.013725454574790559
leaf_weight=688.94694317877293 1008.2942920327187 828.5741545855999 1496.7844745367765 706.80034387111664 1462.0707134008408 1432.6400093138218 631.31652100384235 20.859824359416962 105.35218970477581 697.55867074429989 21.94911228120327 3129.5100417733192 5.4760173708200446 44.209081560373306 122.13309326767921 6.7271590232849112 57.852485477924347 10.72852563858032 201.9759379029274 82.023670747876167 493.94643864035606 32.208896651864052 7.7321931868791571 248.28339397907257 67.316801205277443 457.71388073265553 48.672235772013664 12.215690240263937 197.6089976131916 329.88528901338577
leaf_count=2797 4043 3326 5993 2835 5856 5740 2534 84 422 2803 88 12563 22 177 489 27 232 43 812 330 1978 129 31 994 270 1839 195 49 791 1323
internal_value=0 0.00378196 0.0023073 -0.00104244 0.00295567 -1.99362e-06 0.00578597 0.00769031 0.000943158 -0.0158605 0.024495 0.010395 -0.00334439 -0.00828438 -0.0225011 -0.0170616 -0.0121738 0.0256849 0.0284032 0.0535385 -0.00532323 0.00638102 -0.00244522 -0.0307699 0.0509338 -0.0134377 -0.00988696 0.00200283 0.0184453 -0.0098342
internal_weight=0 11836.8 11147.9 6871.74 4427.45 3720.65 2258.57 4276.15 1627.26 2820.53 194.618 3434.37 841.782 2444.29 421.353 377.144 2122.97 68.581 304.859 102.883 2022.94 526.155 836.306 255.011 89.2659 2054.39 1596.68 588.382 246.281 342.101
internal_count=58815 47497 44700 27532 17745 14910 9054 17168 6520 11318 780 13789 3379 9787 1687 1510 8515 275 1226 414 8100 2107 3357 1021 358 8240 6401 2358 986 1372
is_linear=0
shrinkage=0.1


Tree=7
num_leaves=31
num_cat=0
split_feature=30 30 30 31 25 31 30 32 30 32 4 31 26 31 28 4 0 31 30 27 23 21 32 29 38 22 28 31 20 26
split_gain=73.6988 30.3208 15.5477 19.5189 14.427 14.1143 21.6276 13.0506 11.8589 9.89167 12.0313 11.7392 9.86615 11.2287 11.1165 9.76 9.66116 9.4815 15.6584 9.82145 9.41118 9.17389 8.92902 10.8643 9.46467 8.71943 8.59509 14.7598 9.7587 9.37168
threshold=70.35127375294131 11.222041870347207 89.21005806528494 86.698506972057274 6646.3503556664036 67.876731183332154 44.032528596574885 18.500000000000004 81.743510533195419 21.500000000000004 2901.3580175000002 37.594722030320071 31.785714285714175 50.065798036270046 -48.940944033350448 2062.0066920000004 69648.080000000002 52.816127921933735 53.801163979542793 15.980023111970503 14.577278651920693 30.677694865705607 13.500000000000002 -328260.06354850094 68252.950000000012 0.48037133117213676 -46.702157937700896 58.003877717145514 6431.2671087110875 21.072142857142797
decision_type=2 2 2 2 2 2 2 2 2 2 2 2 2 2 2 2 2 2 2 2 2 2 2 2 2 2 2 2 2 2
left_child=1 -1 3 15 -4 6 7 16 -5 10 11 -9 -11 14 -14 -2 21 -8 -19 25 -15 -3 23 -6 -24 -20 28 -28 -23 -30
right_child=2 5 4 8 22 -7 17 9 -10 12 -12 -13 13 20 -16 -17 -18 18 19 -21 -22 26 24 -25 -26 -27 27 -29 29 -31
leaf_value=0.024970806000755384 -0.015065181062124913 -0.010282103041633078 -0.057632907472653816 0.042033026000618152 -0.11663025391288384 0.014862323338681933 -0.0096030326780771041 0.023259319471015602 0.0032280072331382728 0.074604205381399502 0.0012881078441170264 0.060325781223812242 0.0086665476022806474 0.11427048162525773 -0.028710031678104028 -0.003135676523013864 -0.063341272322368525 0.01563972230002637 0.0046911902671527639 0.0015005368148655477 0.0061500798881264536 0.029699535589890958 -0.0051799207741240957 -0.02382215593365615 -0.13226037978737867 -0.024770330417048979 -0.0041375790802710777 0.040559716908014465 -0.056628526468426615 0.0077352571908190955
leaf_weight=686.54893140494823 1763.3514369279146 406.90581603348255 98.54119211435318 101.1670216023922 12.916268557310103 937.53332342207432 1649.2103794515133 328.7561116963625 355.45583356916904 18.871269896626472 165.26403698325157 115.44772465527058 221.62989977002144 15.166400089859961 124.14754572510719 1122.3047961592674 21.445539057254791 515.18916867673397 141.62291760742664 877.23436753451824 17.15885916352272 208.58224126696587 434.26891523599625 537.87725166976452 5.9408525377511969 345.59540790319443 1147.3227878808975 78.963264361023903 22.860406070947647 2170.8720048218966
leaf_count=2797 7069 1633 401 406 52 3767 6601 1323 1424 76 665 465 891 61 498 4499 86 2066 567 3513 69 840 1747 2164 24 1384 4603 318 92 8714
internal_value=0 0.00467395 -0.0107673 -0.00738557 -0.0211412 0.00321171 0.00194047 0.00612886 0.0118254 0.0163218 0.0243228 0.0328928 0.00403795 0.000515961 -0.0047531 -0.0104255 0.0036002 -0.00406926 0.00078611 -0.00482231 0.0568781 0.00395594 -0.0175126 -0.0259985 -0.00689494 -0.0162066 0.00555258 -0.00125942 0.00902983 0.00706454
internal_weight=0 10216.3 4431.82 3342.28 1089.54 9529.78 8592.25 5063.39 456.623 1006.44 609.468 444.204 396.974 378.103 345.777 2885.66 4056.95 3528.85 1879.64 1364.45 32.3253 4035.51 991.003 550.794 440.21 487.218 3628.6 1226.29 2402.31 2193.73
internal_count=58815 41029 17786 13398 4388 38232 34465 20334 1830 4048 2453 1788 1595 1519 1389 11568 16286 14131 7530 5464 130 16200 3987 2216 1771 1951 14567 4921 9646 8806
is_linear=0
shrinkage=0.1


Tree=8
num_leaves=31
num_cat=0
split_feature=30 30 30 31 25 4 32 29 31 30 31 22 4 28 21 30 26 29 37 10 19 29 31 27 21 10 30 31 28 31
split_gain=60.2122 26.1911 11.5308 19.2474 15.5543 17.8547 11.6547 11.5588 11.0684 14.3793 12.3382 11.0116 10.4031 12.8359 9.59307 9.56232 13.5656 9.48632 9.41233 9.10926 9.03656 9.09847 8.79786 10.1215 8.71732 8.37866 8.35711 16.45 12.1952 8.89573
threshold=72.261407918846643 18.397631723477371 85.321819797132505 75.031392120179973 16665.741323293179 3871.914843 22.500000000000004 387392.34792650159 67.876731183332154 53.446182867787449 39.190027876523793 614.79443636188273 17756.283915000004 -86.459406025912017 66.329330755457946 39.141903505832666 730.04607142857128 1.0000000180025095e-35 67128.150000000009 3901.0490666666669 6975.183433135111 -278793.33717750065 24.609777927789768 61.109406915154672 67.644245339500259 65435.593333333345 36.35920976424449 65.195413462035773 -12.435880750456915 58.310577746548539
decision_type=2 2 2 2 2 2 2 2 2 2 2 2 2 2 2 2 2 2 2 2 2 2 2 2 2 2 2 2 2 2
left_child=1 -1 3 6 5 -5 19 -6 9 10 12 26 15 -14 17 22 -17 -4 25 -2 21 -7 -3 -24 -10 -16 27 28 -12 -28
right_child=2 8 14 4 7 20 -8 -9 24 -11 11 -13 13 -15 18 16 -18 -19 -20 -21 -22 -23 23 -25 -26 -27 29 -29 -30 -31
leaf_value=0.015751986761140372 -0.063657999864346698 -0.0061143219415904226 -0.035521738238032778 0.0065711398141991943 -0.027126274714887145 0.045494018018490782 -0.065216811600607633 -0.00018525538645782619 0.0087786076410420171 -0.0063949000851594847 0.02716852843275035 0.078405347162217906 0.090513170350956185 -0.021703891316576334 -0.0076235636798260235 -0.016260233581330386 0.045227423525465736 -0.014950702730486249 -0.0746631524103024 -0.012253800432294206 0.075987766557184727 -0.09339619740751505 0.0072419406376611865 -0.042444273346214333 0.044632828399201685 0.11123925906076026 0.0015799405950850569 -0.10886218823952838 -0.016353441389805264 0.020243648190261407
leaf_weight=1605.4774627238512 35.922291725873947 998.53251023590565 382.69135262072086 578.59647130966187 226.40220399200916 14.621246650815012 47.397615641355515 536.92661254107952 1079.6962600648403 2165.9704821556807 464.42848990857601 22.405815377831459 26.823698773980141 16.440643459558487 769.21580183506012 591.92839097976685 38.196271449327469 541.199293166399 20.932130739092827 854.77840828895569 60.936144679784775 6.9625584036111823 1520.7236533761024 42.135160133242607 72.355755418539047 5.9764541536569586 1518.877442419529 9.913079157471655 74.744663551449776 306.99689118564129
leaf_count=6509 144 4001 1550 2320 907 59 190 2151 4339 8675 1870 90 108 66 3092 2371 153 2178 85 3427 245 28 6109 169 291 24 6087 40 301 1236
internal_value=0 0.00399089 -0.0103105 -0.00577586 0.00154897 0.0127774 -0.0168982 -0.00817592 0.00188119 0.000529529 0.00319248 0.00862928 -0.00083686 0.0478702 -0.016539 -0.00149713 -0.012533 -0.0234716 -0.00849391 -0.014327 0.0562931 0.000690461 0.00121779 0.00590238 0.0110305 -0.00670717 0.007971 0.0187882 0.0211352 0.004718
internal_weight=0 10555.6 4082.56 2362.54 1424.45 661.116 938.098 763.329 8950.17 7798.12 5632.15 2397.37 3234.78 43.2643 1720.02 3191.52 630.125 923.891 796.124 890.701 82.5199 21.5838 2561.39 1562.86 1152.05 775.192 2374.96 549.086 539.173 1825.87
internal_count=58815 42415 16400 9471 5710 2652 3761 3058 35906 31276 22601 9624 12977 174 6929 12803 2524 3728 3201 3571 332 87 10279 6278 4630 3116 9534 2211 2171 7323
is_linear=0
shrinkage=0.1


Tree=9
num_leaves=31
num_cat=0
split_feature=30 30 32 31 30 31 25 28 4 28 26 32 30 28 13 29 30 26 4 24 31 27 26 28 31 27 15 7 26 29
split_gain=50.3882 24.8483 10.1361 14.1082 15.0508 15.3912 12.9836 12.1796 9.69007 9.9533 9.66424 9.50383 9.14775 9.17653 8.69701 12.835 10.6794 12.0302 8.7744 8.61813 8.58813 10.1605 16.1749 10.3851 8.56822 8.36193 8.36165 10.9179 9.24559 8.29195
threshold=79.542447726075366 21.390927394967026 17.500000000000004 22.981851232495703 34.551171054024117 72.387683633057279 41992.61707222851 60.032529123102613 2806.8218715000007 139.13240933259797 1150.2153571428573 7.5000000000000009 3.5510353060707773 -182.95259015960406 19042.355366558997 387392.34792650159 68.111177103392933 35.075714285713993 2335.8177510000005 68292.676613159507 72.988716581036243 33.471930115585785 178.66678571428488 103.04826066309788 23.947521461082978 55.862669380597822 27761.309103703301 37465.050999999999 281.30035714285731 485328.25823600142
decision_type=2 2 2 2 2 2 2 2 2 2 2 2 2 2 2 2 2 2 2 2 2 2 2 2 2 2 2 2 2 2
left_child=1 12 3 -3 -5 24 7 -4 9 -2 29 19 13 -1 16 18 17 -13 -16 20 -7 22 -22 -23 -6 -18 28 -28 -9 -8
right_child=8 2 6 4 5 11 10 26 -10 -11 -12 14 -14 -15 15 -17 25 -19 -20 -21 21 23 -24 -25 -26 -27 27 -29 -30 -31
leaf_value=-0.051786536437985656 -0.01405738671914317 -0.018615414885286379 0.013935823259922481 0.010003942876793893 -0.082881559938987659 0.043793600229305743 -0.0414503043331204 -0.0017398669240375872 -0.0045213724910687708 -0.038031777195797978 0.079368319861931685 -0.028991094194267264 0.011178824769066301 0.048783020118706104 -0.07339490294338645 0.018447806149858647 0.013678069789275405 0.083717357832092665 -0.0052638694572644442 0.084973612948287744 0.0022162280257027028 0.025329267728714584 -0.04403665959381358 -0.055163071065581021 -0.004493002991426652 0.10099523068300105 -0.06389846165919312 0.013752478387664788 0.096242195335880812 -0.0046845604560389852
leaf_weight=9.9257621318101865 1526.7335557192564 434.35236614942551 1564.9712464362383 1227.945372492075 13.986495703458784 35.381762474775314 71.247482717037201 290.72874215245247 1031.7115685045719 195.32440005242825 12.451379075646399 11.38234783709049 1949.3988796025515 105.58939754962921 27.389916300773621 230.40447205305099 186.86355666816235 56.371984139084816 61.004469126462936 11.227415934205053 177.09011656045914 122.93503639101982 131.93617069721222 18.432017877697945 4582.637736260891 11.651333659887312 49.121948421001434 28.678264379501343 9.9602726548910123 441.30350908637047
leaf_count=41 6149 1738 6288 4939 56 142 286 1168 4147 791 50 46 7888 436 110 925 751 228 245 45 710 493 529 74 18371 47 197 115 40 1770
internal_value=0 0.0028286 0.0007298 -0.00113422 -3.48398e-05 -0.0022056 0.00627322 0.0100427 -0.0121852 -0.0167767 -0.00768053 0.0085245 0.012799 0.0401415 0.0171622 0.00601965 0.0305029 0.064783 -0.026375 -0.00164373 -0.00364567 -0.00737237 -0.0175311 0.0148343 -0.00473152 0.0188029 -0.00605473 -0.0352752 0.00150577 -0.00979521
internal_weight=0 11874.4 9809.46 7340.99 6906.64 5678.69 2468.46 1943.46 2753.77 1722.06 525.002 1082.07 2064.91 115.515 585.068 318.799 266.269 67.7543 88.3944 497.003 485.775 450.393 309.026 141.367 4596.62 198.515 378.489 77.8002 300.689 512.551
internal_count=58815 47728 39363 29449 27711 22772 9914 7808 11087 6940 2106 4345 8365 477 2352 1280 1072 274 355 1993 1948 1806 1239 567 18427 798 1520 312 1208 2056
is_linear=0
shrinkage=0.1


Tree=10
num_leaves=31
num_cat=0
split_feature=30 30 33 32 32 31 26 26 27 27 4 22 30 30 32 12 4 27 26 28 4 12 29 4 31 31 9 33 28 26
split_gain=41.7996 18.2987 14.6396 12.1411 10.8704 12.2332 10.1865 9.93881 10.7808 9.22746 10.1223 8.97786 8.62999 8.62596 11.7761 12.8013 10.5556 8.28848 8.18217 8.0254 13.41 9.57976 8.05606 8.94333 8.1324 7.85711 11.475 10.3942 12.0644 10.4918
threshold=69.040263197857868 11.222041870347207 2.5000000000000004 7.5000000000000009 17.500000000000004 72.387683633057279 226.78428571428546 204.84750000000039 21.178391513395315 77.479671045716614 1490.8542925000002 27.083510968185696 67.445852156864376 34.551171054024117 7.5000000000000009 69605.92025000001 555.28845500000011 34.434212739978335 40.028571428571347 116.12191671932821 1629.1046280000003 68635.223000000013 860208.82281999814 4373.5263730000015 82.074600288087069 40.517691771970028 21104.599300000005 2.5000000000000004 24.861485039856241 213.83607142857144
decision_type=2 2 2 2 2 2 2 2 2 2 2 2 2 2 2 2 2 2 2 2 2 2 2 2 2 2 2 2 2 2
left_child=1 -1 11 17 5 13 -7 -6 -9 10 -10 -2 -8 14 15 -3 -16 -4 -18 21 -21 -5 -22 24 -24 26 -15 -28 29 -29
right_child=2 4 3 19 7 6 12 8 9 -11 -12 -13 -14 25 16 -17 18 -19 -20 20 22 -23 23 -25 -26 -27 27 28 -30 -31
leaf_value=0.019480928880393975 -0.009915609335949524 0.012493958319283977 -0.028510073950726779 -0.0048305081694036914 0.014073231025657058 0.034638622447691274 -0.017220812884761062 -0.011791571488999236 -0.005064370340211473 -0.12566436265358139 0.022461783731740216 0.0036162493909276169 0.044748363412314966 -0.021642189891079557 0.039285634743769643 -0.12340418032366927 0.020803554152889502 -0.0056515968281351915 -0.0056950411959976631 -0.046819906174460406 -0.003716057671461478 0.073252784722861591 -0.081151282189962912 -0.13740484406470052 0.01953466346264536 -0.00075858916152820319 -0.016731821526659973 -0.010986296844049377 -0.063809172796800748 0.03224429640969706
leaf_weight=680.73068563640118 795.07408685982227 1144.2879466116428 627.39795485138893 1233.187923759222 1329.909361988306 187.26325765252113 93.790099754929543 400.8304588496685 229.39484438300133 4.9878357201814643 319.89103904366493 1279.0310967117548 29.55433700978756 502.04019974172115 60.317209720611572 6.9737410247325888 127.5932030081749 212.30685794353485 1343.4286001771688 127.58153615891933 319.58705559372902 15.915019318461416 14.583901077508925 9.2165939360856992 17.82883246243 3017.0943311303854 213.00596460700035 82.704538866877556 19.201687067747116 174.77785174548626
leaf_count=2797 3200 4603 2525 4958 5353 757 378 1611 921 20 1286 5139 119 2011 243 28 516 853 5402 516 1288 64 59 37 72 12096 853 332 77 701
internal_value=0 0.00365524 -0.00782488 -0.0128572 0.00249524 0.000540826 0.0199413 0.00848419 0.00070188 0.00973669 0.0109662 -0.00157097 -0.00237249 -0.000359718 0.00402938 0.0116708 -0.00171542 -0.0227306 -0.00339661 -0.00808659 -0.0189497 -0.00383564 -0.00910598 -0.0504843 -0.0257683 -0.00329679 -0.0110186 -0.00012712 0.0126561 0.0183584
internal_weight=0 9967.78 4651.71 2577.61 9287.05 7002.03 310.608 2285.01 955.104 554.274 549.286 2074.11 123.344 6691.43 2682.6 1151.26 1531.34 839.705 1471.02 1737.9 488.798 1249.1 361.216 41.6293 32.4127 4008.82 991.73 489.69 276.684 257.482
internal_count=58815 40104 18711 10372 37307 28116 1254 9191 3838 2227 2207 8339 497 26862 10792 4631 6161 3378 5918 6994 1972 5022 1456 168 131 16070 3974 1963 1110 1033
is_linear=0
shrinkage=0.1


Tree=11
num_leaves=31
num_cat=0
split_feature=30 28 31 30 32 26 30 32 21 27 19 30 31 30 25 23 30 28 26 21 31 32 37 29 30 31 31 31 23 12
split_gain=35.4259 17.7686 15.1646 14.0536 12.9735 11.873 11.2601 10.9512 13.8554 10.2316 9.74195 10.6814 11.9405 10.0126 9.59644 12.0879 10.8315 10.0464 9.1782 9.09764 8.93777 8.93695 11.155 11.5387 9.97703 10.0504 9.15961 12.4181 8.87231 8.70662
threshold=79.542447726075366 -50.927914066352521 58.310577746548539 45.091499695225785 19.500000000000004 58.489642857142861 60.752993982877335 7.5000000000000009 52.053178030323892 12.61074947625859 20429.620893001931 63.808711106771774 64.890166565249444 66.462668558234085 10285.183230872692 58.583539905996183 72.905026704124452 56.269574437683509 285.25392857142845 61.079967719766863 44.143756352717006 7.5000000000000009 58091.390000000007 766527.17411999835 21.390927394967026 64.573443486196581 23.947521461082978 19.871327109882586 187.72783572565257 5732.3046750000003
decision_type=2 2 2 2 2 2 2 2 2 2 2 2 2 2 2 2 2 2 2 2 2 2 2 2 2 2 2 2 2 2
left_child=1 4 6 -4 21 -6 9 8 -5 18 11 -9 13 -13 16 17 -15 -16 -3 -14 -8 22 23 24 -1 29 27 -25 -10 -26
right_child=-2 2 3 7 5 -7 20 10 28 -11 -12 12 19 14 15 -17 -18 -19 -20 -21 -22 -23 -24 26 25 -27 -28 -29 -30 -31
leaf_value=0.021519613829895382 -0.010225968507080269 0.013815553646263971 0.035794022334313308 0.011203974394689103 0.054386345503736 0.015162997816343707 0.013021016605031167 0.027387280827073753 -0.017275421780142769 -0.00562705073277455 0.00015058329049998914 0.025846040709838591 0.0037909465029339466 -0.02769055777141835 -0.014012981268924724 -0.096921503650366309 -0.10835209738964641 0.11200120593998214 -0.012439544781483061 0.027703981589387229 -0.02318622862801922 0.0014202335804297996 -0.015929813060314987 0.040120372529914322 0.037635117400127815 0.13663159959242338 0.056023196490151944 -0.053905847206739146 0.0066456056140064227 -0.0036106054410024201
leaf_weight=469.69626887142658 2749.111264705658 569.22093518078327 134.58137276768684 381.26710873842239 89.82399246096611 547.98178079724312 79.513250946998596 367.42423117160797 662.60810798406601 2608.7539200335741 1098.0900331884623 37.160156533122063 439.83636143803596 51.213132545351982 13.729708164930345 7.9910847395658484 24.665765792131424 11.733209639787672 173.80037666857243 249.25586745142937 478.20024837553501 2287.7626896947622 131.87636522948742 41.233207702636719 56.903680086135864 5.478984221816062 109.97484450042248 21.303059741854668 202.41819956898689 508.72203299403191
leaf_count=1908 11087 2284 545 1529 365 2219 319 1482 2658 10465 4406 149 1768 205 55 32 99 47 697 1004 1918 9239 532 167 230 22 443 86 812 2043
internal_value=0 0.00237275 -0.000530159 0.00407529 0.0075328 0.0206869 -0.00486759 0.00287194 -0.00467782 -0.00267843 0.00696095 0.0131774 0.00692897 -0.0189977 -0.0342392 0.0103794 -0.053911 0.0440538 0.00767421 0.0124407 -0.0180242 0.00522345 0.0116916 0.0146938 0.0107235 0.00184447 0.0386472 0.00809022 -0.0116778 0.000538841
internal_weight=0 11862.2 7591.46 3681.97 4270.76 637.806 3909.49 3547.39 1246.29 3351.78 2301.1 1203.01 835.585 146.493 109.333 33.454 75.8789 25.4629 743.021 689.092 557.713 3632.95 1345.19 1213.31 1040.8 571.105 172.511 62.5363 865.026 565.626
internal_count=58815 47728 30474 14791 17254 2584 15683 14246 4999 13446 9247 4841 3359 587 438 134 304 102 2981 2772 2237 14670 5431 4899 4203 2295 696 253 3470 2273
is_linear=0
shrinkage=0.1


Tree=12
num_leaves=31
num_cat=0
split_feature=28 30 31 30 25 32 32 33 11 30 21 26 31 33 29 37 27 26 21 4 3 20 31 26 30 36 21 2 22 27
split_gain=28.9642 13.0794 12.9047 11.9977 11.2367 10.6966 12.6396 12.1558 10.9187 10.7293 10.2204 11.769 10.1576 9.54394 9.23969 11.5017 9.34848 10.8549 9.42057 9.22495 8.82076 8.81956 8.70784 13.0485 8.42938 7.9497 7.91081 7.80226 7.75526 8.62696
threshold=8.9676888478441317 89.21005806528494 86.698506972057274 10.069683450751191 6646.3503556664036 7.5000000000000009 22.500000000000004 2.5000000000000004 6540.7125000000005 80.163001679283227 44.378779958087961 60.648214285714438 59.603863615751571 3.5000000000000004 -416903.07323900069 16474.125000000004 7.2448260996688614 254.76035714285669 53.358298331139409 2618.9965490000004 57064.345000000008 3531.4453781994084 15.292392344523146 251.05535714285648 86.702498234543427 56725.430000000008 36.297882625253145 27079.840000000004 -145.98085566533197 32.805999202455716
decision_type=2 2 2 2 2 2 2 2 2 2 2 2 2 2 2 2 2 2 2 2 2 2 2 2 2 2 2 2 2 2
left_child=3 2 5 22 -3 7 9 14 12 26 11 -9 -8 20 15 -2 -16 18 -18 -13 25 -11 23 28 -19 -5 -7 -25 -1 -30
right_child=1 4 -4 13 -6 6 8 10 -10 21 -12 19 -14 -15 16 -17 17 24 -20 -21 -22 -23 -24 27 -26 -27 -28 -29 29 -31
leaf_value=0.098068470069994695 0.16468787059335452 -0.047202065037553184 0.013398540307547372 0.0012023122324575754 -0.01148482450054821 -0.086540378967662257 -0.062914110539219345 0.13028582423447779 -0.030149248825862132 0.10626679834008222 -0.01911191883990079 0.028920031582006945 0.062189666404496996 0.0075713300277171674 0.05893867085033544 0.018113744559128949 0.0058089800667199916 0.0082286189882303344 -0.023955490850453239 -0.066697848802744195 -0.013538390791083987 -0.011214917874520247 0.0057821730650972972 -0.041753699463498523 0.093631970907529352 0.049741038179915778 0.0038401948184219391 0.019958645387666604 0.059352626191860727 0.00073091682868954403
leaf_weight=29.072960153222084 7.2211086601018932 96.738466948270798 457.98599356412888 3525.0532617866993 984.24106793105602 9.7189018577337247 8.6986413747072202 8.7159365713596326 226.34340937435627 6.4474736452102652 1062.2691055238247 40.383562862873077 25.561705812811852 2907.5161753445864 23.891330435872078 20.701372846961021 163.42844465374947 230.26872426271439 304.39052000641823 13.450490877032278 427.32479426264763 717.90489460527897 277.93982784450054 24.796763718128204 12.167706608772276 34.068368941545486 2724.3509148210287 117.87113843858242 76.906635746359825 37.269317090511322
leaf_count=120 29 401 1839 14180 3984 39 35 35 910 26 4267 162 103 11699 96 83 656 924 1222 54 1716 2890 1150 102 49 137 10947 487 319 154
internal_value=0 -0.00454763 -0.00274117 0.00436167 -0.0146812 -0.00405974 -0.000948315 -0.0101923 -0.0221857 0.000651993 -0.0167988 0.0224834 0.030426 0.00321459 -0.000440984 0.0560197 -0.0025884 -0.00465803 -0.0135575 0.00502981 3.70055e-05 -0.0101692 0.0183864 0.0306389 0.012515 0.00166693 0.00351892 0.00923257 0.0519585 0.0402173
internal_weight=0 7144.88 6063.9 7457.82 1080.98 5605.91 3719.03 1886.89 260.604 3458.42 1124.82 62.55 34.2603 6893.96 762.069 27.9225 734.147 710.255 467.819 53.8341 3986.45 724.352 563.857 285.917 242.436 3559.12 2734.07 142.668 143.249 114.176
internal_count=58815 28751 24366 30064 4385 22527 14950 7577 1048 13902 4518 251 138 27732 3059 112 2947 2851 1878 216 16033 2916 2332 1182 973 14317 10986 589 593 473
is_linear=0
shrinkage=0.1


Tree=13
num_leaves=31
num_cat=0
split_feature=30 28 31 32 26 4 4 32 18 30 27 23 31 31 35 32 25 30 27 28 22 28 27 31 4 32 23 29 28 22
split_gain=24.2395 13.7744 14.2823 10.6681 9.98448 9.14514 9.35121 9.0064 8.90311 8.80512 9.01387 10.2217 8.70106 12.5266 10.2925 9.8086 11.9265 9.47218 10.0268 9.009 8.67226 8.23956 15.1406 13.0496 10.1279 8.17559 8.16551 16.3917 9.57345 8.14301
threshold=82.68068426112238 -50.927914066352521 80.593652123999419 19.500000000000004 29.260714285714197 14942.543425000002 3693.0172560000005 20.500000000000004 3811.8285174999501 80.163001679283227 39.398463320686083 -210.04663446967075 36.347494641470611 36.063188231596747 9597.9800000000014 8.5000000000000018 18957.804199116832 31.759214806362682 8.2903834210706453 -4.4545481429504283 -135.71563254677901 104.52829358329838 38.518445423304264 86.698506972057274 3140.5440935000001 22.500000000000004 -88.884765809776468 367514.58517400065 -65.725099273339268 20.448509084190849
decision_type=2 2 2 2 2 2 2 2 2 2 2 2 2 2 2 2 2 2 2 2 2 2 2 2 2 2 2 2 2 2
left_child=1 3 9 -1 -5 6 21 26 -9 12 11 -11 13 14 17 19 -17 20 -19 -14 -3 -4 23 24 -23 -18 27 -6 -29 -13
right_child=-2 2 5 4 7 -7 -8 8 -10 10 -12 29 15 -15 -16 16 25 18 -20 -21 -22 22 -24 -25 -26 -27 -28 28 -30 -31
leaf_value=0.004216474030332761 -0.0097505389056600916 -0.09613652549405434 0.016116056479294167 0.081741847209096719 -0.060418030589887421 -0.05439033336848751 0.038951641236611399 0.13657048543641234 0.0068513345740237059 -0.13693977562588244 0.021706714157611186 -0.0035780711711826327 0.0052169761296714627 -0.072221151177195145 -0.00097917438974951649 0.009073406098232659 -0.00035658543552826957 0.081587032907420684 -0.042846830760282693 -0.00853571462433525 0.0027912698446749991 -0.012872614403415188 -0.10308835188863029 0.054634369815019138 -0.16081871677385881 -0.025361011140229685 0.050708254256080866 0.079290351077884014 -0.073229192320250339 -0.044291257052232524
leaf_weight=3630.2395452558994 2169.5268195569515 9.4801188260316831 397.14248712360859 23.84370493888855 22.881188899278641 19.371467366814613 133.22949551045895 5.355118289589881 441.5501860678196 8.4365602731704694 41.974841997027397 95.454680845141411 650.74376407265663 31.137851044535637 694.82977256178856 1835.7159612625837 1792.1539760231972 6.7314441204071036 170.42045968770981 1777.1042934805155 135.74457906186581 65.474985405802727 16.418229624629021 30.879815831780434 4.9790284484624854 141.05513262748718 113.66304443776608 23.834924489259723 4.974346697330474 101.21997374296188
leaf_count=14677 8777 38 1595 98 93 78 538 22 1792 34 169 385 2612 125 2789 7382 7194 27 684 7133 546 263 66 124 20 566 463 97 20 408
internal_value=0 0.00170522 -0.000702248 0.00630967 0.0182556 0.0133144 0.0153379 0.0157832 0.00840572 -0.00195102 -0.0205146 -0.0291549 -0.00131793 -0.0097434 -0.00783088 0.000107459 0.00330063 -0.0225986 -0.0381186 -0.00484954 -0.00366663 0.00922788 -0.0140039 0.000429709 -0.0233281 -0.00218101 0.0357224 0.00276987 0.0529556 -0.0245314
internal_weight=0 12426 8159.7 4266.34 636.103 667.496 648.124 612.259 446.905 7492.2 247.086 205.111 7245.12 1048.34 1017.21 6196.77 3768.93 322.377 177.152 2427.85 145.225 514.895 117.752 101.334 70.454 1933.21 165.354 51.6905 28.8093 196.675
internal_count=58815 50038 32776 17262 2585 2684 2606 2487 1814 30092 996 827 29096 4209 4084 24887 15142 1295 711 9745 584 2068 473 407 283 7760 673 210 117 793
is_linear=0
shrinkage=0.1


Tree=14
num_leaves=31
num_cat=0
split_feature=28 4 28 30 30 31 33 32 26 6 32 27 27 22 24 32 28 27 31 4 26 6 27 27 0 32 3 24 29 30
split_gain=20.8929 11.0783 11.822 15.6936 10.7084 11.437 10.0994 10.668 11.8736 9.22931 9.06507 8.74026 11.7948 11.7529 14.2395 10.4238 9.84848 10.2926 12.7627 8.64007 8.99202 8.36944 8.16592 9.74641 9.17485 7.96633 8.66202 8.94503 7.86559 7.86398
threshold=48.207154581352739 1589.6153990000003 139.13240933259797 68.111177103392933 14.23716027575214 72.387683633057279 4.5000000000000009 22.500000000000004 143.10714285714263 20155.532000000003 21.500000000000004 19.914611389630625 26.061820378990181 43.818168871324822 21701.184348898114 18.500000000000004 -174.9736067642265 28.42270797262427 27.300900621367688 3804.4663655000004 477.72178571428549 63246.820500000009 24.2608311259327 21.0372571548337 7374.0200000000013 17.500000000000004 42302.125000000007 43245.604852233206 -108496.5909235006 10.069683450751191
decision_type=2 2 2 2 2 2 2 2 2 2 2 2 2 2 2 2 2 2 2 2 2 2 2 2 2 2 2 2 2 2
left_child=4 2 -2 -4 11 25 7 10 -9 -10 -3 13 15 14 -1 22 -14 18 -18 20 -17 -19 23 -13 -24 -6 -27 -28 -26 -25
right_child=1 6 3 -5 5 -7 -8 8 9 -11 -12 12 16 -15 -16 19 17 21 -20 -21 -22 -23 24 29 28 26 27 -29 -30 -31
leaf_value=0.04287818163301118 -0.0092281765987473514 0.0019006191708273003 0.11165035242893495 -0.055812684322824248 -0.0011720209817763587 0.015572944223374505 -0.012898393463162084 -0.083065418182973139 0.059935458043740869 -0.031348629607952698 0.036695359260307245 -0.065429917613620492 -0.034944443050057339 0.085673770892213605 0.0015880205704263122 0.024792441073974048 0.076603051859369498 0.01603443319443525 -0.093547905083241997 -0.044267701518145575 0.15798023570568132 -0.049981851685069051 0.06025883389649106 0.033196325325492174 -0.17679352809936311 0.0095982006749047825 -0.10669954537588083 -0.0042829812909059451 -0.059655502369862549 -0.0293973568285197
leaf_weight=147.28210338950157 1967.8266374468803 2088.1142991632223 5.9705496728420249 89.228420287370682 6126.8714886307716 545.52411493659019 591.04695969820023 30.416371390223503 15.594102770090101 38.227382838726044 77.661004856228828 26.453499794006348 37.988837108016014 29.102833047509193 192.93082964420319 15.560091853141786 46.129710003733635 355.83838468790054 4.8741045892238608 9.7068105041980726 7.5183517038822165 20.299647092819214 5.1529642343521109 43.778260007500648 7.0978525429964057 1557.1995512247086 8.7006135433912259 429.56774595379829 29.797709688544273 37.065414786338806
leaf_count=612 7932 8417 24 365 24610 2198 2389 123 63 154 313 108 156 120 797 64 190 1462 20 40 31 83 21 181 29 6280 35 1726 122 150
internal_value=0 -0.00531562 -0.0108932 -0.04531 0.00269542 0.00155664 -0.00126549 0.00179031 -0.0331239 -0.00490021 0.0031483 0.0124052 0.00540115 0.0246806 0.019463 -0.0161714 0.0138483 0.0181878 0.0603428 0.0348884 0.0681815 0.0124716 -0.0273804 -0.0127422 -0.0647333 0.000615255 0.0061029 -0.00631618 -0.0821901 0.00449821
internal_weight=0 4904.09 2063.03 95.199 9684.44 8667.86 2841.06 2250.01 84.2379 53.8215 2165.78 1016.58 647.262 369.316 340.213 182.131 465.131 427.142 51.0038 32.7853 23.0784 376.138 149.346 107.297 42.0485 8122.34 1995.47 438.268 36.8956 80.8437
internal_count=58815 19780 8321 389 39035 34849 11459 9070 340 217 8730 4186 2657 1529 1409 746 1911 1755 210 135 95 1545 611 439 172 32651 8041 1761 151 331
is_linear=0
shrinkage=0.1


Tree=15
num_leaves=31
num_cat=0
split_feature=30 30 26 31 29 22 29 3 31 29 28 28 21 30 23 30 31 27 28 30 32 21 33 27 31 28 28 4 30 5
split_gain=18.0608 11.1815 9.89743 8.84144 8.67572 10.8208 10.0912 8.23425 8.03108 8.00991 10.1214 9.38958 8.01981 8.28245 7.84001 7.55097 9.86019 11.5825 8.22074 7.89737 7.48015 7.44116 7.24966 7.8474 7.08581 12.1187 7.64196 7.0184 7.00918 10.643
threshold=85.321819797132505 33.177115277074456 39.006428571428557 80.593652123999419 -234508.12639450037 -26.621365025418523 -220028.90091000043 16928.505000000001 86.348625276432116 -303836.76737850043 49.913500778612047 183.7322477844107 57.952504927531713 89.21005806528494 -29.625108775792199 72.601988477096342 58.310577746548539 45.414393675155004 159.65990349115867 42.277059535207947 22.500000000000004 42.651574805109412 4.5000000000000009 9.4578174007310434 87.654625787315851 113.14888706384757 87.295626776647069 16141.854950500003 60.752993982877335 69089.552000000011
decision_type=2 2 2 2 2 2 2 2 2 2 2 2 2 2 2 2 2 2 2 2 2 2 2 2 2 2 2 2 2 2
left_child=1 2 7 15 5 -5 8 -1 -6 10 -2 -11 -12 -14 -7 16 18 -18 28 -19 27 -9 23 -8 25 -24 -26 -17 -3 -30
right_child=9 3 -4 4 6 14 22 21 -10 11 12 -13 13 -15 -16 20 17 19 -20 -21 -22 -23 24 -25 26 -27 -28 -29 29 -31
leaf_value=0.026914222807031058 0.1053453332389912 -0.0019493151886633441 0.0042917886788534504 -0.11308861977260187 -0.095309065276040147 0.14675263645877443 0.075711613967281807 0.039117729516487114 0.039360107587488882 -0.0094306056143460132 -0.089895708202212599 0.028882247517853489 0.00923396800699533 -0.054126523917243874 0.031753339559663744 -0.0076980850794097118 0.0022843374827873921 0.12456716324615301 0.12499371087831952 0.021268764727315356 -0.04069944645540767 -0.11583030243583632 -0.0043481342922262033 0.0098478114905608833 -0.032537344661588342 -0.070864891639409719 0.072178957734406551 0.042745483791352228 -0.013213098953647792 -0.15335718118217875
leaf_weight=282.06861592829227 4.9067111462354651 3599.9142155945301 3655.2359311282635 4.9735821783542624 17.165756180882457 6.2205874323844901 18.681207701563835 5.125017046928404 5.9678500592708579 1525.1459013521671 26.064989328384399 66.76751808822155 36.699662268161774 47.120030403137207 126.14319509267807 1364.3525370806456 2166.0080989301205 7.6136686354875556 4.9880251437425605 265.06518997251987 67.772093430161476 7.8413887768983841 126.12818694114685 571.35210539400578 10.957766637206079 34.988086551427841 19.145621314644814 28.151160299777985 474.55026298761368 5.4815559387207022
leaf_count=1153 20 14443 14815 20 69 25 75 21 24 6188 108 270 148 195 509 5489 8712 31 20 1069 274 32 507 2296 44 141 77 113 1905 22
internal_value=0 0.00128425 0.00571388 -0.000676203 0.00848786 0.0317168 0.00452186 0.0233324 -0.060568 -0.00966333 -0.035175 -0.0078237 -0.0414497 -0.0263847 0.0371579 -0.00175713 -0.000302117 0.00472956 -0.003306 0.024153 -0.00825724 -0.0545866 0.00644923 0.0119331 -0.0104721 -0.0187929 0.0340618 -0.00667831 -0.00346286 -0.0148134
internal_weight=0 12875.9 3950.27 8925.62 941.724 137.337 804.387 295.035 23.1336 1706.7 114.791 1591.91 109.885 83.8197 132.364 7983.9 6523.62 2438.69 4084.93 272.679 1460.28 12.9664 781.253 590.033 191.22 161.116 30.1034 1392.5 4079.95 480.032
internal_count=58815 51886 16021 35865 3787 554 3233 1206 93 6929 471 6458 451 343 534 32078 26202 9812 16390 1100 5876 53 3140 2371 769 648 121 5602 16370 1927
is_linear=0
shrinkage=0.1


Tree=16
num_leaves=31
num_cat=0
split_feature=30 33 30 32 12 27 32 30 12 29 29 30 7 24 12 31 31 30 4 30 32 31 30 27 23 32 28 22 26 23
split_gain=15.0967 9.89816 9.22471 8.48919 12.0356 11.5712 10.1675 13.0228 10.5931 11.6326 9.90953 9.26486 7.9768 14.064 10.9069 10.8069 8.59884 8.77951 8.40161 7.77685 8.85791 7.46225 10.3383 7.29815 11.6428 8.89273 7.38536 9.63657 12.2751 10.4777
threshold=44.032528596574885 4.5000000000000009 92.635553363253592 18.500000000000004 63795.67500000001 45.004188538293214 7.5000000000000009 33.509098794047318 22824.466275000002 419146.13699100073 846549.76547199767 4.7387596352559465 65601.204500000007 43075.488895090057 40832.207400000007 25.625809872725721 21.300205366809937 41.270183910421004 3804.4663655000004 3.5510353060707773 15.500000000000002 53.118440447912768 54.201999999999948 17.350365194145734 -15.336018799709782 1.5000000000000002 64.622342505507547 -12.082522576638892 59.156071428571366 19.824041101981219
decision_type=2 2 2 2 2 2 2 2 2 2 2 2 2 2 2 2 2 2 2 2 2 2 2 2 2 2 2 2 2 2
left_child=1 3 21 4 6 11 7 -1 -8 -10 -7 -5 13 14 -13 -14 18 -18 -15 20 -3 -2 -23 24 -24 -25 -27 28 -28 -29
right_child=2 19 -4 5 -6 10 8 -9 9 -11 -12 12 15 16 -16 -17 17 -19 -20 -21 -22 22 23 25 -26 26 27 29 -30 -31
leaf_value=0.013844025674132966 -0.00738563645850318 0.12263703067281642 -0.014327506246482878 0.082728887371512461 -0.026031651534333518 -0.025771669808682937 0.0027855179650987899 -0.0076714848642870275 -0.030349827204831915 -0.0047278236051110749 0.059699529558652147 0.017097304487801415 0.12706675825159991 0.030717070691210359 0.11431377359558928 0.014798495098427926 -0.043159045613429453 0.066605610134425758 -0.079145187559048369 0.010106378994475052 -0.01096522805082889 0.012380821958779247 0.010264739934556366 -0.014681256714148281 -0.010012057724676091 0.0074140946153471226 -0.063519199149916619 0.014912377037047515 -0.0091026011643530434 -0.0034759598142240903
leaf_weight=934.34070618450642 1802.5537764579058 12.940948203206064 622.42477782070637 20.05847093462944 177.75696074962616 120.52247665822506 1029.4032936394215 402.51197192072868 251.39196443557739 600.35611574351788 15.285138100385664 479.17086543142796 14.304409280419348 49.204519674181938 11.825267300009726 21.40330097079277 86.55637514591217 7.9567999243736258 8.107918977737425 1484.622091755271 8.0492104738950712 601.16017742455006 344.41736462712288 326.56009155511856 1592.5911574959755 1665.7064830362797 46.922456502914429 441.36648197472095 355.67220036685467 1040.0723425447941
leaf_count=3788 7226 55 2540 85 717 489 4160 1616 1017 2424 62 1950 58 201 48 86 349 32 33 6009 34 2419 1387 1314 6418 6698 190 1783 1436 4191
internal_value=0 0.00399784 -0.00258995 0.0015195 -0.000701108 0.0105568 0.000698108 0.00736594 -0.00404043 -0.0122901 -0.0161519 0.015749 0.013769 0.0112136 0.0194387 0.0597728 -0.0153861 -0.0339183 0.015175 0.0109609 0.0714038 -0.00170085 -0.000103353 -0.00139435 -0.00640666 0.00111032 0.00256308 -0.00172579 -0.0154449 0.00200249
internal_weight=0 5735.77 8839.45 4230.16 3395.76 834.396 3218 1336.85 1881.15 851.748 135.808 698.588 678.529 642.822 490.996 35.7077 151.826 94.5132 57.3124 1505.61 20.9902 8217.02 6414.47 5813.31 1937.01 3876.3 3549.74 1884.03 402.595 1481.44
internal_count=58815 23213 35602 17115 13722 3393 13005 5404 7601 3441 551 2842 2757 2613 1998 144 615 381 234 6098 89 33062 25836 23417 7805 15612 14298 7600 1626 5974
is_linear=0
shrinkage=0.1


Tree=17
num_leaves=31
num_cat=0
split_feature=28 33 21 32 4 9 29 27 2 21 21 32 21 29 30 29 27 27 31 28 0 32 31 10 22 32 32 28 28 31
split_gain=12.7401 9.94652 13.4491 12.5508 10.264 10.3017 12.7058 11.1048 11.1802 8.69456 9.52964 7.92105 9.14191 14.3108 12.6692 9.18849 7.8543 9.33848 10.6574 11.9342 10.0561 13.9253 15.9829 7.48972 8.54772 7.31124 8.89045 9.49636 10.925 8.03488
threshold=8.9676888478441317 2.5000000000000004 45.030781289262002 7.5000000000000009 809.04597700000011 11405.652800000002 -56737.194160500279 65.734213040826901 12886.770000000002 43.691753515735293 42.967917879465638 18.500000000000004 60.881358344539585 871238.50916499807 50.549539417370504 -336963.21147400071 25.100079156675875 23.639301686571471 91.685189812111403 139.13240933259797 11345.685000000001 13.500000000000002 80.036075384771365 20093.106600000003 28.022931680945479 18.500000000000004 21.500000000000004 -11.302145714210946 -88.933147749948503 70.582071770844649
decision_type=2 2 2 2 2 2 2 2 2 2 2 2 2 2 2 2 2 2 2 2 2 2 2 2 2 2 2 2 2 2
left_child=25 2 9 4 -3 6 -6 8 -7 10 -2 12 13 -5 -15 -14 17 18 20 -20 21 -17 -23 -22 -25 -1 27 28 -27 -28
right_child=1 3 -4 11 5 7 -8 -9 -10 -11 -12 -13 15 14 -16 16 -18 -19 19 -21 23 22 -24 24 -26 26 29 -29 -30 -31
leaf_value=0.0013363742513526357 -0.029376798393292637 0.0011615541629303693 0.0026438119211256786 0.0021635515882137235 -0.010664215401386373 -0.093155122095888512 0.06811197053191187 0.056877422504421397 -0.026202532848085481 -0.06953194633141456 0.064267052100659833 -0.010025896240627132 0.058861480519479453 -0.049824529218929436 0.04355547441427407 -0.038583690164604612 -0.0010550750674349046 -0.089196178550813618 -0.02159520850216623 0.15276112008926354 -0.097609523938463547 0.11910634212605438 -0.0089157061886581106 -0.11951022350202888 -0.022519356193778178 0.028019689575176962 0.00080276398482295426 0.040469815570831909 0.0027794715235754234 -0.10778845212385985
leaf_weight=5962.3685206770897 56.944244012236595 333.48864734172821 2908.191981524229 1093.5662885159254 371.75406685471535 26.039247050881386 21.667886227369308 15.424173027276991 591.32505305111408 40.789734035730362 13.43022361397743 900.1940301656723 19.413875967264175 16.15658874809742 144.23841574788094 40.34220390021801 331.06708677113056 20.55980496108532 8.3352023810148221 7.4206530451774588 20.523576393723488 16.765770778059959 23.31035578250885 10.029696539044378 96.604057297110558 257.28175014257431 570.54284246265888 129.40127855539322 514.26804938912392 6.8961649090051642
leaf_count=24061 229 1343 11724 4408 1504 105 88 62 2385 164 54 3634 79 65 581 164 1337 83 34 30 83 68 95 41 391 1059 2312 521 2083 28
internal_value=0 -0.00301851 0.00133896 -0.00622105 -0.0140795 -0.0190324 -0.00632558 -0.0269326 -0.0290265 -0.0327975 -0.0115059 -0.00233347 0.00141297 0.00625487 0.0341493 -0.00880209 -0.0110868 -0.0247042 -0.0187671 0.0605227 -0.0247856 0.00289151 0.0446421 -0.0422894 -0.0316421 0.00289726 0.00919235 0.0154006 0.0111961 -0.000494105
internal_weight=0 7127.58 3019.36 4108.23 1359.7 1026.21 393.422 632.788 617.364 111.164 70.3745 2748.53 1848.33 1253.96 160.395 594.372 574.958 243.891 223.332 15.7559 207.576 80.4183 40.0761 127.157 106.634 7440.76 1478.39 900.951 771.55 577.439
internal_count=58815 28751 12171 16580 5487 4144 1592 2552 2490 447 283 11093 7459 5054 646 2405 2326 989 906 64 842 327 163 515 432 30064 6003 3663 3142 2340
is_linear=0
shrinkage=0.1


Tree=18
num_leaves=31
num_cat=0
split_feature=30 30 31 4 4 27 28 32 21 12 28 30 26 27 26 29 11 30 30 27 28 26 21 23 31 30 4 26 31 28
split_gain=11.744 8.07133 8.92537 7.17743 7.76791 8.11507 15.6624 9.47897 7.0285 6.98227 7.8797 6.91011 6.3425 7.79889 6.80673 6.99731 8.03204 10.9592 6.98658 7.39875 6.545 6.30517 8.37996 7.88221 7.63168 8.23181 8.40735 10.0131 8.31962 9.70581
threshold=82.68068426112238 11.222041870347207 80.593652123999419 14942.543425000002 2869.5145380000004 45.004188538293214 81.280450098257958 2.5000000000000004 46.660257067210573 29215.983650000006 136.39841127242957 71.650968279346429 69.319285714285641 9.0271390017927295 71.741071428572027 789154.35003999854 11242.550450000001 81.743510533195419 78.655710058105555 14.469265518679423 72.423783462197392 23.355714285714239 59.529152165957505 18.200756798243205 67.876731183332154 53.446182867787449 3230.0941515000009 848.22285714285761 42.463544438562735 -50.927914066352521
decision_type=2 2 2 2 2 2 2 2 2 2 2 2 2 2 2 2 2 2 2 2 2 2 2 2 2 2 2 2 2 2
left_child=1 -1 11 4 5 8 7 -7 -4 12 -11 21 13 -10 -14 16 18 20 -16 -20 -18 22 23 -3 25 26 27 28 29 -23
right_child=-2 2 3 -5 -6 6 -8 -9 9 10 -12 -13 14 -15 15 -17 17 -19 19 -21 -22 24 -24 -25 -26 -27 -28 -29 -30 -31
leaf_value=0.011862681467124388 -0.0068010885692417131 0.014812893051769978 -0.088807463537720815 -0.048155879722548776 0.030851233088802915 0.13285106375010822 -0.11962965031171785 -0.017565209904148307 0.097228107362273969 0.003277577187343859 -0.087196457215965667 -0.0065896023116750625 0.1518283965780822 -0.0018696774564539069 0.071809888616809328 0.097147156802753681 -0.0056334116742058488 0.10969728296182071 -0.086253287016729338 0.031442922572446005 -0.11976165352860786 0.004088945738175781 -0.036811887615274687 0.11898267367465749 0.0088250102595331895 -0.0062423211191950483 -0.0051738979681285073 0.039401579218524996 0.0090076853429970159 -0.0073225346645739743
leaf_weight=670.01203209161758 2160.7886966317892 384.70792333781719 6.9300872534513465 19.373168364167213 186.21567893028259 4.9817634075880077 14.405723288655279 26.347181499004364 8.6645313650369626 172.56199602782726 10.195084959268568 1428.4149963855743 5.2154149562120429 95.173921257257462 38.130401223897934 15.692411437630652 11.443003147840505 4.9812181740999213 6.479756459593772 30.395628467202187 8.95888704061508 1991.3764013946056 31.523143127560616 7.4036017358303061 945.64101365208626 2001.1216839849949 1583.910293161869 75.397841885685921 1426.7686295211315 1191.1494132578373
leaf_count=2797 8777 1556 28 78 754 20 58 106 35 693 41 5750 21 383 154 63 46 20 26 122 36 8040 127 30 3816 8028 6379 303 5743 4785
internal_value=0 0.00118756 0.000577989 0.0118198 0.0136163 0.00664774 -0.0333295 0.00635319 0.0110553 0.0127519 -0.00176951 -9.86539e-05 0.02454 0.00639928 0.0400697 0.0350485 0.0253414 -0.0232819 0.0417963 0.0107613 -0.0557495 0.000863247 0.0127919 0.0167798 0.00031488 -0.000658252 0.00112435 0.0032538 0.00266251 -0.00018212
internal_weight=0 12403.6 11733.6 666.146 646.773 460.557 45.7347 31.3289 414.822 407.892 182.757 11067.4 225.135 103.838 121.297 116.081 100.389 25.3831 75.0058 36.8754 20.4019 9639 423.635 392.112 9215.37 8269.72 6268.6 4684.69 4609.29 3182.53
internal_count=58815 50038 47241 2684 2606 1852 184 126 1668 1640 734 44557 906 418 488 467 404 102 302 148 82 38807 1713 1586 37094 33278 25250 18871 18568 12825
is_linear=0
shrinkage=0.1


Tree=19
num_leaves=31
num_cat=0
split_feature=30 30 27 11 28 31 27 30 26 31 31 29 28 28 4 31 4 26 32 19 4 21 30 33 26 30 4 4 0 27
split_gain=9.65584 7.33007 7.41387 7.32411 12.8509 9.40317 9.30295 8.23734 7.41043 7.14284 11.7903 7.00547 8.13169 7.73774 6.94151 7.63944 9.0309 6.93356 7.14756 6.65737 6.55633 6.52418 6.71157 6.95283 6.5285 6.39461 6.32005 6.31633 6.30458 6.26526
threshold=85.321819797132505 3.5510353060707773 35.441356314189377 6418.6889000000001 -115.99539179116483 16.566324814156896 48.130009190321807 14.66546122344573 17.026428571428504 20.612978953675039 25.625809872725721 -303836.76737850043 49.913500778612047 183.7322477844107 5030.4202685000009 9.7287243777493355 3016.3874170000004 504.72535714285686 7.5000000000000009 6396.8997866705477 2940.4398810000002 57.952504927531713 89.21005806528494 1.5000000000000002 124.19321428571446 18.790895651439602 2742.2660205000006 2711.5914550000002 53311.19000000001 6.3330638826025405
decision_type=2 2 2 2 2 2 2 2 2 2 2 2 2 2 2 2 2 2 2 2 2 2 2 2 2 2 2 2 2 2
left_child=1 2 9 4 6 7 25 27 -5 28 -11 12 -2 -13 15 -4 -17 18 -15 -10 -20 -14 24 -24 -23 26 -3 -6 -1 -7
right_child=11 3 14 8 5 29 -8 -9 19 10 -12 13 21 17 -16 16 -18 -19 20 -21 -22 22 23 -25 -26 -27 -28 -29 -30 -31
leaf_value=0.079594886469642676 0.094303975587930439 0.12901526133528005 0.052236411517772363 -0.058467609124210868 0.030232572789216445 0.058869328568476903 -0.054925816948457912 -0.10895305109220053 -0.067461859405835475 -0.094348724610195389 0.047427734374558217 -0.0068246704875323709 -0.081016094103161407 0.076012872873071596 0.055309787608173393 -0.024715685179256874 -0.18490326691196415 0.11102279102128446 -0.090089450928129186 0.00012743567410464639 0.012829446663661965 0.029612326436813809 -0.098260301043416987 -0.018445176644365076 -0.076578971777809826 0.031017881013483101 0.043100442092132443 -0.095942268793941854 -0.0015444323162429072 0.0056278297138459164
leaf_weight=43.972745954990387 4.9490172713994971 17.72464582324028 5.436115697026259 21.687695324420929 13.700992405414583 22.561665311455727 8.5768975764512998 13.147311866283415 14.591454461216925 8.9567466974258441 16.996328920125961 1520.0726799964905 25.502461910247803 14.590511724352835 9.2472174018621427 9.1559154242277128 5.7169938981533042 8.7343233972787839 7.4763539135456076 11477.212936997414 35.967023819684982 29.497113481163979 17.478754788637161 29.06001715362072 7.2032061517238608 48.199486657977104 16.563388764858246 5.5847445875406256 12.242278903722761 1085.6778425425291
leaf_count=189 20 74 23 88 57 91 35 53 59 38 73 6188 108 59 39 39 24 35 31 46279 145 119 73 122 29 196 69 23 52 4385
internal_value=0 0.000939036 0.0264417 0.000715481 0.00804454 0.0051585 0.044195 -0.0479152 -6.85967e-05 0.0418914 -0.00150118 -0.00707916 -0.0310581 -0.00536117 -0.0165096 -0.0492108 -0.0862901 0.0279575 0.0154559 4.16157e-05 -0.0048823 -0.0367636 -0.0232057 -0.0484217 0.00877006 0.0545014 0.0875127 -0.00630501 0.0619247 0.00671173
internal_weight=0 12857 111.724 12745.2 1231.74 1140.67 91.0644 32.433 11513.5 82.1681 25.9531 1700.53 113.691 1586.84 29.5562 20.309 14.8729 66.7682 58.0339 11491.8 43.4434 108.742 83.2391 46.5388 36.7003 82.4875 34.288 19.2857 56.215 1108.24
internal_count=58815 51886 477 51409 4983 4609 374 133 46426 352 111 6929 471 6458 125 86 63 270 235 46338 176 451 343 195 148 339 143 80 241 4476
is_linear=0
shrinkage=0.1


Tree=20
num_leaves=31
num_cat=0
split_feature=30 33 32 26 30 32 29 29 33 29 21 4 29 26 27 30 29 26 37 31 21 17 5 29 35 11 31 12 21 32
split_gain=8.48726 8.07119 7.2319 8.63534 6.91384 7.45314 9.34949 7.09416 6.65489 6.55617 8.22329 7.4501 6.48031 11.5619 9.80648 10.3003 10.2607 7.59323 7.04121 6.60385 7.7376 9.68308 10.6272 8.97405 6.93692 9.14001 6.7429 6.68605 6.22014 6.18661
threshold=44.032528596574885 4.5000000000000009 21.500000000000004 23.355714285714239 3.5510353060707773 17.500000000000004 978599.52255699749 971697.91142699798 5.5000000000000009 898603.51105999749 47.963844521924116 622.39400450000005 -333597.616699001 23.355714285714239 6.5939088093406584 35.269033998251963 -588627.96782000025 29.260714285714197 3846.6800000000007 8.7822394464126656 33.075985123104324 5139.5791082828646 7745.3630000000003 -332179.78498500114 6849.9950000000008 6568.1469000000016 41.494175486043112 48253.038125000006 51.719275958153865 21.500000000000004
decision_type=2 2 2 2 2 2 2 2 2 2 2 2 2 2 2 2 2 2 2 2 2 2 2 2 2 2 2 2 2 2
left_child=1 12 4 -4 -3 6 7 9 -5 -6 -11 28 13 -1 -15 17 -17 -16 -14 -20 21 -21 24 -22 25 -23 -24 -25 -12 -19
right_child=-2 2 3 8 5 -7 -8 -9 -10 10 11 -13 18 14 15 16 -18 29 19 20 23 22 26 27 -26 -27 -28 -29 -30 -31
leaf_value=0.074249577675737727 -0.0019422639532170054 0.072308596050234347 0.11111882054569244 0.0060565198122036626 0.0044568355525398716 0.026757274457979749 0.060914700107678514 -0.078659229076727025 -0.042263969259472102 0.066482561275667387 0.097168731282717358 -0.068014757875431306 -0.033918912791504746 -0.12809860199417802 0.09100063642824513 0.087259068832288789 -0.037135095409422073 0.011364405434933654 0.027539113467963883 0.10721265696077763 0.12784242889001216 -0.060365290192896381 -0.0037180409951113958 0.003937379376643171 -0.07258038821718156 0.0089060718034169317 -0.066079313459695282 -0.0080499713642843401 -0.042567596489194705 0.076842495153315316
leaf_weight=29.438705384731293 8827.5759172737598 18.353207305073738 5.2531358301639548 52.862920805811882 1025.3010538816452 234.16466543078423 31.449135005474091 9.8986563980579358 61.849940910935402 38.539744138717651 8.1687454581260699 11.138056710362433 61.491504356265068 5.1665724068880072 14.728596240282057 7.4633091837167731 59.45708267390728 181.60170048475266 86.305184006690979 7.0576243400573722 5.6436360776424399 33.460398852825165 627.87087471783161 2410.4644974470139 39.091458544135094 44.220143049955368 17.831113904714584 576.58754415810108 5.2218805551528922 15.675368905067442
leaf_count=121 35602 81 22 215 4149 957 127 40 252 156 33 45 252 21 61 30 239 739 360 29 23 136 2552 9750 159 180 72 2327 21 64
internal_value=0 0.00300116 0.00929662 -0.0142552 0.0113407 0.0105203 0.00715473 0.0056153 -0.0199965 0.00638178 0.0376755 -0.00758657 0.000762039 0.0145948 0.00841313 0.0109417 -0.023262 0.0217383 -0.00034716 0.000189247 -0.000438157 -0.00938148 -0.0104607 0.0018615 -0.0382223 -0.0209321 -0.00544015 0.00162347 0.0426764 0.0165672
internal_weight=0 5725.76 1502.2 119.966 1382.24 1363.88 1129.72 1098.27 114.713 1088.37 63.0684 24.5287 4223.56 313.531 284.093 278.926 66.9204 212.006 3910.02 3848.53 3762.23 769.532 762.474 2992.7 116.772 77.6805 645.702 2987.05 13.3906 197.277
internal_count=58815 23213 6098 489 5609 5528 4571 4444 467 4404 255 99 17115 1275 1154 1133 269 864 15840 15588 15228 3128 3099 12100 475 316 2624 12077 54 803
is_linear=0
shrinkage=0.1


Tree=21
num_leaves=31
num_cat=0
split_feature=30 30 27 27 22 20 28 27 30 27 28 31 12 6 27 21 10 35 8 4 0 33 29 4 27 26 4 0 23 32
split_gain=8.0448 6.20002 6.4837 10.2647 10.1928 10.7524 7.89353 8.00578 7.55986 7.77413 7.60077 7.41112 8.66359 7.34759 7.10888 6.44489 6.42003 6.36936 7.46155 6.2629 5.84783 5.70307 8.88547 9.80551 8.092 7.19313 5.48801 7.62381 5.36646 5.32879
threshold=92.635553363253592 14.23716027575214 19.914611389630625 26.061820378990181 54.078140075035442 23106.359200201081 -169.09022046082228 28.039146539935558 3.5510353060707773 24.100875227116749 -72.191607214494169 8.7822394464126656 37844.948450000004 63246.820500000009 6.5939088093406584 34.151368108578069 7108.8782000000001 64056.270000000011 68219.47083333334 4373.5263730000015 7374.0200000000013 1.0000000180025095e-35 543827.38414300059 1259.5864190000002 14.591165633644962 632.01499999999976 9819.8212500000027 19029.845000000005 26.106331585979493 18.500000000000004
decision_type=2 2 2 2 2 2 2 2 2 2 2 2 2 2 2 2 2 2 2 2 2 2 2 2 2 2 2 2 2 2
left_child=1 2 4 8 5 14 -5 19 -4 10 16 12 -7 15 -1 28 -10 -15 -19 -8 -11 24 23 -23 -13 -25 -2 -28 -9 -22
right_child=26 -3 3 6 -6 11 7 13 9 20 -12 21 -14 17 -16 -17 -18 18 -20 -21 29 22 -24 25 -26 -27 27 -29 -30 -31
leaf_value=-0.073808149981158908 -0.0086735386569222594 -8.9905187406729499e-05 0.041436799937397982 -0.028934018033536953 0.081468387476827636 -0.036126349366237959 0.078559144979981774 0.0076693339837885901 -0.079347590313375418 0.035215911726729159 -0.10346240281822781 -0.095493975139958651 0.12909206149975658 -0.13363447523888178 0.038311718244675802 0.037406098348807516 0.0051989824603984776 0.069286928628463584 -0.073405470389055733 -0.0099855302622437799 -0.086410819341852185 0.089711370156036252 0.021203143751895619 -0.056254552375258539 0.014411158821390669 0.052607512217263591 -0.12283181267696258 -0.021870490329980435 -0.089768064254093199 0.0012994081912142891
leaf_weight=5.8819783926010123 579.11019538342953 12923.147870182991 19.053827747702599 46.937589019536972 24.163098156452179 4.9871963560581198 31.091455683112144 262.52405986189842 9.9408537447452527 6.0113530308008185 8.1182324290275556 15.885874956846239 8.7286627888679487 6.116289064288142 146.57521377503872 83.349484711885452 93.057991653680801 6.3909130394458762 8.5904341936111432 10.750255003571509 36.540054962038994 6.266894966363906 85.913955196738243 47.577331781387329 11.584324359893797 6.9572358429431906 9.9500188827514631 30.120804190635681 5.7768314182758322 8.5469329208135587
leaf_count=25 2377 52086 83 193 102 21 131 1087 41 25 33 66 37 25 621 346 381 26 35 45 148 26 357 198 48 29 41 122 24 36
internal_value=0 0.000499092 0.00805548 0.00201387 0.0187092 0.0142538 0.00993341 0.0143338 -0.01815 -0.025149 -0.0103036 -0.0017563 0.0690173 0.00967802 0.033986 0.013117 -0.00296096 -0.0476416 -0.0125341 0.0558096 -0.0574315 -0.00732921 0.000500418 -0.028753 -0.0491464 -0.0423665 -0.01115 -0.0469403 0.00557139 -0.069784
internal_weight=0 13930.5 1007.32 642.797 364.522 340.359 461.527 414.59 181.269 162.215 111.117 187.901 13.7159 372.748 152.457 351.65 102.999 21.0976 14.9813 41.8417 51.0983 174.186 146.715 60.8015 27.4702 54.5346 619.181 40.0708 268.301 45.087
internal_count=58815 56275 4189 2659 1530 1428 1912 1719 747 664 455 782 58 1543 646 1457 422 86 61 176 209 724 610 253 114 227 2540 163 1111 184
is_linear=0
shrinkage=0.1


Tree=22
num_leaves=31
num_cat=0
split_feature=28 21 4 27 32 27 31 28 30 25 13 29 21 30 22 31 26 33 21 28 22 22 27 29 32 29 22 26 33 28
split_gain=6.67948 12.2832 10.1446 8.49236 8.35486 8.95782 7.87742 7.42445 6.76429 6.24019 5.53673 12.6151 7.81945 9.95237 7.70181 12.6668 9.9589 9.7259 7.66887 8.78417 7.38103 9.20399 10.8382 10.7609 7.47414 7.17422 8.58043 7.17358 7.74265 7.07496
threshold=65.390758015317871 76.17280940178739 1589.6153990000003 72.33837857506073 1.0000000180025095e-35 9.3248962427948445 93.785738510810276 164.37742201248014 89.21005806528494 62568.628931923471 57425.271681855593 499209.05948650138 53.806681988462806 26.090645608386243 128.66547286934295 85.765117035216591 197.51642857142858 4.5000000000000009 50.153289632285485 -92.733946590579464 100.39069369205392 -2.4049823413736244 7.0290548458327224 -127141.72793350136 7.5000000000000009 332304.50325900043 -251.06045124591034 100.56928571428571 4.5000000000000009 -37.679738877302064
decision_type=2 2 2 2 2 2 2 2 2 2 2 2 2 2 2 2 2 2 2 2 2 2 2 2 2 2 2 2 2 2
left_child=1 10 7 -3 5 -4 -6 -2 -8 -10 14 -12 -13 -14 15 18 -16 -17 20 -20 21 25 -23 29 -22 26 -1 28 -25 -24
right_child=2 3 4 -5 6 -7 8 -9 9 -11 11 12 13 -15 16 17 -18 -19 19 -21 24 22 23 27 -26 -27 -28 -29 -30 -31
leaf_value=-0.021915396360951335 -0.009332000237534081 0.10214058826292072 0.081105334224202491 -0.026159410416224577 0.0029859442090789268 -0.034856947098433892 0.06037976322582278 -0.069826577014030597 -0.04155576857958055 0.065420647511108293 -0.11934245003513594 0.00030554428452654299 -0.15563505628316016 -0.016270009510886821 0.035291976006451786 0.07339182175014973 0.0062277428346459258 -0.049831968476180016 0.039591874413906367 -0.0046771410417273873 0.041502511338954017 -0.0279871051650918 0.017673789498319995 -0.04535969569422308 -0.068394452675610964 0.0059676165871738523 -0.00050979468052604734 0.0099365751236321111 0.0086557150410836291 0.045625001000593135
leaf_weight=200.52749402821064 1424.9586323946714 19.8763562142849 7.1440849155187598 6.9676350355148307 2155.1545703858137 98.605337247252464 8.2310606241226179 20.580647096037865 81.876664340496063 5.8418877124786368 9.6440837085247022 852.91296884417534 5.2196196913719168 280.05115926265717 137.46239827573299 38.766395956277847 828.19655498862267 7.6731416136026374 45.630312085151672 2533.4199492633343 8.0326770544052106 65.599932312965393 361.92335450649261 54.995521172881126 26.956407383084297 1856.7059398442507 2831.2099842876196 399.56917975842953 51.282726168632507 120.77678036689758
leaf_count=811 5778 80 29 28 8727 400 33 86 333 24 39 3444 21 1126 555 157 3337 31 185 10197 33 266 1479 223 110 7504 11459 1623 209 488
internal_value=0 0.00127898 -0.00359788 0.068839 0.000447306 -0.0270229 0.00173777 -0.0101933 -0.026298 -0.0344313 0.00110975 -0.00545303 -0.00448802 -0.01882 0.001897 0.000946492 0.0103651 0.0530317 0.000663809 -0.0038939 0.00263025 0.00289989 0.0113748 0.0139868 -0.0431647 0.00107235 -0.00192562 0.00379493 -0.0192955 0.0246675
internal_weight=0 10743.4 3802.39 26.844 2356.85 105.749 2251.1 1445.54 95.9496 87.7186 10716.6 1147.83 1138.18 285.271 9568.73 8603.07 965.659 46.4395 8556.63 2579.05 5977.58 5942.59 1054.15 988.548 34.9891 4888.44 3031.74 505.847 106.278 482.7
internal_count=58815 43405 15410 108 9546 429 9117 5864 390 357 43297 4630 4591 1147 38667 34775 3892 188 34587 10382 24205 24062 4288 4022 143 19774 12270 2055 432 1967
is_linear=0
shrinkage=0.1


Tree=23
num_leaves=31
num_cat=0
split_feature=30 31 30 1 27 23 27 15 4 37 38 38 8 31 31 20 27 29 30 21 23 27 30 27 4 24 12 4 32 23
split_gain=6.08675 7.04071 6.00507 7.17404 6.05373 7.18493 6.65243 5.92428 5.91065 6.13675 14.763 8.5686 7.14879 6.755 6.12299 10.3344 10.4894 10.3075 8.39052 10.9279 8.32696 6.44995 7.9289 8.74437 7.74191 11.2893 7.54484 7.43203 7.85954 8.13809
threshold=82.68068426112238 80.593652123999419 80.163001679283227 66422.895000000004 39.398463320686083 -219.25309581478291 55.071911496454923 70341.254526432327 14942.543425000002 56282.115000000013 48754.545000000006 47231.290000000008 57005.941000000006 86.698506972057274 83.850221241730154 42632.013688731669 19.389543504191703 -242834.41002550058 81.424180906129379 58.548698267452217 -156.15869010486207 16.097827976653644 80.163001679283227 13.868565934923973 2869.5145380000004 42590.291382633281 11197.636575000002 3804.4663655000004 6.5000000000000009 9.6110647956059125
decision_type=2 2 2 2 2 2 2 2 2 2 2 2 2 2 2 2 2 2 2 2 2 2 2 2 2 2 2 2 2 2
left_child=1 2 -1 4 5 -4 -6 -2 9 10 11 13 -11 14 15 18 -17 -16 20 -20 -3 22 23 27 25 -23 -25 28 29 -22
right_child=7 8 3 -5 6 -7 -8 -9 -10 12 -12 -13 -14 -15 17 16 -18 -19 19 -21 21 24 -24 26 -26 -27 -28 -29 -30 -31
leaf_value=0.00062151331730364058 -0.0045770458174087284 -0.1164457519464619 -0.12394036018666865 -0.10229907986213259 0.044554909443368984 -0.01552379133918325 -0.055306524753940781 -0.08949339664672773 -0.043566155237649062 -0.084712434516676011 0.08175407183752352 -0.072257501998214499 -0.00084942525880617843 0.039046558710430446 0.051018377354727341 -0.021587822490880981 0.14218801302027864 -0.019804152639097183 0.14111350851223589 0.019502926318492167 0.056624598533510574 0.011900771699009825 -0.10935119617045229 -0.15120741386390849 0.052320513409327585 -0.13242789731510568 -0.0044911479968142163 -0.070315298102822082 0.082996424764267329 -0.11826603694672695
leaf_weight=11475.503071561456 2146.0414898097515 5.455952823162078 6.3139135986566535 9.0934557467699033 31.760384604334831 191.78173178434372 8.4445977658033353 8.2474372237920743 19.367465734481812 11.696172073483465 32.548687994480133 11.703706398606299 77.625910133123398 90.629112392663956 24.788927689194679 5.7061809897422817 12.428126484155653 120.17242752015591 10.96223036944866 22.670138031244278 5.7249221950769442 105.92902478575706 8.4452262073755247 6.4455735832452756 48.637867137789726 5.7117671668529502 7.682973325252533 7.1224004477262488 18.533250704407692 4.9708813279867172
leaf_count=46351 8743 22 26 37 128 778 34 34 78 47 131 47 312 368 101 23 50 484 44 91 23 427 34 26 198 23 31 29 75 20
internal_value=0 0.000856991 0.000289198 -0.0151254 -0.0117989 -0.0189794 0.0235802 -0.00490214 0.0108669 0.0124999 0.0164067 0.0123455 -0.0118308 0.0142793 0.00895255 0.0176818 0.0906539 -0.00769324 0.0125585 0.059141 0.00558498 0.00862231 -0.0196682 -0.0046644 0.0190231 0.00451663 -0.0714245 0.0212829 0.0436031 -0.0246559
internal_weight=0 12387.9 11722.9 247.394 238.301 198.096 40.205 2154.29 664.959 645.591 556.269 523.721 89.3221 512.017 421.388 276.427 18.1343 144.961 258.292 33.6324 224.66 219.204 58.9252 50.48 160.279 111.641 14.1285 36.3515 29.2291 10.6958
internal_count=58815 50038 47354 1003 966 804 162 8777 2684 2606 2247 2116 359 2069 1701 1116 73 585 1043 135 908 886 238 204 648 450 57 147 118 43
is_linear=0
shrinkage=0.1


Tree=24
num_leaves=31
num_cat=0
split_feature=30 31 30 4 3 28 38 30 19 11 28 25 26 27 29 20 36 22 37 4 29 26 30 33 21 31 27 10 23 23
split_gain=5.90593 9.77067 7.99518 8.06366 7.70608 10.7052 8.83206 6.87034 8.58204 9.93456 7.57459 11.2996 19.9462 8.6401 8.16707 9.13869 13.7602 12.8324 9.58765 11.2525 10.1703 6.89128 6.74794 6.71705 6.58177 8.32744 6.55293 6.53102 7.33115 6.51707
threshold=21.390927394967026 24.955851729368444 34.198814279537181 908.46270000000015 7971.0650000000005 -76.729672368925634 8429.6600000000017 27.155703173792229 61852.579144232215 57397.949850000012 -34.393941458473989 37189.78216861438 233.40928571428591 13.607327104580067 -333597.616699001 10982.664716069745 11247.090000000002 -135.71563254677901 10304.625000000002 1001.0423325 -200140.07337350032 22.1853571428571 24.208144843737056 3.5000000000000004 42.810862306683426 28.617912939766818 15.217635777907473 68815.06240000001 -117.40837769265026 17.50531653993718
decision_type=2 2 2 2 2 2 2 2 2 2 2 2 2 2 2 2 2 2 2 2 2 2 2 2 2 2 2 2 2 2
left_child=-1 27 3 4 -3 -6 -7 8 9 -5 14 12 13 29 23 17 -17 -16 19 -19 21 -21 -10 -9 25 -8 -15 -2 -29 -12
right_child=1 2 -4 7 5 6 24 10 22 -11 11 -13 -14 26 15 16 -18 18 -20 20 -22 -23 -24 -25 -26 -27 -28 28 -30 -31
leaf_value=0.0049970977722733345 -0.012525665197712255 0.046988212261920452 -0.0010277112892204611 -0.0073790550833895468 0.051334490683470436 -0.090164867306022425 -0.020019618659494403 0.095282286907261413 -0.0033571638552801343 0.094088751409232341 0.076902277168310995 -0.062289166262350072 0.083062794393205241 -0.14510293756813342 -0.13302159571920516 0.16928404809276176 0.018730472674690534 0.094529911174998552 -0.077201373709047783 0.073719203457324273 0.038757666284464962 -0.0276569886044324 -0.13036748006319102 0.0097819047990295588 -0.0063313930341363182 0.066731805028513211 -0.025629657945772374 0.13690405191126523 -0.023828679730239385 -0.036940511627378748
leaf_weight=2036.6229602396488 796.2003578543663 83.907755896449089 10324.732571303844 353.71103346347809 53.171515285968781 10.167628720402716 16.886295929551125 21.994740501046181 7.2177692949771908 9.9198250472545606 14.538557663559915 33.060816645622253 25.086018264293671 4.9201108217239371 7.7155470550060263 6.1989930868148795 293.46478897333145 13.23745660483837 15.063431158661841 7.253351464867591 42.496113002300262 88.769819483160973 9.9489766359329206 15.78112582862377 126.82433997094631 32.098588600754738 68.602859258651733 6.2202423959970474 5.2182469218969327 7.6874267905950537
leaf_count=8365 3198 345 41660 1431 216 41 68 90 29 40 59 133 101 20 31 25 1185 54 61 30 172 360 40 64 513 130 277 25 21 31
internal_value=0 -0.000810016 -7.53511e-05 0.00710336 0.020914 0.0117656 0.000452755 0.00284067 -0.00787285 -0.00461102 0.00896751 -0.0104859 0.00368763 -0.0171085 0.0148151 0.0112503 0.0218449 -0.0069399 -0.00110854 0.00644447 -0.00197333 -0.0199993 -0.0769659 0.0595639 0.00569347 0.0368265 -0.0336247 -0.0114478 0.0635777 0.0375268
internal_weight=0 12502.1 11694.5 1369.72 323.056 239.148 185.977 1046.67 380.798 363.631 665.871 153.896 120.835 95.749 511.975 474.2 299.664 174.536 166.82 151.757 138.519 96.0232 17.1667 37.7759 175.809 48.9849 73.523 807.639 11.4385 22.226
internal_count=58815 50450 47206 5546 1313 968 752 4233 1540 1471 2693 621 488 387 2072 1918 1210 708 677 616 562 390 69 154 711 198 297 3244 46 90
is_linear=0
shrinkage=0.1


Tree=25
num_leaves=31
num_cat=0
split_feature=30 31 12 6 4 26 26 28 20 11 38 21 30 30 26 4 31 23 4 30 4 21 23 29 27 18 30 28 27 4
split_gain=5.12095 5.19991 8.47674 7.15955 6.77865 10.7154 9.42445 9.21387 7.4365 9.38009 10.4694 6.36225 6.35965 5.59192 5.54949 4.73251 8.31978 6.89075 6.09917 5.1994 6.14928 8.02124 6.40993 5.99026 4.92562 4.71903 4.6702 6.56493 6.46023 5.68221
threshold=92.635553363253592 90.684142898010791 60736.76277500001 63701.868500000004 5635.742220000001 40.858214285714283 302.85464285714346 136.39841127242957 33694.015760401351 37616.953600000008 41803.890000000007 56.336589181453981 91.294436286968491 90.070766788529369 262.04357142857128 12383.530007500003 77.42731748033043 6.7138132309248446 23023.134230000003 93.088499411287714 1219.5136985000001 69.094156114199379 -20.738322962382369 536847.9801360016 12.61074947625859 65446.980755073258 3.5510353060707773 -194.89653904129827 35.441356314189377 5030.4202685000009
decision_type=2 2 2 2 2 2 2 2 2 2 2 2 2 2 2 2 2 2 2 2 2 2 2 2 2 2 2 2 2 2
left_child=1 26 4 -4 5 -3 11 13 -8 -10 -11 -7 -13 -6 -9 19 -17 -18 -19 20 -2 22 -22 -23 -24 -5 27 -1 -29 -30
right_child=15 2 3 25 7 6 8 14 9 10 -12 12 -14 -15 -16 16 17 18 -20 -21 21 23 24 -25 -26 -27 -28 28 29 -31
leaf_value=-0.091036262061221312 -0.10724231625195374 0.13672667734625849 0.16036662430513865 -0.036644470928001098 0.038719945644939226 0.073408358395781012 0.11402173677548728 0.063217667337723882 -0.099303823246964268 0.1344986062259958 0.0030913579417889687 -0.027354054370372451 -0.1090022067706459 -0.068600581152821985 0.18803732451834199 -0.16940982997293136 0.07136732991890514 -0.097147330187829062 0.033724205531795774 -0.0040562669738975444 -0.05542590005612457 -0.026875597861958117 -0.021877484338423236 -0.14520346687351673 0.090322351802791787 0.083629007694539556 8.9299425574638962e-06 0.041422867767913367 -0.043347040186260601 0.053783646233786689
leaf_weight=5.013350009918212 10.036905482411383 5.3563071191310874 6.9285789728164699 5.4419194459915152 15.116743028163912 4.9264803379774085 7.410167545080184 11.168670624494554 7.168472707271575 7.191093683242797 38.647059947252274 43.832184821367264 12.193711906671522 7.1521226465702048 5.2298692464828482 4.7868800908327129 5.6448418647050884 11.465921595692636 5.1653027236461631 535.89737676084042 8.4974007457494753 11.446198284626009 6.0412821024656322 6.831897407770156 11.104905426502226 8.1445519179105741 13622.929099217057 75.745229884982109 20.123353362083439 8.595496252179144
leaf_count=21 42 22 28 22 61 20 30 45 29 29 156 177 50 29 21 20 23 47 21 2206 35 47 25 28 46 33 55046 334 85 37
internal_value=0 0.000399144 0.0170114 0.0776414 0.00949098 -0.0016919 -0.00780064 0.0461409 0.0201885 0.00707095 0.0237065 -0.0355439 -0.0451243 0.00425166 0.103026 -0.00891148 -0.0498015 -0.024099 -0.0565014 -0.00703542 -0.0366233 -0.0204856 0.0155936 -0.0711036 0.0507899 0.0354547 0.000174248 0.0207458 0.0261104 -0.014276
internal_weight=0 13918.3 185.908 20.5151 165.393 126.725 121.369 38.6674 60.4168 53.0066 45.8382 60.9524 56.0259 22.2689 16.3985 616.919 27.0629 22.2761 16.6312 589.856 53.9586 43.9217 25.6436 18.2781 17.1462 13.5865 13732.4 109.477 104.464 28.7188
internal_count=58815 56275 752 83 669 513 491 156 244 214 185 247 227 90 66 2540 111 91 68 2429 223 181 106 75 71 55 55523 477 456 122
is_linear=0
shrinkage=0.1


Tree=26
num_leaves=31
num_cat=0
split_feature=30 33 31 28 26 23 19 4 9 21 27 22 27 28 28 28 22 3 23 32 16 4 29 30 26 28 6 26 31 29
split_gain=4.66865 7.7693 6.74355 7.89244 6.65203 7.14775 6.47277 7.19156 7.68778 6.45097 8.29734 7.56546 6.4925 6.43772 8.56971 7.83882 10.2149 13.9588 7.5326 7.40247 8.08702 8.3966 8.18045 7.09314 7.43782 10.7542 7.07251 12.5425 9.3295 8.81814
threshold=69.040263197857868 2.5000000000000004 58.310577746548539 -50.927914066352521 14.498214285714266 0.42442534668788823 5394.6624582640843 882.33290000000011 3465.2515000000008 45.162658317415449 37.652462339441826 8.5816660754298955 47.179252838633815 99.066041290735072 100.18829069059161 81.280450098257958 30.251884956236612 11713.645000000002 -15.336018799709782 7.5000000000000009 19211.13952725743 3187.5704760000003 -303836.76737850043 76.112954902383152 493.2625000000005 86.232063459646398 57063.134500000007 483.20785714285665 87.654625787315851 647124.7631565003
decision_type=2 2 2 2 2 2 2 2 2 2 2 2 2 2 2 2 2 2 2 2 2 2 2 2 2 2 2 2 2 2
left_child=2 13 3 6 5 -5 7 8 -1 10 -9 -11 -12 15 -15 16 18 -18 19 -2 21 22 -21 24 25 -17 27 -19 -29 -28
right_child=1 -3 -4 4 -6 -7 -8 9 -10 11 12 -13 -14 14 -16 23 17 26 -20 20 -22 -23 -24 -25 -26 -27 29 28 -30 -31
leaf_value=-0.034605565164865064 0.027290294930281286 -0.0063091352891508417 0.006349840458310419 -0.012737691885367945 -0.0037916973090320718 0.09392245979816792 0.0018998498562663752 0.033940595229871535 0.065341682545782917 -0.057850846848573445 -0.072347515999244189 0.02059336417025481 0.014319056720779658 0.070064766326860053 0.0070706634164715981 -0.038097736887458489 0.036058586343305929 -0.0057110443834048593 -0.025864681315864044 -0.10792912011670484 -0.030435286683267584 0.095443949302813247 0.017590051181575857 -0.023170350138577621 -0.066828338796344144 0.057858794273574356 -0.087395209832320533 0.053815125917510677 -0.042671482149393924 -0.0070762793681401707
leaf_weight=9.1472463458776456 76.240301579236984 2554.7251022458076 2040.1154132932425 11.141693189740183 3702.1662168204784 14.407663494348524 3899.7854836881161 106.86501424014568 48.503977179527283 26.813506245613098 14.828850656747816 22.705554604530334 20.724202305078506 22.189570531249046 806.82992602884769 16.909719124436378 158.24779099225998 208.16124446690083 170.83652102947235 6.1466339975595465 85.38675394654274 11.416779294610022 33.440885335206985 263.24231593310833 9.7021469473838788 37.762365892529488 18.380954280495644 71.346656709909439 11.6589108556509 53.323744013905525
leaf_count=38 307 10372 8228 45 14874 58 15867 444 201 110 61 93 85 90 3276 68 639 838 690 25 344 46 135 1067 39 152 74 287 47 215
internal_value=0 -0.00262402 0.00122589 -0.000101184 -0.00344077 0.0474096 0.00289903 0.0185112 0.0494835 0.00920813 0.0200184 -0.0218825 -0.0218288 0.00194339 0.00875677 -0.00264061 0.0021594 0.0112751 -0.0102285 0.00233427 -0.0116157 0.0198903 -0.00189893 -0.015894 0.0138609 0.0281801 0.000467017 0.0073951 0.0402627 -0.0276654
internal_weight=0 4615.95 9917.2 7877.09 3727.72 25.5494 4149.37 249.588 57.6512 191.937 142.418 49.5191 35.5531 2061.22 829.019 1232.2 904.587 521.119 383.468 212.631 136.391 51.0043 39.5875 327.617 64.3742 54.6721 362.872 291.167 83.0056 71.7047
internal_count=58815 18711 40104 31876 14977 103 16899 1032 239 793 590 203 146 8339 3366 4973 3647 2100 1547 857 550 206 160 1326 259 220 1461 1172 334 289
is_linear=0
shrinkage=0.1


Tree=27
num_leaves=31
num_cat=0
split_feature=26 4 4 33 28 32 22 28 30 32 27 29 28 31 30 22 27 30 31 32 29 26 27 28 28 30 9 20 25 26
split_gain=4.24067 8.33683 11.5972 9.83243 8.07671 8.11204 6.08295 7.20248 5.93993 5.56402 7.75738 7.03714 5.27591 4.73977 4.6253 4.43516 4.66426 4.3253 5.37742 7.13921 8.7726 8.68033 10.4712 7.98896 5.23562 5.21686 8.90838 6.1429 5.86581 7.22448
threshold=848.22285714285761 11164.379915000001 3804.4663655000004 1.5000000000000002 -79.106478853196819 3.5000000000000004 -514.32852805972641 54.481604543140044 4.7387596352559465 10.500000000000002 43.773029159494776 429042.00431700068 -132.79108428752531 21.300205366809937 59.057528554270085 -55.8194595137711 25.100079156675875 92.635553363253592 87.963338924746338 21.500000000000004 -362714.15897750075 204.84750000000039 22.893222337187314 45.359347787092609 89.482029782746267 88.834573046347003 11096.5905 10027.088182064828 29442.317915492978 243.73071428571441
decision_type=2 2 2 2 2 2 2 2 2 2 2 2 2 2 2 2 2 2 2 2 2 2 2 2 2 2 2 2 2 2
left_child=17 2 4 -3 -2 6 -6 15 -4 10 -7 -11 -10 -5 -12 -8 -17 18 -1 20 -20 22 -21 -22 -23 28 27 -27 -25 -30
right_child=1 3 8 13 5 9 7 -9 12 11 14 -13 -14 -15 -16 16 -18 -19 19 21 23 24 -24 25 -26 26 -28 -29 29 -31
leaf_value=-0.00029475324269253006 0.081589177953084735 0.14908625072179085 0.097196943143813511 -0.063385996216214685 -0.070074636903530149 0.084100427776980013 0.11836777650194259 -0.050246660564386127 -0.083351616100551917 0.12672855679868261 0.050822433542274587 0.0068420560443980712 -0.010638704169516962 0.057431209786195495 -0.067668751855876841 -0.046096821092230726 0.083932945429550057 -0.0086451835328336668 -0.10684623922984356 0.098105910825911177 0.13497022729085423 0.037009691607196984 -0.07125285620562638 0.029595921585255865 0.14041848660342329 -0.02931472342504278 0.0087625226036410243 -0.14039651818729842 -0.088647310965651482 0.0064501631937807311
leaf_weight=13070.183641165495 21.111543193459511 9.1266117095947283 4.8406649678945533 4.9033115208148947 15.892637923359869 31.757929503917694 5.9771449267864254 12.819146767258642 10.634134769439695 5.2074868679046622 6.7332347035408002 81.8961481153965 161.90354734659195 9.6134962886571866 6.450188085436821 6.2119980901479739 4.9623622447252274 592.8280153721571 6.6527962237596503 6.1045381575822821 4.9662697613239279 8.4406476020813006 9.0823825448751432 144.67546774446964 11.659315198659895 43.993494436144829 115.78699757158756 5.6136198788881293 8.6805126368999463 100.21635140478611
leaf_count=52865 86 37 21 20 64 128 24 52 43 21 27 330 654 39 26 25 20 2447 27 25 20 34 37 584 47 181 470 23 35 403
internal_value=0 0.010156 0.00653795 0.0677552 0.0231092 0.0161697 -0.0200626 0.00645746 -0.0120551 0.0287542 0.057332 0.0140095 -0.0151203 0.016623 -0.00715116 0.0488385 0.0116474 -0.000284615 8.15463e-05 0.0106387 0.00709494 0.0538816 -0.00317737 0.00888303 0.0969937 0.00738844 -0.0064283 -0.0418849 0.0164005 -0.00113036
internal_weight=0 400.042 376.398 23.6434 199.02 177.908 45.8633 29.9707 177.378 132.045 44.9414 87.1036 172.538 14.5168 13.1834 17.1515 11.1744 14128.9 13536.1 465.872 430.586 35.2869 15.1869 423.933 20.1 418.966 165.394 49.6071 253.572 108.897
internal_count=58815 1617 1521 96 803 717 185 121 718 532 181 351 697 59 53 69 45 57198 54751 1886 1743 143 62 1716 81 1696 674 204 1022 438
is_linear=0
shrinkage=0.1


Tree=28
num_leaves=31
num_cat=0
split_feature=30 31 38 29 30 27 38 28 29 22 22 31 21 9 27 19 27 27 28 31 32 27 31 21 30 27 26 4 4 30
split_gain=4.10609 6.53731 9.29701 11.2467 5.98494 6.12875 8.93051 5.38089 4.71276 4.69444 7.40493 4.72955 8.31473 7.57232 6.66025 6.78154 5.89678 16.9434 7.85179 13.3714 9.1443 7.13183 6.66793 5.84149 10.0866 7.41369 5.71049 5.65747 5.58996 8.98351
threshold=12.756940248434676 13.962636480212185 9087.6850000000031 -164735.90788500043 13.272361855808251 39.398463320686083 6358.9900000000007 -105.58131048646548 -169276.76852950102 -1062.8300092463576 -878.69668076280493 20.95166609341992 43.833258501724607 9669.0867000000017 9.3248962427948445 57706.688238478775 23.787818486905703 30.215420032065612 -115.99539179116483 28.917490449150492 19.500000000000004 18.719691239865934 28.617912939766818 33.811523415286082 8.0848142370456362 38.831269937432481 60.648214285714438 5635.742220000001 2078.8562970000007 11.755728970723373
decision_type=2 2 2 2 2 2 2 2 2 2 2 2 2 2 2 2 2 2 2 2 2 2 2 2 2 2 2 2 2 2
left_child=9 2 3 4 -2 7 -7 -6 -4 -1 -11 26 16 -14 -15 -16 18 22 20 21 -13 -20 -18 25 -25 -19 -12 -27 -28 -30
right_child=1 -3 8 -5 5 6 -8 -9 -10 10 11 12 13 14 15 -17 17 23 19 -21 -22 -23 -24 24 -26 27 28 -29 29 -31
leaf_value=0.086228760449850977 0.071650068444890469 -0.0001309804798773875 0.069624143561333021 -0.15587966806003853 -0.029958217701157308 -0.089097296144076452 0.062955771924560297 -0.12386617601296993 -0.0095125425720312823 -0.082027062998752759 0.04146263750868176 0.0066038412994429228 -0.033239563261450646 0.16321667034339393 0.058833602460538273 -0.0463877919711203 -0.057508424372689271 -0.09021167131861374 -0.12380295678368464 0.023639717878067582 0.10990652458469728 0.0043217783828682901 -0.15710232574235239 -0.06273137803067845 0.092745997589740226 0.035704142168368279 -0.0052324564294131985 -0.073265289495333119 0.0226476481644062 -0.032623510160448149
