tree
version=v4
num_class=1
num_tree_per_iteration=1
label_index=0
max_feature_idx=22
objective=binary sigmoid:1
feature_names=open high low close volume SMA_5 SMA_10 SMA_20 EMA_5 EMA_10 EMA_20 RSI_14 MACD Signal_Line Upper_Band Lower_Band hour day_of_week lag_1 lag_2 lag_3 lag_4 lag_5
feature_infos=[3172.6199999999999:68635.119999999995] [3184.75:69000] [3156.2600000000002:68451.190000000002] [3172.0500000000002:68633.690000000002] [0:47255.762685000002] [3181.5440000000003:68374.630000000005] [3186.5520000000001:68002.839999999997] [3204.7524999999996:67621.225999999995] [3184.6635545760519:68224.919625239971] [3192.0892104277546:67810.325496088044] [3208.3114595570059:67442.079903017002] [4.3656573947936579:96.410499775062092] [-2360.9460327477354:1887.2236274780516] [-2077.4839220854774:1744.7269192312694] [3246.6047462557626:69399.509600075777] [3118.9806157866396:66500.881177849122] [0:23] [0:6] [3172.0500000000002:68633.690000000002] [3172.0500000000002:68633.690000000002] [3172.0500000000002:68633.690000000002] [3172.0500000000002:68633.690000000002] [3172.0500000000002:68633.690000000002]
tree_sizes=3403 3413 3437 3427 3433 3425 3426 3409 3402 3410 3416

Tree=0
num_leaves=31
num_cat=0
split_feature=11 13 11 12 16 11 16 16 12 1 17 11 4 9 12 12 11 12 4 13 0 12 22 0 7 11 11 13 16 12
split_gain=90.7005 31.7747 33.4089 29.6467 30.5295 18.5653 16.769 16.2451 15.6013 13.4835 12.5133 10.6667 11.9547 10.2206 11.2891 10.0834 9.37395 8.8588 8.74873 8.47531 13.3865 8.46275 11.8318 8.21849 9.94037 9.50712 8.1304 8.60109 8.07055 7.97913
threshold=51.04332229818732 -6.8645290172722611 43.88521970601996 3.2797910422168575 7.5000000000000009 58.993446504792608 19.500000000000004 21.500000000000004 17.504944845026333 58174.090000000004 4.5000000000000009 53.609120855212389 4081.5903290000006 9148.3962653344879 313.54786774193059 -2.542086473056997 56.224046089186857 -11.12013074384299 7228.5936430000011 -43.967344737026927 9386.4750000000004 26.284113862158851 6385.380000000001 60645.845000000008 44872.405500000008 51.467687177614387 46.180905528938702 -4.8804658541094401 17.500000000000004 69.090734528260342
decision_type=2 2 2 2 2 2 2 2 2 2 2 2 2 2 2 2 2 2 2 2 2 2 2 2 2 2 2 2 2 2
left_child=1 2 28 11 16 9 13 -8 -7 -6 -10 23 -13 15 26 -3 -5 -9 -17 -4 -21 22 -18 24 -2 -26 -15 -28 -1 -11
right_child=3 6 19 4 5 8 7 17 10 29 -12 12 -14 14 -16 18 21 -19 -20 20 -22 -23 -24 -25 25 -27 27 -29 -30 -31
leaf_value=0.049402381002329881 0.020150376310214563 0.051999146308629285 0.02070736093082786 0.035654400265788137 0.053959686531746182 2.8896187838224618e-05 0.11625247487837428 -0.0093672593736815815 0.042824482169880114 -0.090007975286184511 0.019602677579743929 -0.0076115286788615982 0.047053383765263267 0.059481390880399485 0.14324734628293057 0.07967715278670931 0.030366675981586287 0.073103110857170972 -0.029375858058738706 0.02766014738832067 0.062479984207990592 0.021340872648261205 -0.023779047237743704 -0.10274071990394815 0.1573710630017944 0.045322910365474547 -0.051090616321591391 0.039934973987537592 0.064555183999728816 0.018202975332479925
leaf_weight=1427.6362102925777 302.86978590488434 248.6430998146534 472.54683592915535 360.34507530927658 991.57368850708008 124.69638875126839 108.95315730571747 14.99355375766754 944.59388673305511 8.2464545667171461 307.61774459481239 297.12225696444511 46.230124086141586 318.11323222517967 12.744520694017409 393.08100101351738 64.722173720598221 99.207347363233566 7.4967768788337699 326.10979422926903 166.9282318353653 707.19595223665237 107.20390936732292 4.9978512525558463 9.9957025051116926 31.236570328474045 10.74538019299507 305.86849665641785 466.29952186346054 39.2331323325634
leaf_count=5713 1212 995 1891 1442 3968 499 436 60 3780 33 1231 1189 185 1273 51 1573 259 397 30 1305 668 2830 429 20 40 125 43 1224 1866 157
internal_value=0.0414674 0.0516252 0.0454152 0.031236 0.03483 0.0413758 0.0633089 0.0886293 0.0337608 0.051467 0.0371198 0.0122636 -0.00025126 0.0589514 0.0500613 0.0678176 0.022071 0.0622755 0.0776362 0.0302771 0.0394491 0.0165032 -0.0033957 0.0245724 0.0264215 0.0724861 0.0481903 0.0368457 0.0531331 -0.000591558
internal_weight=0 4379.37 2859.52 4347.88 3655.43 2415.96 1519.85 223.154 1376.91 1039.05 1252.21 692.452 343.352 1296.69 647.472 649.221 1239.47 114.201 400.578 965.585 493.038 879.122 171.926 349.1 344.102 41.2323 634.727 316.614 1893.94 47.4796
internal_count=34924 17525 11443 17399 14628 9668 6082 893 5510 4158 5011 2771 1374 5189 2591 2598 4960 457 1603 3864 1973 3518 688 1397 1377 165 2540 1267 7579 190
is_linear=0
shrinkage=1


Tree=1
num_leaves=31
num_cat=0
split_feature=11 13 11 12 16 11 16 16 12 0 21 10 17 11 4 12 19 22 12 13 12 11 14 13 13 21 12 11 12 12
split_gain=73.4801 25.7727 28.3823 24.0035 24.7194 15.0397 13.6347 13.2385 12.6293 11.337 11.6302 17.4048 10.1315 8.63271 9.67523 8.62502 10.3468 8.37993 8.33298 8.60018 8.28793 7.9721 7.93904 7.72131 13.2858 10.3891 10.4506 7.58821 7.17864 7.51128
threshold=51.04332229818732 -6.8645290172722611 41.414905985167096 3.2797910422168575 7.5000000000000009 58.993446504792608 19.500000000000004 21.500000000000004 17.504944845026333 47373.570000000007 48467.205000000009 48641.718993582435 4.5000000000000009 53.609120855212389 4081.5903290000006 -15.665525792183415 9098.1000000000004 6385.380000000001 -48.472217391431506 -36.274050075503922 313.54786774193059 62.836265701737176 47589.40159670906 -39.490253186398427 -36.274050075503922 10578.045000000002 -10.509504646157437 56.224046089186857 -11.12013074384299 -21.298347023335278
decision_type=2 2 2 2 2 2 2 2 2 2 2 2 2 2 2 2 2 2 2 2 2 2 2 2 2 2 2 2 2 2
left_child=1 2 15 13 27 9 17 -8 21 22 -11 -12 -10 -2 -15 16 18 -3 19 -1 -19 -7 -6 -4 -25 -26 -27 -5 29 -9
right_child=3 6 23 4 5 8 7 28 12 10 11 -13 -14 14 -16 -17 -18 20 -20 -21 -22 -23 -24 24 25 26 -28 -29 -30 -31
leaf_value=-0.0015252700612121194 -0.015203198729396974 0.031799203936098377 -0.014057054498017871 -0.0052310843542618616 0.012569033856553294 -0.058826414276571842 0.067514501100627414 0.012048098135663571 0.0012214161221962636 -0.097529100551192405 0.13409683982330226 -0.015759493925850389 -0.019671275629664309 -0.044151178664956513 0.0050280363892971965 0.056173006369601042 0.019509855740656074 0.010721723342512415 0.016845991781031862 -0.052577695326440979 0.092052679856590561 -0.0076219324838547493 0.12803182143444392 0.069789304591930376 -0.00787429727878485 0.044952446752680751 -0.035484495590329457 -0.022460358799101091 0.028499251464814346 -0.13239951469628464
leaf_weight=398.71752499043941 349.12836985290051 259.92996513843536 724.27591985464096 360.38545027375221 879.35976982116699 72.25 108.63255447149277 8.9998025894165021 944.566850066185 15.738541334867476 8.2439978420734388 129.42040365934372 307.72043055295944 297.24569465219975 46.22440941631794 44.717856660485268 779.18992722034454 1023.3665661662817 261.31022317707539 35.974163353443146 12.684816017746924 52.5 5.9956347942352286 26.985630631446838 491.0365768969059 76.429128855466843 20.480371564626694 879.38937360048294 99.117516532540321 5.999868392944335
leaf_count=1596 1397 1041 2898 1442 3520 289 436 36 3780 63 33 518 1231 1189 185 179 3119 4097 1046 144 51 210 24 108 1965 306 82 3518 397 24
internal_value=0 0.0091459 0.00355381 -0.0092072 -0.00597314 -8.2226e-05 0.0196734 0.042528 -0.00693511 0.00900235 -0.0160953 -0.00678539 -0.00391248 -0.0262767 -0.0375326 0.0129062 0.0115946 0.0157452 0.00273338 -0.00575026 0.0117175 -0.0372774 0.0133509 -0.00706052 0.0011801 -0.00196893 0.0279533 -0.017452 0.0187424 -0.0457309
internal_weight=0 4377.85 2859.12 4348.17 3655.57 2415.8 1518.73 222.75 1377.04 1038.76 153.403 137.664 1252.29 692.598 343.47 1519.91 1475.19 1295.98 696.002 434.692 1036.05 124.75 885.355 1339.21 614.932 587.946 96.9095 1239.77 114.117 14.9997
internal_count=34924 17525 11443 17399 14628 9668 6082 893 5510 4158 614 551 5011 2771 1374 6084 5905 5189 2786 1740 4148 499 3544 5359 2461 2353 388 4960 457 60
is_linear=0
shrinkage=0.1


Tree=2
num_leaves=31
num_cat=0
split_feature=11 12 16 16 0 13 11 7 13 12 11 12 11 17 9 11 12 16 17 12 14 19 14 22 15 15 4 11 13 12
split_gain=60.117 20.1013 19.0706 16.6801 16.5767 16.0031 16.3083 12.8454 12.5475 11.3984 15.6952 11.0809 11.4912 11.0684 9.76396 9.73051 8.82709 8.74986 8.55971 8.34557 8.20527 10.716 7.72478 7.40666 7.75453 7.17713 6.77616 8.09209 6.55856 19.4575
threshold=49.884687653641528 -12.348535823201926 17.500000000000004 3.5000000000000004 57529.775000000009 -0.66826498998969674 44.023288875988435 8264.5337500000023 -23.863759039055243 26.284113862158851 59.305630404822899 7.4132187947141128 44.690776364799667 4.5000000000000009 3992.4185991325821 51.158756586866538 -893.00718297844276 15.500000000000002 4.5000000000000009 -3.3458272988827953 36363.607527617576 59919.115000000013 8786.3106720555388 6385.380000000001 6347.309111187521 6390.3560820206048 2687.0196855000004 53.833145545756381 101.6412404106507 88.182191232504024
decision_type=2 2 2 2 2 2 2 2 2 2 2 2 2 2 2 2 2 2 2 2 2 2 2 2 2 2 2 2 2 2
left_child=2 20 5 23 9 6 -1 11 16 15 28 12 14 -12 -7 -5 -4 -16 -10 -14 26 -22 -9 -3 -25 -26 27 -2 -11 -30
right_child=1 3 8 4 -6 7 -8 22 18 10 13 -13 19 -15 17 -17 -18 -19 -20 -21 21 -23 -24 24 25 -27 -28 -29 29 -31
leaf_value=0.0065769176304444664 -0.041110602304816259 0.0032066185253278785 0.081893555099230395 0.014285386191701813 -0.032825108260467459 0.1049189255608951 -0.011660302457240656 -0.053861681115590934 0.02480866070240309 0.021864875135803274 0.0017182071266478431 0.068233587298669213 -0.083213655156194832 -0.019688510272866305 0.040432406924888711 -0.011957320815460221 0.0086176388094851338 -0.094033105844266607 0.055714391673588992 0.01032288456488387 -0.00017457574836169268 -0.093575691142301742 0.010350288571309603 -0.10251585868303428 0.076766168697017634 -0.023335153241591973 -0.017914744911118299 -0.09559811284263936 -0.087566007340688645 0.010033179525148598
leaf_weight=1549.3000459671021 120.46762280166149 121.96085442602634 16.978644013404846 161.19137215614319 176.42553536593914 23.437243312597275 717.37234564125538 19.469082593917847 306.79716929793358 469.79779490828514 989.85699643194675 72.336764484643936 10.48717564344406 319.49997921288013 63.14796493947506 1144.5242264419794 517.95676104724407 5.2408952862024298 126.59259741008282 105.47988061606884 116.90876439213753 13.725872471928595 496.89523448050022 12.247262895107268 7.2479416429996482 608.36710588634014 81.964049264788628 35.226398751139641 21.971917644143105 290.42194071412086
leaf_count=6203 482 488 68 646 706 94 2871 78 1231 1881 3961 290 42 1278 253 4581 2074 21 508 423 468 55 1990 49 29 2434 328 141 88 1163
internal_value=0 -0.00769413 0.0089567 -0.00578375 -0.00293862 0.0050897 0.000805075 0.0172829 0.0211894 -0.00138657 0.00319009 0.0345247 0.02279 -0.00350531 0.0492171 -0.00871764 0.0109434 0.0301278 0.0338362 0.00186415 -0.0301208 -0.0099883 0.00792923 -0.0193438 -0.0237241 -0.0221566 -0.0411871 -0.0534386 0.0143979 0.00316864
internal_weight=0 4691.81 4031.49 4323.51 3573.69 3063.17 2266.67 796.494 968.325 3397.26 2091.55 280.13 207.793 1309.36 91.8261 1305.72 534.935 68.3889 433.39 115.967 368.293 130.635 516.364 749.823 627.862 615.615 237.658 155.694 782.192 312.394
internal_count=34924 18778 16146 17304 14304 12265 9074 3191 3881 13598 8371 1123 833 5239 368 5227 2142 274 1739 465 1474 523 2068 3000 2512 2463 951 623 3132 1251
is_linear=0
shrinkage=0.1


Tree=3
num_leaves=31
num_cat=0
split_feature=11 12 16 12 11 22 11 15 12 11 11 22 16 17 13 11 12 17 11 13 12 17 12 11 16 12 4 16 13 20
split_gain=48.72 16.693 17.7428 15.774 15.4414 13.8685 12.3997 11.2904 10.9353 10.6987 9.90012 9.39565 9.06498 8.44803 8.47233 8.39416 8.21682 8.64578 8.11143 7.81038 7.63726 7.61537 7.6031 7.51437 7.30528 7.3143 7.26062 7.18043 6.9933 6.688
threshold=49.884687653641528 7.8810613546668273 7.5000000000000009 -3.3458272988827953 41.414905985167096 57238.295000000006 58.993446504792608 10154.983187294538 13.279637609111434 48.672532319610546 54.882764255719032 9765.0550000000021 17.500000000000004 4.5000000000000009 412.70968355962549 53.381376844698366 1.8463934192982381 1.5000000000000002 67.411049513191159 47.787634993648652 69.090734528260342 4.5000000000000009 -10.012012820123799 63.080734046065835 20.500000000000004 225.88850985362663 1341.8087440000002 22.500000000000004 33.753016933091025 9931.2700000000023
decision_type=2 2 2 2 2 2 2 2 2 2 2 2 2 2 2 2 2 2 2 2 2 2 2 2 2 2 2 2 2 2
left_child=3 15 10 4 29 6 -4 9 21 20 -3 16 19 14 23 -2 17 -11 -16 28 -5 -9 -14 -8 -7 -26 -23 -27 -6 -1
right_child=1 2 5 7 12 24 13 8 -10 11 -12 -13 22 -15 18 -17 -18 -19 -20 -21 -22 26 -24 -25 25 27 -28 -29 -30 -31
leaf_value=0.0060367308850615732 -0.0091421464544166799 0.0037941393942858012 0.012325570429763705 0.039310738283340516 -0.0075464813115296075 -0.040242571221170975 -0.015071371077459742 -0.049828442787396253 0.016470269596556963 -0.14944214796528041 -0.018159199147231266 0.12458196948544897 0.004539174281393288 -0.016953475580325589 0.064632228146304316 -0.026236746717765339 0.014112673948425223 -0.020418455667430287 0.0053819578246122038 0.057294410690246711 -0.070138824629475752 -0.035092521713241363 0.043192635260457239 0.0050762766136714559 -0.053505648042733313 0.099431005932465788 0.063816180912038042 -0.031083500690032257 -0.096120916000097339 0.01861880919751677
leaf_weight=1013.4437210559845 595.2682304084301 262.62581647932529 924.29957547783852 386.08394210040569 1074.4490019828081 112.69900399446487 271.0866834372282 50.664888486266136 235.07202565670013 6.4804615825414649 943.02671524882317 5.9827760607004157 307.33334162831306 319.94969515502453 39.728922858834267 555.12977457046509 74.66620147228241 26.153307124972343 55.221082791686058 18.472610950469971 6.4824727028608313 14.967014789581301 60.985796421766281 583.71626451611519 9.7380567789077777 11.996864020824434 14.721909925341604 6.4988484382629386 8.9884224236011487 724.46838784217834
leaf_count=4060 2383 1051 3703 1551 4300 451 1085 203 943 26 3773 24 1231 1280 159 2223 300 105 221 74 26 60 245 2336 39 48 59 26 36 2903
internal_value=0 -0.00692601 -0.00352568 0.00806631 0.00490062 0.00156116 0.00351444 0.0204324 0.00558424 0.0296911 -0.0133771 0.00261842 -0.00264226 -0.00289976 0.00183461 -0.0173912 -0.00418196 -0.0460402 0.0301734 -0.00718199 0.0375034 -0.0262624 0.0109394 -0.00131322 -0.028847 0.0166401 0.0139535 0.0535721 -0.00828131 0.0112817
internal_weight=0 4690.99 3540.59 4029.42 3208.14 2334.93 2194 821.275 315.426 505.849 1205.65 113.283 1470.23 1269.7 949.753 1150.4 107.3 32.6338 94.95 1101.91 392.566 80.3538 368.319 854.803 140.933 28.2338 29.6889 18.4957 1083.44 1737.91
internal_count=34924 18778 14172 16146 12849 9348 8784 3297 1265 2032 4824 455 5886 5081 3801 4606 431 131 380 4410 1577 322 1476 3421 564 113 119 74 4336 6963
is_linear=0
shrinkage=0.1


Tree=4
num_leaves=31
num_cat=0
split_feature=11 13 11 12 16 11 3 2 17 16 16 4 0 18 12 12 4 22 22 4 11 12 12 6 12 12 11 11 4 11
split_gain=39.6621 15.5073 17.2992 14.2068 15.4964 10.5435 11.202 11.3018 9.69163 9.1023 10.9445 8.89736 9.94118 8.39941 8.26432 8.58567 9.72544 8.54882 8.13013 7.45162 7.41527 7.19571 8.62336 7.54027 6.92627 6.74986 11.6642 7.01958 6.66182 7.06197
threshold=51.04332229818732 -6.8645290172722611 44.023288875988435 3.2797910422168575 9.5000000000000018 57.373931937203785 11508.970000000001 10931.945000000002 2.5000000000000004 19.500000000000004 21.500000000000004 4145.4693960000013 3460.0500000000006 47380.660000000011 117.61516003336148 31.868671411478775 1405.6674705000003 10359.410000000002 48718.545000000006 586.98490600000014 56.984384625844591 77.52367444610401 4.9512969213194546 7187.0595000000003 27.223592272784575 8.8156373096644547 59.480270834079029 57.669722927687275 2845.6377705000004 53.609120855212389
decision_type=2 2 2 2 2 2 2 2 2 2 2 2 2 2 2 2 2 2 2 2 2 2 2 2 2 2 2 2 2 2
left_child=1 2 -1 28 8 6 7 14 19 -3 -11 12 -7 21 15 16 -6 -17 -15 24 -20 22 -10 -23 -5 26 -14 -27 29 -2
right_child=3 9 -4 4 5 11 -8 -9 13 10 -12 -13 25 18 -16 17 -18 -19 20 -21 -22 23 -24 -25 -26 27 -28 -29 -30 -31
leaf_value=0.0078547128690358518 -0.014433694141799416 0.011702820185369917 -0.0086914673816625172 -0.092552330740004018 0.024118868399568342 0.11372629501801511 -0.0048284835648613102 0.10185338011438878 0.040288246993153351 0.056528676296832926 0.012016990996411906 0.013468440696056821 0.010346392827661545 -0.095659694614822793 -0.079700425370361441 0.058890387246437616 -0.013852998080616338 -0.014715447846669012 0.0025568382794409813 -0.00063089598448168424 -0.052229702452547523 0.07685237133802475 -0.024048988694793185 -0.0044948056080283925 0.042084542926455769 -0.056129498825278401 -0.086511219599563538 -0.0051507985773297307 -0.00028065939937002614 -0.037108545363665216
leaf_weight=1913.6940321922302 300.10272732377052 1293.0251352190971 943.35279849171638 16.237278565764431 204.54820750653744 6.7441265732049933 266.45492666959763 16.715226069092751 21.74172455072403 107.50849927961826 113.61714830994606 249.30596567690372 22.234348773956299 23.489726305007935 8.4829526841640455 83.541941002011299 100.63550011813641 19.453352764248848 40.974825486540794 623.91927482187748 62.216331139206886 11.993700981140135 498.43534423410892 228.14561466872692 4.9967916607856742 27.698392525315285 28.20605206489563 1087.6852204203606 138.38915242254734 253.27082940936089
leaf_count=7668 1201 5189 3775 65 819 27 1068 67 87 436 457 998 89 94 34 335 403 78 164 2497 249 48 1995 913 20 111 113 4354 554 1016
internal_value=0 0.00672747 0.00239142 -0.00676342 -0.00427557 0.00125854 0.0113066 0.0212271 -0.0119392 0.0149091 0.033658 -0.00368703 -0.00733455 -0.0187221 0.0179926 0.0200229 0.0115975 0.044988 -0.042562 -0.00261355 -0.0304752 -0.01475 -0.0213599 -0.00043194 -0.0608696 -0.00803487 -0.043816 -0.00641676 -0.0199041 -0.0248116
internal_weight=0 4371.2 2857.05 4345.62 3653.86 2121.71 699.832 433.377 1532.15 1514.15 221.126 1421.87 1172.57 886.997 416.662 408.179 305.184 102.995 126.681 645.153 103.191 760.316 520.177 240.139 21.2341 1165.82 50.4404 1115.38 691.763 553.374
internal_count=34924 17525 11443 17399 14628 8496 2804 1736 6132 6082 893 5692 4694 3550 1669 1635 1222 413 507 2582 413 3043 2082 961 85 4667 202 4465 2771 2217
is_linear=0
shrinkage=0.1


Tree=5
num_leaves=31
num_cat=0
split_feature=11 12 16 3 16 13 11 7 12 11 17 12 7 1 11 11 11 22 4 13 16 0 14 1 16 10 0 10 1 21
split_gain=32.4925 13.7741 13.4692 10.5469 10.2717 9.56626 10.3256 9.41747 8.72681 9.46227 8.41141 7.81841 7.79085 7.60744 7.57147 7.45361 8.79873 7.45267 7.42343 6.91192 6.89839 6.86885 6.80596 8.94451 6.89345 7.04629 6.74064 9.01428 9.93843 8.49585
threshold=49.884687653641528 -11.726766437509694 17.500000000000004 57239.490000000005 8.5000000000000018 -0.66826498998969674 38.240826802796612 8264.5337500000023 7.4132187947141128 44.690776364799667 4.5000000000000009 7.4132187947141128 4023.1010000000001 3615.1150000000002 58.993446504792608 51.270200171600337 51.703908052830961 3421.6500000000005 948.48363950000009 -7.8193106732724038 12.500000000000002 7980.4850000000015 36363.607527617576 58174.090000000004 20.500000000000004 57147.272031728913 60645.845000000008 11330.624228331371 10640.750000000002 48718.545000000006
decision_type=2 2 2 2 2 2 2 2 2 2 2 2 2 2 2 2 2 2 2 2 2 2 2 2 2 2 2 2 2 2
left_child=2 22 5 4 -3 6 26 8 9 12 13 15 -7 17 -13 -6 19 -4 -16 -17 -21 -14 -2 24 25 -24 27 28 -1 -29
right_child=1 3 10 -5 11 7 -8 -9 -10 -11 -12 14 21 -15 18 16 -18 -19 -20 20 -22 -23 23 -25 -26 -27 -28 29 -30 -31
leaf_value=0.0052677764570617149 -0.033811648677219357 -0.0093238479024479997 -0.0063780230579848791 -0.024373637518654744 0.015638728050752757 0.09139461498300161 -0.0053138566444051556 0.0047810210431487752 0.057651166904095524 -0.0018211752260931715 0.032631982250922772 0.010820893400131025 0.014844668591557876 0.0093174259929737994 -0.023406133039517687 0.0029607222756440903 -0.011874131345594528 0.10331352295169097 0.0013864927019258339 -0.0076686356742609587 -0.13131806587065201 0.13169789560065148 0.0076939078915841718 -0.066457384706586201 -0.069488482884174238 0.12680172412707821 -0.0603629373912275 0.036673119374937661 -0.068323453938308618 -0.0034396089308004712
leaf_weight=580.7939724624157 245.66625201702118 1530.0767133235931 9.708224684000017 241.17861653864384 89.250874042510986 23.130713105201721 1392.3823393732309 515.54693894088268 71.746356874704361 115.63580790162086 251.14291843771935 869.4950417727232 62.661750167608261 687.493478089571 136.40250168740749 9.9977599084377271 358.78027148544788 17.110653951764107 1053.7971531301737 6.2471899837255505 16.243745014071465 5.4694862216711035 94.131520062685013 20.367383003234863 10.988942101597784 5.2435119003057471 13.963541924953459 185.51653644442558 18.950020387768745 73.808000326156616
leaf_count=2327 985 6126 39 966 358 94 5575 2068 290 465 1011 3487 252 2762 546 40 1438 69 4218 25 65 22 377 82 44 21 56 744 76 296
internal_value=0 -0.00565667 0.0065923 -0.00405507 -0.00285112 0.00334279 3.20298e-05 0.0127867 0.0275987 0.0171773 0.0168903 0.00104767 0.0412498 0.0113557 0.00372732 -0.0104384 -0.0163867 0.063606 -0.00145486 -0.0662201 -0.0969726 0.0242255 -0.0240023 -0.005569 0.0056678 0.0139786 0.00855808 0.00967834 0.00294253 0.0252564
internal_weight=0 4687.87 4025.06 4311.47 4070.29 3059.61 2265.41 794.191 278.644 206.898 965.455 2540.21 91.2619 714.312 2059.69 480.52 391.269 26.8189 1190.2 32.4887 22.4909 68.1312 376.398 130.731 110.364 99.375 873.032 859.069 599.744 259.325
internal_count=34924 18778 16146 17269 16303 12265 9074 3191 1123 833 3881 10177 368 2870 8251 1926 1568 108 4764 130 90 274 1509 524 442 398 3499 3443 2403 1040
is_linear=0
shrinkage=0.1


Tree=6
num_leaves=31
num_cat=0
split_feature=11 12 0 13 5 12 11 16 11 16 12 18 4 4 11 1 14 19 9 12 1 12 13 13 1 10 16 12 22 22
split_gain=26.6199 13.3663 13.6142 11.7491 11.0047 12.6704 12.8037 10.4113 9.66777 8.89317 7.92198 7.55477 6.49543 6.48987 7.34597 7.58152 5.96006 8.15748 8.29024 6.92708 6.06379 5.98382 5.46654 5.89753 5.51424 5.4408 5.44054 5.96362 5.43147 5.88424
threshold=48.672532319610546 -3.3458272988827953 9765.090000000002 -4.4377591680642094 57511.612000000001 26.284113862158851 59.142677635553994 21.500000000000004 43.88521970601996 8.5000000000000018 348.36995831786777 56901.855000000003 1615.8907685000001 3483.6847820000007 56.224046089186857 7113.1900000000014 6518.8368413038088 8813.9400000000005 8890.1202549087466 -10.509504646157437 8867.0750000000025 -5.5011101041272914 64.646659859182293 68.363774507329524 54055.160000000011 48641.718993582435 6.5000000000000009 8.8156373096644547 9029.1100000000024 9126.7100000000009
decision_type=2 2 2 2 2 2 2 2 2 2 2 2 2 2 2 2 2 2 2 2 2 2 2 2 2 2 2 2 2 2
left_child=1 8 -3 -4 5 9 22 -6 16 13 -5 -11 -9 14 15 26 19 18 21 -1 -19 -18 24 -24 25 -7 -2 -28 -22 -30
right_child=4 2 3 10 7 6 -8 12 -10 11 -12 -13 -14 -15 -16 -17 17 20 -20 -21 28 -23 23 -25 -26 -27 27 -29 29 -31
leaf_value=0.01315536124585563 0.011044393048809123 0.031893529111415221 -0.1072224568077904 0.0034291106356933217 -0.031196659746733947 0.018969108692673157 -0.0043650667001967226 0.0046007341433705884 -0.0053053074596024832 -0.0048366021043084106 0.1232780441897873 0.11835728565539705 0.11925337769391504 0.017380998722277986 -0.035693581980834076 -0.022664688176448775 -0.0010584258010432454 0.081690429139241058 -0.11601406896985343 0.052270438770941167 -0.056207404968917241 -0.065065606702296594 -0.049589271316481262 0.0055032263967930021 0.11377086438071518 -0.05396826759079934 -0.0090158023567243045 -0.096914635812262506 0.058415881714621143 0.0090806337065324517
leaf_weight=258.59735198318958 150.98946036398411 373.89886064827442 9.4889761060476285 241.16171757876873 235.06143493950367 418.25085102021694 1604.0959800183773 16.92463251948357 853.41703942418098 1389.6806124597788 5.6443341225385657 4.9957588464021674 6.9787936508655539 49.695070341229439 212.18971811234951 343.72375576198101 671.38806900382042 11.726621732115744 6.4890147000551215 54.884573966264725 12.475838989019392 14.930468216538427 20.190160393714905 516.46935437619686 5.9936736375093451 10.483695760369299 34.189498394727707 9.969411760568617 24.699261292815208 1140.1338867992163
leaf_count=1037 605 1512 38 969 943 1678 6421 68 3418 5573 23 20 28 199 851 1377 2691 47 26 221 50 60 81 2071 24 42 137 40 99 4575
internal_value=0 0.00646688 0.0197246 0.0019718 -0.00472603 -0.00363627 0.00112174 -0.0248027 0.00372643 -0.00921793 0.00617 -0.00439532 0.0380745 -0.0176174 -0.0199332 -0.0137273 0.00723746 0.00511084 -0.00351453 0.0200036 0.0101365 -0.00245087 0.0101823 0.00343054 0.0185172 0.0171856 0.00201467 -0.02886 0.00942381 0.0101267
internal_weight=0 3678.94 630.194 256.295 5029.88 4770.92 2575.48 258.965 3048.74 2195.43 246.806 1394.68 23.9034 800.757 751.062 538.872 2195.33 1881.84 692.808 313.482 1189.04 686.319 971.388 536.66 434.728 428.735 195.148 44.1589 1177.31 1164.83
internal_count=34924 14766 2542 1030 20158 19119 10317 1039 12224 8802 992 5593 96 3209 3010 2159 8806 7548 2777 1258 4771 2751 3896 2152 1744 1720 782 177 4724 4674
is_linear=0
shrinkage=0.1


Tree=7
num_leaves=31
num_cat=0
split_feature=11 16 13 11 13 11 12 16 0 6 12 4 17 19 12 11 12 4 3 13 18 16 4 1 13 4 20 1 7 4
split_gain=22.2385 10.7623 10.0668 9.58663 8.97846 9.38099 8.91749 9.78707 8.43374 8.01234 7.52939 7.42359 7.14887 7.98032 7.09026 7.07682 12.1504 10.2444 11.4414 6.57643 6.54732 9.04702 8.15978 6.51317 6.27966 6.23556 6.13058 6.01648 8.5163 6.00329
threshold=51.04332229818732 17.500000000000004 -23.863759039055243 50.70483242599267 1.6764361129225696 41.414905985167096 3.2797910422168575 3.5000000000000004 57848.44000000001 8261.2160000000022 134.2861674973274 434.58225500000009 4.5000000000000009 9523.4900000000016 -893.00718297844276 58.837242520925237 49.414725477702184 1595.1427015000002 10918.195000000002 37.733279080079988 9418.4750000000004 18.500000000000004 1772.147361 58174.090000000004 -43.967344737026927 1247.5793430000001 60652.145000000011 6369.5850000000009 5011.58925 458.22227100000003
decision_type=2 2 2 2 2 2 2 2 2 2 2 2 2 2 2 2 2 2 2 2 2 2 2 2 2 2 2 2 2 2
left_child=1 4 3 14 5 -1 -2 27 15 -6 29 -7 -4 -14 -3 -9 17 18 -17 20 22 -22 -19 -12 -13 -20 -10 28 -8 -11
right_child=6 2 12 -5 9 11 7 8 26 10 23 24 13 -15 -16 16 -18 19 25 -21 21 -23 -24 -25 -26 -27 -28 -29 -30 -31
leaf_value=0.0054056389417078046 -0.015489691891798749 0.070287601490594209 0.016425842380391312 -0.093707220092952376 0.025088988631706652 -0.051077268638754586 -0.013889457219997958 0.006185900899993671 -0.044142860073747341 -0.10891081915081774 0.055065852170502527 -0.01400404355454846 0.0264312654119312 0.076035621448168042 0.0043901344435812667 -0.024506807911453418 0.0022316808763961 0.077263689881386557 -0.06151511018942514 -0.046277380393509142 -0.0017179706257304528 -0.086453554652410711 0.0074759995333724648 -0.022226852524065682 0.00060489370282053832 -0.1972668894127021 -0.0036367934807201596 -0.018066944916323956 0.054570661795269697 0.0013620117955856551
leaf_weight=1228.6626140326262 690.13055126368999 16.844183757901192 346.21582728624344 9.7335111051797849 277.28703935444355 36.934097006917 48.712567269802094 1236.8233179599047 74.713416948914528 4.9864909350872031 47.457456305623055 509.26813508570194 98.567712813615799 48.337314695119858 532.48594427108765 273.52858737111092 1091.7702147364616 19.230504810810089 8.2414000481367093 28.985749527812004 59.429997205734253 15.990291863679884 130.10341104865074 14.15371425449848 696.86124265193939 5.7404910475015631 74.745320588350296 554.1025687456131 28.981688559055328 496.161023914814
leaf_count=4929 2771 68 1398 39 1122 148 195 4959 300 20 191 2038 400 196 2136 1096 4370 77 33 116 238 64 521 57 2792 23 300 2220 116 1991
internal_value=0 0.00504363 0.0138541 0.00466767 0.00224447 -0.000790975 -0.00506505 -0.00309459 -0.000726217 0.0111759 0.00432048 -0.0069158 0.0242689 0.042753 0.00641076 0.000479897 -0.00384174 -0.0160926 -0.029017 -0.00144805 0.00433343 -0.0196833 0.0164629 0.0373097 -0.00556349 -0.11725 -0.0238855 -0.0144128 0.0116477 0.000264781
internal_weight=0 4363.96 1052.18 559.064 3311.77 2471.73 4341.23 3651.1 3019.3 840.046 562.759 1243.06 493.121 146.905 549.33 2869.84 1633.02 541.25 287.51 253.74 224.754 75.4203 149.334 61.6112 1206.13 13.9819 149.459 631.797 77.6943 501.148
internal_count=34924 17525 4237 2243 13288 9907 17399 14628 12097 3381 2259 4978 1994 596 2204 11497 6538 2168 1152 1016 900 302 598 248 4830 56 600 2531 311 2011
is_linear=0
shrinkage=0.1


Tree=8
num_leaves=31
num_cat=0
split_feature=11 13 11 16 14 12 11 17 21 12 13 0 13 11 4 0 6 0 12 11 4 4 12 16 4 12 20 14 2 12
split_gain=18.2246 10.2568 10.5172 8.21197 8.56213 8.04284 9.56613 11.2539 11.1123 11.2107 13.7166 10.5017 10.3505 7.59317 7.1959 11.0235 7.96957 7.47027 6.92685 6.77583 6.5561 6.3775 7.44782 6.32985 8.51591 9.48535 6.94869 6.18716 6.17912 6.14012
threshold=48.672532319610546 -17.598122702668007 25.698375215077487 19.500000000000004 3435.7472707666652 7.8810613546668273 56.086746454451578 2.5000000000000004 11449.290000000003 35.861383461010526 79.757480106072421 47623.19000000001 3.49829301167519 48.912003645491133 5307.1313695000008 6113.0150000000003 48736.658000000003 11507.895000000002 106.43956918779078 26.494626074602042 3841.3449120000005 913.32154500000013 -48.472217391431506 21.500000000000004 894.67916600000012 -2.542086473056997 6609.7650000000003 6567.7569800812953 9204.1300000000028 56.882179191243274
decision_type=2 2 2 2 2 2 2 2 2 2 2 2 2 2 2 2 2 2 2 2 2 2 2 2 2 2 2 2 2 2
left_child=1 2 14 4 -3 -2 8 -8 9 12 28 18 -7 -14 16 -16 17 20 -9 -6 21 -1 -23 24 25 -5 -25 -20 -11 -12
right_child=5 3 -4 23 19 6 7 11 -10 10 29 -13 13 -15 15 -17 -18 -19 27 -21 -22 22 -24 26 -26 -27 -28 -29 -30 -31
leaf_value=-0.069564272186056014 -0.010406158000734219 0.11227255723953965 -0.0010176475234255616 -0.026785588956928438 -0.044360844551678581 0.064022061478319556 0.0025442076741886404 -0.012420660937600312 -0.0049282682138877647 0.076053583026466018 -0.10495579321278783 -0.031972950592424325 0.10855701136244791 0.0010340652529920761 -0.054367034568578901 0.075131869360642353 -0.082229208251867372 0.099018326851515903 0.11435782699749322 0.0091556465193481356 -0.039517481929702537 0.022441249188344163 0.14856884884232072 0.047166795953279418 0.066264415694597026 0.096403374493085253 -0.0067654101896932016 0.0023412422963160072 0.028392602924413146 0.0070299087032993273
leaf_weight=6.9729282557964316 1382.0892107337713 7.9434774816036215 2026.0992822647095 24.295874580740929 24.124551445245743 29.69349268078804 1161.1101883202791 825.52676105499268 473.89387810230255 68.642077952623367 5.4645207971334449 200.02926594018936 6.6793454736471167 393.32760655879974 7.7330265641212454 43.831901326775551 8.4686603248119336 10.430459097027777 4.9952864348888388 1224.664571210742 21.201735615730286 78.073174372315407 4.9804150909185401 37.270283877849579 73.321134954690933 8.4153982400894147 66.540531367063522 382.60393835604191 45.057805761694908 47.069938451051712
leaf_count=28 5548 32 8124 99 97 119 4651 3309 1902 276 22 803 27 1579 31 176 34 42 20 4929 85 313 20 151 301 35 269 1532 181 189
internal_value=0 0.00535534 0.0010492 0.0118378 0.00878011 -0.00391066 -0.00144713 -0.00475009 0.0065006 0.015589 0.0376405 -0.0107434 0.00705807 0.00282949 0.0240972 0.0557113 0.0115696 0.0180989 -0.00724292 0.0081218 0.0105107 0.0222926 0.0300047 0.0301502 0.0473353 0.00490637 0.0125974 0.00378489 0.0571661 -0.0046186
internal_weight=0 3674.37 2207.79 1466.58 1256.73 5026.18 3644.09 2574.27 1069.83 595.935 166.234 1413.16 429.7 400.007 181.692 51.5649 130.127 121.659 1213.13 1248.79 111.228 90.0265 83.0536 209.843 106.032 32.7113 103.811 387.599 113.7 52.5345
internal_count=34924 14766 8853 5913 5058 20158 14610 10315 4295 2393 668 5664 1725 1606 729 207 522 488 4861 5026 446 361 333 855 435 134 420 1552 457 211
is_linear=0
shrinkage=0.1


Tree=9
num_leaves=31
num_cat=0
split_feature=11 16 12 11 17 12 12 0 21 14 13 4 12 11 17 16 16 4 6 4 4 13 11 13 0 11 4 11 11 4
split_gain=15.9878 8.85689 7.49644 7.14081 6.92262 7.77888 6.77507 7.38803 10.6656 6.4849 7.04477 5.93629 9.4371 6.36961 8.61453 6.31946 5.86212 5.77482 9.56916 5.64436 7.04924 6.60146 5.53822 5.95842 6.95038 5.47729 10.0296 7.85509 5.47432 5.3907
threshold=43.88521970601996 8.5000000000000018 -27.610095912451921 51.04332229818732 4.5000000000000009 -2.9353979973029705 7.4132187947141128 47373.570000000007 47120.585000000014 5585.3858063403359 -19.253418991036977 4081.5903290000006 -1.0653813151943721 56.224046089186857 5.5000000000000009 15.500000000000002 22.500000000000004 572.75874650000003 3603.3160000000003 1146.7469490000001 1341.8087440000002 -277.39504062189462 22.268210592897784 -17.598122702668007 6113.0150000000003 40.542559305190608 2110.3782205000002 42.388007115963582 53.500643480533988 1996.7117060000003
decision_type=2 2 2 2 2 2 2 2 2 2 2 2 2 2 2 2 2 2 2 2 2 2 2 2 2 2 2 2 2 2
left_child=4 17 28 -4 9 16 11 8 -8 10 -1 13 -13 -5 -15 -16 19 18 -2 -6 -21 -22 23 24 -11 -12 27 -27 -3 -18
right_child=1 2 3 6 5 -7 7 -9 -10 22 25 12 -14 14 15 -17 29 -19 -20 20 21 -23 -24 -25 -26 26 -28 -29 -30 -31
leaf_value=0.001480920529330318 0.059428856883702343 -0.0073416083341036669 0.0098611837805063999 -0.0066735611402962101 0.031335326762516096 0.053093599014790174 0.0038748070620785546 -0.011923778624375337 0.14717001938891211 -0.04919286102174273 0.061020299519333181 0.079197737892823125 -0.051501675357886023 -0.045338020226710386 -0.030082965982106736 0.075104121970773055 -0.09642112701342935 -0.006165332120325575 -0.033791458212480044 -0.031315175550307085 0.046960564484621374 0.0065049244596340518 0.00076479297279568161 -0.073766382356533863 0.048842846897620432 -0.015505103246964046 -0.11387891019957153 0.077696580071731927 -0.039658045316458557 0.02420023567850299
leaf_weight=89.47610405087471 11.960924685001372 435.55111110210419 853.88350747525692 329.3509483486414 145.48945707082748 53.453628540039062 1787.05905161798 333.23323065042496 5.2093739658594123 8.233363524079321 55.290304601192474 16.739553421735767 8.2458040416240674 103.57877308130264 11.424875020980837 11.42138361930847 9.1904480755329114 2222.1313313096762 138.7486394494772 40.600953117012978 48.238199084997177 246.18810234963894 1560.1451151221991 5.2404270470142356 59.441948592662811 17.745310172438622 5.4197358787059775 18.439268350601196 59.589950188994408 6.2076552957296363
leaf_count=359 48 1745 3445 1322 585 218 7164 1337 21 33 224 67 33 417 46 46 37 8914 557 163 194 989 6266 21 239 72 22 75 240 25
internal_value=0 -0.00261997 0.000277697 0.00192455 0.00701113 0.0168491 -0.000675705 0.00174913 0.00429131 0.00404059 0.021713 -0.0113962 0.0360636 -0.0139979 -0.0330786 0.0225025 0.0129424 -0.00745009 -0.0263931 0.0148887 0.00774654 0.0131331 0.00202375 0.0289612 0.0369158 0.0403961 0.0129874 0.0319895 -0.0112309 -0.0477933
internal_weight=0 6328.13 3955.29 3460.15 2368.8 549.368 2606.26 2125.5 1792.27 1819.43 186.371 480.761 24.9854 455.776 126.425 22.8463 495.915 2372.84 150.71 480.517 335.027 294.426 1633.06 72.9157 67.6753 96.8946 41.6043 36.1846 495.141 15.3981
internal_count=34924 25402 15883 13898 9522 2211 10453 8522 7185 7311 752 1931 100 1831 509 92 1993 9519 605 1931 1346 1183 6559 293 272 393 169 147 1985 62
is_linear=0
shrinkage=0.1


Tree=10
num_leaves=31
num_cat=0
split_feature=11 12 16 4 16 13 11 17 6 16 11 12 12 19 17 19 16 1 17 16 13 11 16 13 13 1 11 1 3 11
split_gain=13.5145 8.89058 6.82613 6.16759 5.48846 7.87791 9.43343 8.39003 6.56175 5.99323 7.95274 5.6989 5.43499 5.49159 5.27319 6.78467 5.01578 6.01732 5.94922 7.43333 9.2024 8.38448 9.44467 9.27847 7.94243 5.93941 5.85798 5.12358 6.22317 8.21071
threshold=53.609120855212389 3.2797910422168575 9.5000000000000018 2593.0927160000006 18.500000000000004 -24.761183278267684 50.70483242599267 5.5000000000000009 56157.981500000002 20.500000000000004 44.168100505698504 -100.3801736834839 -9.4321709536932286 10636.235000000002 5.5000000000000009 3459.9850000000001 22.500000000000004 57801.615000000013 4.5000000000000009 18.500000000000004 34.654898183850818 69.397479802833303 13.500000000000002 95.087335448149034 462.87490441658048 58593.745000000003 79.187300811550003 52365.665000000008 57239.490000000005 58.837242520925237
decision_type=2 2 2 2 2 2 2 2 2 2 2 2 2 2 2 2 2 2 2 2 2 2 2 2 2 2 2 2 2 2
left_child=4 3 -3 14 -1 6 7 -6 -8 -9 -11 -12 -5 -14 15 -2 17 18 26 21 -21 -20 -23 -24 -22 -19 27 -4 29 -29
right_child=1 2 16 12 5 -7 8 9 -10 10 11 -13 13 -15 -16 -17 -18 25 19 20 24 22 23 -25 -26 -27 -28 28 -30 -31
leaf_value=0.0016310028309630437 0.069218688874863696 -0.0086033891281068094 0.0074488585058823569 -0.014184316313199809 -0.00052394939650593139 0.017947802098427657 -0.061337132496566894 0.077024947764247481 0.05897810881161511 -0.031321968607012425 0.14516764598559906 0.015434806207565339 0.06707028166982075 -0.024875660032136912 0.0029070693623810904 -0.039261693930367152 -0.017386375284050678 -0.075144920615958122 0.0089085053851064439 -0.049761455744236009 0.0094294529918570007 -0.098122196476790657 0.047312838573488253 -0.08190757708913135 -0.1212596635586643 -0.010389396442458093 -0.026335143054589439 0.1350019191078721 -0.038660965747635431 0.030175067405369179
leaf_weight=4098.2103692293167 5.9469670355319968 1327.7395890802145 1093.4564650207758 73.611469894647598 393.8378339856863 552.38465197384357 35.108487978577614 25.118927925825119 5.2049442231655112 18.376281782984734 5.7478879243135443 8.2403689473867399 19.665616720914844 9.6997518390417081 42.559941500425339 188.79205904901028 140.9317441880703 17.420668169856071 273.81377094984055 73.055990278720856 67.834406837821007 16.486618414521217 15.239410117268564 8.745484992861746 4.9924812763929358 75.769747391343117 49.446297764778137 10.228384986519812 7.9928095638751975 27.726834818720818
leaf_count=16460 24 5324 4383 296 1581 2242 141 101 21 74 23 33 79 39 172 764 565 70 1098 293 272 66 61 35 20 305 198 41 32 111
internal_value=0 -0.00474114 -0.00311228 -0.0201112 0.00327995 0.00975275 0.000545062 0.00468502 -0.045803 0.0403733 0.0119271 0.0687431 0.000325921 0.0366994 -0.02898 -0.0359489 0.000759321 0.00222717 0.00362426 -0.00603008 -0.024685 0.00262903 -0.0398553 0.000195884 0.000470359 -0.0224946 0.00736117 0.00882347 0.0415361 0.0584244
internal_weight=0 3551.16 3210.88 340.276 5142.23 1044.02 491.635 451.321 40.3134 57.4835 32.3645 13.9883 102.977 29.3654 237.299 194.739 1883.14 1742.21 1649.02 460.168 145.883 314.285 40.4715 23.9849 72.8269 93.1904 1188.85 1139.4 45.948 37.9552
internal_count=34924 14248 12874 1374 20676 4216 1974 1812 162 231 130 56 414 118 960 788 7550 6985 6610 1845 585 1260 162 96 292 375 4765 4567 184 152
is_linear=0
shrinkage=0.1


end of trees

feature_importances:
RSI_14=66
MACD=61
hour=38
Signal_Line=33
volume=28
day_of_week=16
open=14
high=12
lag_5=10
Upper_Band=8
lag_2=6
SMA_10=5
SMA_20=5
lag_4=5
close=4
EMA_20=4
EMA_10=3
Lower_Band=3
lag_1=3
lag_3=3
low=2
SMA_5=1

parameters:
[boosting: gbdt]
[objective: binary]
[metric: binary_logloss]
[tree_learner: serial]
[device_type: cpu]
[data_sample_strategy: bagging]
[data: ]
[valid: ]
[num_iterations: 1000]
[learning_rate: 0.1]
[num_leaves: 31]
[num_threads: 0]
[seed: 0]
[deterministic: 0]
[force_col_wise: 0]
[force_row_wise: 0]
[histogram_pool_size: -1]
[max_depth: -1]
[min_data_in_leaf: 20]
[min_sum_hessian_in_leaf: 0.001]
[bagging_fraction: 1]
[pos_bagging_fraction: 1]
[neg_bagging_fraction: 1]
[bagging_freq: 0]
[bagging_seed: 3]
[feature_fraction: 1]
[feature_fraction_bynode: 1]
[feature_fraction_seed: 2]
[extra_trees: 0]
[extra_seed: 6]
[early_stopping_round: 0]
[early_stopping_min_delta: 0]
[first_metric_only: 0]
[max_delta_step: 0]
[lambda_l1: 0]
[lambda_l2: 0]
[linear_lambda: 0]
[min_gain_to_split: 0]
[drop_rate: 0.1]
[max_drop: 50]
[skip_drop: 0.5]
[xgboost_dart_mode: 0]
[uniform_drop: 0]
[drop_seed: 4]
[top_rate: 0.2]
[other_rate: 0.1]
[min_data_per_group: 100]
[max_cat_threshold: 32]
[cat_l2: 10]
[cat_smooth: 10]
[max_cat_to_onehot: 4]
[top_k: 20]
[monotone_constraints: ]
[monotone_constraints_method: basic]
[monotone_penalty: 0]
[feature_contri: ]
[forcedsplits_filename: ]
[refit_decay_rate: 0.9]
[cegb_tradeoff: 1]
[cegb_penalty_split: 0]
[cegb_penalty_feature_lazy: ]
[cegb_penalty_feature_coupled: ]
[path_smooth: 0]
[interaction_constraints: ]
[verbosity: -1]
[saved_feature_importance_type: 0]
[use_quantized_grad: 0]
[num_grad_quant_bins: 4]
[quant_train_renew_leaf: 0]
[stochastic_rounding: 1]
[linear_tree: 0]
[max_bin: 255]
[max_bin_by_feature: ]
[min_data_in_bin: 3]
[bin_construct_sample_cnt: 200000]
[data_random_seed: 1]
[is_enable_sparse: 1]
[enable_bundle: 1]
[use_missing: 1]
[zero_as_missing: 0]
[feature_pre_filter: 1]
[pre_partition: 0]
[two_round: 0]
[header: 0]
[label_column: ]
[weight_column: ]
[group_column: ]
[ignore_column: ]
[categorical_feature: ]
[forcedbins_filename: ]
[precise_float_parser: 0]
[parser_config_file: ]
[objective_seed: 5]
[num_class: 1]
[is_unbalance: 0]
[scale_pos_weight: 1]
[sigmoid: 1]
[boost_from_average: 1]
[reg_sqrt: 0]
[alpha: 0.9]
[fair_c: 1]
[poisson_max_delta_step: 0.7]
[tweedie_variance_power: 1.5]
[lambdarank_truncation_level: 30]
[lambdarank_norm: 1]
[label_gain: ]
[lambdarank_position_bias_regularization: 0]
[eval_at: ]
[multi_error_top_k: 1]
[auc_mu_weights: ]
[num_machines: 1]
[local_listen_port: 12400]
[time_out: 120]
[machine_list_filename: ]
[machines: ]
[gpu_platform_id: -1]
[gpu_device_id: -1]
[gpu_use_dp: 0]
[num_gpu: 1]

end of parameters

pandas_categorical:[]
